tree
version=v2
num_class=2
num_tree_per_iteration=2
label_index=0
max_feature_idx=118
objective=multiclass num_class:2
feature_names=all_correlation_best_percentile25_ratio all_correlation_best_percentile50_ratio all_correlation_best_percentile75_ratio all_correlation_kurtosis all_correlation_percentile5_percentile25_ratio all_correlation_skew all_correlation_stddev_best_ratio all_correlation_stddev_median_ratio all_loss_best_percentile25_ratio all_loss_best_percentile50_ratio all_loss_best_percentile75_ratio all_loss_kurtosis all_loss_percentile5_percentile25_ratio all_loss_skew all_loss_stddev_best_ratio all_loss_stddev_median_ratio log10_cardinality recent_10_correlation_best_percentile25_ratio recent_10_correlation_best_percentile50_ratio recent_10_correlation_best_percentile75_ratio recent_10_correlation_kurtosis recent_10_correlation_percentile5_percentile25_ratio recent_10_correlation_skew recent_10_correlation_stddev_best_ratio recent_10_correlation_stddev_median_ratio recent_10_loss_best_percentile25_ratio recent_10_loss_best_percentile50_ratio recent_10_loss_best_percentile75_ratio recent_10_loss_kurtosis recent_10_loss_percentile5_percentile25_ratio recent_10_loss_skew recent_10_loss_stddev_best_ratio recent_10_loss_stddev_median_ratio recent_15%_correlation_best_percentile25_ratio recent_15%_correlation_best_percentile50_ratio recent_15%_correlation_best_percentile75_ratio recent_15%_correlation_kurtosis recent_15%_correlation_percentile5_percentile25_ratio recent_15%_correlation_skew recent_15%_correlation_stddev_best_ratio recent_15%_correlation_stddev_median_ratio recent_15%_loss_best_percentile25_ratio recent_15%_loss_best_percentile50_ratio recent_15%_loss_best_percentile75_ratio recent_15%_loss_kurtosis recent_15%_loss_percentile5_percentile25_ratio recent_15%_loss_skew recent_15%_loss_stddev_best_ratio recent_15%_loss_stddev_median_ratio recent_25_correlation_best_percentile25_ratio recent_25_correlation_best_percentile50_ratio recent_25_correlation_best_percentile75_ratio recent_25_correlation_kurtosis recent_25_correlation_percentile5_percentile25_ratio recent_25_correlation_skew recent_25_correlation_stddev_best_ratio recent_25_correlation_stddev_median_ratio recent_25_loss_best_percentile25_ratio recent_25_loss_best_percentile50_ratio recent_25_loss_best_percentile75_ratio recent_25_loss_kurtosis recent_25_loss_percentile5_percentile25_ratio recent_25_loss_skew recent_25_loss_stddev_best_ratio recent_25_loss_stddev_median_ratio top_10%_correlation_best_percentile25_ratio top_10%_correlation_best_percentile50_ratio top_10%_correlation_best_percentile75_ratio top_10%_correlation_kurtosis top_10%_correlation_percentile5_percentile25_ratio top_10%_correlation_skew top_10%_correlation_stddev_best_ratio top_10%_correlation_stddev_median_ratio top_10%_loss_best_percentile25_ratio top_10%_loss_best_percentile50_ratio top_10%_loss_best_percentile75_ratio top_10%_loss_kurtosis top_10%_loss_percentile5_percentile25_ratio top_10%_loss_skew top_10%_loss_stddev_best_ratio top_10%_loss_stddev_median_ratio top_20%_correlation_best_percentile25_ratio top_20%_correlation_best_percentile50_ratio top_20%_correlation_best_percentile75_ratio top_20%_correlation_kurtosis top_20%_correlation_percentile5_percentile25_ratio top_20%_correlation_skew top_20%_correlation_stddev_best_ratio top_20%_correlation_stddev_median_ratio top_20%_loss_best_percentile25_ratio top_20%_loss_best_percentile50_ratio top_20%_loss_best_percentile75_ratio top_20%_loss_kurtosis top_20%_loss_percentile5_percentile25_ratio top_20%_loss_skew top_20%_loss_stddev_best_ratio top_20%_loss_stddev_median_ratio top_30%_correlation_best_percentile25_ratio top_30%_correlation_best_percentile50_ratio top_30%_correlation_best_percentile75_ratio top_30%_correlation_kurtosis top_30%_correlation_percentile5_percentile25_ratio top_30%_correlation_skew top_30%_correlation_stddev_best_ratio top_30%_correlation_stddev_median_ratio top_30%_loss_best_percentile25_ratio top_30%_loss_best_percentile50_ratio top_30%_loss_best_percentile75_ratio top_30%_loss_kurtosis top_30%_loss_percentile5_percentile25_ratio top_30%_loss_skew top_30%_loss_stddev_best_ratio top_30%_loss_stddev_median_ratio resultFilteringMode_age resultFilteringMode_loss_rank resultFilteringMode_none resultFilteringMode_random secondaryLockingMode_random secondaryLockingMode_top
feature_infos=[-9.0793999999999997:106.40000000000001] [-6.1543999999999999:907.00999999999999] [-4.2420999999999998:4891.5] [-4.0632000000000001:42.643000000000001] [-11.725:138.13999999999999] [-12.686:13.564] [-15.976000000000001:11.614000000000001] [-5.9271000000000003:1428.2] [-92019:9486.5] [-76234:115850] [-15884:122060] [-2.3424:70.739999999999995] [-81702:10552] [-8.2988:19.844000000000001] [-537830:1354700] [-278130:1104700] [-4.9066000000000001:5.7077999999999998] [-4.2309000000000001:1253.7] [-2.4914999999999998:363.81999999999999] [-2.2536:296.80000000000001] [-2.5891000000000002:35.771000000000001] [-5.0574000000000003:1613.9000000000001] [-9.4370999999999992:11.792] [-15.170999999999999:8.0465] [-2.4289999999999998:373.92000000000002] [-41468:19059] [-27160:198690] [-23476:25385] [-1.7628999999999999:2.0127000000000002] [-41287:18631] [-6.274:1.8354999999999999] [-378090:1130600] [-339220:1263600] [-4.3403:8764.7999999999993] [-2.6692:7696.3000000000002] [-2.3054999999999999:5076.8999999999996] [-2.5735000000000001:33.960000000000001] [-5.2473000000000001:9928.8999999999996] [-11.163:11.558] [-14.411:7.4763999999999999] [-2.6036000000000001:5651.3999999999996] [-43914:15193] [-70213:398300] [-232340:48758] [-1.6065:49.856000000000002] [-36054:13028] [-7.5063000000000004:12.785] [-779600:1180300] [-3854900:1170100] [-4.9035000000000002:9369.6000000000004] [-3.0550999999999999:5709.8999999999996] [-2.6476999999999999:4628.8000000000002] [-2.8029999999999999:41.351999999999997] [-6.0103999999999997:9485.2999999999993] [-10.518000000000001:12.426] [-13.798999999999999:7.9203999999999999] [-2.8595999999999999:5095.8999999999996] [-110400:67570] [-21736:50533] [-40984:21684] [-1.9411:3.7551999999999999] [-121220:78999] [-9.4586000000000006:3.0712000000000002] [-777050:1005600] [-4907700:2416500] [-3.5528:5968.6000000000004] [-2.3841000000000001:2986.9000000000001] [-1.8844000000000001:1635.7] [-2.2686999999999999:28.308] [-4.1837:6406.6000000000004] [-13.297000000000001:10.804] [-13.407999999999999:6.319] [-2.3730000000000002:3109.4000000000001] [-103440:23691] [-37882:15295] [-54135:285190] [-3.0364:128.66999999999999] [-99591:32670] [-24.335000000000001:19.193000000000001] [-555170:44915] [-13952:44588] [-3.9630000000000001:22230] [-2.3159000000000001:13472] [-1.9112:5426.3999999999996] [-2.4296000000000002:31.773] [-4.7637999999999998:13939] [-14.045:11.459] [-14.471:7.2553999999999998] [-2.3260000000000001:9986.7999999999993] [-545800:11167] [-96031:6785.1999999999998] [-37547:28459] [-3.8111000000000002:275.38999999999999] [-426300:9476.5] [-36.381999999999998:24.898] [-440240:209600] [-10446:88057] [-4.4935999999999998:60504] [-2.3953000000000002:17238] [-2.0042:22608] [-2.6255999999999999:30.370000000000001] [-5.4583000000000004:58990] [-11.608000000000001:10.606999999999999] [-14.869999999999999:7.6917] [-2.3576999999999999:17510] [-42560:23966] [-66729:71515] [-20794:655530] [-4.2091000000000003:378.39999999999998] [-40448:27764] [-41.186:32.061] [-557080:589060] [-57896:353280] [0:1] [0:1] [0:1] [0:1] [0:1] [0:1]
tree_sizes=2696 2660 2687 2642 2693 2653 2690 2652 2687 2637

Tree=0
num_leaves=31
num_cat=0
split_feature=117 89 44 69 89 46 76 69 113 110 87 2 13 91 76 43 42 103 43 2 91 10 65 22 15 58 77 87 34 74
split_gain=1079.83 275.279 102.078 79.2663 40.5944 39.5216 36.4719 29.8703 26.6243 26.4442 21.8359 21.0349 18.9996 16.3745 15.5964 15.4093 13.9661 13.8739 15.5643 13.3948 13.2663 12.9862 12.3789 11.7603 11.6952 11.5913 11.2369 10.3894 11.7909 10.3088
threshold=1.0000000180025095e-35 -0.39096499999999995 -0.35657499999999992 -1.8317499999999998 -4.1335499999999987 -0.15834999999999996 -1.5781499999999997 -1.6622499999999998 1.0000000180025095e-35 2.8726500000000006 0.17483500000000005 -1.4840499999999996 -0.51852999999999982 0.62800000000000011 -0.030809999999999997 1.7991500000000002 1.5939500000000002 -3.5514499999999996 0.10177000000000001 -1.2974499999999998 0.68057000000000012 -0.46841499999999997 -2.7212999999999994 -2.7526999999999995 -0.86775499999999994 -8.1079999999999988 1.7818500000000002 1.8034500000000002 -1.5877499999999998 -1.8224499999999997
decision_type=2 2 2 2 2 2 2 2 2 2 2 2 2 2 2 2 2 2 2 2 2 2 2 2 2 2 2 2 2 2
left_child=1 4 6 5 7 13 -2 25 11 12 29 23 -4 -3 -14 24 21 -7 -19 -12 -13 -8 -21 -5 -10 -1 -23 28 -16 -6
right_child=2 3 9 8 10 17 16 -9 15 -11 19 20 14 -15 27 -17 -18 18 -20 22 -22 26 -24 -25 -26 -27 -28 -29 -30 -31
leaf_value=-0.0072842998585572853 -0.0059889188598089968 -0.0069139966273187182 -0.0001187245590230665 -0.0024781341107871723 -0.01675826463485719 -0.00022156573116691289 -0.0029257882417733721 -0.019236421938673261 -0.0066037735849056606 -0.0042092840283241544 -0.0091631646263475239 -0.013843694493783304 0.0018989128900183542 -0.0023532929016827544 0.0034533551554828154 -0.0038221528861154446 -0.0056242274412855384 -0.014729593550554249 -0.0080652735383892945 -0.0071992110453648929 -0.011053752488541138 0.001289268204103868 -0.013927041795894254 -0.0094837617687506606 -0.010324042079397988 -0.015129478538488825 -0.011933534743202419 0.0011601584606677985 0.0087931843051430366 -0.014054354829262579
leaf_count=1414 13717 5930 5896 1372 12009 677 7263 14969 6254 2542 5473 14075 7083 11707 3055 3205 3236 2977 4259 1521 21599 11014 13542 9453 13023 2819 331 1767 6397 17073
internal_value=0 -0.231814 -0.0129853 -0.182279 -0.299855 -0.11499 -0.0626248 -0.355067 -0.207202 0.0530292 -0.278488 -0.226521 0.0674436 -0.0777343 0.0899355 -0.167245 -0.026735 -0.198029 -0.216142 -0.243183 -0.24309 -0.0118229 -0.264954 -0.171917 -0.182342 -0.250177 0.0180696 0.122738 0.141346 -0.303418
internal_count=225652 163351 62301 94531 68820 25550 35561 19202 68981 26740 49618 46499 24198 17637 18302 22482 21844 7913 7236 20536 35674 18608 15063 10825 19277 4233 11345 11219 9452 29082
shrinkage=0.05


Tree=1
num_leaves=31
num_cat=0
split_feature=118 79 44 44 74 69 76 110 113 2 7 13 113 27 16 67 76 73 91 46 57 16 16 11 66 41 27 47 42 35
split_gain=1079.83 268.851 102.078 87.9305 78.9974 38.8633 36.4719 26.4442 22.0008 20.352 19.5154 18.9996 18.6441 18.1916 16.8777 16.2563 15.5964 15.1171 12.8902 12.2389 11.5204 11.4424 11.352 11.1803 10.7715 10.5653 10.3683 10.2874 10.2758 10.1781
threshold=1.0000000180025095e-35 -0.19542499999999999 -0.35657499999999992 -0.72797499999999993 -1.7818499999999997 -1.9154999999999998 -1.5781499999999997 2.8726500000000006 1.0000000180025095e-35 -1.2281499999999996 -1.9415499999999997 -0.51852999999999982 1.0000000180025095e-35 -1.7885499999999996 -0.16727499999999998 -0.091933499999999987 -0.030809999999999997 -4.3278999999999987 0.51720500000000003 -0.80676999999999988 -0.32394999999999996 0.50808000000000009 -1.3832999999999998 -1.1501499999999998 -1.0166499999999996 1.5505500000000001 0.59650500000000017 1.4873500000000004 2.0955500000000007 -2.1373499999999996
decision_type=2 2 2 2 2 2 2 2 2 2 2 2 2 2 2 2 2 2 2 2 2 2 2 2 2 2 2 2 2 2
left_child=2 3 6 5 10 18 28 11 -5 19 -3 -4 17 -7 26 -16 -13 20 -2 -6 -12 -10 -18 -15 27 -25 -8 -11 -1 -24
right_child=1 4 7 8 9 13 14 -9 21 24 12 16 -14 23 15 -17 22 -19 -20 -21 -22 -23 29 25 -26 -27 -28 -29 -30 -31
leaf_value=0.0052707970473583818 0.0063178223284899764 0.012428928815101206 0.0001187245590230665 0.011743208673407238 0.0067258574556069081 0.013131471603388768 0.0020378874856486796 0.0042092840283241544 0.0070711128967456812 0.011357738013932523 0.019806034482758621 -0.0018989128900183542 0.015017635047336182 0.0043411867364746949 0.00018947739490614261 -0.011169415292353824 -0.0024902975420439846 0.016925064599483206 0.0020953087335434826 0.011630695443645084 0.027712609970674484 0.010946362015880734 -0.0056308049535603718 0.010088914384052775 0.015127020785219401 0.0051713297705124174 0.0070929419986023763 0.014807566862361383 0.011204819277108435 -0.010831361946603583
leaf_count=12057 5437 4397 5896 32836 4111 3187 6968 2542 9956 14642 9280 7083 10774 4584 11347 667 3092 12384 10786 6672 1023 6171 5168 6973 10825 3181 2862 6132 1660 2959
internal_value=0 0.231814 0.0129853 0.17544 0.290204 0.120358 0.0626248 -0.0530292 0.213855 0.248266 0.337155 -0.0674436 0.348794 0.165746 0.026735 -0.00882304 -0.0899355 0.371799 0.070209 0.195215 0.411822 0.17108 -0.122738 0.144796 0.266369 0.170967 0.0701933 0.247521 0.119778 -0.150486
internal_count=225652 163351 62301 83111 80240 34148 35561 26740 48963 42382 37858 24198 33461 17925 21844 12014 18302 22687 16223 10783 10303 16127 11219 14738 31599 10154 9830 20774 13717 8127
shrinkage=0.05


Tree=2
num_leaves=31
num_cat=0
split_feature=117 89 76 69 89 46 46 69 113 87 2 10 110 41 12 91 43 17 103 43 2 91 49 46 62 65 15 74 58 43
split_gain=974.809 249.96 87.5725 72.1355 37.0794 35.5873 35.5542 27.9148 24.5686 20.5542 19.7574 18.149 18.0886 17.3704 16.0182 14.732 14.3893 13.4998 13.1923 14.7733 12.3285 12.3004 12.1363 11.7165 13.2437 11.3696 11.0238 10.7844 10.781 10.6397
threshold=1.0000000180025095e-35 -0.39096499999999995 -1.5781499999999997 -1.8317499999999998 -4.1335499999999987 -0.15834999999999996 0.82598500000000008 -1.6622499999999998 1.0000000180025095e-35 0.17483500000000005 -1.4840499999999996 -0.46841499999999997 1.6442500000000002 1.5505500000000001 -4.3113499999999991 0.62800000000000011 1.7991500000000002 -1.8128499999999999 -3.5514499999999996 0.10177000000000001 -1.2974499999999998 0.68057000000000012 -1.0006499999999996 -2.1514499999999996 0.24150000000000002 -2.7212999999999994 -0.86775499999999994 0.11040500000000002 -8.1079999999999988 2.0360500000000004
decision_type=2 2 2 2 2 2 2 2 2 2 2 2 2 2 2 2 2 2 2 2 2 2 2 2 2 2 2 2 2 2
left_child=1 4 29 5 7 15 11 28 10 -6 17 -4 14 23 -8 -3 26 -5 -7 -20 -11 -12 -19 -13 -25 -22 -10 -16 -1 -2
right_child=2 3 6 8 9 18 12 -9 16 20 21 13 -14 -15 27 -17 -18 22 19 -21 25 -23 -24 24 -26 -27 -28 -29 -30 -31
leaf_value=-0.0067848440243479143 -0.004646687651843672 -0.0065470872485273307 -0.0029002634632792385 -0.00033467779389887716 -0.01444355673719647 5.5903082572633135e-05 -0.0059463117568302219 -0.01832800384714342 -0.006211698397904003 -0.0086468592822831689 -0.013199268214108072 -0.0020857164392752408 -0.0012503317301987623 -0.0037865246349799101 0.0069584981607575709 -0.0022210778279830139 -0.0035350623367580332 -0.0057487596393499341 -0.014088415590156134 -0.0075952020877573332 -0.0067688585524506104 -0.010512611900516394 -0.010871141836242632 0.0042659618616027366 -0.0011503553216914817 -0.013216880899600237 -0.0098237390556655431 0.0029893022566627185 -0.01435142576701666 -0.011273724271661279
leaf_count=1414 14243 5930 10861 1009 29082 677 699 14969 6254 5473 14075 3052 3384 3414 7036 11707 3205 3731 2977 4259 1521 21599 6085 8557 3066 13542 13023 6665 2819 1324
internal_value=0 -0.220257 -0.0123363 -0.173055 -0.285103 -0.108863 0.0182648 -0.33788 -0.196832 -0.264681 -0.215392 -0.0123079 0.0680339 0.0151297 0.0898986 -0.0735109 -0.158448 -0.16247 -0.187666 -0.20533 -0.230425 -0.231452 -0.178483 0.0362674 0.0567442 -0.251314 -0.173037 0.100553 -0.236473 -0.104206
internal_count=225652 163351 62301 94531 68820 25550 46734 19202 68981 49618 46499 28950 17784 18089 14400 17637 22482 10825 7913 7236 20536 35674 9816 14675 11623 15063 19277 13701 4233 15567
shrinkage=0.05


Tree=3
num_leaves=31
num_cat=0
split_feature=117 79 44 44 74 69 76 12 73 113 2 43 16 2 113 16 67 73 106 60 46 91 35 16 66 29 2 73 44 42
split_gain=974.809 244.013 92.1272 80.8788 71.5713 34.7577 32.927 24.7136 21.2079 20.232 18.735 18.6193 18.4662 18.3339 17.0719 15.7135 15.6878 14.7365 12.1067 11.6979 11.5372 11.456 11.3245 10.8843 10.0888 10.0109 12.1688 12.9728 9.95879 9.90108
threshold=1.0000000180025095e-35 -0.19542499999999999 -0.35657499999999992 -0.72797499999999993 -1.7818499999999997 -1.9154999999999998 -1.5575499999999998 -4.0512499999999987 0.30592000000000003 1.0000000180025095e-35 -1.2281499999999996 -6.4890499999999989 -1.3832999999999998 -1.50335 1.0000000180025095e-35 -0.16727499999999998 -0.091933499999999987 -4.2045499999999993 1.3563500000000002 -0.11633999999999999 -0.80676999999999988 0.51720500000000003 -1.3340999999999998 0.50808000000000009 -1.0166499999999996 4.2760500000000006 -1.6970499999999997 1.7489500000000002 2.9791500000000002 2.0955500000000007
decision_type=2 2 2 2 2 2 2 2 2 2 2 2 2 2 2 2 2 2 2 2 2 2 2 2 2 2 2 2 2 2
left_child=1 3 6 5 13 21 29 -4 12 25 20 -7 -9 -3 17 19 -17 -15 -13 -8 -6 -1 -14 -11 -12 26 27 -5 -10 -2
right_child=2 4 7 9 10 11 15 8 28 23 24 18 22 14 -16 16 -18 -19 -20 -21 -22 -23 -24 -25 -26 -27 -28 -29 -30 -31
leaf_value=0.0059614745319345611 0.0049729577041211668 0.01274585953484255 0.0044868762852669107 0.0093236327080282455 0.0063068415729129667 0.01496423578440869 0.0019195014050202297 -0.00049415713638594698 0.00041984560573732902 0.0066724072887850349 0.011755080494486389 0.0087852022415119673 -0.0049085578381900868 0.019899440795085963 0.014355214621146055 0.00016112757936815082 -0.011022795649602898 0.016142845174114722 0.0048899371871813854 0.0075066681079773339 0.011069226614767735 0.0019807290126997524 -0.0099654770734393001 0.010452141365687244 0.014417690453944988 0.016044935611496849 0.011528705240818881 -0.00015501355404973596 -0.0041097232049333741 0.010783094450851918
leaf_count=5437 12146 6944 2301 4796 4111 1661 7264 3223 7963 9956 20774 9245 6367 9874 9952 11294 664 11088 7019 2525 6672 10786 3395 6171 10825 1985 25205 850 3491 1668
internal_value=0 0.220257 0.0123363 0.16655 0.275893 0.113722 0.0594947 -0.0503788 -0.0635713 0.203395 0.235973 0.156648 -0.102699 0.32059 0.335342 0.0251973 -0.00919746 0.358245 0.142082 0.0672133 0.18507 0.066296 -0.133344 0.162374 0.253344 0.223544 0.21728 0.157933 -0.0192138 0.11349
internal_count=225652 163351 62301 83111 80240 34148 35561 26740 24439 48963 42382 17925 12985 37858 30914 21747 11958 20962 16264 9789 10783 16223 9762 16127 31599 32836 30851 5646 11454 13814
shrinkage=0.05


Tree=4
num_leaves=31
num_cat=0
split_feature=117 89 76 11 91 89 10 105 69 103 29 47 87 16 113 2 1 2 106 47 42 1 69 48 34 10 78 111 47 10
split_gain=880.445 227.264 79.2341 67.403 34.9386 33.8963 33.3033 26.2897 26.1323 21.1312 20.3245 21.9112 19.3749 17.1568 16.9691 16.3178 11.3567 11.3204 11.0797 10.95 10.6545 10.6213 10.4417 10.3998 10.1884 17.5698 9.91109 9.80304 9.7517 11.6198
threshold=1.0000000180025095e-35 -0.39096499999999995 -1.5781499999999997 -1.5684499999999997 1.2539500000000003 -4.1335499999999987 -0.79229499999999986 0.5783950000000001 -1.6622499999999998 0.90988500000000017 4.2760500000000006 -0.030696499999999998 0.17483500000000005 -1.3044499999999999 1.0000000180025095e-35 -1.3515499999999998 -0.23174499999999995 -1.2974499999999998 0.55388000000000004 1.1879500000000001 2.0955500000000007 -2.5346499999999996 -3.0496999999999996 -3.8455499999999998 -1.0103499999999996 -4.8132499999999991 4.7109000000000014 17.352500000000003 2.3382000000000001 0.39713500000000007
decision_type=2 2 2 2 2 2 2 2 2 2 2 2 2 2 2 2 2 2 2 2 2 2 2 2 2 2 2 2 2 2
left_child=1 5 20 9 15 8 19 13 27 18 11 16 28 -8 26 -5 -6 -14 -3 -4 -2 -20 -19 -11 -21 -26 -9 -1 29 -7
right_child=2 3 6 4 10 12 7 14 -10 23 -12 -13 17 -15 -16 -17 -18 22 21 24 -22 -23 -24 -25 25 -27 -28 -29 -30 -31
leaf_value=-0.013511798275786297 -0.0042814487816387036 -0.0093863273115549171 -0.0039390814731352034 -0.0079527463133792289 -0.0032552638936032678 -0.011514338523607906 -0.00032492544137916043 -0.00098058125649452062 -0.017472194996564907 -0.028627958505957941 -0.012531266653822313 -0.0088486009647668982 -0.0081652015328033834 0.0053284448359669284 0.0037974747890473998 -0.011080034375859669 -0.0070700525495658922 -0.0063653067920755261 0.0071359720962862194 -0.0022684867573196802 -0.010032654831685431 -0.0051677289067842865 -0.01254540947890579 -0.00083244466420642727 -0.014489546407186318 0.0046016966654406338 -0.013433443154113725 -0.0062138906180683202 -0.016362783566572347 -0.014672967480935309
leaf_count=2879 13742 3545 7045 10959 8906 11510 3395 11154 14969 68 3323 12945 5473 12820 4471 34997 6948 1521 374 4371 1825 5669 13542 6797 263 2886 329 1354 5766 11806
internal_value=0 -0.209336 -0.0117201 -0.164326 -0.181666 -0.271192 0.0173876 0.042791 -0.321677 -0.0820551 -0.145879 -0.133793 -0.251663 0.0828947 0.00203272 -0.206684 -0.0985411 -0.218398 -0.124947 -0.0387187 -0.0991114 -0.0881241 -0.238422 -0.0221545 -0.00118623 0.0601439 -0.0267473 -0.223538 -0.275157 -0.262274
internal_count=225652 163351 62301 94531 78078 68820 46734 32169 19202 16453 32122 28799 49618 16215 15954 45956 15854 20536 9588 14565 15567 6043 15063 6865 7520 3149 11483 4233 29082 23316
shrinkage=0.05


Tree=5
num_leaves=31
num_cat=0
split_feature=117 89 44 11 91 89 69 42 110 103 44 87 16 13 2 77 40 87 62 116 67 74 2 106 21 1 108 48 58 58
split_gain=880.445 227.264 84.0544 67.403 34.9386 33.8963 26.1323 23.7817 22.7665 21.1312 21.0443 19.3749 18.4625 16.736 16.3178 12.959 12.1362 11.783 13.7149 11.713 11.3708 11.4445 11.3204 11.0797 11.0751 10.6213 10.5104 10.3998 10.0477 9.77441
threshold=1.0000000180025095e-35 -0.39096499999999995 -0.35657499999999992 -1.5684499999999997 1.2539500000000003 -4.1335499999999987 -1.6622499999999998 1.9877500000000003 2.8726500000000006 0.90988500000000017 -0.39371499999999998 0.17483500000000005 1.6768500000000002 -0.51852999999999982 -1.3515499999999998 3.4830000000000001 -2.5991499999999994 0.88049000000000011 -3.0046499999999994 1.0000000180025095e-35 -0.046603999999999993 0.79434000000000016 -1.2974499999999998 0.55388000000000004 -1.8157499999999998 -2.5346499999999996 -2.0736499999999993 -3.8455499999999998 -8.1079999999999988 -10.055499999999999
decision_type=2 2 2 2 2 2 2 2 2 2 2 2 2 2 2 2 2 2 2 2 2 2 2 2 2 2 2 2 2 2
left_child=1 5 7 9 14 6 28 12 13 23 15 -7 20 29 -5 -6 -15 -18 -19 24 21 -2 -13 -3 -12 -25 -24 -11 -1 -4
right_child=2 3 8 4 10 11 -8 -9 -10 27 19 22 -14 16 -16 -17 17 18 -20 -21 -22 -23 26 25 -26 -27 -28 -29 -30 -31
leaf_value=0.0063120605164854226 0.002349520515414036 0.0093863273115549171 0.018935183360655791 0.0079527463133792289 0.0042922762586831507 0.013757873796092704 0.017472194996564907 0.0081575985474375626 0.003956633308399308 0.028627958505957941 0.0036515856931330689 0.0081652015328033834 -0.00097033791956290688 -0.0013208509654513616 0.011080034375859669 0.012544230532170832 -0.0068164784389862136 -0.042484199408640982 -0.0018755943482703808 0.012087195046915316 -0.0034601516787479414 0.0056447832986253055 0.0060986690982519206 -0.0071359720962862194 0.00868054413328395 0.0051677289067842865 0.012520736674208123 0.00083244466420642727 0.013618361348570402 -0.0002440761110424802
leaf_count=1414 15470 3545 136 10959 11230 29082 14969 3759 2542 68 2629 5473 7093 5405 34997 1040 8626 42 4229 4095 1246 7993 1406 374 13128 5669 13657 6797 2819 5760
internal_value=0 0.209336 0.0117201 0.164326 0.181666 0.271192 0.321677 0.0567661 -0.0481854 0.0820551 0.145879 0.251663 0.044193 -0.0615607 0.206684 0.0998325 -0.0826717 -0.106249 -0.0454985 0.174344 0.0624502 0.0694414 0.218398 0.124947 0.156829 0.0881241 0.238422 0.0221545 0.223538 0.00396643
internal_count=225652 163351 62301 94531 78078 68820 19202 35561 26740 16453 32122 49618 31802 24198 45956 12270 18302 12897 4271 19852 24709 23463 20536 9588 15757 6043 15063 6865 4233 5896
shrinkage=0.05


Tree=6
num_leaves=31
num_cat=0
split_feature=118 89 44 69 46 79 42 12 113 69 108 41 16 2 110 7 27 5 91 50 26 55 67 113 74 113 45 91 4 3
split_gain=795.548 205.901 77.9714 61.9497 31.3624 31.0436 21.8327 21.7753 21.4194 19.9191 19.4535 19.0473 17.4487 16.5295 14.6007 14.2503 14.026 12.8584 12.7576 12.7402 12.6155 12.0327 11.125 10.5181 10.3983 10.18 10.0925 9.74531 10.1552 9.87319
threshold=1.0000000180025095e-35 -0.44084499999999993 -0.35657499999999992 -1.8317499999999998 -0.15834999999999996 2.6928000000000005 1.9877500000000003 -4.0512499999999987 1.0000000180025095e-35 -1.6622499999999998 -2.3278499999999993 1.0154500000000002 1.1873500000000001 -1.6970499999999997 2.1736500000000007 -1.3172499999999998 -2.2843999999999993 -2.1408499999999995 0.51720500000000003 -0.59853999999999985 -0.46029499999999995 -4.4353999999999987 -0.036947499999999987 1.0000000180025095e-35 -4.8678499999999998 1.0000000180025095e-35 -1.2748999999999997 -3.5644499999999995 -2.1890499999999995 11.433000000000002
decision_type=2 2 2 2 2 2 2 2 2 2 2 2 2 2 2 2 2 2 2 2 2 2 2 2 2 2 2 2 2 2
left_child=2 5 6 4 18 10 12 -4 13 26 -2 14 24 21 -9 -12 -10 -18 -3 -13 -6 -5 -14 27 -1 -21 -7 28 -11 -30
right_child=1 3 7 8 20 9 -8 11 16 23 15 19 22 -15 -16 -17 17 -19 -20 25 -22 -23 -24 -25 -26 -27 -28 -29 29 -31
leaf_value=-0.0005767852584733249 -0.0056894929280187183 -0.0060147563745565433 -0.0042481104315279742 0.0059364850516859238 -0.01424925033418232 -0.0092575786414701051 -0.0078234183993720115 0.0049479960695806031 -0.011739892173244358 -0.008691516546009902 -0.0095790866429158947 -0.0023287466340621717 -4.1913543238844618e-05 -0.010427065042899442 -0.0029010246389628599 -0.012852482156782455 -0.0026727145994197223 -0.0073319898746569958 -0.0019379656501880384 0.00076166278735953063 -0.0071709221934290095 -0.0075572227085632451 0.01261998931242716 -0.013450993320799296 -0.0040754203071636077 0.0089839878224130445 -0.015564063308597704 -0.014425523167285154 -0.01905707493145601 -0.0017781474804202798
leaf_count=5686 2546 5610 2301 344 1569 4223 3759 15097 2914 535 8708 4562 8961 38446 1286 28307 3621 16315 12166 2396 6406 8467 361 6867 16794 1098 1818 5507 8813 169
internal_value=0 -0.199003 -0.0111348 -0.15687 -0.0975394 -0.25891 -0.0545218 0.0465638 -0.178672 -0.295051 -0.233409 0.0589481 -0.0424757 -0.195871 0.0866364 -0.241644 -0.143112 -0.129712 -0.0644845 0.00264444 -0.171263 -0.140606 0.00896733 -0.314921 -0.0638088 0.0669104 -0.223108 -0.335907 -0.363348 -0.37464
internal_count=225652 163351 62301 95858 25751 67493 35561 26740 70107 27932 39561 24439 31802 47257 16383 37015 22850 19936 17776 8056 7975 8811 9322 21891 22480 3494 6041 15024 9517 8982
shrinkage=0.05


Tree=7
num_leaves=31
num_cat=0
split_feature=117 89 44 69 46 89 69 76 12 113 41 2 110 16 67 27 5 91 87 13 26 47 14 55 56 75 60 0 10 91
split_gain=795.548 205.901 77.9714 61.9497 31.3624 29.917 28.8878 27.3945 21.7753 21.4194 19.0473 16.5295 14.6007 14.2264 14.4586 14.026 12.8584 12.7576 12.6678 12.6466 12.6155 12.3545 12.1392 12.0327 11.7672 11.3075 10.8969 10.7124 10.0655 9.62038
threshold=1.0000000180025095e-35 -0.44084499999999993 -0.35657499999999992 -1.8317499999999998 -0.15834999999999996 -2.4016999999999995 -1.6622499999999998 -1.5575499999999998 -4.0512499999999987 1.0000000180025095e-35 1.0154500000000002 -1.6970499999999997 2.1736500000000007 -0.16727499999999998 -0.091933499999999987 -2.2843999999999993 -2.1408499999999995 0.51720500000000003 1.8395500000000002 4.8412000000000006 -0.46029499999999995 2.3382000000000001 -0.98428999999999989 -4.4353999999999987 -0.83079499999999984 -4.5050999999999997 -0.11633999999999999 -2.3007499999999994 -0.16113499999999997 0.68057000000000012
decision_type=2 2 2 2 2 2 2 2 2 2 2 2 2 2 2 2 2 2 2 2 2 2 2 2 2 2 2 2 2 2
left_child=1 5 7 4 17 6 -1 -2 -4 11 12 23 -10 26 -15 -11 -17 -3 21 25 -6 28 -18 -5 -12 27 -9 -8 -7 -13
right_child=2 3 8 9 20 18 19 13 10 15 24 29 -14 14 -16 16 22 -19 -20 -21 -22 -23 -24 -25 -26 -27 -28 -29 -30 -31
leaf_value=0.0102732245105535 0.0051889895532525971 0.0060147563745565433 0.0042481104315279742 -0.0059364850516859238 0.01424925033418232 0.0092335730214776462 0.0067258863060800827 0.0017700136249524695 -0.0049479960695806031 0.011739892173244358 0.002518474127313191 0.011793787037067934 0.0029010246389628599 0.0001217542148086417 -0.010615964111272422 0.0026727145994197223 0.0046964118367349966 0.0019379656501880384 0.0083022009845503935 0.022493643479955052 0.0071709221934290095 0.015049584398875066 0.0087445586535656802 0.0075572227085632451 -0.002887686189842181 0.013707229645989511 0.0071627555513043692 0.017159025338469861 0.012357886537506489 0.0095106563055814899
leaf_count=6542 13814 5610 2301 344 1569 7569 515 7264 15097 2914 4106 15435 1286 11294 664 3621 5692 12166 5266 1245 6406 5636 10623 8467 3950 12744 2525 11727 16249 23011
internal_value=0 0.199003 0.0111348 0.15687 0.0975394 0.25891 0.289596 0.0545218 -0.0465638 0.178672 -0.0589481 0.195871 -0.0866364 0.0232394 -0.00948768 0.143112 0.129712 0.0644845 0.229965 0.310597 0.171263 0.241398 0.14664 0.140606 -0.00264444 0.303657 0.0632192 0.3344 0.227299 0.208541
internal_count=225652 163351 62301 95858 25751 67493 32773 35561 26740 70107 24439 47257 16383 21747 11958 22850 19936 17776 34720 26231 7975 29454 16315 8811 8056 24986 9789 12242 23818 38446
shrinkage=0.05


Tree=8
num_leaves=31
num_cat=0
split_feature=118 89 44 11 76 91 89 65 103 44 110 42 10 12 2 16 113 2 87 47 77 6 102 116 21 11 1 62 11 74
split_gain=719.095 186.629 70.4563 57.6069 33.273 30.4363 28.9474 26.4708 18.6273 18.4639 16.3087 15.5333 16.1749 14.3065 13.8243 13.5691 12.1281 13.4391 11.9781 13.6198 11.7857 11.5294 11.1084 11.8227 10.2306 9.90857 9.76933 9.74149 12.1091 9.68515
threshold=1.0000000180025095e-35 -0.39096499999999995 0.48381000000000002 -1.5684499999999997 -1.5781499999999997 1.2539500000000003 -2.4016999999999995 -1.6743999999999997 0.90988500000000017 -0.39371499999999998 1.5790500000000003 1.9877500000000003 -0.46841499999999997 -4.6198999999999986 -1.3515499999999998 2.9197000000000002 1.0000000180025095e-35 -1.6561499999999996 1.0810500000000001 2.3382000000000001 3.4830000000000001 6.1629500000000013 -2.3532499999999996 1.0000000180025095e-35 -1.8157499999999998 9.6316000000000006 -2.5717499999999993 0.21229500000000004 -1.5328499999999996 1.4659500000000001
decision_type=2 2 2 2 2 2 2 2 2 2 2 2 2 2 2 2 2 2 2 2 2 2 2 2 2 2 2 2 2 2
left_child=2 6 4 8 -1 14 7 -2 26 20 13 12 -6 -4 -5 -15 17 -9 19 -8 -7 27 -11 24 -24 -19 -3 28 -14 -30
right_child=1 3 10 5 11 9 18 16 -10 22 -12 -13 21 15 -16 -17 -18 25 -20 -21 -22 -23 23 -25 -26 -27 -28 -29 29 -31
leaf_value=-0.0049177230441054768 -0.0096474016633281232 0.0039020862095968489 -0.0055478864921220256 -0.0071991631959479746 -0.0025302947570451182 -0.003729047304784839 -0.010872746753838848 -0.011163248914123593 -0.00080573235973856151 -0.0025653913989989183 -0.0010993265895873369 -0.0063204457552544545 -0.001047558823065828 0.0037514642808949387 -0.010078928780646215 0.011255437418687564 -0.01255192670826199 -0.016264710683209792 -0.0086704842553097447 -0.014960779536801389 -0.011602542741418862 -0.01927406830077916 -0.0032577110376041992 -0.011963867759310491 -0.0083344587327941304 -0.025986850639684773 -0.0061669286339381037 -0.0015353632037792752 0.0048055503434707506 -0.0031470105062313585
leaf_count=14481 6249 509 759 10959 9567 11230 21877 2668 6865 1787 4038 2285 3510 13978 34997 1319 8435 14875 9144 5026 1040 137 2383 3728 11954 546 9079 4312 7056 859
internal_value=0 -0.189218 -0.010579 -0.148428 -0.0433971 -0.16447 -0.245353 -0.275839 -0.0723569 -0.131058 0.058355 -0.0147023 -0.00467067 0.0785636 -0.187837 0.0879689 -0.295402 -0.316101 -0.217671 -0.232725 -0.0879193 0.0230136 -0.157737 -0.168266 -0.149809 -0.332176 -0.112643 0.0265699 0.0481868 0.0788491
internal_count=225652 163351 62301 94531 42207 78078 68820 32773 16453 32122 20094 27726 25441 16056 45956 15297 26524 18089 36047 26903 12270 15874 19852 18065 14337 15421 9588 15737 11425 7915
shrinkage=0.05


Tree=9
num_leaves=31
num_cat=0
split_feature=118 89 44 13 76 89 65 106 103 29 110 10 75 12 16 89 71 113 87 5 7 95 13 64 110 13 16 15 27 57
split_gain=719.095 186.629 70.4563 57.5429 33.273 28.9474 26.4708 23.9717 22.6759 18.3126 16.3087 14.6516 15.5035 14.3065 13.5691 13.5118 12.9927 12.1281 11.9781 11.8194 11.2475 11.1869 10.0792 10.0766 10.0407 9.83886 9.82138 11.1232 9.65698 9.52891
threshold=1.0000000180025095e-35 -0.39096499999999995 0.48381000000000002 -1.7159499999999996 -1.5781499999999997 -2.4016999999999995 -1.6743999999999997 1.3031500000000003 0.90988500000000017 4.2760500000000006 1.5790500000000003 -0.79229499999999986 1.5326500000000001 -4.6198999999999986 2.9197000000000002 1.5319500000000004 -4.9212999999999996 1.0000000180025095e-35 1.0810500000000001 0.62297000000000013 -1.9415499999999997 -1.4638499999999997 4.8412000000000006 1.3853500000000001 4.3465500000000006 -0.5753999999999998 -3.0522499999999995 -1.0549499999999996 1.5747500000000001 1.3834500000000001
decision_type=2 2 2 2 2 2 2 2 2 2 2 2 2 2 2 2 2 2 2 2 2 2 2 2 2 2 2 2 2 2
left_child=2 5 4 8 28 6 -2 21 15 16 13 24 -13 -4 25 -3 -9 20 -7 -18 -8 -5 -22 -17 -6 -15 -23 -28 -1 -21
right_child=1 3 10 7 11 18 17 9 -10 -11 -12 12 -14 14 -16 23 19 -19 -20 29 22 26 -24 -25 -26 -27 27 -29 -30 -31
leaf_value=0.004428982927944026 0.0096474016633281232 0.0078728228008371429 0.0055478864921220256 0.015649160141695321 0.002328322177762326 0.011636227140760604 0.010805491526433633 -0.0006679401688855606 0.0011648238873802985 0.011833194480273784 0.0010993265895873369 -0.001276053026380934 0.0044114263233615792 0.00025764206144066802 -0.011255437418687564 0.0017662752899077737 0.0054564708071307691 0.01255192670826199 0.0086704842553097447 0.0057204430775875774 0.016029666811567183 0.005004247613200217 0.024299931191092163 0.012135511725308232 0.010672241119073918 -0.0046295343891993379 0.007068417382085794 0.010019656479426944 0.011742917414655732 0.010619894835760223
leaf_count=13513 6249 7429 759 1376 8393 26903 2007 1321 8084 3203 4038 15716 2828 2511 1319 4016 17004 8435 9144 3260 15304 2663 778 531 789 11467 7956 32598 968 5090
internal_value=0 0.189218 0.010579 0.148428 0.0433971 0.245353 0.275839 0.166555 0.0811795 0.135543 -0.058355 0.0147023 -0.00817474 -0.0785636 -0.0879689 0.120267 0.123406 0.295402 0.217671 0.130537 0.316101 0.187344 0.328592 0.0595365 0.0609056 -0.0750293 0.183344 0.188812 0.0983545 0.174139
internal_count=225652 163351 62301 94531 42207 68820 32773 74471 20060 29878 20094 27726 18544 16056 15297 11976 26675 26524 36047 25354 18089 44593 16082 4547 9182 13978 43217 40554 14481 8350
shrinkage=0.05



feature importances:
all_correlation_best_percentile75_ratio=16
top_20%_loss_best_percentile25_ratio=16
recent_15%_loss_kurtosis=13
top_10%_correlation_percentile5_percentile25_ratio=13
resultFilteringMode_age=13
log10_cardinality=13
top_20%_loss_best_percentile75_ratio=13
top_10%_loss_kurtosis=10
top_30%_loss_skew=9
top_20%_correlation_stddev_best_ratio=9
recent_15%_loss_skew=8
all_loss_best_percentile75_ratio=8
all_loss_skew=7
recent_15%_loss_best_percentile50_ratio=7
top_10%_loss_best_percentile50_ratio=7
all_loss_percentile5_percentile25_ratio=6
recent_15%_loss_best_percentile75_ratio=6
recent_15%_loss_stddev_best_ratio=6
secondaryLockingMode_random=6
top_30%_correlation_stddev_best_ratio=6
all_loss_kurtosis=6
recent_10_loss_best_percentile75_ratio=5
top_10%_correlation_best_percentile75_ratio=5
top_10%_loss_best_percentile25_ratio=4
top_10%_correlation_best_percentile25_ratio=4
recent_25_loss_best_percentile50_ratio=4
top_30%_loss_best_percentile50_ratio=4
secondaryLockingMode_top=4
all_correlation_best_percentile50_ratio=4
recent_15%_loss_best_percentile25_ratio=4
all_correlation_skew=3
all_correlation_stddev_median_ratio=3
all_loss_stddev_median_ratio=3
top_10%_loss_stddev_best_ratio=3
top_10%_loss_percentile5_percentile25_ratio=3
recent_25_loss_skew=3
recent_10_loss_percentile5_percentile25_ratio=3
top_10%_loss_best_percentile75_ratio=2
resultFilteringMode_random=2
top_30%_loss_kurtosis=2
recent_10_correlation_percentile5_percentile25_ratio=2
recent_10_loss_best_percentile50_ratio=2
recent_15%_correlation_best_percentile50_ratio=2
recent_15%_correlation_best_percentile75_ratio=2
top_10%_correlation_best_percentile50_ratio=2
recent_15%_loss_stddev_median_ratio=2
recent_25_loss_kurtosis=2
recent_25_loss_best_percentile25_ratio=2
recent_25_correlation_stddev_best_ratio=2
all_correlation_best_percentile25_ratio=1
all_correlation_kurtosis=1
all_correlation_percentile5_percentile25_ratio=1
top_30%_loss_stddev_best_ratio=1
recent_25_correlation_best_percentile25_ratio=1
recent_25_correlation_best_percentile50_ratio=1
all_correlation_stddev_best_ratio=1
top_30%_loss_best_percentile25_ratio=1
top_30%_correlation_skew=1
top_20%_loss_stddev_best_ratio=1
all_loss_stddev_best_ratio=1
recent_25_correlation_stddev_median_ratio=1
recent_10_correlation_best_percentile25_ratio=1
top_10%_loss_skew=1
recent_15%_correlation_stddev_median_ratio=1
recent_15%_loss_percentile5_percentile25_ratio=1
recent_10_correlation_skew=1
recent_25_loss_stddev_median_ratio=1
top_10%_correlation_stddev_best_ratio=1

pandas_categorical:null
