tree
version=v2
num_class=2
num_tree_per_iteration=2
label_index=0
max_feature_idx=116
objective=multiclass num_class:2
feature_names=all_correlation_best_percentile25_ratio all_correlation_best_percentile50_ratio all_correlation_best_percentile75_ratio all_correlation_kurtosis all_correlation_percentile5_percentile25_ratio all_correlation_skew all_correlation_stddev_best_ratio all_correlation_stddev_median_ratio all_loss_best_percentile25_ratio all_loss_best_percentile50_ratio all_loss_best_percentile75_ratio all_loss_kurtosis all_loss_percentile5_percentile25_ratio all_loss_skew all_loss_stddev_best_ratio all_loss_stddev_median_ratio log10_cardinality recent_10_correlation_best_percentile25_ratio recent_10_correlation_best_percentile50_ratio recent_10_correlation_best_percentile75_ratio recent_10_correlation_kurtosis recent_10_correlation_percentile5_percentile25_ratio recent_10_correlation_skew recent_10_correlation_stddev_best_ratio recent_10_correlation_stddev_median_ratio recent_10_loss_best_percentile25_ratio recent_10_loss_best_percentile50_ratio recent_10_loss_best_percentile75_ratio recent_10_loss_kurtosis recent_10_loss_percentile5_percentile25_ratio recent_10_loss_skew recent_10_loss_stddev_best_ratio recent_10_loss_stddev_median_ratio recent_15%_correlation_best_percentile25_ratio recent_15%_correlation_best_percentile50_ratio recent_15%_correlation_best_percentile75_ratio recent_15%_correlation_kurtosis recent_15%_correlation_percentile5_percentile25_ratio recent_15%_correlation_skew recent_15%_correlation_stddev_best_ratio recent_15%_correlation_stddev_median_ratio recent_15%_loss_best_percentile25_ratio recent_15%_loss_best_percentile50_ratio recent_15%_loss_best_percentile75_ratio recent_15%_loss_kurtosis recent_15%_loss_percentile5_percentile25_ratio recent_15%_loss_skew recent_15%_loss_stddev_best_ratio recent_15%_loss_stddev_median_ratio recent_25_correlation_best_percentile25_ratio recent_25_correlation_best_percentile50_ratio recent_25_correlation_best_percentile75_ratio recent_25_correlation_kurtosis recent_25_correlation_percentile5_percentile25_ratio recent_25_correlation_skew recent_25_correlation_stddev_best_ratio recent_25_correlation_stddev_median_ratio recent_25_loss_best_percentile25_ratio recent_25_loss_best_percentile50_ratio recent_25_loss_best_percentile75_ratio recent_25_loss_kurtosis recent_25_loss_percentile5_percentile25_ratio recent_25_loss_skew recent_25_loss_stddev_best_ratio recent_25_loss_stddev_median_ratio top_10%_correlation_best_percentile25_ratio top_10%_correlation_best_percentile50_ratio top_10%_correlation_best_percentile75_ratio top_10%_correlation_kurtosis top_10%_correlation_percentile5_percentile25_ratio top_10%_correlation_skew top_10%_correlation_stddev_best_ratio top_10%_correlation_stddev_median_ratio top_10%_loss_best_percentile25_ratio top_10%_loss_best_percentile50_ratio top_10%_loss_best_percentile75_ratio top_10%_loss_kurtosis top_10%_loss_percentile5_percentile25_ratio top_10%_loss_skew top_10%_loss_stddev_best_ratio top_10%_loss_stddev_median_ratio top_20%_correlation_best_percentile25_ratio top_20%_correlation_best_percentile50_ratio top_20%_correlation_best_percentile75_ratio top_20%_correlation_kurtosis top_20%_correlation_percentile5_percentile25_ratio top_20%_correlation_skew top_20%_correlation_stddev_best_ratio top_20%_correlation_stddev_median_ratio top_20%_loss_best_percentile25_ratio top_20%_loss_best_percentile50_ratio top_20%_loss_best_percentile75_ratio top_20%_loss_kurtosis top_20%_loss_percentile5_percentile25_ratio top_20%_loss_skew top_20%_loss_stddev_best_ratio top_20%_loss_stddev_median_ratio top_30%_correlation_best_percentile25_ratio top_30%_correlation_best_percentile50_ratio top_30%_correlation_best_percentile75_ratio top_30%_correlation_kurtosis top_30%_correlation_percentile5_percentile25_ratio top_30%_correlation_skew top_30%_correlation_stddev_best_ratio top_30%_correlation_stddev_median_ratio top_30%_loss_best_percentile25_ratio top_30%_loss_best_percentile50_ratio top_30%_loss_best_percentile75_ratio top_30%_loss_kurtosis top_30%_loss_percentile5_percentile25_ratio top_30%_loss_skew top_30%_loss_stddev_best_ratio top_30%_loss_stddev_median_ratio resultFilteringMode_age resultFilteringMode_loss_rank resultFilteringMode_none resultFilteringMode_random
feature_infos=[-9.1198999999999995:105.67] [-6.2744:336.63999999999999] [-4.3487:4901.6999999999998] [-4.0987999999999998:42.366999999999997] [-11.739000000000001:137.41] [-12.951000000000001:13.875999999999999] [-16.317:10.930999999999999] [-6.0843999999999996:365.75] [-268100:47414] [-11275:120640] [-4997:125010] [-2.2688000000000001:67.611000000000004] [-256440:48280] [-8.0172000000000008:19.096] [-586240:5342400] [-295890:1175300] [-5.2106000000000003:5.6295999999999999] [-4.2404000000000002:1670] [-2.4899:353.30000000000001] [-2.2768000000000002:417.38] [-2.6160000000000001:35.186999999999998] [-5.0674000000000001:1693] [-9.4850999999999992:11.814] [-15.388999999999999:8.3767999999999994] [-2.4319000000000002:370.08999999999997] [-15990:19349] [-27907:204150] [-30708:98996] [-1.7464999999999999:2.0425] [-12901:18945] [-6.1833:1.8528] [-392190:1450800] [-348210:1770600] [-4.3451000000000004:7872.6999999999998] [-2.5950000000000002:6111.3999999999996] [-2.3025000000000002:8525.5] [-2.5912999999999999:33.122] [-5.2489999999999997:6247.6000000000004] [-10.071:11.542] [-14.596:7.7313000000000001] [-2.5714000000000001:5445] [-26301:18592] [-72965:408450] [-242350:107430] [-1.6157999999999999:42.235999999999997] [-22206:19224] [-7.5396000000000001:11.374000000000001] [-822430:5748400] [-4030800:1381900] [-4.9398999999999997:8903.7000000000007] [-3.0575999999999999:4080.3000000000002] [-2.6793:4749.5] [-2.8262:41.625] [-6.0431999999999997:9474.2000000000007] [-10.632:12.673] [-13.933999999999999:7.9387999999999996] [-2.8690000000000002:4186.6999999999998] [-38071:68759] [-56327:52161] [-42681:22581] [-1.9125000000000001:3.7370999999999999] [-47397:80478] [-9.2975999999999992:3.0432999999999999] [-822630:6899700] [-5121600:2521800] [-3.5855999999999999:5998.1999999999998] [-2.3765000000000001:1683.4000000000001] [-1.9061999999999999:878.39999999999998] [-2.2890999999999999:29.210999999999999] [-4.2100999999999997:6407.1999999999998] [-13.401:11.121] [-13.412000000000001:6.5156999999999998] [-2.3812000000000002:1540.4000000000001] [-104250:39973] [-38343:31911] [-55095:26626] [-2.9794:112.72] [-99986:40835] [-22.481000000000002:18.902000000000001] [-565750:373580] [-27859:43977] [-3.9906000000000001:22159] [-2.3008000000000002:3929.4000000000001] [-1.9262999999999999:6677] [-2.4586999999999999:31.472000000000001] [-4.8051000000000004:13991] [-14.192:11.535] [-14.567:7.5185000000000004] [-2.3184:4574.6999999999998] [-551760:11289] [-8152.3999999999996:22682] [-38379:29089] [-3.7219000000000002:233.31] [-429930:9557.1000000000004] [-32.884:24.343] [-453280:280000] [-29993:59777] [-4.5523999999999996:60706] [-2.3656000000000001:12667] [-2.0266000000000002:4035.5999999999999] [-2.6650999999999998:30.228000000000002] [-5.5349000000000004:59526] [-11.388:10.696] [-15.026:7.9889999999999999] [-2.3511000000000002:9650.7999999999993] [-64187:24325] [-68115:73001] [-47126:111580] [-4.1176000000000004:308.69] [-86902:28145] [-36.634999999999998:31.744] [-579360:1166100] [-59912:365580] [0:1] [0:1] [0:1] [0:1]
tree_sizes=2655 2609

Tree=0
num_leaves=31
num_cat=0
split_feature=69 44 91 80 26 76 72 76 10 34 71 43 11 39 91 7 9 107 9 10 11 107 9 11 106 79 71 1 7 11
split_gain=696.361 162.138 157.348 70.8972 61.7102 54.6721 52.2761 38.0812 36.4955 32.4963 22.7223 22.6933 21.9053 17.7777 17.5861 17.1999 14.4197 14.3585 13.9097 13.0359 12.6884 12.4404 12.0964 11.9156 11.7694 11.0172 10.7074 12.9656 10.4838 10.4995
threshold=-1.8974499999999999 -0.69173999999999991 0.34630000000000005 -1.6872499999999999 3.6072500000000005 -1.5465499999999996 -1.8782499999999998 -1.2821499999999999 -5.3668999999999993 -1.6726499999999997 0.8880650000000001 -0.90621499999999988 0.82758500000000013 -0.49694999999999995 1.3569500000000001 -0.87150499999999986 5.5146500000000005 -1.4918499999999997 -0.16898499999999997 -0.57636499999999991 1.5478500000000002 -1.5309499999999996 2.0423500000000003 -1.9559499999999999 1.5004500000000001 5.6940500000000007 1.5153500000000004 -1.6872999999999998 13.781500000000003 1.7040000000000002
decision_type=2 2 2 2 2 2 2 2 2 2 2 2 2 2 2 2 2 2 2 2 2 2 2 2 2 2 2 2 2 2
left_child=1 3 5 8 6 10 7 26 -1 21 -2 -3 13 23 28 -9 -13 -5 -15 -14 -19 -7 -17 -11 -10 -12 -4 -28 29 -8
right_child=2 11 4 17 -6 9 14 15 24 12 25 16 19 18 -16 22 -18 20 -20 -21 -22 -23 -24 -25 -26 -27 27 -29 -30 -31
leaf_value=-0.025468750000000002 -0.025545696539485359 -0.025705812574139977 -0.016766467065868262 -0.018442321822189568 -0.030987100392596747 -0.026949514102867979 -0.023790720631786774 -0.023510501500214318 -0.0099245836388394265 -0.013821138211382115 -0.017593397046046916 -0.018389186144747958 -0.033191450824126063 -0.027292616226071105 -0.021268756104057537 -0.020241214201824918 -0.030253623188405798 -0.012859352842593786 -0.023135033050047216 -0.029145059565522075 -0.021413934426229509 -0.023246329526916805 -0.014964853866074733 -0.02953396524486572 -0.0061966092784860038 -0.02447081462475946 -0.019333333333333334 -0.0079197465681098197 -0.0060810810810810814 -0.027428668478260872
leaf_count=640 5635 4215 4008 5444 3566 8438 12156 6999 9547 246 4604 7102 5521 10970 11263 11069 552 7757 6354 14270 976 9808 2703 12660 7609 1559 675 1894 148 5888
internal_value=0 -0.289631 -0.493798 -0.237231 -0.439282 -0.534903 -0.427953 -0.383428 -0.177793 -0.550266 -0.446008 -0.430786 -0.568901 -0.544955 -0.469292 -0.413124 -0.384897 -0.311843 -0.515354 -0.605477 -0.276308 -0.499178 -0.384113 -0.584689 -0.165423 -0.386662 -0.289646 -0.218373 -0.496482 -0.499557
internal_count=184276 43842 140434 31973 60369 80065 56803 27348 17796 68267 11798 11869 50021 30230 29455 20771 7654 14177 17324 19791 8733 18246 13772 12906 17156 6163 6577 2569 18192 18044
shrinkage=0.05


Tree=1
num_leaves=31
num_cat=0
split_feature=69 44 91 80 26 76 72 14 76 34 71 43 11 115 16 39 0 115 107 9 107 9 9 1 11 107 35 13 11 42
split_gain=696.361 162.138 157.348 70.8972 61.7102 54.6721 52.2761 39.8049 38.0812 32.4963 22.7223 22.6933 21.9053 18.9552 18.1544 17.7777 16.437 15.803 14.7765 14.4197 14.3585 13.9097 12.9626 12.6976 12.6884 12.4404 12.2713 11.9731 11.9156 11.8101
threshold=-1.8974499999999999 -0.69173999999999991 0.34630000000000005 -1.6872499999999999 3.6072500000000005 -1.5465499999999996 -1.8782499999999998 -4.1095499999999996 -1.2821499999999999 -1.6726499999999997 0.8880650000000001 -0.90621499999999988 0.82758500000000013 1.0000000180025095e-35 -0.59333999999999987 -0.49694999999999995 0.10569500000000001 1.0000000180025095e-35 1.8377500000000002 5.5146500000000005 -1.4918499999999997 -0.16898499999999997 -0.97293499999999988 -0.041510999999999992 1.5478500000000002 -1.5309499999999996 -1.6072499999999998 0.10527000000000002 -1.9559499999999999 0.23811500000000002
decision_type=2 2 2 2 2 2 2 2 2 2 2 2 2 2 2 2 2 2 2 2 2 2 2 2 2 2 2 2 2 2
left_child=1 3 5 7 6 10 8 -1 -4 25 -2 -3 15 23 16 28 -8 -9 -16 -13 -5 -17 -14 -10 -22 -7 -19 -25 -11 -15
right_child=2 11 4 20 -6 9 14 17 13 12 -12 19 22 29 18 21 -18 26 -20 -21 24 -23 -24 27 -26 -27 -28 -29 -30 -31
leaf_value=0.026949152542372887 0.025545696539485359 0.025705812574139977 0.014482286756880037 0.018442321822189568 0.030987100392596747 0.026949514102867979 0.023098626104023554 0.0095910184442662399 0.024368018812463258 0.013821138211382115 0.019333116988479639 0.018389186144747958 0.033000165207335209 0.023289036544850497 0.025861353258613537 0.027292616226071105 0.017414818820984317 0.0016795865633074938 0.02051729609647731 0.030253623188405798 0.012859352842593786 0.023135033050047216 0.02907264521764449 0.016609235010337699 0.021413934426229509 0.023246329526916805 0.0089541193882585104 0.022614749871067562 0.02953396524486572 0.016244280183034143
leaf_count=590 5635 4215 6577 5444 3566 8438 8152 12470 6804 246 6163 7102 6053 1505 14454 10970 3698 2709 3151 552 7757 6354 13738 2902 976 9808 2027 3878 12660 5682
internal_value=0 0.289631 0.493798 0.237231 0.439282 0.534903 0.427953 0.177793 0.383428 0.550266 0.446008 0.430786 0.568901 0.413124 0.469292 0.544955 0.426498 0.165407 0.498097 0.384897 0.311843 0.515354 0.605477 0.444199 0.276308 0.499178 0.0958615 0.400885 0.584689 0.35439
internal_count=184276 43842 140434 31973 60369 80065 56803 17796 27348 68267 11798 11869 50021 20771 29455 30230 11850 17206 17605 7654 14177 17324 19791 13584 8733 18246 4736 6780 12906 7187
shrinkage=0.05



feature importances:
all_loss_kurtosis=7
all_loss_best_percentile50_ratio=6
top_30%_loss_best_percentile75_ratio=5
top_10%_loss_kurtosis=4
top_20%_loss_best_percentile75_ratio=3
top_10%_correlation_stddev_best_ratio=3
all_correlation_best_percentile50_ratio=2
resultFilteringMode_none=2
top_10%_loss_stddev_median_ratio=2
top_10%_correlation_stddev_median_ratio=2
top_10%_correlation_percentile5_percentile25_ratio=2
recent_15%_loss_kurtosis=2
recent_15%_loss_best_percentile75_ratio=2
recent_15%_correlation_stddev_best_ratio=2
recent_15%_correlation_best_percentile50_ratio=2
recent_10_loss_best_percentile50_ratio=2
all_loss_best_percentile75_ratio=2
all_correlation_stddev_median_ratio=2
recent_15%_loss_best_percentile50_ratio=1
recent_15%_correlation_best_percentile75_ratio=1
log10_cardinality=1
all_loss_stddev_best_ratio=1
top_10%_loss_stddev_best_ratio=1
all_loss_skew=1
top_30%_loss_best_percentile50_ratio=1
all_correlation_best_percentile25_ratio=1

pandas_categorical:null
