tree
version=v2
num_class=4
num_tree_per_iteration=4
label_index=0
max_feature_idx=112
objective=multiclass num_class:4
feature_names=all_correlation_best_percentile25_ratio all_correlation_best_percentile50_ratio all_correlation_best_percentile75_ratio all_correlation_kurtosis all_correlation_percentile5_percentile25_ratio all_correlation_skew all_correlation_stddev_best_ratio all_correlation_stddev_median_ratio all_loss_best_percentile25_ratio all_loss_best_percentile50_ratio all_loss_best_percentile75_ratio all_loss_kurtosis all_loss_percentile5_percentile25_ratio all_loss_skew all_loss_stddev_best_ratio all_loss_stddev_median_ratio log10_cardinality recent_10_correlation_best_percentile25_ratio recent_10_correlation_best_percentile50_ratio recent_10_correlation_best_percentile75_ratio recent_10_correlation_kurtosis recent_10_correlation_percentile5_percentile25_ratio recent_10_correlation_skew recent_10_correlation_stddev_best_ratio recent_10_correlation_stddev_median_ratio recent_10_loss_best_percentile25_ratio recent_10_loss_best_percentile50_ratio recent_10_loss_best_percentile75_ratio recent_10_loss_kurtosis recent_10_loss_percentile5_percentile25_ratio recent_10_loss_skew recent_10_loss_stddev_best_ratio recent_10_loss_stddev_median_ratio recent_15%_correlation_best_percentile25_ratio recent_15%_correlation_best_percentile50_ratio recent_15%_correlation_best_percentile75_ratio recent_15%_correlation_kurtosis recent_15%_correlation_percentile5_percentile25_ratio recent_15%_correlation_skew recent_15%_correlation_stddev_best_ratio recent_15%_correlation_stddev_median_ratio recent_15%_loss_best_percentile25_ratio recent_15%_loss_best_percentile50_ratio recent_15%_loss_best_percentile75_ratio recent_15%_loss_kurtosis recent_15%_loss_percentile5_percentile25_ratio recent_15%_loss_skew recent_15%_loss_stddev_best_ratio recent_15%_loss_stddev_median_ratio recent_25_correlation_best_percentile25_ratio recent_25_correlation_best_percentile50_ratio recent_25_correlation_best_percentile75_ratio recent_25_correlation_kurtosis recent_25_correlation_percentile5_percentile25_ratio recent_25_correlation_skew recent_25_correlation_stddev_best_ratio recent_25_correlation_stddev_median_ratio recent_25_loss_best_percentile25_ratio recent_25_loss_best_percentile50_ratio recent_25_loss_best_percentile75_ratio recent_25_loss_kurtosis recent_25_loss_percentile5_percentile25_ratio recent_25_loss_skew recent_25_loss_stddev_best_ratio recent_25_loss_stddev_median_ratio top_10%_correlation_best_percentile25_ratio top_10%_correlation_best_percentile50_ratio top_10%_correlation_best_percentile75_ratio top_10%_correlation_kurtosis top_10%_correlation_percentile5_percentile25_ratio top_10%_correlation_skew top_10%_correlation_stddev_best_ratio top_10%_correlation_stddev_median_ratio top_10%_loss_best_percentile25_ratio top_10%_loss_best_percentile50_ratio top_10%_loss_best_percentile75_ratio top_10%_loss_kurtosis top_10%_loss_percentile5_percentile25_ratio top_10%_loss_skew top_10%_loss_stddev_best_ratio top_10%_loss_stddev_median_ratio top_20%_correlation_best_percentile25_ratio top_20%_correlation_best_percentile50_ratio top_20%_correlation_best_percentile75_ratio top_20%_correlation_kurtosis top_20%_correlation_percentile5_percentile25_ratio top_20%_correlation_skew top_20%_correlation_stddev_best_ratio top_20%_correlation_stddev_median_ratio top_20%_loss_best_percentile25_ratio top_20%_loss_best_percentile50_ratio top_20%_loss_best_percentile75_ratio top_20%_loss_kurtosis top_20%_loss_percentile5_percentile25_ratio top_20%_loss_skew top_20%_loss_stddev_best_ratio top_20%_loss_stddev_median_ratio top_30%_correlation_best_percentile25_ratio top_30%_correlation_best_percentile50_ratio top_30%_correlation_best_percentile75_ratio top_30%_correlation_kurtosis top_30%_correlation_percentile5_percentile25_ratio top_30%_correlation_skew top_30%_correlation_stddev_best_ratio top_30%_correlation_stddev_median_ratio top_30%_loss_best_percentile25_ratio top_30%_loss_best_percentile50_ratio top_30%_loss_best_percentile75_ratio top_30%_loss_kurtosis top_30%_loss_percentile5_percentile25_ratio top_30%_loss_skew top_30%_loss_stddev_best_ratio top_30%_loss_stddev_median_ratio
feature_infos=[-9.0793999999999997:106.40000000000001] [-6.1543999999999999:644.82000000000005] [-4.2420999999999998:4877.8999999999996] [-4.0632000000000001:42.680999999999997] [-11.725:138.13999999999999] [-12.686:13.845000000000001] [-15.976000000000001:11.614000000000001] [-5.9271000000000003:787.51999999999998] [-260690:46103] [-76234:115850] [-15884:122060] [-2.3426:70.739999999999995] [-249780:47027] [-8.2988:19.844000000000001] [-537830:1354700] [-144380:1104700] [-4.9066000000000001:5.7077999999999998] [-4.2309000000000001:1690.3] [-2.4914999999999998:363.81999999999999] [-2.2536:296.80000000000001] [-2.5891000000000002:35.771000000000001] [-5.0574000000000003:1705.5] [-9.4370999999999992:11.792] [-15.170999999999999:8.0465] [-2.4289999999999998:353.56] [-41468:19059] [-27160:198690] [-29342:94593] [-1.7628999999999999:2.0127000000000002] [-41287:18631] [-6.274:1.8354999999999999] [-378090:1398600] [-339220:1724900] [-4.3403:8764.7999999999993] [-2.6692:7696.3000000000002] [-2.3054999999999999:8748.2999999999993] [-2.5735000000000001:33.960000000000001] [-5.2473000000000001:9928.8999999999996] [-11.163:11.558] [-14.411:7.4763999999999999] [-2.6036000000000001:5651.3999999999996] [-25805:18241] [-71151:24359] [-232340:102990] [-1.6065:47.244999999999997] [-23318:18926] [-7.8878000000000004:12.429] [-779600:1158500] [-3854900:1321600] [-4.9035000000000002:9369.6000000000004] [-3.0550999999999999:5709.8999999999996] [-2.6476999999999999:4790.8000000000002] [-2.8029999999999999:42.148000000000003] [-6.0103999999999997:9025.7999999999993] [-10.518000000000001:12.619999999999999] [-13.798999999999999:7.9203999999999999] [-2.8595999999999999:5095.8999999999996] [-152020:67570] [-54569:50533] [-40984:21684] [-1.9413:3.7551999999999999] [-121220:78999] [-9.4586000000000006:3.0712000000000002] [-777050:1005600] [-4907700:2416500] [-3.5528:6421.6000000000004] [-2.3841000000000001:2051.8000000000002] [-1.8844000000000001:2265.0999999999999] [-2.2686999999999999:29.577999999999999] [-4.1837:6406.6000000000004] [-13.297000000000001:11.084] [-13.407999999999999:6.319] [-2.3730000000000002:1976] [-103440:17007] [-20019:31527] [-54135:285190] [-3.0364:128.66999999999999] [-99591:16708] [-24.335000000000001:19.193000000000001] [-555170:366600] [-27388:44669] [-3.9630000000000001:22230] [-2.3159000000000001:4195.3999999999996] [-1.9112:9682.2000000000007] [-2.4296000000000002:30.291] [-4.7637999999999998:13939] [-14.045:11.15] [-14.471:7.2553999999999998] [-2.3260000000000001:4642.1000000000004] [-545800:11167] [-8004.6000000000004:22271] [-78856:28459] [-3.8111000000000002:275.38999999999999] [-426300:9476.5] [-36.381999999999998:30.282] [-440240:271940] [-17797:58280] [-4.4935999999999998:76437] [-2.3953000000000002:17238] [-2.0042:22608] [-2.6255999999999999:30.370000000000001] [-5.4583000000000004:76103] [-11.608000000000001:10.606999999999999] [-14.869999999999999:7.6917] [-2.3576999999999999:17510] [-63240:15043] [-66729:71515] [-308980:655530] [-4.2167000000000003:378.39999999999998] [-85724:18674] [-41.186:32.061] [-557080:1121200] [-57896:353280]
tree_sizes=2591 2668 2613 2638 2598 2665 2595 2673 2612 2670 2610 2634

Tree=0
num_leaves=31
num_cat=0
split_feature=92 44 76 111 77 57 26 68 106 58 43 91 111 11 102 108 28 50 64 71 0 85 38 68 57 92 80 83 30 11
split_gain=339.98 95.5613 47.085 25.2868 24.8887 19.4589 17.0051 13.3042 12.6858 17.207 17.3788 16.3081 12.3589 11.4709 11.4039 11.1784 10.6608 11.5064 10.4839 10.3912 10.1852 10.3776 10.2982 9.94475 10.8368 9.86381 10.1848 9.24662 9.20208 9.03337
threshold=-3.8108999999999997 -0.73890499999999981 -2.5074999999999998 -6.0738499999999993 1.3340500000000002 -0.15124999999999997 1.8168500000000003 2.5542000000000002 1.3151500000000003 0.52850500000000011 -1.3113499999999998 0.23294500000000004 0.12942000000000001 0.6364550000000001 -2.8789999999999996 -1.3446499999999999 1.9698500000000003 -0.28743499999999994 -1.5650499999999996 2.2184500000000003 1.6815500000000003 18.011500000000002 -4.1293499999999996 0.55116500000000013 -13.869499999999997 1.8041500000000001 7.3399500000000009 5.3464 -1.2961499999999997 0.52846500000000007
decision_type=2 2 2 2 2 2 2 2 2 2 2 2 2 2 2 2 2 2 2 2 2 2 2 2 2 2 2 2 2 2
left_child=12 2 18 27 6 7 8 -4 9 10 13 14 -1 20 -11 -16 17 -12 28 -6 23 22 -22 -5 -25 26 -9 -3 -2 -29
right_child=1 3 5 4 19 -7 -8 25 -10 11 16 -13 -14 -15 15 -17 -18 -19 -20 -21 21 -23 -24 24 -26 -27 -28 29 -30 -31
leaf_value=-0.0012963676036452318 0.0041798384264137697 0.015086117451753476 0.0054155521141301798 0.0060828079741012103 0.007956225968648329 0.0088800033320838023 0.014242733051875575 0.0062227210375358525 0.0072840617395072849 0.006613047363717605 0.010837694732653873 0.010044444444444446 -0.006318379708498959 0.013473993721937458 0.020211760257137456 0.01333378387510982 0.0053301733351921558 0.0070909698793349745 0.0018266417893257781 0.0027529021558872309 0.050326797385620917 -0.0055555555555555558 0.013407134071340712 0.031726907630522092 0.010442361453708273 0.017223814071951608 0.020132013201320131 0.018055555555555557 0.017530864197530867 0.056164383561643841
leaf_count=5194 949 4819 28412 5869 16905 32012 6869 2673 9999 1492 10891 19500 8805 8389 1763 14797 7173 10967 14471 3015 51 192 4065 166 4054 1047 404 96 540 73
internal_value=0 0.173665 0.129378 0.200851 0.196343 0.149016 0.206275 0.120892 0.200843 0.207014 0.187725 0.233632 -0.0891016 0.221481 0.269001 0.28132 0.16123 0.179156 0.0499582 0.143373 0.193513 0.259981 0.277292 0.16513 0.225592 0.207565 0.160979 0.314889 0.180434 0.690335
internal_count=225652 211653 80508 131145 126157 64548 106237 32536 99368 89369 51817 37552 13999 22786 18052 16560 29031 21858 15960 19920 14397 4308 4116 10089 4220 4124 3077 4988 1489 169
shrinkage=0.05


Tree=1
num_leaves=31
num_cat=0
split_feature=44 65 31 99 64 13 51 76 10 15 76 64 51 44 60 60 61 78 55 76 86 44 55 57 78 55 92 69 13 32
split_gain=694.773 274.746 111.527 89.0921 80.3869 54.5452 50.6668 43.0374 32.5125 29.1275 23.7877 23.5068 20.9235 19.6162 18.0865 17.7073 17.0753 16.3168 16.1053 15.1167 13.1686 12.9465 11.7891 11.6865 11.2101 11.0068 10.9384 10.6835 10.4829 10.3252
threshold=-0.73021499999999995 -1.3353499999999998 -0.37176499999999996 -1.6700499999999998 -1.0621499999999997 0.27084500000000006 -2.4169499999999995 -1.5781499999999997 1.0220500000000003 0.64613000000000009 -1.5782499999999999 -0.68763999999999992 -2.0644499999999995 0.75791500000000012 -0.51743499999999987 0.49988500000000008 -1.4454499999999999 1.4088500000000004 -1.4066499999999997 -0.9885799999999999 0.087094000000000019 0.82257000000000013 -1.6911499999999997 -3.0342499999999997 -1.2349499999999998 2.2041500000000007 -3.8108999999999997 6.3160500000000015 -1.5684499999999997 1.0301500000000001
decision_type=2 2 2 2 2 2 2 2 2 2 2 2 2 2 2 2 2 2 2 2 2 2 2 2 2 2 2 2 2 2
left_child=1 2 6 5 12 11 26 10 13 18 23 -2 -3 -5 28 27 20 19 -4 -8 25 29 -12 -6 -20 -11 -1 -9 -13 -7
right_child=3 4 9 8 7 21 17 15 -10 16 22 14 -14 -15 -16 -17 -18 -19 24 -21 -22 -23 -24 -25 -26 -27 -28 -29 -30 -31
leaf_value=0.0018666666666666669 -0.018089474821698728 -0.017974855589534489 0.0070668572336033035 -0.007926350061749186 -0.00023640661938534281 -0.018223433623370724 -0.004060380242667431 -0.006953279227900855 -0.014894410864860833 0.0056689342403628126 0.0065498539841468504 -0.0054805930368149259 -0.01246929114985919 -0.012459287346264159 -0.014975845410628019 -0.013219606184501152 -0.0078509119746233147 -0.0027927235459902638 -0.011007751937984497 -0.012025605852766347 -0.0051824964710627149 -0.019510509411716878 -0.0020524155352068204 -0.010587951225401425 0.0024304609703683527 -0.012365591397849464 -0.01583087512291052 -0.01498276319278706 -0.011977754605491832 -0.013751701943309817
leaf_count=250 9254 7848 6297 11876 987 9539 3489 9118 17868 2499 1598 2001 11126 13714 18354 7093 2522 15612 430 2916 1653 32796 3167 2761 11013 248 3390 1257 9590 5386
internal_value=0 -0.121348 -0.0384613 -0.304806 -0.214125 -0.33499 -0.113835 -0.155113 -0.244435 0.0399535 -0.0599084 -0.289854 -0.29493 -0.207112 -0.267624 -0.201511 -0.0498892 -0.0843288 0.0750094 -0.153734 0.0115152 -0.372065 0.0166492 -0.157239 0.0385097 0.0808154 -0.292308 -0.158522 -0.217122 -0.332194
internal_count=225652 95274 50319 130378 44955 86920 25657 25981 43458 24662 8513 39199 18974 25590 29945 17468 6922 22017 17740 6405 4400 47721 4765 3748 11443 2747 3640 10375 11591 14925
shrinkage=0.05


Tree=2
num_leaves=31
num_cat=0
split_feature=76 59 76 76 73 58 51 13 86 47 16 11 10 13 15 41 112 5 16 9 15 64 74 60 96 107 45 100 47 64
split_gain=591.604 183.554 85.0814 106.79 60.3625 32.8396 29.792 26.8815 24.3252 22.5073 15.8441 15.7868 15.3675 14.6978 12.4464 11.3967 11.3627 11.0602 10.3052 10.2594 11.4223 13.7612 10.4114 9.99463 9.93812 10.9628 10.3008 9.76794 9.42823 17.2623
threshold=-1.5781499999999997 0.021041500000000001 -1.5782499999999999 -2.6360499999999996 -7.6824999999999992 -1.1756499999999999 -2.4169499999999995 0.12553000000000003 -0.68673999999999991 -1.0674499999999998 -3.3591999999999995 -2.0093499999999995 -1.4788499999999998 0.18864000000000003 0.56040500000000015 0.24223500000000001 -0.23965999999999996 2.0899500000000004 -3.6162999999999994 0.24092000000000005 -0.38132499999999997 -1.2925499999999996 1.83545 0.89470000000000016 -1.1491499999999999 8.9696000000000016 0.35425500000000004 -0.77433499999999988 -1.1457499999999998 -1.6992499999999999
decision_type=2 2 2 2 2 2 2 2 2 2 2 2 2 2 2 2 2 2 2 2 2 2 2 2 2 2 2 2 2 2
left_child=2 6 3 18 -3 -5 10 11 -9 -8 17 -6 -11 15 -14 16 -12 -2 -1 -10 21 -21 -23 -7 25 -15 -26 -20 29 -13
right_child=1 4 -4 5 7 23 9 8 19 12 13 28 14 24 -16 -17 -18 -19 27 20 -22 22 -24 -25 26 -27 -28 -29 -30 -31
leaf_value=0.01070615034168565 0.025690021231422507 0.0039348316241181172 -0.0044785496320229766 0.0017166042446941324 -0.0010101010101010103 0.0084175084175084191 0.0012831012831012831 0.012321366877100413 0.013650351274458572 0.0053057176641110732 0.016626634641046172 0.01312770838643895 0.00733503915639296 0.021420765027322406 0.011500150920615758 0.0042353701907533138 0.0082884149675806588 -0.006024096385542169 -0.0041741122565864836 0.017456219611892778 0.018213498328710619 0.013451247165532879 0.0021154945683247574 0.013570346609640916 0.011989026063100138 0.0046464646464646469 0.0050098619329388564 -0.0001016021883548261 0.012668325994000893 0.0052092393930607906
leaf_count=439 628 4583 14856 4272 627 7623 4884 21226 11482 17478 1249 3923 17196 1220 6626 4124 8534 83 7275 7747 14061 7350 583 3741 8505 330 1690 8530 31338 3449
internal_value=0 0.218829 0.0124957 0.0600586 0.262025 0.156391 0.155495 0.270279 0.291342 0.130493 0.199294 0.236842 0.142889 0.19263 0.169871 0.156708 0.187059 0.439756 -0.0326685 0.314468 0.330475 0.30017 0.252364 0.202276 0.235164 0.356989 0.216642 -0.0395234 0.241006 0.188461
internal_count=225652 178916 46736 31880 106369 15636 72547 101786 62449 46184 26363 39337 41300 25652 23822 13907 9783 711 16244 41223 29741 15680 7933 11364 11745 1550 10195 15805 38710 7372
shrinkage=0.05


Tree=3
num_leaves=31
num_cat=0
split_feature=44 66 76 16 108 15 60 103 76 49 102 61 84 6 44 15 46 47 101 44 107 53 5 13 21 79 57 89 45 45
split_gain=113.374 33.4795 23.4645 20.9485 16.2683 15.5239 12.2848 10.3117 9.2654 9.26449 8.4012 8.33256 8.2778 7.97079 7.96172 7.9801 7.40379 10.379 7.59996 7.08135 7.06799 6.95482 7.146 6.84492 8.92282 6.62988 9.27733 6.6129 7.35057 6.47937
threshold=-0.68419499999999989 -1.4600499999999996 -1.5144499999999999 -0.97019999999999984 -1.9460499999999998 -1.5138499999999999 -0.9693949999999999 3.4869000000000008 0.30837000000000009 17.010000000000002 -0.41242999999999991 -2.5543499999999995 4.6135500000000009 1.1289500000000003 -1.1953499999999997 -1.87035 -0.36393999999999999 -0.9846649999999999 -2.2259999999999995 2.6869500000000004 -9.310749999999997 5.8515000000000006 -4.1872999999999996 1.0000000180025095e-35 5.3980500000000005 31.794000000000004 -0.53200499999999995 -3.2706499999999994 -0.6796549999999999 -0.92281499999999983
decision_type=2 2 2 2 2 2 2 2 2 2 2 2 2 2 2 2 2 2 2 2 2 2 2 2 2 2 2 2 2 2
left_child=2 3 5 20 9 16 14 11 -5 10 -4 29 -12 27 -6 -16 18 -18 -1 -13 -2 -21 -23 24 -11 26 -9 28 -10 -3
right_child=1 7 4 8 6 -7 -8 25 13 23 12 19 -14 -15 15 -17 17 -19 -20 21 -22 22 -24 -25 -26 -27 -28 -29 -30 -31
leaf_value=0.013061650992685477 -0.010439024390243903 -0.0065042358048029133 -0.0012051939973563488 -0.0055402401067140951 -0.0043294808292056505 -0.0026169874624757199 -0.0036666326217955265 -0.01396011396011396 -0.0071664309288071663 0.075308641975308593 -0.0062008733624454157 -0.0082749445676274947 0.0050800278357689636 -0.0048146570089475926 -0.0031967582170193604 -0.0085455871626549974 -0.011594202898550725 0.019907407407407408 0.00024909658632424656 -0.010783242258652096 -0.0035141618618745002 0.042028985507246375 -0.0041835357624831308 -0.0066666666666666671 0.0095238095238095247 0.035632183908045977 -0.0011517964586556645 -0.0092549116520449764 0.0023278850916295195 0.0028330319469559977
leaf_count=319 1025 4761 12861 22490 7268 28315 19582 468 2828 27 4580 33825 479 4694 2221 11425 92 288 9501 14640 23761 23 741 30 28 29 1939 16186 673 553
internal_value=0 -0.137898 -0.063962 -0.114406 -0.0845684 -0.0326626 -0.102726 -0.167442 -0.13471 -0.0437286 -0.0462798 -0.172084 -0.102655 -0.156761 -0.130248 -0.1535 0.0219608 0.245614 0.0133062 -0.178716 -0.0760107 -0.207738 -0.0558464 0.494118 0.836364 -0.0634921 -0.0728431 -0.171179 -0.106827 -0.110651
internal_count=225652 128636 97016 71657 58501 38515 40496 56979 46871 18005 17920 54543 5059 24381 20914 13646 10200 380 9820 49229 24786 15404 764 85 55 2436 2407 19687 3501 5314
shrinkage=0.05


Tree=4
num_leaves=31
num_cat=0
split_feature=92 76 44 16 111 27 59 73 58 43 107 105 16 109 13 111 83 57 58 64 88 16 63 43 76 30 71 96 57 14
split_gain=315.218 87.3767 41.6224 26.2337 23.2774 21.119 16.9426 15.8377 16.2403 18.2518 13.4199 12.8907 12.8118 12.4447 12.3661 11.7444 11.1021 10.7206 10.3293 10.3169 10.2632 9.83333 9.69379 12.6142 11.7735 9.38119 9.33095 9.24306 8.97301 8.91172
threshold=-3.8108999999999997 -2.5074999999999998 -0.26141999999999993 -2.6642499999999996 -6.0738499999999993 1.3366500000000003 1.0552500000000002 1.17425 0.51133000000000017 -1.1844499999999998 -0.022234499999999994 1.1527500000000004 -1.2229999999999996 -2.7033499999999995 0.47068500000000008 0.12942000000000001 5.3464 1.6589500000000001 1.9752500000000002 -1.5650499999999996 -1.5636499999999998 0.37547500000000006 -0.33168999999999993 -1.5382999999999998 0.47430500000000003 -1.2961499999999997 0.04633700000000001 -0.32529999999999998 1.6949500000000002 -1.0000499999999997
decision_type=2 2 2 2 2 2 2 2 2 2 2 2 2 2 2 2 2 2 2 2 2 2 2 2 2 2 2 2 2 2
left_child=15 19 5 6 16 22 -4 8 9 14 -10 20 -9 -8 -6 -1 -5 29 21 25 -7 -12 23 -3 -24 -2 -19 -20 -11 -14
right_child=1 2 3 4 7 11 13 12 10 28 18 -13 17 -15 -16 -17 -18 26 27 -21 -22 -23 24 -25 -26 -27 -28 -29 -30 -31
leaf_value=-0.0012407502578306547 0.0040375909820835635 0.011118942441933883 0.0088715743916523964 0.015718893021832537 0.009267760505319014 0.017596713783986882 0.039072817707269496 0.0038550330531932106 0.014160538232288626 0.0075928227207717235 0.0086405101490239274 0.0081505686138950185 0.00053906807204104421 0.0024178343702162225 0.013707009946367588 -0.0061417461169643939 0.039579910299283483 0.0097129216980403818 0.014180457264642204 0.0020777671549663864 0.01073752709379659 0.01180240612741619 0.0050033671155445339 0.0071292024119633439 0.0081822939402506328 0.017036269407090535 0.017501835215750629 0.039250832242856304 0.039650962289881769 0.0084101562316948111
leaf_count=5194 959 6477 7664 3707 9000 2132 62 4210 10669 20217 12941 8462 1221 5150 7705 8805 132 3729 3510 15350 4490 13110 25296 27827 11129 596 1403 100 58 4347
internal_value=0 0.166924 0.176652 0.19776 0.207002 0.149814 0.128743 0.201824 0.211184 0.186544 0.233762 0.205123 0.153227 0.0570988 0.226344 -0.0864004 0.330949 0.183157 0.215947 0.0544065 0.258927 0.20464 0.138009 0.157655 0.119498 0.180782 0.236837 0.297514 0.153692 0.133675
internal_count=225652 211653 194748 108935 96059 85813 12876 92220 77310 36980 40330 15084 14910 5212 16705 13999 3839 10700 29661 16905 6622 26051 70729 34304 36425 1555 5132 3610 20275 5568
shrinkage=0.05


Tree=5
num_leaves=31
num_cat=0
split_feature=44 65 32 99 64 11 51 76 58 10 15 59 62 61 51 44 11 92 73 59 11 55 76 64 108 76 99 84 43 63
split_gain=664.902 260.53 105.874 86.1991 77.3041 57.6512 44.7821 40.669 33.0051 31.4129 28.8783 23.3985 22.8486 22.2138 20.2515 18.9148 18.418 18.2566 14.039 13.6567 13.0632 12.3078 11.9451 13.5319 12.6192 11.8312 11.8923 11.0001 10.651 10.5579
threshold=-0.73021499999999995 -1.3353499999999998 -0.43753499999999995 -1.6700499999999998 -1.0621499999999997 0.35287500000000005 -2.4169499999999995 -1.5781499999999997 -0.39772499999999994 1.0220500000000003 0.47654500000000005 0.7783850000000001 0.83361500000000011 -1.4454499999999999 -2.0644499999999995 0.75791500000000012 -0.90086499999999992 -3.8108999999999997 -19.833999999999996 -0.24894499999999997 4.0572500000000007 2.0938500000000002 -1.5781499999999997 -0.8675449999999999 -2.4495499999999999 -1.5782499999999999 -1.2156499999999999 -1.1668499999999999 -5.4700999999999995 -0.7082299999999998
decision_type=2 2 2 2 2 2 2 2 2 2 2 2 2 2 2 2 2 2 2 2 2 2 2 2 2 2 2 2 2 2
left_child=1 2 6 5 14 8 17 12 -2 15 22 20 25 21 -3 -5 -9 -1 -10 -7 -8 27 23 -4 -24 -6 -27 28 -12 -20
right_child=3 4 10 9 7 19 11 16 18 -11 13 -13 -14 -15 -16 -17 -18 -19 29 -21 -22 -23 24 -25 -26 26 -28 -29 -30 -31
leaf_value=0.0046974628151966596 -0.01089254396546779 -0.017606044819402665 -0.00088361736822473419 -0.0076778547178511765 -0.0044899903169801662 -0.016166162567360597 -0.0024426837231210337 -0.0062802745275454541 0.028554620257846264 -0.014550018059388709 0.014067370135524174 -0.0095883431528853997 -0.0091384577539351721 -0.007844785876729727 -0.012161892154561703 -0.012144796768931522 -0.011808626397041838 -0.015658459100438081 -0.018304658020240415 -0.019389688802283558 -0.014938652907651971 -0.0095066932801434571 0.0033797249600658018 0.007605546117773543 -0.0048169147205179858 0.00045743623085157497 0.011976522615513128 -0.00070078197574658817 0.0015238164968496989 -0.014874923701662442
leaf_count=322 13498 7848 1517 11876 2366 12342 17960 6359 48 17868 883 4209 2687 2810 11126 13714 11109 3339 8493 31495 579 620 5994 7096 1585 2693 767 2487 918 21044
internal_value=0 -0.117699 -0.0370475 -0.297774 -0.208492 -0.327657 -0.108516 -0.150535 -0.285049 -0.238171 0.0415768 -0.0815844 -0.0579669 -0.0407376 -0.288185 -0.20138 -0.195875 -0.276988 -0.315752 -0.369632 -0.0566292 0.025448 0.080681 0.12223 0.0334128 -0.000498969 0.0602385 0.0564649 0.153457 -0.317194
internal_count=225652 95274 50319 130378 44955 86920 26409 25981 43083 43458 23910 22748 8513 7718 18974 25590 17468 3661 29585 43837 18539 4908 16192 8613 7579 5826 3460 4288 1801 29537
shrinkage=0.05


Tree=6
num_leaves=31
num_cat=0
split_feature=76 59 44 44 44 11 59 9 76 76 64 47 9 102 65 58 44 10 86 93 51 43 77 80 0 16 109 49 29 93
split_gain=546.501 169.472 122.815 56.4703 40.0212 37.0896 36.5199 22.8806 22.0775 21.6383 19.0745 18.8797 18.9444 18.4055 18.1511 17.1578 16.307 13.6869 13.4938 12.7516 11.7379 10.9893 13.4107 10.9932 10.6062 10.3641 10.1294 9.8614 12.2573 9.57813
threshold=-1.5781499999999997 0.021041500000000001 -0.63795999999999997 1.1793000000000002 0.75232500000000013 -1.7281499999999996 1.0398500000000002 0.041272500000000011 -1.5782499999999999 -2.1461999999999999 -1.6719499999999996 -1.05975 0.29628500000000008 1.3198500000000004 -1.2720499999999999 -1.6215499999999998 -0.37485499999999999 -1.6708499999999999 -0.10372999999999999 0.79464500000000016 -1.8347499999999999 1.4546500000000002 -0.51847999999999994 4.5448500000000012 7.3433500000000009 -3.4180499999999996 6.4840000000000009 0.45436500000000007 1.36955 -3.6409499999999997
decision_type=2 2 2 2 2 2 2 2 2 2 2 2 2 2 2 2 2 2 2 2 2 2 2 2 2 2 2 2 2 2
left_child=2 4 6 5 11 -3 8 -5 9 -1 26 -2 20 19 16 -4 -12 -11 24 -14 -13 23 -23 -16 29 -6 -7 -19 -29 -9
right_child=1 3 15 7 25 10 -8 18 -10 17 14 12 13 -15 21 -17 -18 27 -20 -21 -22 22 -24 -25 -26 -27 -28 28 -30 -31
leaf_value=-0.0016410232638895427 0.0022644324486636486 0.0045994007966993471 0.0024189961990047568 0.011736442417599939 0.018822384543526 0.015085881522398342 0.0074028721877039266 0.037861730053560395 -0.004634235659385374 -0.002298342006259457 0.0051645035939959227 0.0081708986113127342 0.012699434487534016 0.017990745040044703 0.012604917916972902 0.011150331514549345 0.011630097980470662 0.0049308523578104821 0.017245124375267467 0.0046363232797103195 0.0050690889213096607 -0.00095567989665655334 0.010140833542548341 -0.0048582669443459235 -0.0011031602284877022 0.009995493824050964 0.0057996975554773502 0.018360658733740085 -0.021373927393501829 0.014103173098183239
leaf_count=17340 6971 5590 1911 12582 918 11101 2878 113 14242 1066 6226 12060 2391 1733 25784 6884 4409 1558 18820 2851 24564 843 4970 241 302 21059 835 802 55 14553
internal_value=0 0.210052 0.0119301 0.251345 0.149319 0.218384 -0.0284909 0.293935 -0.0430391 -0.0091858 0.231324 0.12408 0.136655 0.214427 0.215173 0.1852 0.156964 0.108035 0.315956 0.166304 0.121832 0.234596 0.170644 0.24887 0.279514 0.207296 0.288735 0.175851 0.316183 0.285725
internal_count=225652 178916 46736 106369 72547 59999 37941 46370 35063 20821 54409 50570 43599 6975 42473 8795 10635 3481 33788 5242 36624 31838 5813 26025 14968 21977 11936 2415 857 14666
shrinkage=0.05


Tree=7
num_leaves=31
num_cat=0
split_feature=44 66 76 16 81 15 103 60 58 7 51 33 8 69 78 103 3 81 1 46 47 11 68 97 107 16 102 45 28 62
split_gain=107.505 31.9582 21.8824 20.0939 15.3944 14.5513 9.8593 9.73466 9.3024 8.48427 9.69215 8.29587 8.21161 8.21022 7.38576 7.37675 8.58846 8.44145 7.19197 6.9954 9.77623 6.95177 8.14039 6.83794 6.78608 6.78584 6.69126 7.44896 6.67801 8.50842
threshold=-0.68419499999999989 -1.4600499999999996 -1.5144499999999999 -0.97019999999999984 -1.6601499999999996 -1.5138499999999999 3.4869000000000008 -0.9693949999999999 0.38925500000000007 0.21724000000000002 -0.39249499999999998 -0.93799999999999983 0.64273500000000017 1.5474000000000003 0.33925000000000005 -1.1713499999999997 -1.6926499999999998 13.233500000000001 -3.1689499999999993 -0.36393999999999999 -0.9846649999999999 -1.9814499999999999 11.674500000000002 -2.1865499999999995 -9.310749999999997 -0.91220499999999982 -0.43322999999999995 -16.051999999999996 -0.63526499999999986 -0.63827999999999985
decision_type=2 2 2 2 2 2 2 2 2 2 2 2 2 2 2 2 2 2 2 2 2 2 2 2 2 2 2 2 2 2
left_child=2 3 5 24 26 19 11 -6 9 -5 14 -3 13 -10 -11 16 -9 28 -13 23 -21 22 -7 -1 -2 -16 -4 -28 29 -17
right_child=1 6 4 8 7 21 -8 15 12 10 -12 18 -14 -15 25 17 -18 -19 -20 20 -22 -23 -24 -25 -26 -27 27 -29 -30 -31
leaf_value=0.012377709603942653 -0.010192082940100893 -0.0069019820168820002 -0.0010948267813521372 -0.0068548041485226533 -0.00620446685595453 -0.0068973193907045276 -0.0030576898027496638 0.0018499066680457547 -0.011603562489913311 -0.0040866388947246859 -0.0083130259646058483 0.022601140347875567 -0.0064394831183458697 -0.0069137327600430594 0.040570211385361647 0.0017196432195365277 -0.0072220353086523414 0.007486858056817901 -0.0091076773648544485 -0.011381820057573638 0.019219641401676077 -0.0021098895581607422 0.031693160517732279 0.00024446308742988152 -0.0033859418753575997 0.0007969595104000707 -0.016211540694893251 -0.0037597885252480313 -0.00047126280934765635 -0.0054315431900224809
leaf_count=318 1025 17456 12789 10049 20832 2777 2436 803 5292 4639 2140 48 17152 4742 29 1310 5321 531 37039 92 288 25501 37 9502 23761 2828 345 4699 4503 7368
internal_value=0 -0.133965 -0.0618507 -0.110978 -0.0817923 -0.0316203 -0.162918 -0.0993753 -0.130917 -0.103834 -0.0691444 -0.167477 -0.150544 -0.187745 -0.0414171 -0.0734553 -0.120648 -0.0523813 -0.181333 0.0212282 0.237938 -0.0507046 -0.1278 0.012795 -0.0733292 0.0240125 -0.0417614 -0.0922254 -0.0605265 -0.0870398
internal_count=225652 128636 97016 71657 58501 38515 56979 40668 46871 19685 9636 54543 27186 10034 7496 19836 6124 13712 37087 10200 380 28315 2814 9820 24786 2857 17833 5044 13181 8678
shrinkage=0.05


Tree=8
num_leaves=31
num_cat=0
split_feature=92 76 57 106 16 26 48 41 101 58 80 65 68 95 63 42 46 43 13 63 57 15 16 7 52 64 10 29 46 28
split_gain=292.815 80.8434 31.2678 28.1933 24.76 23.841 20.901 13.3239 12.8098 12.4083 13.2125 12.2703 11.3426 12.0193 11.1486 10.3964 10.4053 10.1984 13.8146 10.0258 9.95196 13.0984 9.84109 9.73547 9.69435 9.67279 9.63751 9.21109 11.7815 9.38571
threshold=-3.8108999999999997 -2.5074999999999998 -0.12820499999999999 0.29186000000000006 -2.4138999999999995 1.8767500000000001 5.0063000000000004 -0.55811999999999984 -1.9043499999999998 1.0165500000000003 0.88349000000000011 -0.016490499999999995 2.2117500000000008 62.617500000000007 -1.5201499999999999 1.9631500000000004 -0.64885499999999985 -1.1844499999999998 -0.21455499999999997 -0.64946499999999985 -11.565499999999998 0.67822000000000016 -1.6417499999999998 -1.0713499999999996 -2.1030499999999996 -1.5650499999999996 1.7797000000000003 -0.68706499999999993 1.0060500000000003 1.5455500000000002
decision_type=2 2 2 2 2 2 2 2 2 2 2 2 2 2 2 2 2 2 2 2 2 2 2 2 2 2 2 2 2 2
left_child=14 25 6 9 -5 8 7 12 -6 10 -4 -11 27 -14 -1 -7 -17 18 -8 -9 -20 -22 -13 26 -24 -2 -12 28 29 -3
right_child=1 2 3 4 5 15 17 19 -10 11 23 22 13 -15 -16 16 -18 -19 20 -21 21 -23 24 -25 -26 -27 -28 -29 -30 -31
leaf_value=0.000549981789376853 0.0087192305934034233 0.0059105373148190844 0.0087850034330264129 0.0051952374914505392 0.0036089807704263684 0.015765598386103943 0.0080768122219377503 0.0074993497906548495 0.0086616885177608627 0.010709495384350719 0.007952757354345882 0.007833982306689238 0.0098592341573791077 0.038994340874211941 -0.0053211486900133914 0.0058157271958017088 0.012153744864431134 0.0048986838402456786 0.022632061568506733 0.0036793580342346921 0.044668945668576737 0.012263929280704276 0.043406092586921081 0.014456604168164161 0.016868092541938422 0.0019955248988741633 0.054209074080887376 0.009073702227396457 0.0090039026504113162 0.0012365961733233027
leaf_count=2674 1555 17665 16004 12802 3527 3742 3358 6810 53377 5681 2520 832 8063 94 11325 2194 7662 1611 889 13578 84 3417 92 6158 4908 15350 30 9274 6998 3378
internal_value=0 0.160507 0.169821 0.186128 0.169674 0.181585 0.143873 0.133655 0.166974 0.223888 0.203376 0.267811 0.149113 0.203922 -0.0839218 0.242559 0.214935 0.215603 0.239986 0.0991243 0.299776 0.260825 0.320007 0.254226 0.347128 0.0523656 0.169934 0.137111 0.122433 0.103204
internal_count=225652 211653 194748 119529 83304 70502 75219 65860 56904 36225 24712 11513 45472 8157 13999 13598 9856 9359 7748 20388 4390 3501 5832 8708 5000 16905 2550 37315 28041 21043
shrinkage=0.05


Tree=9
num_leaves=31
num_cat=0
split_feature=44 69 64 11 50 31 76 99 58 99 62 51 59 11 59 15 63 36 10 111 60 61 11 51 58 44 79 5 63 2
split_gain=635.575 240.925 90.6554 84.1144 83.3557 67.8306 48.8668 47.1028 35.3172 26.0604 25.1503 21.0957 20.2419 19.7732 19.5763 18.5719 13.4068 13.0647 13.0072 12.7524 11.7324 11.6543 10.979 9.84695 9.80216 9.7824 9.73483 9.41319 10.6805 8.91049
threshold=-0.73021499999999995 -1.5647499999999999 -1.0621499999999997 1.0000000180025095e-35 -2.1055499999999996 -0.22294999999999995 -1.5781499999999997 -1.6700499999999998 -1.4494999999999998 -1.6055499999999998 0.83361500000000011 -2.0644499999999995 0.7783850000000001 -0.90086499999999992 -0.20131499999999997 0.67822000000000016 -0.72907499999999992 -1.2025499999999998 2.0892500000000003 -0.73499999999999999 -1.3576499999999998 -0.41711999999999994 -1.8760499999999998 -1.9594499999999997 -1.76555 -0.29279499999999997 -2.2619499999999992 4.9193000000000007 -1.2694499999999997 -1.2278499999999999
decision_type=2 2 2 2 2 2 2 2 2 2 2 2 2 2 2 2 2 2 2 2 2 2 2 2 2 2 2 2 2 2
left_child=1 4 11 8 -1 12 10 14 20 16 17 -3 24 -8 -5 -7 -10 -4 -11 -9 -2 -17 -18 -12 27 -24 -14 -6 -29 -15
right_child=3 2 6 7 5 15 13 19 9 18 23 -13 26 29 -16 21 22 -19 -20 -21 -22 -23 25 -25 -26 -27 -28 28 -30 -31
leaf_value=-0.015209158477454708 0.00035607655146400086 -0.017095249084926999 0.0066464058239499614 -0.015302979943424383 -0.0008590065165662629 0.0042604059665476623 -0.0056190518856111121 -0.015469002752485273 -0.017542855084087965 -0.0095984174771039845 -0.016196218424775723 -0.011728613854854754 -0.0040919013207965692 -0.0069936265009906606 -0.018860333391616056 0.00070411359410601105 0.0027734896286620023 -0.0014085225336266758 -0.017051725995312333 -0.011653204262777429 -0.0088160787010758586 -0.0084479025609387748 -0.0096674557293019141 -0.0054176037319488366 -0.0042982476712249314 -0.014527732422250257 -0.012807209206936808 0.051199088163529687 0.0043025569137209755 -0.012297146847187822
leaf_count=2784 1041 8108 1879 15027 7918 15300 7018 10783 7808 13893 764 12927 1430 2775 35435 4258 275 4716 1797 13246 9912 1197 3336 2259 10190 17825 2175 49 96 9431
internal_value=0 -0.114219 -0.193332 -0.29086 -0.0282799 -0.0104927 -0.13372 -0.327228 -0.242584 -0.263076 -0.038682 -0.275755 -0.0742672 -0.181744 -0.355973 0.0561636 -0.29221 0.0177725 -0.208984 -0.267259 -0.158857 -0.0257937 -0.270941 -0.162633 -0.0522012 -0.275205 -0.186761 -0.00961601 0.403164 -0.221823
internal_count=225652 95274 49877 130378 45397 42613 28842 74491 55887 44934 9618 21035 21858 19224 50462 20755 29244 6595 15690 24029 10953 5455 21436 3023 18253 21161 3605 8063 145 12206
shrinkage=0.05


Tree=10
num_leaves=31
num_cat=0
split_feature=76 59 44 46 46 108 59 76 76 47 12 58 11 102 12 10 86 58 62 44 85 102 94 86 49 25 36 112 75 110
split_gain=505.196 155.946 113.567 54.8871 37.9537 35.5503 34.3245 20.7932 20.3499 18.6195 16.0448 15.9387 14.6545 14.525 13.0786 12.8931 12.3523 11.6998 11.5479 11.5939 10.6702 10.5639 10.3085 9.37809 9.202 11.6181 8.98594 8.67378 9.50434 9.07728
threshold=-1.5781499999999997 0.021041500000000001 -0.63795999999999997 1.3191000000000002 0.6666700000000001 -1.8885499999999997 1.0398500000000002 -1.5782499999999999 -2.1461999999999999 -1.05975 0.70636500000000013 -1.6215499999999998 -1.7281499999999996 -0.41242999999999991 -2.7271499999999995 -1.6708499999999999 -1.7132999999999998 -0.25114999999999993 -1.1275999999999997 -1.3639499999999998 23.280500000000004 1.1306500000000004 7.8904500000000004 -2.3231499999999996 0.45436500000000007 1.4418500000000003 -1.0761499999999999 0.80966000000000016 -1.8087499999999996 -3.0753499999999998
decision_type=2 2 2 2 2 2 2 2 2 2 2 2 2 2 2 2 2 2 2 2 2 2 2 2 2 2 2 2 2 2
left_child=2 4 6 5 9 23 7 8 -1 22 16 -4 -7 20 -15 -10 17 -5 27 -20 -11 -21 -2 -3 -17 -26 -8 28 -14 -30
right_child=1 3 11 10 -6 12 26 -9 15 13 -12 -13 18 14 -16 24 -18 -19 19 21 -22 -23 -24 -25 25 -27 -28 -29 29 -31
leaf_value=-0.0015954242265201594 0.0015656565266508648 0.0019211010336624718 0.0022787347626241224 0.022518924810348603 0.0097123289483449591 0.0056889679224959352 0.00018311957496181666 -0.0045023611985563041 -0.002257166812180023 0.0047728209430099953 0.015654520740727727 0.01067843375522555 0.020148357026144814 0.0052424872896394033 0.0094581012846110882 0.0047708252098978094 0.013421501767449905 0.0061729543959843751 0.0029028520354369243 0.010075983907426625 0.0439397013552527 0.01313774683952079 0.036333981447005538 0.0076859521209311542 0.01769621856096219 -0.02113035136911123 0.010120181021562542 0.0073049690184005221 0.0054993064423621346 0.013828159053989396
leaf_count=17340 6704 3123 1911 320 25293 2968 859 14242 1066 19339 24121 6884 1453 7575 13533 1558 16275 2793 1199 24068 46 10672 57 4618 802 55 2019 1421 921 12417
internal_value=0 0.201701 0.0113847 0.241115 0.14355 0.210456 -0.0276205 -0.0417706 -0.00893848 0.116314 0.285261 0.177339 0.224864 0.129472 0.158937 0.104522 0.250573 0.157079 0.231146 0.214943 0.0973189 0.220341 0.0371778 0.107354 0.170051 0.3049 0.143138 0.267006 0.278604 0.265063
internal_count=225652 178916 46736 106369 72547 62860 37941 35063 20821 47254 43509 8795 55119 40493 21108 3481 19388 3113 52151 35939 19385 34740 6761 7741 2415 857 2878 16212 14791 13338
shrinkage=0.05


Tree=11
num_leaves=31
num_cat=0
split_feature=44 72 76 16 101 15 16 54 58 8 20 42 100 13 63 76 61 44 71 7 65 62 7 51 110 56 79 100 54 11
split_gain=101.552 28.7332 20.464 19.0852 14.8296 13.66 10.7532 9.49728 9.04442 8.70757 8.29386 8.12032 10.4875 10.2792 9.96649 8.04353 7.92899 7.59562 7.6806 8.25971 7.58775 7.56251 7.35913 7.94248 6.78271 7.1196 6.75113 6.70495 6.73666 6.61737
threshold=-0.68419499999999989 -1.7019499999999999 -1.5144499999999999 -0.93646999999999991 -1.7261499999999999 -1.5138499999999999 -2.4138999999999995 1.3132500000000003 0.38925500000000007 0.64273500000000017 -1.2186499999999996 0.33296500000000001 -0.6150199999999999 1.1175500000000003 -1.4443499999999998 4.9329500000000008 -4.3451499999999994 -0.26141999999999993 2.3215500000000007 -3.1306499999999997 1.4154500000000001 -0.63827999999999985 0.14814500000000003 -0.45295999999999997 -5.161249999999999 9.8359000000000005 12.076000000000002 -1.1695499999999999 0.085025000000000003 -1.9814499999999999
decision_type=2 2 2 2 2 2 2 2 2 2 2 2 2 2 2 2 2 2 2 2 2 2 2 2 2 2 2 2 2 2
left_child=2 3 5 -2 -4 -1 -3 15 11 20 -9 22 13 16 -15 -6 -13 18 -8 -20 -10 -14 24 -24 25 -5 -21 -16 -29 -7
right_child=1 6 4 8 7 29 17 10 9 -11 -12 12 21 14 27 -17 -18 -19 19 26 -22 -23 23 -25 -26 -27 -28 28 -30 -31
leaf_value=0.0010271322949636534 -0.0034468876523401273 -0.0051036343848692919 -0.0013271726029932158 0.0003996498279941507 -0.0036568699543047555 -0.0062260200277371516 -0.00677118272608141 -0.013075229629392069 -0.011592956635375934 -0.0061781323521695672 -0.005905693957683698 0.039614053599819593 -0.013302972308296314 -0.01505753123371913 0.018791178350176307 -0.0090994641386681965 -0.00054150552571041331 -0.0087024745385402731 0.046497821206757023 -0.0013742299166836958 -0.0070300736608109636 -0.0011660562785606187 -0.0025981410342759618 -0.0087205273633431772 -0.00789688444119367 0.04356796588770611 0.038323501142587396 0.075365655580714785 0.020362403872622534 -0.0020426978944435275
leaf_count=10200 23126 8416 11499 308 33771 2814 7476 1214 4798 16766 10089 35 458 37 98 1928 575 43165 27 685 5035 1390 6485 1825 7811 28 30 37 25 25501
internal_value=0 -0.130068 -0.0598678 -0.107252 -0.0791904 -0.0306292 -0.156413 -0.0921062 -0.126698 -0.146279 -0.133511 -0.0995144 -0.0154407 0.140376 0.46564 -0.0790083 0.0352645 -0.165333 -0.119605 0.0395436 -0.185088 -0.0834884 -0.11309 -0.0787978 -0.148124 0.079964 0.00591266 0.642647 1.06386 -0.0491507
internal_count=225652 128636 97016 68837 58501 38515 59799 47002 45711 26599 11303 19112 2655 807 197 35699 610 51383 8218 742 9833 1848 16457 8310 8147 336 715 160 62 28315
shrinkage=0.05



feature importances:
top_10%_loss_kurtosis=25
recent_15%_loss_kurtosis=21
recent_25_loss_best_percentile50_ratio=13
log10_cardinality=13
all_loss_kurtosis=13
recent_25_loss_stddev_median_ratio=11
recent_25_loss_best_percentile75_ratio=10
recent_25_correlation_best_percentile75_ratio=10
all_loss_stddev_median_ratio=10
recent_25_loss_best_percentile25_ratio=8
all_loss_skew=8
recent_25_loss_stddev_best_ratio=7
all_loss_best_percentile75_ratio=7
recent_15%_loss_best_percentile75_ratio=6
top_30%_correlation_skew=6
recent_25_loss_kurtosis=6
top_20%_loss_kurtosis=6
recent_15%_loss_skew=6
recent_15%_loss_stddev_best_ratio=6
top_30%_correlation_best_percentile75_ratio=5
top_10%_correlation_best_percentile25_ratio=5
top_30%_loss_stddev_best_ratio=5
recent_25_loss_skew=5
top_20%_correlation_skew=5
recent_25_loss_percentile5_percentile25_ratio=5
recent_15%_loss_percentile5_percentile25_ratio=4
recent_25_correlation_stddev_best_ratio=4
top_10%_correlation_kurtosis=4
top_30%_loss_best_percentile75_ratio=4
all_correlation_stddev_median_ratio=4
top_30%_loss_kurtosis=4
top_10%_loss_stddev_best_ratio=3
top_10%_correlation_stddev_best_ratio=3
top_10%_loss_best_percentile25_ratio=3
top_10%_correlation_percentile5_percentile25_ratio=3
all_correlation_skew=3
top_10%_loss_skew=3
recent_25_correlation_best_percentile25_ratio=3
recent_10_loss_kurtosis=3
all_loss_best_percentile50_ratio=3
top_30%_correlation_stddev_best_ratio=3
top_30%_correlation_percentile5_percentile25_ratio=3
top_10%_loss_stddev_median_ratio=3
top_30%_correlation_kurtosis=3
top_20%_correlation_best_percentile75_ratio=2
top_10%_loss_percentile5_percentile25_ratio=2
top_20%_correlation_best_percentile25_ratio=2
top_30%_loss_stddev_median_ratio=2
top_20%_correlation_kurtosis=2
top_20%_correlation_percentile5_percentile25_ratio=2
top_20%_loss_percentile5_percentile25_ratio=2
top_20%_loss_stddev_median_ratio=2
top_30%_loss_best_percentile50_ratio=2
top_30%_loss_percentile5_percentile25_ratio=2
top_30%_loss_skew=2
all_correlation_best_percentile25_ratio=2
top_10%_correlation_best_percentile50_ratio=2
recent_10_loss_percentile5_percentile25_ratio=2
recent_10_loss_skew=2
recent_10_loss_stddev_best_ratio=2
recent_10_loss_best_percentile50_ratio=2
recent_10_loss_stddev_median_ratio=2
recent_15%_correlation_kurtosis=2
recent_15%_loss_best_percentile25_ratio=2
recent_15%_loss_best_percentile50_ratio=2
recent_25_correlation_best_percentile50_ratio=2
all_loss_percentile5_percentile25_ratio=2
all_loss_best_percentile25_ratio=2
recent_25_correlation_skew=2
all_loss_stddev_best_ratio=1
top_30%_loss_best_percentile25_ratio=1
recent_10_correlation_kurtosis=1
all_correlation_stddev_best_ratio=1
recent_10_correlation_percentile5_percentile25_ratio=1
recent_10_loss_best_percentile25_ratio=1
all_correlation_kurtosis=1
all_correlation_best_percentile75_ratio=1
recent_10_loss_best_percentile75_ratio=1
top_30%_correlation_best_percentile25_ratio=1
all_correlation_best_percentile50_ratio=1
top_20%_loss_stddev_best_ratio=1
top_20%_loss_skew=1
top_20%_loss_best_percentile75_ratio=1
top_20%_loss_best_percentile25_ratio=1
top_20%_correlation_stddev_median_ratio=1
recent_15%_correlation_best_percentile25_ratio=1
recent_15%_correlation_skew=1
recent_15%_loss_stddev_median_ratio=1
recent_25_correlation_kurtosis=1
recent_25_correlation_percentile5_percentile25_ratio=1
top_10%_loss_best_percentile75_ratio=1
top_10%_loss_best_percentile50_ratio=1
top_10%_correlation_stddev_median_ratio=1
recent_25_correlation_stddev_median_ratio=1

pandas_categorical:null
