tree
version=v2
num_class=2
num_tree_per_iteration=2
label_index=0
max_feature_idx=118
objective=multiclass num_class:2
feature_names=all_correlation_best_percentile25_ratio all_correlation_best_percentile50_ratio all_correlation_best_percentile75_ratio all_correlation_kurtosis all_correlation_percentile5_percentile25_ratio all_correlation_skew all_correlation_stddev_best_ratio all_correlation_stddev_median_ratio all_loss_best_percentile25_ratio all_loss_best_percentile50_ratio all_loss_best_percentile75_ratio all_loss_kurtosis all_loss_percentile5_percentile25_ratio all_loss_skew all_loss_stddev_best_ratio all_loss_stddev_median_ratio log10_cardinality recent_10_correlation_best_percentile25_ratio recent_10_correlation_best_percentile50_ratio recent_10_correlation_best_percentile75_ratio recent_10_correlation_kurtosis recent_10_correlation_percentile5_percentile25_ratio recent_10_correlation_skew recent_10_correlation_stddev_best_ratio recent_10_correlation_stddev_median_ratio recent_10_loss_best_percentile25_ratio recent_10_loss_best_percentile50_ratio recent_10_loss_best_percentile75_ratio recent_10_loss_kurtosis recent_10_loss_percentile5_percentile25_ratio recent_10_loss_skew recent_10_loss_stddev_best_ratio recent_10_loss_stddev_median_ratio recent_15%_correlation_best_percentile25_ratio recent_15%_correlation_best_percentile50_ratio recent_15%_correlation_best_percentile75_ratio recent_15%_correlation_kurtosis recent_15%_correlation_percentile5_percentile25_ratio recent_15%_correlation_skew recent_15%_correlation_stddev_best_ratio recent_15%_correlation_stddev_median_ratio recent_15%_loss_best_percentile25_ratio recent_15%_loss_best_percentile50_ratio recent_15%_loss_best_percentile75_ratio recent_15%_loss_kurtosis recent_15%_loss_percentile5_percentile25_ratio recent_15%_loss_skew recent_15%_loss_stddev_best_ratio recent_15%_loss_stddev_median_ratio recent_25_correlation_best_percentile25_ratio recent_25_correlation_best_percentile50_ratio recent_25_correlation_best_percentile75_ratio recent_25_correlation_kurtosis recent_25_correlation_percentile5_percentile25_ratio recent_25_correlation_skew recent_25_correlation_stddev_best_ratio recent_25_correlation_stddev_median_ratio recent_25_loss_best_percentile25_ratio recent_25_loss_best_percentile50_ratio recent_25_loss_best_percentile75_ratio recent_25_loss_kurtosis recent_25_loss_percentile5_percentile25_ratio recent_25_loss_skew recent_25_loss_stddev_best_ratio recent_25_loss_stddev_median_ratio top_10%_correlation_best_percentile25_ratio top_10%_correlation_best_percentile50_ratio top_10%_correlation_best_percentile75_ratio top_10%_correlation_kurtosis top_10%_correlation_percentile5_percentile25_ratio top_10%_correlation_skew top_10%_correlation_stddev_best_ratio top_10%_correlation_stddev_median_ratio top_10%_loss_best_percentile25_ratio top_10%_loss_best_percentile50_ratio top_10%_loss_best_percentile75_ratio top_10%_loss_kurtosis top_10%_loss_percentile5_percentile25_ratio top_10%_loss_skew top_10%_loss_stddev_best_ratio top_10%_loss_stddev_median_ratio top_20%_correlation_best_percentile25_ratio top_20%_correlation_best_percentile50_ratio top_20%_correlation_best_percentile75_ratio top_20%_correlation_kurtosis top_20%_correlation_percentile5_percentile25_ratio top_20%_correlation_skew top_20%_correlation_stddev_best_ratio top_20%_correlation_stddev_median_ratio top_20%_loss_best_percentile25_ratio top_20%_loss_best_percentile50_ratio top_20%_loss_best_percentile75_ratio top_20%_loss_kurtosis top_20%_loss_percentile5_percentile25_ratio top_20%_loss_skew top_20%_loss_stddev_best_ratio top_20%_loss_stddev_median_ratio top_30%_correlation_best_percentile25_ratio top_30%_correlation_best_percentile50_ratio top_30%_correlation_best_percentile75_ratio top_30%_correlation_kurtosis top_30%_correlation_percentile5_percentile25_ratio top_30%_correlation_skew top_30%_correlation_stddev_best_ratio top_30%_correlation_stddev_median_ratio top_30%_loss_best_percentile25_ratio top_30%_loss_best_percentile50_ratio top_30%_loss_best_percentile75_ratio top_30%_loss_kurtosis top_30%_loss_percentile5_percentile25_ratio top_30%_loss_skew top_30%_loss_stddev_best_ratio top_30%_loss_stddev_median_ratio resultFilteringMode_age resultFilteringMode_loss_rank resultFilteringMode_none resultFilteringMode_random secondaryLockingMode_random secondaryLockingMode_top
feature_infos=[-9.1198999999999995:105.67] [-6.2744:336.63999999999999] [-4.3487:4901.6999999999998] [-4.0987999999999998:42.366999999999997] [-11.739000000000001:137.41] [-12.951000000000001:13.875999999999999] [-16.317:10.930999999999999] [-6.0843999999999996:365.75] [-268100:47414] [-11275:120640] [-4997:125010] [-2.2688000000000001:67.611000000000004] [-256440:48280] [-8.0172000000000008:19.096] [-586240:5342400] [-295890:1175300] [-5.2106000000000003:5.6295999999999999] [-4.2404000000000002:1670] [-2.4899:353.30000000000001] [-2.2768000000000002:417.38] [-2.6160000000000001:35.186999999999998] [-5.0674000000000001:1693] [-9.4850999999999992:11.814] [-15.388999999999999:8.3767999999999994] [-2.4319000000000002:370.08999999999997] [-15990:19349] [-27907:204150] [-30708:98996] [-1.7464999999999999:2.0425] [-12901:18945] [-6.1833:1.8528] [-392190:1450800] [-348210:1770600] [-4.3451000000000004:7872.6999999999998] [-2.5950000000000002:6111.3999999999996] [-2.3025000000000002:8525.5] [-2.5912999999999999:33.122] [-5.2489999999999997:6247.6000000000004] [-10.071:11.542] [-14.596:7.7313000000000001] [-2.5714000000000001:5445] [-26301:18592] [-72965:408450] [-242350:107430] [-1.6157999999999999:42.235999999999997] [-22206:19224] [-7.5396000000000001:11.374000000000001] [-822430:5748400] [-4030800:1381900] [-4.9398999999999997:8903.7000000000007] [-3.0575999999999999:4080.3000000000002] [-2.6793:4749.5] [-2.8262:41.625] [-6.0431999999999997:9474.2000000000007] [-10.632:12.673] [-13.933999999999999:7.9387999999999996] [-2.8690000000000002:4186.6999999999998] [-38071:68759] [-56327:52161] [-42681:22581] [-1.9125000000000001:3.7370999999999999] [-47397:80478] [-9.2975999999999992:3.0432999999999999] [-822630:6899700] [-5121600:2521800] [-3.5855999999999999:5998.1999999999998] [-2.3765000000000001:1683.4000000000001] [-1.9061999999999999:878.39999999999998] [-2.2890999999999999:29.210999999999999] [-4.2100999999999997:6407.1999999999998] [-13.401:11.121] [-13.412000000000001:6.5156999999999998] [-2.3812000000000002:1540.4000000000001] [-104250:39973] [-38343:31911] [-55095:26626] [-2.9794:112.72] [-99986:40835] [-22.481000000000002:18.902000000000001] [-565750:373580] [-27859:43977] [-3.9906000000000001:22159] [-2.3008000000000002:3929.4000000000001] [-1.9262999999999999:6677] [-2.4586999999999999:31.472000000000001] [-4.8051000000000004:13991] [-14.192:11.535] [-14.567:7.5185000000000004] [-2.3184:4574.6999999999998] [-551760:11289] [-8152.3999999999996:22682] [-38379:29089] [-3.7219000000000002:233.31] [-429930:9557.1000000000004] [-32.884:24.343] [-453280:280000] [-29993:59777] [-4.5523999999999996:60706] [-2.3656000000000001:12667] [-2.0266000000000002:4035.5999999999999] [-2.6650999999999998:30.228000000000002] [-5.5349000000000004:59526] [-11.388:10.696] [-15.026:7.9889999999999999] [-2.3511000000000002:9650.7999999999993] [-64187:24325] [-68115:73001] [-47126:111580] [-4.1176000000000004:308.69] [-86902:28145] [-36.634999999999998:31.744] [-579360:1166100] [-59912:365580] [0:1] [0:1] [0:1] [0:1] [0:1] [0:1]
tree_sizes=2690 2659 2678 2632 2668 2633 2680 2633 2677 2640 2675 2631 2683 2644 2681 2646 2699 2632

Tree=0
num_leaves=31
num_cat=0
split_feature=117 89 76 65 44 46 65 75 106 110 42 21 2 43 2 90 53 42 10 87 11 32 77 56 108 18 103 36 87 62
split_gain=867.849 251.748 86.9542 78.6833 34.7499 32.838 30.5289 30.5404 23.7214 20.554 18.4642 19.8458 17.0342 16.9906 16.7127 15.2101 14.4765 14.3791 14.2078 14.1942 13.2249 12.4104 11.6513 11.1869 11.1266 10.9908 10.8536 10.6383 10.3502 10.2825
threshold=1.0000000180025095e-35 -0.46045999999999992 -1.5264499999999999 -1.8689499999999997 0.59923000000000004 1.0000000180025095e-35 -1.6229499999999997 -1.6597499999999996 1.3875500000000003 2.9003500000000004 1.5700500000000004 -1.9529499999999997 -1.4376499999999999 -8.6893999999999973 -2.8407499999999994 0.70960000000000012 -0.89649499999999993 2.0936500000000007 -0.65617999999999987 -4.3377499999999989 -0.45716499999999993 0.99031500000000017 1.1928500000000002 -1.3623499999999999 -2.7264499999999994 -1.1646499999999997 0.80645500000000014 -1.2428499999999996 0.84617500000000012 0.31514000000000003
decision_type=2 2 2 2 2 2 2 2 2 2 2 2 2 2 2 2 2 2 2 2 2 2 2 2 2 2 2 2 2 2
left_child=1 6 17 5 10 15 26 14 12 20 11 -4 23 -10 -8 -3 -15 25 -13 -7 24 -17 27 -5 -6 -2 -1 28 -20 -22
right_child=2 3 4 8 9 19 7 -9 13 -11 -12 18 -14 16 -16 21 -18 -19 22 -21 29 -23 -24 -25 -26 -27 -28 -29 -30 -31
leaf_value=-0.013784115302054584 -0.0074717205794800554 -0.0070215545395166563 -0.0064867424242424244 -0.0048113933795227099 -0.035714285714285719 0.0047231270358306194 0.0027918781725888328 -0.013913018466317668 -0.015813148788927336 -0.004887218045112782 -0.0055095277547638774 -0.002011972065181244 -0.012253400520370189 -0.0049146043917741378 -0.017880769523230172 -0.00092179780696469463 -0.0092236203635167376 -0.01231122783978989 0.0037854889589905363 -0.010927795031055901 0.0098723210214318301 -0.007114427860696518 -0.0040151515151515159 -0.010367278797996662 0.00091240875912408756 -0.0030618588747280077 -0.0091418820087762077 0.0044082286935613153 -0.0050841258229700073 0.0044126748359945541
leaf_count=6522 5039 4593 2112 2598 42 307 197 17383 1445 1330 3621 6014 30363 5738 26302 8299 12159 1523 1268 5152 2193 2010 1320 5990 3288 6434 4102 7486 1367 8079
internal_value=0 -0.233989 -0.0172157 -0.182801 0.0168416 -0.107117 -0.307856 -0.324324 -0.209236 0.0700509 -0.0174228 -0.000255532 -0.229339 -0.168752 -0.354542 -0.0727419 -0.156842 -0.117113 0.0154111 -0.200953 0.0864579 -0.0425841 0.0446639 -0.173731 0.00900901 -0.0999739 -0.239834 0.0609624 -0.0163188 0.111565
internal_count=184276 133160 51116 78654 38120 20361 54506 43882 58293 14932 23188 19567 38951 19342 26499 14902 17897 12996 17455 5459 13602 10309 11441 8588 3330 11473 10624 10121 2635 10272
shrinkage=0.05


Tree=1
num_leaves=31
num_cat=0
split_feature=117 89 76 65 44 46 65 75 106 110 42 21 2 43 2 49 90 42 10 87 11 32 77 108 56 108 18 103 36 87
split_gain=867.849 251.748 86.9542 78.6833 34.7499 32.838 30.5289 30.5404 23.7214 20.554 18.4642 19.8458 17.0342 16.9906 16.7127 16.6179 15.2101 14.3791 14.2078 14.1942 13.2249 12.4104 11.6513 11.2481 11.1869 11.1266 10.9908 10.8536 10.6383 10.3502
threshold=1.0000000180025095e-35 -0.46045999999999992 -1.5264499999999999 -1.8689499999999997 0.59923000000000004 1.0000000180025095e-35 -1.6229499999999997 -1.6597499999999996 1.3875500000000003 2.9003500000000004 1.5700500000000004 -1.9529499999999997 -1.4376499999999999 -8.6893999999999973 -2.8407499999999994 -1.3165499999999997 0.70960000000000012 2.0936500000000007 -0.65617999999999987 -4.3377499999999989 -0.45716499999999993 0.99031500000000017 1.1928500000000002 -1.4820499999999999 -1.3623499999999999 -2.7264499999999994 -1.1646499999999997 0.80645500000000014 -1.2428499999999996 0.84617500000000012
decision_type=2 2 2 2 2 2 2 2 2 2 2 2 2 2 2 2 2 2 2 2 2 2 2 2 2 2 2 2 2 2
left_child=1 6 17 5 10 16 27 14 12 20 11 -4 24 -10 -8 23 -3 26 -13 -7 25 -18 28 -15 -5 -6 -2 -1 29 -20
right_child=2 3 4 8 9 19 7 -9 13 -11 -12 18 -14 15 -16 -17 21 -19 22 -21 -22 -23 -24 -25 -26 -27 -28 -29 -30 -31
leaf_value=0.013784115302054584 0.0074717205794800554 0.0070215545395166563 0.0064867424242424244 0.0048113933795227099 0.035714285714285719 -0.0047231270358306194 -0.0027918781725888328 0.013913018466317668 0.015813148788927336 0.004887218045112782 0.0055095277547638774 0.002011972065181244 0.012253400520370189 -0.0041160593792172739 0.017880769523230172 0.0089643415257849128 0.00092179780696469463 0.01231122783978989 -0.0037854889589905363 0.010927795031055901 -0.0055782710280373841 0.007114427860696518 0.0040151515151515159 0.0055880441845354125 0.010367278797996662 -0.00091240875912408756 0.0030618588747280077 0.0091418820087762077 -0.0044082286935613153 0.0050841258229700073
leaf_count=6522 5039 4593 2112 2598 42 307 197 17383 1445 1330 3621 6014 30363 741 26302 14078 8299 1523 1268 5152 10272 2010 1320 3078 5990 3288 6434 4102 7486 1367
internal_value=0 0.233989 0.0172157 0.182801 -0.0168416 0.107117 0.307856 0.324324 0.209236 -0.0700509 0.0174228 0.000255532 0.229339 0.168752 0.354542 0.156842 0.0727419 0.117113 -0.0154111 0.200953 -0.0864579 0.0425841 -0.0446639 0.0741032 0.173731 -0.00900901 0.0999739 0.239834 -0.0609624 0.0163188
internal_count=184276 133160 51116 78654 38120 20361 54506 43882 58293 14932 23188 19567 38951 19342 26499 17897 14902 12996 17455 5459 13602 10309 11441 3819 8588 3330 11473 10624 10121 2635
shrinkage=0.05


Tree=2
num_leaves=31
num_cat=0
split_feature=117 89 76 65 110 46 65 105 16 79 2 8 113 2 42 74 103 91 46 76 4 87 96 49 46 35 46 18 60 42
split_gain=783.453 227.826 78.4798 64.1479 31.3717 28.7937 28.7202 36.0954 23.3574 20.4449 19.0933 17.7563 15.8894 14.2103 12.9816 12.6344 12.3483 11.9154 11.8169 11.7689 11.6797 11.643 10.6891 10.5286 10.5183 10.268 10.1652 9.92061 9.26469 9.22982
threshold=1.0000000180025095e-35 -0.17552499999999996 -1.5264499999999999 -1.8368499999999999 1.6149500000000001 1.0000000180025095e-35 -1.6229499999999997 -1.8517499999999998 -0.27449999999999991 -1.6111499999999996 -1.2372499999999997 -0.90173499999999984 1.0000000180025095e-35 -2.8407499999999994 2.0936500000000007 1.3239500000000002 0.80645500000000014 0.6914450000000002 2.4649500000000004 -1.4837499999999999 -0.75536499999999995 -4.3377499999999989 1.3053000000000001 -0.87728499999999987 -2.0590499999999996 -1.3445499999999997 4.7020500000000007 -1.1646499999999997 3.5681500000000006 -0.80062499999999981
decision_type=2 2 2 2 2 2 2 2 2 2 2 2 2 2 2 2 2 2 2 2 2 2 2 2 2 2 2 2 2 2
left_child=1 6 14 5 8 17 16 13 18 20 19 -12 -13 -8 27 -14 -1 -3 -4 -5 -10 -7 -19 -17 -11 26 -26 -2 -6 -23
right_child=2 3 4 10 28 21 7 -9 9 24 11 12 15 -15 -16 23 -18 22 -20 -21 -22 29 -24 -25 25 -27 -28 -29 -30 -31
leaf_value=-0.013000793689640411 -0.00709853895810758 -0.006316419939544295 -0.0012225467037161491 -0.0036641060065138592 -0.0035276953425085705 0.0041286736389296169 0.0022910831733290514 -0.013183742976748382 -0.0073819096155750084 -0.0014048701149174374 -0.015336828342432893 -0.011147427560868591 -0.0096025904763979569 -0.017175095233008867 -0.011697469673082054 0.0010025493780531939 -0.0083159056716520761 -0.0016580440423197007 0.0045834680487643669 -0.0085835507179737765 0.0017346014288641268 -0.017378214507945838 -0.021694388983231585 -0.0070501015105871537 0.0038142519948195295 0.0088008420582052181 0.018643985861534075 -0.0029087931462694482 0.0045912954805162115 -0.008955429605025848
leaf_count=7224 5039 4553 10945 3049 8273 298 189 25100 1073 1175 3536 22797 7463 23766 1523 1164 4608 9619 2087 12010 2036 770 135 2684 7993 3532 238 6434 768 4195
internal_value=0 -0.222326 -0.0163555 -0.168634 0.0159998 -0.0994911 -0.286067 -0.301154 0.0386218 0.0747421 -0.19431 -0.211336 -0.201447 -0.340429 -0.111262 -0.15811 -0.223523 -0.0665908 -0.00585502 -0.15175 -0.0282347 -0.188936 -0.0387071 -0.0922834 0.0994874 0.112232 0.084861 -0.0949781 -0.0567604 -0.205234
internal_count=184276 133160 51116 72273 38120 19570 60887 49055 29079 16047 52703 37644 34108 23955 12996 11311 11832 14307 13032 15059 3109 5263 9754 3848 12938 11763 8231 11473 9041 4965
shrinkage=0.05


Tree=3
num_leaves=31
num_cat=0
split_feature=117 79 76 44 75 110 65 44 43 116 7 7 16 16 91 113 75 81 42 92 11 105 42 48 18 54 111 107 110 71
split_gain=783.453 220.082 78.4798 66.8015 53.573 31.3717 28.1969 26.4665 17.0627 16.3457 16.3001 15.3792 14.9143 14.2422 14.1333 14.0305 13.8639 13.169 12.9816 12.6547 12.6535 12.141 10.7803 10.4844 9.92061 9.87958 9.87923 9.83177 9.55362 9.37764
threshold=1.0000000180025095e-35 -0.28357499999999997 -1.5264499999999999 -0.69211499999999992 -1.3968499999999999 1.6149500000000001 -1.8368499999999999 0.59923000000000004 -6.9219999999999997 1.0000000180025095e-35 -2.4591999999999996 -1.2253499999999999 -0.25198499999999996 -0.9766149999999999 0.49390500000000009 1.0000000180025095e-35 0.66970000000000007 -0.70961499999999988 2.0936500000000007 -0.96515999999999991 9.0382000000000016 1.6396500000000003 1.5700500000000004 1.6671500000000001 -1.1646499999999997 -3.6860499999999994 -10.882499999999999 1.6899500000000003 -5.6670499999999988 1.62565
decision_type=2 2 2 2 2 2 2 2 2 2 2 2 2 2 2 2 2 2 2 2 2 2 2 2 2 2 2 2 2 2
left_child=1 3 18 6 10 7 14 12 -8 17 29 16 -4 -9 -1 20 -6 -5 24 -15 -12 -10 -14 -13 -2 -23 -21 -19 -17 -3
right_child=2 4 5 9 11 -7 8 13 21 -11 15 23 22 19 -16 28 -18 27 -20 26 -22 25 -24 -25 -26 -27 -28 -29 -30 -31
leaf_value=0.0065503231860679443 0.00709853895810758 0.013028969980535038 0.0022083073340865497 0.0074471754193345318 0.010181391380984575 0.0028380185121519171 0.015338469549969362 -0.0011085464544784633 0.0083875078802322211 0.013133021499538051 0.016913259443991465 0.011980408151953871 -0.002944588152130796 -0.00027636443227457255 0.0016981436850888741 0.022501382558604236 1.9735549590686681e-05 0.011620830774036464 0.011697469673082054 0.015414303866737542 0.025715002605515569 -0.010133475698914263 0.0039580549067200271 0.015492400460321885 0.0029087931462694482 0.0046125350677112716 -0.0079252797535807259 0.0081988310975201744 0.013595887260106932 0.0027421847692159014
leaf_count=4469 5039 1375 7532 10779 7868 9041 1350 4115 9309 7421 21610 18075 8254 1450 9142 641 734 13189 1523 92 849 242 1311 5558 6434 3710 6325 6159 10026 654
internal_value=0 0.222326 0.0163555 0.164127 0.279132 -0.0159998 0.112139 -0.0386218 0.155287 0.203205 0.317321 0.237489 -0.00290428 -0.0895873 0.0658246 0.324859 0.186285 0.188559 0.111262 -0.124851 0.34492 0.139867 -0.0399701 0.256127 0.0949781 0.0741905 -0.151813 0.21063 0.282621 0.194263
internal_count=184276 133160 51116 65770 67390 38120 28222 29079 14611 37548 35155 32235 17097 11982 13611 33126 8602 30127 12996 7867 22459 13261 9565 23633 11473 3952 6417 19348 10667 2029
shrinkage=0.05


Tree=4
num_leaves=31
num_cat=0
split_feature=117 89 76 65 10 44 65 74 89 106 16 29 49 2 91 94 82 42 2 107 10 2 87 87 56 48 113 37 44 103
split_gain=707.629 207.133 70.8373 64.7347 29.199 26.7038 25.7561 25.8447 24.3067 20.1111 20.0133 15.1377 14.598 14.4805 12.7722 12.4629 11.8397 11.7272 11.4723 11.3878 15.8349 10.8556 12.6166 10.1838 9.94906 9.65119 10.251 9.52706 9.47238 9.11383
threshold=1.0000000180025095e-35 -0.46045999999999992 -1.5264499999999999 -1.8689499999999997 -0.9204199999999999 -0.30158999999999997 -1.6229499999999997 -4.3601499999999991 1.1501500000000002 1.3875500000000003 0.97283000000000019 4.6523500000000011 -1.3165499999999997 -1.4376499999999999 0.6914450000000002 1.5972500000000001 -0.53105999999999998 2.0936500000000007 -2.9131999999999993 0.31578500000000004 -0.27728999999999993 -0.90385999999999989 0.107895 -4.3377499999999989 -1.3623499999999999 1.1928500000000002 1.0000000180025095e-35 -1.1581499999999998 3.2499500000000006 0.80645500000000014
decision_type=2 2 2 2 2 2 2 2 2 2 2 2 2 2 2 2 2 2 2 2 2 2 2 2 2 2 2 2 2 2
left_child=1 6 17 5 16 14 29 18 10 13 -6 12 15 24 27 -11 -4 -2 -8 20 21 22 -9 -7 -5 26 -15 -3 -10 -1
right_child=2 3 4 9 8 23 7 19 28 11 -12 -13 -14 25 -16 -17 -18 -19 -20 -21 -22 -23 -24 -25 -26 -27 -28 -29 -30 -31
leaf_value=-0.01243573177463677 -0.0045118449449121642 -0.0030401956357657125 -0.0034612176684498878 -0.0041500268244787225 0.0016359032697866476 0.0036184974988087101 0.014280756063681411 -0.013487412389716028 -0.0021658916968655545 -0.005608208967467436 0.0064074408328234321 -0.012871199596932359 -0.0079286329814283445 -0.011358632542856547 -0.0017862794510613322 0.0033595286082794117 0.0020787155807505319 -0.011117428593372135 -0.017806173855362029 -0.010011586065124561 -0.015666974802114351 -0.013770036281855573 -0.0058816549523311862 -0.0098794773100128949 -0.0093901603186938229 -0.013015733862028199 -0.0080540678358986002 -0.0090719324409328454 0.0049526566449480929 -0.008180690311748777
leaf_count=6522 11473 2573 8844 2598 11701 296 56 2067 6989 2557 7040 2372 13301 14210 9816 1112 2467 1523 10945 3749 15814 8938 2313 5009 5990 9139 7014 2667 1079 4102
internal_value=0 -0.211304 -0.0155386 -0.164871 0.0152004 -0.0962185 -0.278344 -0.293481 0.0406246 -0.188857 0.0685656 -0.151575 -0.136783 -0.207373 -0.0658195 -0.0578026 -0.0450584 -0.105713 -0.352853 -0.273621 -0.283068 -0.247121 -0.189417 -0.182521 -0.156094 -0.22188 -0.20533 -0.122203 -0.0242776 -0.215849
internal_count=184276 133160 51116 78654 38120 20361 54506 43882 26809 58293 18741 19342 16970 38951 15056 3669 11311 12996 11001 32881 29132 13318 4380 5305 8588 30363 21224 5240 8068 10624
shrinkage=0.05


Tree=5
num_leaves=31
num_cat=0
split_feature=117 89 44 65 46 65 74 43 106 10 66 61 16 16 2 74 53 90 87 2 107 10 113 32 2 87 63 48 113 58
split_gain=707.629 207.133 68.6481 64.7347 26.9211 25.7561 25.8447 23.3902 20.1111 19.5637 19.0895 15.7456 14.6835 14.598 14.4805 14.0709 12.9243 12.2909 12.1803 11.4723 11.3878 15.8349 11.38 11.09 10.8556 12.6166 9.65309 9.65119 10.251 9.52238
threshold=1.0000000180025095e-35 -0.46045999999999992 -0.22659999999999997 -1.8689499999999997 1.0000000180025095e-35 -1.6229499999999997 -4.3601499999999991 1.8452500000000003 1.3875500000000003 -0.98859499999999989 0.22004500000000002 1.9167500000000002 1.1531500000000003 0.97283000000000019 -1.4376499999999999 -3.0981499999999995 -1.5277499999999999 0.70960000000000012 -4.3377499999999989 -2.9131999999999993 0.31578500000000004 -0.27728999999999993 1.0000000180025095e-35 0.99031500000000017 -0.90385999999999989 0.107895 -1.4933499999999997 1.1928500000000002 1.0000000180025095e-35 -8.9110999999999994
decision_type=2 2 2 2 2 2 2 2 2 2 2 2 2 2 2 2 2 2 2 2 2 2 2 2 2 2 2 2 2 2
left_child=1 5 7 4 17 29 19 10 14 -4 13 16 -11 15 -5 -2 -10 -3 -6 -7 21 24 -13 -19 25 -8 -17 28 -16 -1
right_child=2 3 9 8 18 6 20 -9 11 12 -12 22 -14 -15 27 26 -18 23 -20 -21 -22 -23 -24 -25 -26 -27 -28 -29 -30 -31
leaf_value=0.0055208331979217824 0.0010623296567043019 0.0062976523172122338 0.0011795598548886 0.0078047136341153449 -0.0046225830319237913 -0.014280756063681411 0.013487412389716028 0.008906458605117646 0.00093767833396027768 -0.002146726130565677 -0.0032667279981817704 0.012265543359422603 -0.00685129460220149 0.00033606352036918925 0.011358632542856547 0.001133704892147239 0.0070775065425715909 0.00075808654118987801 0.0098758394304238571 0.017806173855362029 0.010011586065124561 0.015666974802114351 0.0062779119260749795 0.0066122774006008109 0.013770036281855573 0.0058816549523311862 0.0064292504118947423 0.013015733862028199 0.0080540678358986002 0.011643098507820138
leaf_count=1476 5298 4593 5768 8588 307 56 2067 2963 2061 10338 2776 4679 4885 7541 14210 2105 10199 8299 5152 10945 3749 15814 2403 2010 8938 2313 9442 9139 7014 9148
internal_value=0 0.211304 0.0155386 0.164871 0.0962185 0.278344 0.293481 0.0588023 0.188857 -0.0465503 0.0457875 0.151575 -0.0731273 0.0584376 0.207373 0.0815896 0.120904 0.0650969 0.181203 0.352853 0.273621 0.283068 0.204676 0.0379885 0.247121 0.189417 0.109277 0.22188 0.20533 0.215849
internal_count=184276 133160 51116 78654 20361 54506 43882 30125 58293 20991 27162 19342 15223 24386 38951 16845 12260 14902 5459 11001 32881 29132 7082 10309 13318 4380 11547 30363 21224 10624
shrinkage=0.05


Tree=6
num_leaves=31
num_cat=0
split_feature=117 89 44 44 65 89 69 42 50 110 1 13 113 2 108 2 96 58 73 16 44 110 43 72 90 32 21 13 36 26
split_gain=639.444 188.086 63.5205 54.1438 32.4057 24.4922 23.5362 21.7558 18.5783 18.0363 16.6769 15.1492 14.0495 13.4251 12.7182 12.5708 13.2218 12.1566 11.93 12.4667 12.0322 11.4404 10.7564 10.6877 10.5757 11.109 10.4404 10.302 10.296 10.0534
threshold=1.0000000180025095e-35 -0.17552499999999996 -0.22659999999999997 -0.69173999999999991 -1.92655 -2.1628499999999993 -1.6833499999999997 1.9619000000000002 -0.45405999999999996 2.9003500000000004 -0.18886499999999998 -0.43218499999999999 1.0000000180025095e-35 -2.8407499999999994 -2.3287999999999998 -1.5140499999999999 0.3589750000000001 -1.5734499999999996 0.28468500000000002 -1.8842999999999999 3.2499500000000006 5.2973000000000008 1.6900500000000001 -1.3995499999999998 0.6056600000000002 0.71238000000000012 -1.7370499999999998 -2.0843499999999993 -1.5882499999999997 -10.190499999999998
decision_type=2 2 2 2 2 2 2 2 2 2 2 2 2 2 2 2 2 2 2 2 2 2 2 2 2 2 2 2 2 2
left_child=1 5 7 4 24 6 -1 8 21 11 27 29 15 -8 -7 26 -17 -12 19 -13 -20 -2 -14 -10 -3 -26 -5 -6 -25 -4
right_child=2 3 9 12 10 14 13 -9 23 -11 17 18 22 -15 -16 16 -18 -19 20 -21 -22 -23 -24 28 25 -27 -28 -29 -30 -31
leaf_value=-0.010322081480898027 -0.0033748153816001076 -0.0062716016511340849 -0.020855092476342638 -0.00084490961486251509 -0.0012506407688800368 -0.0053540195787499219 0.0039805996569736548 -0.0082907696821615702 -0.0016176644906972992 -0.0042053670336759698 -0.016336549701489334 -6.3380651273044873e-05 -0.0084756184958138196 -0.015570611349054393 -0.011910171250055385 -0.010410013912333878 -0.015815419741965885 -0.0085684003345578557 -0.00060420568201621533 0.0071905148741536785 0.0059665941830828149 -0.014703912426066237 -0.0035093600797959472 -0.0067419569178537161 -0.00032332956457074857 -0.0058558173786116682 -0.0087336220518093848 -0.0066191402986623517 0.0042544398819918307 3.7439973380605405e-05
leaf_count=5621 15463 3251 118 1012 2324 1557 177 3244 6883 1963 1167 1445 10657 23191 30341 18375 2584 7423 3921 6577 2162 459 2744 483 7676 2377 4922 7761 3593 4805
internal_value=0 -0.200879 -0.0147627 -0.152091 -0.108633 -0.258856 -0.288647 -0.0563812 -0.0431805 0.0449635 -0.146654 0.0582794 -0.186594 -0.308444 -0.2318 -0.205246 -0.221526 -0.19247 0.0818562 0.117675 0.0346222 -0.0740277 -0.149171 0.00163459 -0.0552988 -0.0326263 -0.147765 -0.107639 0.0590276 -0.00926645
internal_count=184276 133160 51116 72273 31979 60887 28989 30125 26881 20991 18675 19028 40294 23368 31898 26893 20959 8590 14105 8022 6083 15922 13401 10959 13304 10053 5934 10085 4076 4923
shrinkage=0.05


Tree=7
num_leaves=31
num_cat=0
split_feature=117 89 76 44 65 44 89 69 110 1 75 10 113 2 108 2 96 17 58 16 42 43 92 46 90 32 11 13 16 73
split_gain=639.444 188.086 65.245 54.1438 32.4057 27.402 24.4922 23.5362 16.9185 16.6769 15.587 15.7776 14.0495 13.4251 12.7182 12.5708 13.2218 12.536 12.1566 11.8255 10.9731 10.7564 10.6532 10.6463 10.5757 11.109 10.326 10.302 9.9685 9.81176
threshold=1.0000000180025095e-35 -0.17552499999999996 -1.5264499999999999 -0.69173999999999991 -1.92655 0.59923000000000004 -2.1628499999999993 -1.6833499999999997 2.9003500000000004 -0.18886499999999998 1.3569500000000001 -0.9204199999999999 1.0000000180025095e-35 -2.8407499999999994 -2.3287999999999998 -1.5140499999999999 0.3589750000000001 -1.5466499999999999 -1.5734499999999996 2.9726000000000004 2.2153500000000004 1.6900500000000001 -1.6285499999999999 -2.1134499999999998 0.6056600000000002 0.71238000000000012 -1.4672499999999997 -2.0843499999999993 -0.079676999999999984 0.44421500000000008
decision_type=2 2 2 2 2 2 2 2 2 2 2 2 2 2 2 2 2 2 2 2 2 2 2 2 2 2 2 2 2 2
left_child=1 6 20 4 24 10 7 -1 19 27 11 -4 15 -9 -8 17 -17 -5 -11 26 -2 -14 -21 -13 -3 -26 -7 -6 -12 -28
right_child=2 3 5 12 9 8 14 13 -10 18 28 23 21 -15 -16 16 -18 -19 -20 22 -22 -23 -24 -25 25 -27 29 -29 -30 -31
leaf_value=0.010322081480898027 0.0044219018022935335 0.0062716016511340849 0.0028680033446173564 0.0014598248712134401 0.0012506407688800368 0.0084429465966175034 0.0053540195787499219 -0.0039805996569736548 0.0045123755130308443 0.016336549701489334 0.0079081404217907231 0.0024713220436582512 0.0084756184958138196 0.015570611349054393 0.011910171250055385 0.010410013912333878 0.015815419741965885 0.0091712322378646721 0.0085684003345578557 0.016632778578241109 0.011626405003974277 0.0035093600797959472 -0.012933693348917655 -0.0025355945459321037 0.00032332956457074857 0.0058558173786116682 -0.0051479747264455283 0.0066191402986623517 0.0010050027024214921 -0.001003729586525434
leaf_count=5621 11834 3251 6147 1372 2324 367 1557 177 1330 1167 2238 2685 10657 23191 30341 18375 2584 4562 7423 65 1162 2744 976 10154 7676 2377 7626 7761 1964 4568
internal_value=0 0.200879 0.0147627 0.152091 0.108633 -0.0147374 0.258856 0.288647 -0.0619911 0.146654 0.0156898 -0.00155993 0.186594 0.308444 0.2318 0.205246 0.221526 0.147765 0.19247 -0.0768781 0.101312 0.149171 -0.221746 -0.0297697 0.0552988 0.0326263 -0.0648739 0.107639 0.0936322 -0.071909
internal_count=184276 133160 51116 72273 31979 38120 60887 28989 14932 18675 23188 18986 40294 23368 31898 26893 20959 5934 8590 13602 12996 13401 1041 12839 13304 10053 12561 10085 4202 12194
shrinkage=0.05


Tree=8
num_leaves=31
num_cat=0
split_feature=117 89 76 65 110 46 65 74 44 5 43 74 56 16 92 87 32 113 106 10 43 96 1 97 42 2 44 56 39 32
split_gain=578.033 170.676 60.2024 53.3788 25.3788 22.0363 21.6343 22.1782 20.6204 17.3815 13.1152 14.9053 12.8704 12.0797 11.2955 11.0071 10.5519 10.0152 10.0193 14.0683 10.8093 9.99628 14.7342 11.2254 9.76428 9.74035 9.41197 9.40322 9.16383 9.12538
threshold=1.0000000180025095e-35 -0.46045999999999992 -1.5264499999999999 -1.8689499999999997 1.6149500000000001 1.0000000180025095e-35 -1.6229499999999997 -4.3601499999999991 0.59923000000000004 -2.4001499999999996 -6.7578499999999986 1.1768500000000002 -0.7545099999999999 -0.9766149999999999 -0.96515999999999991 -4.3377499999999989 -1.0422499999999999 1.0000000180025095e-35 -0.26734999999999992 -0.98859499999999989 -1.0541499999999997 -1.0811499999999998 -2.6494999999999997 1.95245 1.5700500000000004 -2.9131999999999993 -0.32709499999999997 -0.50993499999999992 -0.41079499999999997 1.8488000000000002
decision_type=2 2 2 2 2 2 2 2 2 2 2 2 2 2 2 2 2 2 2 2 2 2 2 2 2 2 2 2 2 2
left_child=1 6 16 5 8 21 -1 25 12 29 -11 -12 -4 -10 -15 -7 -2 18 19 20 -9 23 -23 -3 28 -8 -13 -18 -14 -5
right_child=2 3 4 9 -6 15 7 17 13 10 11 26 24 14 -16 -17 27 -19 -20 -21 -22 22 -24 -25 -26 -27 -28 -29 -30 -31
leaf_value=-0.0097319905234770007 -0.01655542944364893 0.00086250767666847374 -0.0020653829908114595 -0.0045433731914025386 -0.002556739619817408 0.0048345232531515963 0.013372299628933604 -0.013589826995653165 0.00087825858496227418 -0.013574108684942118 -0.0096990390802046203 -0.0052754975589587192 0.0054667741864794965 -3.0062661122950904e-05 0.0068808900442381502 -0.0089485984183833352 -0.0057830620408454991 -0.010606305301838276 -0.010324974880576805 -0.015419275404695393 -0.007244033188006687 0.0075994339248354817 -0.0050291068059346508 -0.0073692431302027836 -0.0041348891941360112 -0.016198691466135975 -0.0086572890897815887 -0.0015807142655149672 0.00075040060039829773 -0.010327502825330353
leaf_count=10624 375 4693 7396 7165 9041 307 56 3462 4115 3015 29904 7848 3501 1450 6417 5152 8802 10814 4668 11733 2204 488 8715 1006 1195 10945 8674 3819 5005 1687
internal_value=0 -0.191008 -0.014026 -0.148856 0.014311 -0.0865064 -0.251954 -0.26585 0.0346596 -0.170655 -0.180998 -0.175125 0.0031331 0.0796527 0.112137 -0.163446 -0.0971715 -0.247439 -0.264747 -0.280389 -0.222423 -0.0583552 -0.0871883 -0.0118103 0.0370146 -0.320951 -0.141015 -0.0902267 0.0538319 -0.112911
internal_count=184276 133160 51116 78654 38120 20361 54506 43882 29079 58293 49441 46426 17097 11982 7867 5459 12996 32881 22067 17399 5666 14902 9203 5699 9701 11001 16522 12621 8506 8852
shrinkage=0.05


Tree=9
num_leaves=31
num_cat=0
split_feature=118 89 76 69 110 65 74 46 44 5 43 74 16 16 92 87 32 90 32 113 106 10 43 42 44 32 5 42 26 58
split_gain=578.033 170.676 60.2024 53.3935 25.3788 21.6343 22.1782 20.7951 20.6204 17.5285 13.011 14.6705 12.4364 12.0797 11.2955 10.8201 10.5519 10.4249 10.3312 10.0152 10.0193 14.0683 10.8093 9.59233 9.50405 9.47226 9.38329 9.31978 9.0065 8.93587
threshold=1.0000000180025095e-35 -0.46045999999999992 -1.5264499999999999 -1.8540499999999998 1.6149500000000001 -1.6229499999999997 -4.3601499999999991 1.0000000180025095e-35 0.59923000000000004 -2.4001499999999996 -6.7578499999999986 1.1768500000000002 -0.25198499999999996 -0.9766149999999999 -0.96515999999999991 -4.3377499999999989 -1.0422499999999999 0.70960000000000012 0.99031500000000017 1.0000000180025095e-35 -0.26734999999999992 -0.98859499999999989 -1.0541499999999997 1.5700500000000004 -0.32709499999999997 1.8488000000000002 -3.4954499999999995 -0.95917999999999992 1.1095500000000003 -8.9110999999999994
decision_type=2 2 2 2 2 2 2 2 2 2 2 2 2 2 2 2 2 2 2 2 2 2 2 2 2 2 2 2 2 2
left_child=2 5 16 7 8 29 -7 17 12 25 -11 -12 -4 -10 -15 -9 -1 26 -19 20 21 22 -8 -14 -13 -5 -3 28 -17 -2
right_child=1 3 4 9 -6 6 19 15 13 10 11 24 23 14 -16 27 -18 18 -20 -21 -22 -23 -24 -25 -26 -27 -28 -29 -30 -31
leaf_value=0.01655542944364893 0.0046224842945391349 -0.0061167276421303842 0.001992535140154027 0.0045126458537984243 0.002556739619817408 0.016047525767590633 0.013589826995653165 -0.0048345232531515963 -0.00087825858496227418 0.013580461892805229 0.0097065096045766477 0.0052718447014874978 -0.002741540966709003 3.0062661122950904e-05 -0.0068808900442381502 0.017939763315034121 0.0045113337559589848 0.00065802561955519655 0.0062689670219015867 0.010606305301838276 0.010324974880576805 0.015419275404695393 0.007244033188006687 0.0037699971804082697 0.0086834448946960293 0.010420822684326722 0.0066195488552089014 0.0075485524963284202 -0.010563363914184243 0.0105568164768093
leaf_count=375 1476 310 7532 7135 9041 11001 3462 307 4115 3001 29795 7750 8254 1450 6417 747 12621 8400 2040 10814 4668 11733 2204 1311 8652 1678 4361 4418 60 9148
internal_value=0 0.191008 0.014026 0.148856 -0.014311 0.251954 0.26585 0.087075 -0.0346596 0.170861 0.181277 0.175412 -0.0031331 -0.0796527 -0.112137 0.161328 0.0971715 0.0599239 0.0350815 0.247439 0.264747 0.280389 0.222423 -0.0369816 0.141426 0.112748 0.115484 0.176512 0.316409 0.19464
internal_count=184276 133160 51116 78654 38120 54506 43882 20643 29079 58011 49198 46197 17097 11982 7867 5532 12996 15111 10440 32881 22067 17399 5666 9565 16402 8813 4671 5225 807 10624
shrinkage=0.05


Tree=10
num_leaves=31
num_cat=0
split_feature=117 89 76 11 10 89 89 69 106 103 16 41 2 2 48 108 88 103 43 91 7 83 79 46 66 21 6 68 85 45
split_gain=522.685 155.211 54.3464 43.3064 24.3001 20.636 19.7322 19.5307 18.9297 17.9479 17.0787 14.2869 12.6356 12.4482 11.3002 11.1956 10.8699 10.183 9.99 9.38735 9.14765 9.75866 8.73621 8.66438 8.64303 8.58131 8.55019 8.41024 8.27052 8.25553
threshold=1.0000000180025095e-35 -0.17552499999999996 -1.5264499999999999 -1.5846499999999997 -0.9204199999999999 -2.1628499999999993 1.1501500000000002 -1.6833499999999997 1.3875500000000003 0.8757250000000002 0.97283000000000019 5.8085000000000013 -2.0292499999999998 -1.6696499999999996 0.24045000000000002 -2.3287999999999998 -0.52049499999999982 -1.3787499999999999 2.0166500000000007 -1.0669499999999996 -2.2214499999999995 -1.6093499999999998 4.8400500000000006 -1.9818999999999998 8.2700500000000012 -1.7894499999999998 -2.3340999999999998 3.6936500000000003 -1.5253499999999998 -1.3237499999999998
decision_type=2 2 2 2 2 2 2 2 2 2 2 2 2 2 2 2 2 2 2 2 2 2 2 2 2 2 2 2 2 2
left_child=1 5 18 9 16 7 10 29 13 28 23 14 17 -5 -10 -7 26 -9 24 -15 -11 -22 -14 -6 -2 -20 -4 -13 -3 -1
right_child=2 3 4 8 6 15 -8 12 11 20 -12 27 22 19 -16 -17 -18 -19 25 -21 21 -23 -24 -25 -26 -27 -28 -29 -30 -31
leaf_value=-0.0075938336287028306 -0.0041685142378636514 -0.0023130726413240028 0.0031879628858900951 -0.005846888668902742 -0.0038586865351938147 -0.0046239709157684791 -0.0010843127435426359 -0.018276743684118416 -0.0040728971044698787 0.0074477882116214108 0.0058514003670518348 -0.0088516401866896056 -0.013280771669600094 -0.013149422686776269 -0.0074522557961472172 -0.010778912575009696 0.0020234453222389218 -0.0057970696125992883 -0.024571027684463523 -0.0088613978599289666 6.3125097182138804e-05 -0.0097667212445307454 -0.016185843318168015 0.0021413655080574144 0.016710833330384221 -0.0081739032264782196 -0.0039997148491370572 -0.018470479131546261 -0.0073506538637705642 -0.013552954395492259
leaf_count=3970 11695 2627 925 6493 1362 1557 8068 420 12249 715 7040 2136 12504 2825 8322 30341 2522 1514 190 27314 4135 576 8930 10339 100 1011 7864 579 4302 1651
internal_value=0 -0.181653 -0.0133263 -0.137329 0.0135966 -0.234416 0.0367933 -0.261816 -0.153072 -0.0610618 0.0619722 -0.121524 -0.279899 -0.173142 -0.108794 -0.209559 -0.041378 -0.170126 -0.0923355 -0.185263 -0.000130711 -0.0227653 -0.289813 0.0288573 -0.0798286 -0.215348 -0.0648649 -0.218068 -0.108792 -0.186879
internal_count=184276 133160 51116 72273 38120 60887 26809 28989 59918 12355 18741 23286 23368 36632 20571 31898 11311 1934 12996 30139 5426 4711 21434 11701 11795 1201 8789 2715 6929 5621
shrinkage=0.05


Tree=11
num_leaves=31
num_cat=0
split_feature=117 89 76 11 10 89 89 69 106 103 16 41 2 2 48 108 88 103 43 91 94 7 83 79 46 66 21 5 6 14
split_gain=522.685 155.211 54.3464 43.3064 24.3001 20.636 19.7322 19.5307 18.9297 17.9479 17.0787 14.2869 12.6356 12.4482 11.3002 11.1956 10.8699 10.183 9.99 9.38735 9.30807 9.14765 9.75866 8.73621 8.66438 8.64303 8.58131 8.56311 8.55019 8.51762
threshold=1.0000000180025095e-35 -0.17552499999999996 -1.5264499999999999 -1.5846499999999997 -0.9204199999999999 -2.1628499999999993 1.1501500000000002 -1.6833499999999997 1.3875500000000003 0.8757250000000002 0.97283000000000019 5.8085000000000013 -2.0292499999999998 -1.6696499999999996 0.24045000000000002 -2.3287999999999998 -0.52049499999999982 -1.3787499999999999 2.0166500000000007 -1.0669499999999996 2.2442000000000006 -2.2214499999999995 -1.6093499999999998 4.8400500000000006 -1.9818999999999998 8.2700500000000012 -1.7894499999999998 5.5134000000000007 -2.3340999999999998 8.379150000000001
decision_type=2 2 2 2 2 2 2 2 2 2 2 2 2 2 2 2 2 2 2 2 2 2 2 2 2 2 2 2 2 2
left_child=1 5 18 9 16 7 10 -1 13 -3 24 14 17 -5 -10 -7 28 -9 25 -15 -13 -11 -23 -14 -6 -2 -20 -25 -4 -29
right_child=2 3 4 8 6 15 -8 12 11 21 -12 20 23 19 -16 -17 -18 -19 26 -21 -22 22 -24 27 -26 -27 -28 29 -30 -31
leaf_value=0.0093439327140296038 0.0041685142378636514 0.0054396233158920376 -0.0031879628858900951 0.005846888668902742 0.0038586865351938147 0.0046239709157684791 0.0010843127435426359 0.018276743684118416 0.0040728971044698787 -0.0074477882116214108 -0.0058514003670518348 0.012822027078138313 0.013280771669600094 0.013149422686776269 0.0074522557961472172 0.010778912575009696 -0.0020234453222389218 0.0057970696125992883 0.024571027684463523 0.0088613978599289666 0.0019472194065648194 -6.3125097182138804e-05 0.0097667212445307454 0.01655716877211591 -0.0021413655080574144 -0.016710833330384221 0.0081739032264782196 0.017326828565763962 0.0039997148491370572 -0.0090401840339808578
leaf_count=5621 11695 6929 925 6493 1362 1557 8068 420 12249 715 7040 2236 12504 2825 8322 30341 2522 1514 190 27314 479 4135 576 8682 10339 100 1011 115 7864 133
internal_value=0 0.181653 0.0133263 0.137329 -0.0135966 0.234416 -0.0367933 0.261816 0.153072 0.0610618 -0.0619722 0.121524 0.279899 0.173142 0.108794 0.209559 0.041378 0.170126 0.0923355 0.185263 0.218068 0.000130711 0.0227653 0.289813 -0.0288573 0.0798286 0.215348 0.323717 0.0648649 0.0637281
internal_count=184276 133160 51116 72273 38120 60887 26809 28989 59918 12355 18741 23286 23368 36632 20571 31898 11311 1934 12996 30139 2715 5426 4711 21434 11701 11795 1201 8930 8789 248
shrinkage=0.05


Tree=12
num_leaves=31
num_cat=0
split_feature=117 89 44 69 76 65 75 46 34 5 16 11 27 21 2 43 106 42 44 36 41 90 32 103 27 76 5 68 58 64
split_gain=472.747 141.105 50.6654 45.9865 22.0264 18.2695 19.1747 17.7175 15.601 15.2512 14.2969 14.2969 12.1654 12.1177 11.6584 11.3486 11.5232 11.1484 9.74764 9.5785 9.17404 9.15096 9.51153 9.08769 9.45258 8.93151 8.59924 8.55834 8.38317 11.1403
threshold=1.0000000180025095e-35 -0.46045999999999992 -0.22659999999999997 -1.8540499999999998 -1.5465499999999996 -1.6229499999999997 -1.6597499999999996 1.0000000180025095e-35 -2.2579499999999997 -1.7084499999999998 1.1531500000000003 -1.7513499999999997 1.5989500000000001 -1.9529499999999997 -2.8407499999999994 -6.7578499999999986 1.3875500000000003 1.5700500000000004 3.5818500000000006 10.936500000000002 -31.686499999999999 0.70960000000000012 0.99031500000000017 -3.4557499999999997 0.25537500000000007 -0.12190499999999999 -3.4954499999999995 0.80060000000000009 -8.9110999999999994 -0.14520499999999997
decision_type=2 2 2 2 2 2 2 2 2 2 2 2 2 2 2 2 2 2 2 2 2 2 2 2 2 2 2 2 2 2
left_child=1 5 4 7 12 28 14 21 20 11 18 -5 27 -6 -7 -11 -17 -15 -10 -18 -4 26 -23 25 -25 -9 -3 -2 29 -1
right_child=2 3 8 9 13 6 -8 23 10 15 -12 -13 -14 17 -16 16 19 -19 -20 -21 -22 22 -24 24 -26 -27 -28 -29 -30 -31
leaf_value=0.0040979025337237714 -0.0033064908914333876 0.0061773986829362828 -0.031142309593034784 0.0024345573274063186 -0.0060601292947740559 0.0038865672733501438 -0.01022678965079124 -0.0081587635465406559 0.00072611030197323697 -0.012828990918922699 0.0071821593718090718 -0.006327698919870982 -0.01381259071305789 0.0003895625599857285 -0.013388610052191583 -0.0088787888485116189 -0.0065318802762477871 -0.0047610963388678386 0.0056900060157047952 0.011406095068833239 -0.0004368211847869898 -0.00038708879124870811 -0.0057720938331039268 -0.012267871409168643 -0.0058728824053370697 0.0092414023308454458 -0.0060161952350660458 -0.0082240123130840666 -0.0095799194560387962 -0.0086045628270779075
leaf_count=555 8341 310 49 1006 2109 197 17383 281 7437 2711 3704 12753 728 14232 26302 28852 12538 2466 2696 151 7105 8400 2040 1860 3079 312 4361 2249 9148 921
internal_value=0 -0.172779 -0.0126619 -0.134451 -0.0498381 -0.228315 -0.241118 -0.0771015 0.0406877 -0.154896 0.0684164 -0.113728 -0.0991663 -0.0201778 -0.265184 -0.167708 -0.161917 -0.00741957 0.0409339 -0.126369 -0.0129434 -0.0520456 -0.0287731 -0.145704 -0.165604 0.0199058 -0.104126 -0.0870139 -0.175597 -0.0765449
internal_count=184276 133160 51116 78654 30125 54506 43882 20643 20991 58011 13837 13759 11318 18807 26499 44252 41541 16698 10133 12689 7154 15111 10440 5532 4939 593 4671 10590 10624 1476
shrinkage=0.05


Tree=13
num_leaves=31
num_cat=0
split_feature=117 89 44 69 76 65 75 46 34 106 16 57 27 21 2 42 2 44 87 41 90 32 42 27 1 39 74 110 26 2
split_gain=472.747 141.105 50.6654 45.9865 22.0264 18.2695 19.1747 17.7175 15.601 15.1614 14.2969 14.1326 12.1654 12.1177 11.6584 11.1484 10.6718 9.74764 9.73972 9.17404 9.15096 9.51153 8.77022 8.70874 8.70779 8.6262 9.85908 10.1256 8.61591 8.56918
threshold=1.0000000180025095e-35 -0.46045999999999992 -0.22659999999999997 -1.8540499999999998 -1.5465499999999996 -1.6229499999999997 -1.6597499999999996 1.0000000180025095e-35 -2.2579499999999997 1.3875500000000003 1.1531500000000003 1.4636500000000001 1.5989500000000001 -1.9529499999999997 -2.8407499999999994 1.5700500000000004 -1.4376499999999999 3.5818500000000006 -4.3377499999999989 -31.686499999999999 0.70960000000000012 0.99031500000000017 -0.95917999999999992 -1.7436499999999999 -1.3919499999999998 0.99850000000000005 1.1954500000000003 4.3588500000000012 1.1095500000000003 -2.2906499999999999
decision_type=2 2 2 2 2 2 2 2 2 2 2 2 2 2 2 2 2 2 2 2 2 2 2 2 2 2 2 2 2 2
left_child=1 5 4 7 12 -1 14 20 19 16 17 -11 -2 -6 -7 25 -5 -10 -9 -4 29 -22 28 -13 -25 26 27 -15 -20 -3
right_child=2 3 8 9 13 6 -8 18 10 11 -12 23 -14 15 -16 -17 -18 -19 22 -21 21 -23 -24 24 -26 -27 -28 -29 -30 -31
leaf_value=0.0087798579778358837 0.0043506974370063197 -0.0039177949938656613 0.031142309593034784 0.0063428326625500492 0.0060601292947740559 -0.0038865672733501438 0.01022678965079124 -0.004954395394192743 -0.00072611030197323697 0.0035022171466015566 -0.0071821593718090718 0.012026913333767566 0.01381259071305789 -0.0028663606630189454 0.013388610052191583 0.0047610963388678386 0.0091770166168849525 -0.0056900060157047952 0.016877548144303846 0.0004368211847869898 0.00038708879124870811 0.0057720938331039268 0.0067673148803190754 0.0037658176818934925 0.0081205804621905242 0.0021394289975159536 0.0042052440186669815 0.012752258935313995 -0.011014606320255263 0.0062132346920116648
leaf_count=10624 10590 464 49 8543 2109 197 17383 307 7437 6720 3704 1841 728 8168 26302 2466 30231 2696 747 7105 8400 2040 4418 3355 7321 4576 1275 213 60 4207
internal_value=0 0.172779 0.0126619 0.134451 0.0498381 0.228315 0.241118 0.0771015 -0.0406877 0.154896 -0.0684164 0.122407 0.0991663 0.0201778 0.265184 0.00741957 0.171036 -0.0409339 0.145704 0.0129434 0.0520456 0.0287731 0.160133 0.150532 0.135034 -0.00779125 -0.0317616 -0.0493888 0.296012 0.104126
internal_count=184276 133160 51116 78654 30125 54506 43882 20643 20991 58011 13837 19237 11318 18807 26499 16698 38774 10133 5532 7154 15111 10440 5225 12517 10676 14232 9656 8381 807 4671
shrinkage=0.05


Tree=14
num_leaves=31
num_cat=0
split_feature=79 105 71 113 74 43 7 113 113 79 103 38 85 83 3 29 7 53 35 47 100 88 31 71 81 103 56 73 7 31
split_gain=95.7668 30.2195 25.7064 23.211 18.3941 15.027 12.3286 11.2008 10.4904 11.2881 11.1912 9.71985 9.14199 10.2326 8.53981 8.33474 8.30334 8.27927 8.15089 7.97844 8.47385 7.89105 7.78133 7.60874 7.55034 7.24945 7.22767 6.88148 7.64475 6.86189
threshold=-0.36884999999999996 -1.3061499999999999 -13.030999999999999 1.0000000180025095e-35 5.5025500000000003 -1.5245499999999998 -1.2253499999999999 1.0000000180025095e-35 1.0000000180025095e-35 4.6670500000000006 0.53652000000000011 -2.8380499999999995 1.7726500000000003 -1.4522499999999996 16.169500000000003 1.9316500000000001 -2.5441499999999997 0.32309000000000004 -1.5377499999999997 2.1801500000000007 -1.7812499999999998 25.360000000000003 22.575000000000006 4.7037500000000003 6.0827500000000008 -4.408599999999999 -1.4205499999999998 1.7424500000000001 -2.8748499999999995 -0.98995499999999981
decision_type=2 2 2 2 2 2 2 2 2 2 2 2 2 2 2 2 2 2 2 2 2 2 2 2 2 2 2 2 2 2
left_child=2 8 -1 4 12 -5 18 25 11 -10 22 -2 13 19 15 16 -13 -14 -3 20 -4 -22 26 -21 -12 -8 -11 -15 -29 -7
right_child=1 6 3 5 -6 29 7 -9 9 10 24 14 17 27 -16 -17 -18 -19 -20 23 21 -23 -24 -25 -26 -27 -28 28 -30 -31
leaf_value=-0.0015741445043977839 -0.0053605639104383693 -0.002829709251190346 0.00087329564187282795 -0.0070023729533054361 -0.011001775851589277 -0.00039100951447490625 0.0018541547822780611 -0.0051887109363711915 -0.0058533643031112963 -0.0084693965709823939 -0.0071920357231299017 -0.0046582711227149765 -0.0052016647047572759 -0.007214181988160733 0.0058042371881825002 -0.02520389676134914 -0.010272282415317406 -0.008840954601162479 -0.006607632253546953 -0.0076817396969345794 -0.0042041505756912276 0.0052174192126726651 -0.0023418939664169532 0.006798723603178989 0.0088769004296954685 -0.0081348528419150235 -0.015987728493859075 0.011846377944316642 -0.0040140739804994515 -0.0032210187133756354
leaf_count=13108 2443 6806 2002 4281 3201 6068 371 10642 9183 934 2178 1390 5960 10972 171 183 28507 6611 4953 3753 18189 457 341 191 158 22466 2079 166 1825 14687
internal_value=0 -0.154085 -0.0894676 -0.099185 -0.115886 -0.0636179 -0.12788 -0.141751 -0.179087 -0.147834 -0.197539 -0.193308 -0.109244 -0.0981799 -0.200267 -0.202066 -0.200217 -0.142302 -0.0884131 -0.0812095 -0.0700652 -0.0794664 -0.250103 -0.139589 -0.122096 -0.159452 -0.273119 -0.130378 -0.0538168 -0.0478706
internal_count=184276 92805 91471 78363 53327 25036 45238 33479 47567 14873 5690 32694 50126 37555 30251 30080 29897 12571 11759 24592 20648 18646 3354 3944 2336 22837 3013 12963 1991 20755
shrinkage=0.05


Tree=15
num_leaves=31
num_cat=0
split_feature=117 79 44 44 75 56 13 13 7 7 113 34 116 106 81 16 90 13 8 16 73 13 43 7 42 79 103 18 87 55
split_gain=427.686 129.376 45.7331 40.3148 34.5448 18.9746 15.8181 15.1245 13.7234 13.2651 13.5864 11.9922 11.8873 11.8685 10.982 10.9082 10.2804 10.2728 9.9319 9.72068 11.4317 11.0898 9.55658 9.36579 9.31605 8.90842 10.8071 8.88027 8.86077 8.84432
threshold=1.0000000180025095e-35 -0.36884999999999996 -0.22659999999999997 -0.30273499999999992 -0.74797499999999995 -0.50993499999999992 -1.4030499999999997 -0.41616499999999995 -1.1494499999999996 -2.5892499999999994 1.0000000180025095e-35 -1.1968499999999997 1.0000000180025095e-35 1.1067500000000001 -1.7347499999999998 -1.8842999999999999 0.6056600000000002 5.5459500000000004 0.75090500000000004 0.8608300000000001 -3.4449999999999998 -3.6463499999999995 2.1885500000000007 -2.2214499999999995 -15.054499999999999 4.6670500000000006 0.53652000000000011 -0.90009499999999998 3.7630500000000002 3.4730000000000003
decision_type=2 2 2 2 2 2 2 2 2 2 2 2 2 2 2 2 2 2 2 2 2 2 2 2 2 2 2 2 2 2
left_child=1 3 5 6 9 22 23 24 16 -3 17 -9 -5 -7 18 -13 -6 19 27 20 -11 -21 -2 -1 -4 -12 -27 -8 -10 -24
right_child=2 4 7 12 8 13 14 11 28 10 25 15 -14 -15 -16 -17 -18 -19 -20 21 -22 -23 29 -25 -26 26 -28 -29 -30 -31
leaf_value=-0.002573650484412199 0.003457745288334764 0.0059975523972499774 0.019478910175055417 0.0070463153340158922 0.0062144995073636416 -0.0013214806734940165 0.0014883212722420743 -0.000827038978465062 0.0095030996555311165 0.013523342062704384 0.0087545093569822274 -1.6479020125348063e-05 0.010539918826603503 0.0035079748825021847 0.0063593752994223433 -0.006129374324725833 -0.0056649217181914836 0.019547668550921368 -0.0020602021634954066 -0.0059380146193405417 0.0099271127368401341 0.014479633172404891 0.012996482670283652 0.0030684563372155981 0.00073886443550149315 0.015631096881682013 0.0083037128006858817 0.012908019399629845 -0.0012350695729100736 -0.023391861639573502
leaf_count=1664 17417 2106 136 24838 6724 8225 859 6646 17110 7633 9692 1858 6091 3687 14889 6819 386 1048 1634 136 10748 9609 761 12811 5532 2513 1708 566 395 35
internal_value=0 0.164361 0.0120307 0.118063 0.20657 0.0473549 0.0831925 -0.0386574 0.163862 0.229926 0.235314 -0.0617549 0.154682 0.00346058 0.111294 -0.0963955 0.111362 0.252743 0.0340697 0.247598 0.228367 0.283885 0.0760737 0.0483869 0.0237664 0.198789 0.253313 0.120467 0.185212 0.227878
internal_count=184276 133160 51116 63352 69808 30125 32423 20991 24615 45193 43087 15323 30929 11912 17948 8677 7110 29174 3059 28126 18381 9745 18213 14475 5668 13913 4221 1425 17505 796
shrinkage=0.05


Tree=16
num_leaves=31
num_cat=0
split_feature=117 89 44 44 85 76 69 74 93 113 45 43 113 1 40 113 21 27 16 2 100 57 42 13 2 17 96 105 5 28
split_gain=406.262 119.335 43.9753 38.1275 23.3914 19.4523 16.0579 19.4015 14.8583 14.4603 15.8175 12.1005 12.0482 11.8018 11.7448 11.2085 10.9493 10.9393 10.8049 14.2271 11.471 10.0965 9.95454 9.80743 9.7876 11.3206 11.0209 9.64778 9.34422 10.0137
threshold=1.0000000180025095e-35 -0.17552499999999996 -0.22659999999999997 -0.69173999999999991 -1.6288499999999997 -1.5465499999999996 -1.9416999999999998 -4.3601499999999991 -0.29009499999999994 1.0000000180025095e-35 1.5364500000000001 -6.9219999999999997 1.0000000180025095e-35 -2.5685999999999996 -0.90612999999999988 1.0000000180025095e-35 -1.9529499999999997 1.5989500000000001 0.024235000000000003 -1.3484499999999999 -2.1847499999999997 -22.308499999999995 1.5700500000000004 1.2534500000000002 -1.5140499999999999 -1.5466499999999999 0.3589750000000001 1.6396500000000003 -2.7201499999999998 2.0370500000000002
decision_type=2 2 2 2 2 2 2 2 2 2 2 2 2 2 2 2 2 2 2 2 2 2 2 2 2 2 2 2 2 2
left_child=1 6 5 4 -3 17 -1 -8 -6 10 14 -10 24 -13 21 18 -7 -2 19 -9 -20 -4 -18 -12 25 -5 -26 -15 -23 -30
right_child=2 3 9 12 8 16 7 15 11 -11 23 13 -14 27 -16 -17 22 -19 20 -21 -22 28 -24 -25 26 -27 -28 -29 29 -31
leaf_value=-0.0073940935662771242 -0.0039171368214745836 -0.0011176608521376195 -0.029539605886967482 -6.1329167310384509e-05 -0.011806563599869153 -0.0055832169663341718 -0.01320729789910864 -0.0053999697625105557 -0.010540281171770867 0.0047753385416200956 -0.0073958079485695232 0.0021343332142227693 -0.0056389551546212223 -0.0058311038932355131 0.0040572348089804675 -0.008224968591162389 0.00054423251039020478 -0.012899105269284498 0.016661133303296563 -0.010735231786315032 -0.012182085869412666 0.0088797948016534761 -0.0043236413632737848 0.0017766646060912374 -0.0083516055893435078 -0.007398632416905521 -0.013302047860240702 -0.00220119765344354 0.00010290507374538085 -0.0096454776851703141
leaf_count=8841 10590 9329 59 1372 1650 2109 11791 3545 1709 6630 1691 1323 13401 12827 6042 13176 14232 728 70 8741 14723 525 2466 890 18375 4562 2584 5141 4558 596
internal_value=0 -0.157336 -0.00884002 -0.118464 -0.081969 -0.0434834 -0.203763 -0.213299 -0.106578 0.0408622 0.0156355 -0.0964153 -0.147492 -0.086307 0.0376114 -0.198476 -0.0156133 -0.0898609 -0.215028 -0.183881 -0.240912 -0.00821816 -0.0034868 -0.0846563 -0.164806 -0.114018 -0.179215 -0.0958222 -0.00217486 -0.0204879
internal_count=184276 133160 51116 72273 31979 30125 60887 52046 22650 20991 14361 21000 40294 19291 11780 40255 18807 11318 27079 12286 14793 5738 16698 2581 26893 5934 20959 17968 5679 5154
shrinkage=0.05


Tree=17
num_leaves=31
num_cat=0
split_feature=117 89 76 81 110 48 5 65 89 16 79 113 34 55 103 4 77 2 87 74 71 7 32 76 5 100 61 56 60 102
split_gain=406.262 119.335 43.3505 36.3204 20.9771 17.4271 17.3022 16.7792 20.6679 16.0634 14.7107 11.9681 11.6939 10.556 10.1151 9.9211 9.53966 9.48861 9.4863 8.84063 8.83634 8.81738 8.80092 8.51969 9.43908 9.38743 8.43324 8.30875 8.23175 10.1046
threshold=1.0000000180025095e-35 -0.17552499999999996 -1.5264499999999999 -1.7005499999999996 1.6149500000000001 1.2207500000000002 -2.2407499999999998 -1.6229499999999997 -2.3855999999999997 -0.27449999999999991 -1.6300499999999998 1.0000000180025095e-35 -1.2467499999999998 3.6248500000000003 0.80645500000000014 -1.2561499999999997 22.956000000000003 -2.9131999999999993 0.36995500000000009 0.97905500000000012 1.9627500000000002 0.32967000000000007 -1.0422499999999999 -0.062251999999999995 -5.5633499999999989 -0.31650999999999996 -24.836499999999997 -0.50993499999999992 3.5681500000000006 -1.17445
decision_type=2 2 2 2 2 2 2 2 2 2 2 2 2 2 2 2 2 2 2 2 2 2 2 2 2 2 2 2 2 2
left_child=1 7 22 13 9 6 11 14 17 -4 15 23 -12 -3 26 -11 19 -9 -18 -8 -21 -15 -2 24 25 -5 -1 -24 -6 -30
right_child=2 3 4 5 28 -7 16 8 -10 10 12 -13 -14 21 -16 -17 18 -19 -20 20 -22 -23 27 -25 -26 -27 -28 -29 29 -31
leaf_value=-0.0065982999150387333 0.014678872190798335 0.0020885463810970651 0.00015910925241623204 0.00059118765814231058 0.0028655631550757454 0.008734387483929457 0.0077427505427198375 -0.0097267039471694173 0.0095071952680408963 0.0081424562624933926 -0.0014572439748079776 -0.001005054447889428 -0.0058470330303733919 0.0045954746070577656 0.0051966463604792784 -0.0011216211895947485 0.027873913338332293 0.01256024294225553 0.004009042544685597 0.0063591998040944415 0.0028516729163715147 0.019938434458464646 0.0048517674185460692 0.0082954170754274692 0.003830305946021319 -0.024327781161195411 0.0098160632014703837 0.00089983236557165166 -0.019086665884385859 -0.00018631710645573596
leaf_count=161 375 12550 13032 197 8273 15353 15973 96 28014 777 4826 2571 8184 487 4608 2260 209 20945 140 14541 4788 306 8802 2170 2865 123 7063 3819 187 581
internal_value=0 0.157336 0.00884002 0.118464 -0.015201 0.133597 0.119139 0.203763 0.215378 -0.0337036 -0.0636685 0.0593032 -0.0843659 0.0517757 0.155822 0.0249658 0.132465 0.249143 0.365928 0.130162 0.10979 0.210286 0.0794439 0.0974382 0.0508363 -0.179715 0.188992 0.0731085 0.0443063 -0.0957674
internal_count=184276 133160 51116 72273 38120 58930 43577 60887 49055 29079 16047 7926 13010 13343 11832 3037 35651 21041 349 35302 19329 793 12996 5355 3185 320 7224 12621 9041 768
shrinkage=0.05



feature importances:
all_correlation_best_percentile75_ratio=28
recent_15%_loss_kurtosis=24
top_20%_loss_best_percentile25_ratio=23
log10_cardinality=20
recent_15%_loss_best_percentile50_ratio=19
top_10%_correlation_best_percentile25_ratio=19
resultFilteringMode_age=17
top_10%_loss_kurtosis=17
secondaryLockingMode_random=16
recent_15%_loss_best_percentile75_ratio=16
recent_15%_loss_skew=14
top_20%_correlation_stddev_best_ratio=14
top_30%_correlation_stddev_best_ratio=13
recent_10_loss_stddev_median_ratio=13
top_30%_loss_skew=12
top_10%_loss_best_percentile50_ratio=12
all_correlation_stddev_median_ratio=11
all_loss_best_percentile75_ratio=11
top_30%_loss_best_percentile50_ratio=11
all_correlation_skew=9
top_20%_loss_best_percentile50_ratio=9
top_10%_loss_stddev_best_ratio=9
top_10%_loss_best_percentile75_ratio=8
recent_25_correlation_stddev_median_ratio=8
top_10%_correlation_percentile5_percentile25_ratio=8
all_loss_skew=8
recent_10_correlation_percentile5_percentile25_ratio=8
all_loss_kurtosis=7
top_30%_loss_kurtosis=7
recent_15%_loss_stddev_median_ratio=6
all_correlation_best_percentile50_ratio=5
top_20%_loss_best_percentile75_ratio=5
top_20%_loss_stddev_median_ratio=5
recent_25_loss_best_percentile50_ratio=5
recent_10_correlation_best_percentile50_ratio=5
recent_10_loss_best_percentile75_ratio=5
top_10%_correlation_stddev_best_ratio=4
top_20%_loss_kurtosis=4
top_20%_correlation_best_percentile25_ratio=4
recent_15%_correlation_best_percentile50_ratio=4
recent_15%_correlation_kurtosis=4
top_10%_loss_best_percentile25_ratio=4
top_30%_loss_best_percentile25_ratio=4
recent_15%_loss_best_percentile25_ratio=4
top_10%_correlation_best_percentile50_ratio=3
recent_25_correlation_percentile5_percentile25_ratio=3
top_10%_loss_percentile5_percentile25_ratio=3
top_20%_correlation_best_percentile75_ratio=3
top_20%_correlation_percentile5_percentile25_ratio=3
top_20%_correlation_stddev_median_ratio=3
top_30%_loss_best_percentile75_ratio=3
recent_25_correlation_best_percentile25_ratio=3
recent_10_loss_best_percentile50_ratio=3
top_30%_correlation_kurtosis=3
recent_15%_loss_percentile5_percentile25_ratio=2
recent_10_loss_percentile5_percentile25_ratio=2
recent_10_correlation_best_percentile25_ratio=2
recent_10_loss_stddev_best_ratio=2
top_20%_loss_skew=2
recent_25_loss_best_percentile25_ratio=2
recent_15%_correlation_best_percentile75_ratio=2
resultFilteringMode_random=2
recent_25_correlation_stddev_best_ratio=2
all_correlation_percentile5_percentile25_ratio=2
top_10%_correlation_kurtosis=2
all_loss_best_percentile25_ratio=2
all_correlation_stddev_best_ratio=2
recent_25_loss_percentile5_percentile25_ratio=2
recent_25_loss_kurtosis=2
recent_15%_correlation_stddev_best_ratio=2
all_correlation_kurtosis=1
secondaryLockingMode_top=1
all_loss_stddev_best_ratio=1
top_30%_correlation_skew=1
top_30%_loss_stddev_best_ratio=1
top_30%_correlation_best_percentile25_ratio=1
top_20%_loss_percentile5_percentile25_ratio=1
recent_10_loss_kurtosis=1
top_20%_correlation_best_percentile50_ratio=1
top_10%_correlation_stddev_median_ratio=1
recent_15%_correlation_percentile5_percentile25_ratio=1
recent_15%_correlation_skew=1
recent_25_loss_stddev_median_ratio=1
recent_25_loss_stddev_best_ratio=1
recent_25_loss_skew=1
recent_15%_correlation_stddev_median_ratio=1
recent_25_correlation_skew=1
recent_25_correlation_best_percentile50_ratio=1
recent_15%_loss_stddev_best_ratio=1

pandas_categorical:null
