tree
version=v2
num_class=2
num_tree_per_iteration=2
label_index=0
max_feature_idx=118
objective=multiclass num_class:2
feature_names=all_correlation_best_percentile25_ratio all_correlation_best_percentile50_ratio all_correlation_best_percentile75_ratio all_correlation_kurtosis all_correlation_percentile5_percentile25_ratio all_correlation_skew all_correlation_stddev_best_ratio all_correlation_stddev_median_ratio all_loss_best_percentile25_ratio all_loss_best_percentile50_ratio all_loss_best_percentile75_ratio all_loss_kurtosis all_loss_percentile5_percentile25_ratio all_loss_skew all_loss_stddev_best_ratio all_loss_stddev_median_ratio log10_cardinality recent_10_correlation_best_percentile25_ratio recent_10_correlation_best_percentile50_ratio recent_10_correlation_best_percentile75_ratio recent_10_correlation_kurtosis recent_10_correlation_percentile5_percentile25_ratio recent_10_correlation_skew recent_10_correlation_stddev_best_ratio recent_10_correlation_stddev_median_ratio recent_10_loss_best_percentile25_ratio recent_10_loss_best_percentile50_ratio recent_10_loss_best_percentile75_ratio recent_10_loss_kurtosis recent_10_loss_percentile5_percentile25_ratio recent_10_loss_skew recent_10_loss_stddev_best_ratio recent_10_loss_stddev_median_ratio recent_15%_correlation_best_percentile25_ratio recent_15%_correlation_best_percentile50_ratio recent_15%_correlation_best_percentile75_ratio recent_15%_correlation_kurtosis recent_15%_correlation_percentile5_percentile25_ratio recent_15%_correlation_skew recent_15%_correlation_stddev_best_ratio recent_15%_correlation_stddev_median_ratio recent_15%_loss_best_percentile25_ratio recent_15%_loss_best_percentile50_ratio recent_15%_loss_best_percentile75_ratio recent_15%_loss_kurtosis recent_15%_loss_percentile5_percentile25_ratio recent_15%_loss_skew recent_15%_loss_stddev_best_ratio recent_15%_loss_stddev_median_ratio recent_25_correlation_best_percentile25_ratio recent_25_correlation_best_percentile50_ratio recent_25_correlation_best_percentile75_ratio recent_25_correlation_kurtosis recent_25_correlation_percentile5_percentile25_ratio recent_25_correlation_skew recent_25_correlation_stddev_best_ratio recent_25_correlation_stddev_median_ratio recent_25_loss_best_percentile25_ratio recent_25_loss_best_percentile50_ratio recent_25_loss_best_percentile75_ratio recent_25_loss_kurtosis recent_25_loss_percentile5_percentile25_ratio recent_25_loss_skew recent_25_loss_stddev_best_ratio recent_25_loss_stddev_median_ratio top_10%_correlation_best_percentile25_ratio top_10%_correlation_best_percentile50_ratio top_10%_correlation_best_percentile75_ratio top_10%_correlation_kurtosis top_10%_correlation_percentile5_percentile25_ratio top_10%_correlation_skew top_10%_correlation_stddev_best_ratio top_10%_correlation_stddev_median_ratio top_10%_loss_best_percentile25_ratio top_10%_loss_best_percentile50_ratio top_10%_loss_best_percentile75_ratio top_10%_loss_kurtosis top_10%_loss_percentile5_percentile25_ratio top_10%_loss_skew top_10%_loss_stddev_best_ratio top_10%_loss_stddev_median_ratio top_20%_correlation_best_percentile25_ratio top_20%_correlation_best_percentile50_ratio top_20%_correlation_best_percentile75_ratio top_20%_correlation_kurtosis top_20%_correlation_percentile5_percentile25_ratio top_20%_correlation_skew top_20%_correlation_stddev_best_ratio top_20%_correlation_stddev_median_ratio top_20%_loss_best_percentile25_ratio top_20%_loss_best_percentile50_ratio top_20%_loss_best_percentile75_ratio top_20%_loss_kurtosis top_20%_loss_percentile5_percentile25_ratio top_20%_loss_skew top_20%_loss_stddev_best_ratio top_20%_loss_stddev_median_ratio top_30%_correlation_best_percentile25_ratio top_30%_correlation_best_percentile50_ratio top_30%_correlation_best_percentile75_ratio top_30%_correlation_kurtosis top_30%_correlation_percentile5_percentile25_ratio top_30%_correlation_skew top_30%_correlation_stddev_best_ratio top_30%_correlation_stddev_median_ratio top_30%_loss_best_percentile25_ratio top_30%_loss_best_percentile50_ratio top_30%_loss_best_percentile75_ratio top_30%_loss_kurtosis top_30%_loss_percentile5_percentile25_ratio top_30%_loss_skew top_30%_loss_stddev_best_ratio top_30%_loss_stddev_median_ratio resultFilteringMode_age resultFilteringMode_loss_rank resultFilteringMode_none resultFilteringMode_random secondaryLockingMode_random secondaryLockingMode_top
feature_infos=[-7.6067999999999998:86.546999999999997] [-5.3159999999999998:536.09000000000003] [-3.6972:4040.5999999999999] [-3.3791000000000002:34.222999999999999] [-9.7395999999999994:112.64] [-10.794:11.66] [-14.037000000000001:8.7797999999999998] [-5.1731999999999996:669.13999999999999] [-221390:29607] [-9408.3999999999996:17841] [-4132.5:46054] [-1.841:38.192] [-209200:30745] [-6.3745000000000003:14.039999999999999] [-426890:4007700] [-115480:883630] [-4.4264000000000001:4.7390999999999996] [-3.3782999999999999:1273.3] [-1.9734:251.37] [-1.7853000000000001:294.63999999999999] [-2.1983999999999999:27.582999999999998] [-4.0213000000000001:1299] [-8.0081000000000007:9.8165999999999993] [-13.106999999999999:6.9225000000000003] [-1.9192:268.13] [-33844:13917] [-22740:166360] [-24838:80073] [-1.6051:1.8028999999999999] [-33801:10804] [-5.3311000000000002:1.6307] [-339030:1013800] [-298640:1518600] [-3.5165999999999999:6111] [-2.0446:5274.1000000000004] [-1.8092999999999999:6034.8000000000002] [-2.1846999999999999:25.922000000000001] [-4.2096:4852.3000000000002] [-9.8491:9.5561000000000007] [-12.348000000000001:6.6452] [-2.0280999999999998:3959.4000000000001] [-36176:15027] [-59324:332090] [-20641:85899] [-1.4113:20.536999999999999] [-29483:15476] [-5.1227:7.3122999999999996] [-349870:5102400] [-3581600:1087200] [-3.9969000000000001:6986.3999999999996] [-2.3967999999999998:4113.3999999999996] [-2.1194000000000002:3220] [-2.3285:32.426000000000002] [-4.9043999999999999:7522.5] [-8.1407000000000007:10.484999999999999] [-11.784000000000001:6.4790000000000001] [-2.2738:3760.0999999999999] [-31025:27153] [-46699:24284] [-35404:13222] [-1.5629:2.7789000000000001] [-38423:6465.6000000000004] [-7.3265000000000002:2.367] [-305810:5730800] [-4265200:2100200] [-2.8515000000000001:4564.6999999999998] [-1.8633999999999999:1230.4000000000001] [-1.5298:339.73000000000002] [-1.9469000000000001:23.096] [-3.3290000000000002:3450.9000000000001] [-11.19:9.1864000000000008] [-11.189:5.6136999999999997] [-1.9091:1111.2] [-84147:32264] [-31136:25913] [-44874:236400] [-2.4609999999999999:48.518999999999998] [-80484:32870] [-12.555999999999999:14.262] [-386560:301990] [-22595:35667] [-3.2189000000000001:17208] [-1.8075000000000001:9410.7999999999993] [-1.5284:4678.8999999999996] [-2.0828000000000002:24.907] [-3.8492999999999999:10890] [-11.882:9.5716999999999999] [-12.289:6.5343999999999998] [-1.8259000000000001:7144.8000000000002] [-447570:9157.2999999999993] [-6655.8999999999996:23782] [-31509:23494] [-2.9546000000000001:90.679000000000002] [-348070:7737.8999999999996] [-19.308:20.212] [-341290:227690] [-26410:48733] [-3.6766999999999999:47451] [-1.8198000000000001:8972.1000000000004] [-1.5849:7644.1999999999998] [-2.2444000000000002:23.936] [-4.4751000000000003:47021] [-9.5665999999999993:8.8983000000000008] [-12.677:6.9264999999999999] [-1.8414999999999999:6945.3000000000002] [-52157:14092] [-55836:21158] [-38847:554720] [-3.2829999999999999:135.02000000000001] [-70278:17234] [-23.609999999999999:26.023] [-355670:953790] [-17558:299680] [0:1] [0:1] [0:1] [0:1] [0:1] [0:1]
tree_sizes=2620 2593 2642 2606 2627 2623 2658 2604 2639 2615 2638 2597

Tree=0
num_leaves=31
num_cat=0
split_feature=117 79 76 74 65 10 44 46 91 43 44 42 2 42 88 75 2 76 41 40 82 69 36 18 70 5 34 44 15 35
split_gain=761.298 208.507 71.6946 55.2731 53.6612 42.6049 25.4696 18.4142 18.7561 18.2873 17.6179 16.633 15.3449 15.1088 14.3888 12.5981 19.4754 12.3959 10.5384 10.1582 9.73043 9.68584 9.36733 9.12434 9.05898 9.03634 8.78421 8.62244 8.54436 8.16105
threshold=1.0000000180025095e-35 -0.37144999999999995 -1.2916999999999998 -1.3997999999999997 -1.50315 -0.79419999999999991 -0.29542999999999991 -0.13695999999999997 1.0732000000000002 -5.3385499999999988 -0.19422999999999999 1.7477000000000003 -1.31985 1.3422000000000003 -1.0547499999999996 -0.047385999999999991 -1.7658499999999997 0.45145000000000007 1.29315 1.0667500000000001 -0.55075999999999992 -1.40465 -1.4040499999999996 -1.0270499999999998 1.3595000000000002 -2.0093499999999995 9.9972500000000029 6.966050000000001 0.059893500000000009 0.38221500000000003
decision_type=2 2 2 2 2 2 2 2 2 2 2 2 2 2 2 2 2 2 2 2 2 2 2 2 2 2 2 2 2 2
left_child=1 4 11 12 7 20 13 8 22 -6 17 23 -3 -7 19 -5 24 18 -11 27 -4 -14 -1 -2 -17 -20 -18 -8 -10 -16
right_child=2 3 5 15 9 6 14 -9 28 10 -12 -13 21 -15 29 16 26 -19 25 -21 -22 -23 -24 -25 -26 -27 -28 -29 -30 -31
leaf_value=-0.001841556636553162 -0.0072395455644186611 -0.013361683079677708 -0.0044264602392681211 -0.013758625236232586 -0.015366666666666667 0.0012039363484087104 -2.3191094619666051e-05 -0.0092320455084143171 0.00015860428231562253 -0.0080928665592500375 -0.011028339237341114 -0.01337579617834395 -0.014077328646748682 -0.005942857142857143 0.0056620730976632717 -0.0043589743589743588 -0.011449042990279587 -0.010873381610708801 0.0035286284953395478 0.0093865030674846629 0.0012539184952978057 -0.018508914100486225 -0.0084455468934561788 -0.0028509563334536271 0.015185185185185185 -0.0051783858676827162 -0.022752808988764046 0.01172106824925816 -0.0061187545257060105 0.011626344086021506
leaf_count=1439 4137 4468 7105 22753 3000 9552 4312 4219 5044 6827 19196 1256 2845 1750 5007 975 9979 4557 751 815 1914 18510 4233 5542 135 2887 356 337 1381 1488
internal_value=0 -0.235983 -0.0154345 -0.293214 -0.171816 0.0180917 0.0500838 -0.104192 -0.0761346 -0.201462 -0.19218 -0.114403 -0.342602 0.00194656 0.0955766 -0.255921 -0.21765 -0.155905 -0.129097 0.0420937 -0.0644196 -0.35837 -0.135402 -0.0945346 -0.0396396 -0.0676196 -0.236768 0.0165627 -0.0238132 0.14057
internal_count=156770 113555 43215 60021 53534 32280 23261 16316 12097 37218 34218 10935 25823 11302 11959 34198 11445 15022 10465 5464 9019 21355 5672 9679 1110 3638 10335 4649 6425 6495
shrinkage=0.05


Tree=1
num_leaves=31
num_cat=0
split_feature=117 79 76 74 65 10 44 46 96 43 44 42 2 42 34 75 2 76 16 41 82 16 69 73 36 16 97 75 16 34
split_gain=761.298 208.507 71.6946 55.2731 53.6612 42.6049 25.4696 18.4142 20.3066 18.2873 17.6179 16.633 15.3449 15.1088 14.0316 12.5981 19.4754 12.3959 11.1096 10.5384 9.73043 9.70275 9.68584 9.53518 9.17881 9.16819 9.10806 9.09729 11.8497 8.78421
threshold=1.0000000180025095e-35 -0.37144999999999995 -1.2916999999999998 -1.3997999999999997 -1.50315 -0.79419999999999991 -0.29542999999999991 -0.13695999999999997 -1.2243499999999996 -5.3385499999999988 -0.19422999999999999 1.7477000000000003 -1.31985 1.3422000000000003 -1.0361499999999999 -0.047385999999999991 -1.7658499999999997 0.45145000000000007 -2.7714499999999997 1.29315 -0.55075999999999992 0.30269000000000007 -1.40465 -3.4829999999999997 -1.2760999999999998 -3.8384999999999994 -1.7605999999999997 1.0687000000000002 -1.7767999999999999 9.9972500000000029
decision_type=2 2 2 2 2 2 2 2 2 2 2 2 2 2 2 2 2 2 2 2 2 2 2 2 2 2 2 2 2 2
left_child=1 4 11 12 7 20 13 8 -1 -6 17 21 18 -7 -8 25 26 19 -3 -11 -4 -2 -14 -24 -10 -5 -17 28 -16 -18
right_child=2 3 5 15 9 6 14 -9 24 10 -12 -13 22 -15 27 16 29 -19 -20 -21 -22 -23 23 -25 -26 -27 -28 -29 -30 -31
leaf_value=-0.00036886288476214703 0.006560773480662984 0.0029411764705882353 0.0044264602392681211 -0.0050387596899224806 0.015366666666666667 -0.0012039363484087104 -0.0018100020924879682 0.0092320455084143171 0.0022754254056193113 0.0080928665592500375 0.011028339237341114 0.01337579617834395 0.014077328646748682 0.005942857142857143 0.0010015408320493066 -0.029545454545454548 0.011449042990279587 0.010873381610708801 0.01455475180843103 0.0033809785596481583 -0.0012539184952978057 0.0019938255724208905 0.020314603990696539 0.017082487186925829 0.0074037949991133181 0.013865806223479491 0.0032833020637898693 -0.0016654854712969524 -0.0091406249999999994 0.022752808988764046
leaf_count=3931 5792 459 7105 129 3000 9552 4779 4219 2527 6827 19196 1256 2845 1750 649 44 9979 4557 4009 3638 1914 3887 8169 10341 5639 22624 1066 1411 5120 356
internal_value=0 0.235983 0.0154345 0.293214 0.171816 -0.0180917 -0.0500838 0.104192 0.0761346 0.201462 0.19218 0.114403 0.342602 -0.00194656 -0.0955766 0.255921 0.21765 0.155905 0.267234 0.129097 0.0644196 0.0945346 0.35837 0.370178 0.116336 0.275173 0.0396396 -0.135097 -0.159993 0.236768
internal_count=156770 113555 43215 60021 53534 32280 23261 16316 12097 37218 34218 10935 25823 11302 11959 34198 11445 15022 4468 10465 9019 9679 21355 18510 8166 22753 1110 7180 5769 10335
shrinkage=0.05


Tree=2
num_leaves=31
num_cat=0
split_feature=117 79 76 74 65 10 46 46 96 43 42 42 88 7 91 50 16 65 49 41 75 7 22 16 57 67 106 103 75 37
split_gain=687.268 188.31 64.7073 49.9407 48.4443 38.589 20.3205 16.622 18.7331 16.5162 15.4698 15.0169 14.65 14.1998 12.8917 12.3121 11.5396 10.9937 9.92085 9.74562 9.69725 11.3669 9.2439 9.16842 9.04272 9.03255 8.85323 8.8306 8.81495 8.77104
threshold=1.0000000180025095e-35 -0.37144999999999995 -1.2916999999999998 -1.3997999999999997 -1.50315 -1.1237499999999996 0.19752500000000003 -0.13695999999999997 -1.2243499999999996 -5.3385499999999988 1.3127000000000002 1.7477000000000003 -1.0547499999999996 -2.0537499999999995 1.0144000000000002 -0.76277499999999987 2.3329000000000004 -1.3937499999999996 -1.1536999999999997 -0.52793999999999985 0.51621000000000017 -2.3169 -2.7707499999999996 0.30269000000000007 1.0721000000000003 -0.24587499999999998 0.77203500000000014 2.7907000000000006 1.2268000000000001 -1.0319999999999998
decision_type=2 2 2 2 2 2 2 2 2 2 2 2 2 2 2 2 2 2 2 2 2 2 2 2 2 2 2 2 2 2
left_child=1 4 11 13 7 -4 10 8 -1 -6 22 23 16 -3 24 20 -8 19 28 -15 27 -22 -7 -2 -11 -24 -23 -5 -16 -10
right_child=2 3 5 15 9 6 12 -9 29 14 -12 -13 -14 17 18 -17 -18 -19 -20 -21 21 26 25 -25 -26 -27 -28 -29 -30 -31
leaf_value=0.00039405167691747213 -0.0062733796706647017 -0.0095142888745078993 -0.0035166282370549732 -0.011641281004947988 -0.014601840004618463 -0.0073345364294812145 0.00072348408817011741 -0.008771202828678 -0.0033675300064800757 -0.0093538790535207528 -0.0052179731181152432 -0.012709319234548325 0.0067638594035746473 -0.010697368984203906 -0.0093798185004280426 -0.013291723351025101 0.012167910607445313 -0.017278548669269544 -0.008627868854510768 -0.019670632112814876 0.014499186384706582 -0.0095858050267381839 0.0012664006727715598 -0.0018339174687224604 -0.012841365941887506 0.0091257085140690978 0.0053443191319490647 -0.0028301522094883475 -0.0018319775953101276 -0.0080111807334160793
leaf_count=3931 5792 1464 7679 12047 3000 576 5011 4219 4333 10802 2121 1256 6099 2487 1173 19959 483 21072 14301 800 132 1226 9519 3887 5669 792 237 597 2273 3833
internal_value=0 -0.22422 -0.0146631 -0.278618 -0.16324 0.0171875 0.0445063 -0.0989867 -0.0723297 -0.19141 0.00613575 -0.108688 0.0875611 -0.325571 -0.182589 -0.243168 0.0345921 -0.333702 -0.156143 -0.257626 -0.211396 -0.107479 0.0276618 -0.0898101 -0.211084 0.0374016 -0.143343 -0.224505 -0.0880238 -0.110943
internal_count=156770 113555 43215 60021 53534 32280 24601 16316 12097 37218 13008 10935 11593 25823 34218 34198 5494 24359 17747 3287 14239 1595 10887 9679 16471 10311 1463 12644 3446 8166
shrinkage=0.05


Tree=3
num_leaves=31
num_cat=0
split_feature=117 79 76 74 65 10 44 46 96 43 44 42 88 42 7 16 50 76 65 41 90 41 16 17 113 61 103 102 48 5
split_gain=687.268 188.31 64.7073 49.9407 48.4443 38.589 23.2248 16.622 18.7331 16.5162 15.9067 15.0169 14.4401 14.371 14.1998 12.7706 12.3121 11.1912 10.9937 9.74562 9.73756 9.51255 9.16842 8.82971 8.74957 9.57784 8.73334 9.81685 8.70054 8.59033
threshold=1.0000000180025095e-35 -0.37144999999999995 -1.2916999999999998 -1.3997999999999997 -1.50315 -1.1237499999999996 -0.25258999999999993 -0.13695999999999997 -1.2243499999999996 -5.3385499999999988 -0.19422999999999999 1.7477000000000003 -1.0547499999999996 1.3127000000000002 -2.0537499999999995 2.3329000000000004 -0.76277499999999987 0.45145000000000007 -1.3937499999999996 -0.52793999999999985 0.66188000000000013 1.29315 0.30269000000000007 -1.4926999999999997 1.0000000180025095e-35 -14.7845 0.34810500000000005 -3.1021499999999995 1.5083500000000003 -2.0093499999999995
decision_type=2 2 2 2 2 2 2 2 2 2 2 2 2 2 2 2 2 2 2 2 2 2 2 2 2 2 2 2 2 2
left_child=1 4 11 14 7 -4 13 8 -1 -6 17 22 15 23 -3 -8 20 21 19 -16 28 -11 -2 -7 -18 -26 -10 -28 -5 -23
right_child=2 3 5 16 9 6 12 -9 26 10 -12 -13 -14 -15 18 -17 24 -19 -20 -21 -22 29 -24 -25 25 -27 27 -29 -30 -31
leaf_value=-0.00039405167691747213 0.0062733796706647017 0.0095142888745078993 0.0035166282370549732 0.0098084359882319311 0.014601840004618463 0.004433937134909448 -0.00076924285471013237 0.008771202828678 0.0083912614067174675 0.0076887363909825734 0.010478218530781243 0.012709319234548325 -0.0066118907652475706 0.0054821541061025516 0.010697368984203906 -0.012472054877144301 0.014298915127308111 0.010330954683806147 0.017278548669269544 0.019670632112814876 -0.0036441857655303347 -0.0035249373725505075 0.0018339174687224604 -0.001886051480820656 -0.028095955711311345 0.011308572196453813 0.013142344415055114 0.0026131567468567801 0.013911762888168647 0.0049644943919209088
leaf_count=3931 5792 1464 7679 10583 3000 1263 5323 4219 3250 6827 19196 1256 6665 1986 2487 511 13645 4557 21072 800 237 751 3887 8853 31 6283 492 4424 3419 2887
internal_value=0 0.22422 0.0146631 0.278618 0.16324 -0.0171875 -0.0445063 0.0989867 0.0723297 0.19141 0.182589 0.108688 -0.0872641 -0.000346915 0.325571 -0.0358857 0.243168 0.14812 0.333702 0.257626 0.211396 0.122648 0.0898101 -0.0219398 0.265834 0.222302 0.110943 0.0733386 0.216208 0.0642396
internal_count=156770 113555 43215 60021 53534 32280 24601 16316 12097 37218 34218 10935 12499 12102 25823 5834 34198 15022 24359 3287 14239 10465 9679 10116 19959 6314 8166 4916 14002 3638
shrinkage=0.05


Tree=4
num_leaves=31
num_cat=0
split_feature=117 89 65 76 10 1 89 44 69 44 96 91 42 45 42 9 57 37 34 16 42 9 21 41 5 82 18 1 45 13
split_gain=620.756 170.305 59.2473 58.4059 35.0141 22.472 22.3352 20.9271 20.4322 20.0431 14.8967 14.7413 13.567 12.9887 12.366 11.1636 10.7055 10.4428 10.0535 9.64601 9.39923 10.3068 9.3992 9.2094 9.61647 8.52204 8.51175 8.47479 8.44268 12.3208
threshold=1.0000000180025095e-35 -0.21822 -1.5248499999999996 -1.2916999999999998 -0.79419999999999991 -1.49535 -1.6346499999999999 -0.29542999999999991 -1.3561999999999999 -0.62754499999999991 -0.7506449999999999 1.0144000000000002 1.7477000000000003 1.1914000000000002 1.3422000000000003 -4.2424499999999989 5.4108500000000008 -1.0319999999999998 -1.13045 -3.8384999999999994 1.1897000000000002 -3.2974999999999999 -0.55798499999999984 0.94399000000000011 -3.8071999999999995 1.7321500000000001 -1.0270499999999998 0.60110500000000011 -0.36239499999999997 0.24578000000000003
decision_type=2 2 2 2 2 2 2 2 2 2 2 2 2 2 2 2 2 2 2 2 2 2 2 2 2 2 2 2 2 2
left_child=1 6 9 12 20 23 8 14 15 10 -3 -7 26 18 -6 -1 -13 -12 -9 -8 21 -5 27 24 -4 -23 -2 -20 29 -11
right_child=3 2 5 4 7 11 19 13 -10 28 17 16 -14 -15 -16 -17 -18 -19 22 -21 -22 25 -24 -25 -26 -27 -28 -29 -30 -31
leaf_value=-0.0065452751726848141 -0.0066934869356431977 -0.00024227031333885123 -0.00030022076918803973 -0.005178164435087877 0.0010860352782614614 -0.011406342918190282 0.0085540339018301929 0.0023207518091646374 -0.016280394134142003 -0.022802866589420809 -0.00248588623604244 -0.0079507715448211072 -0.012080053517027721 -0.00035399965422925001 -0.00537994234803486 -0.013597795752849763 -0.014070681415064571 -0.0081584759157775407 0.0069433841310667854 -0.012343508445645092 -0.007794896357749573 -0.00078488836990312351 0.0093400967007661977 -0.0039826366471411509 -0.0098578700523938231 0.0093880501876350882 -0.0024545522514491619 -0.0016188368441422754 -0.0071410251456093645 -0.0044462963533446215
leaf_count=1682 4137 5205 609 2860 9552 23444 111 3290 20174 442 3248 13754 1256 2374 1750 3378 1596 3244 1547 23517 1624 4077 3825 4285 3890 458 5542 923 4664 312
internal_value=0 -0.213107 -0.165507 -0.0139309 0.0163289 -0.191184 -0.276161 0.0453326 -0.305437 -0.0941458 -0.0612082 -0.205813 -0.103267 0.0865728 0.00169887 -0.225064 -0.171738 -0.106406 0.10977 -0.244906 -0.0584731 -0.037078 0.142885 -0.126582 -0.171281 0.00485054 -0.085326 0.0748764 -0.16527 -0.304143
internal_count=156770 113555 64693 43215 32280 47578 48862 23261 25234 17115 11697 38794 10935 11959 11302 5060 15350 6492 9585 23628 9019 7395 6295 8784 4499 4535 9679 2470 5418 754
shrinkage=0.05


Tree=5
num_leaves=31
num_cat=0
split_feature=117 89 65 44 42 10 1 89 69 44 16 40 67 96 91 77 58 37 29 16 64 41 5 79 104 39 16 89 14 9
split_gain=620.756 170.305 59.2473 55.4317 29.21 24.5602 22.472 22.3352 20.4322 20.0431 19.1605 17.0074 16.2306 14.8967 14.7413 12.5353 12.4119 10.4428 10.0991 9.64601 9.61296 9.2094 9.61647 8.94669 8.90274 9.33344 8.88028 12.0977 8.79818 8.66466
threshold=1.0000000180025095e-35 -0.21822 -1.5248499999999996 -0.29542999999999991 1.6808000000000003 -1.0916999999999997 -1.49535 -1.6346499999999999 -1.3561999999999999 -0.62754499999999991 -0.81888499999999986 -1.5619499999999997 -0.26673499999999994 -0.7506449999999999 1.0144000000000002 0.074156000000000014 -7.4693999999999994 -1.0319999999999998 3.6310000000000007 -3.8384999999999994 -0.087456499999999993 0.94399000000000011 -3.8071999999999995 -0.99155999999999989 -1.1932499999999997 0.78977000000000008 0.11283000000000001 0.9188400000000001 -0.86886499999999989 -3.2974999999999999
decision_type=2 2 2 2 2 2 2 2 2 2 2 2 2 2 2 2 2 2 2 2 2 2 2 2 2 2 2 2 2 2
left_child=1 7 9 4 10 23 21 8 16 13 15 -7 24 -3 -8 29 20 -15 -16 -9 -1 22 -4 -5 -12 -26 -13 -28 -17 -2
right_child=3 2 6 5 -6 11 14 19 -10 -11 12 26 -14 17 18 28 -18 -19 -20 -21 -22 -23 -24 -25 25 -27 27 -29 -30 -31
leaf_value=-0.0046808803790296732 0.0080329228494470176 0.00024227031333885123 0.00030022076918803973 0.0072637152082682807 0.010139117413525455 -0.00023917774481808333 0.011406342918190282 -0.0085540339018301929 0.016280394134142003 0.0082634836992226176 0.003312679120989444 -0.0034226938253213834 -0.010458015969963682 0.00248588623604244 0.0079480773369386814 0.0028142195506465281 0.013039552333136958 0.0081584759157775407 0.013738238951692848 0.012343508445645092 0.0094647312936227048 0.0039826366471411509 0.0098578700523938231 0.00015517080549702606 -0.0020095453375632987 0.0026329146823184132 -0.0096945812200437027 -0.00037335516222510891 0.010273600012914174 0.00040198539813634469
leaf_count=375 975 5205 609 1330 2451 4524 23444 111 20174 5418 5480 4739 639 3248 13656 1159 4016 3244 1694 23517 669 4285 3890 2648 5821 3448 3503 869 2488 3141
internal_value=0 0.213107 0.165507 0.0139309 0.0559428 -0.047138 0.191184 0.276161 0.305437 0.0941458 0.0404018 -0.0756646 0.0115042 0.0612082 0.205813 0.097685 0.225064 0.106406 0.171738 0.244906 0.0876615 0.126582 0.171281 0.0506356 0.0210644 -0.00565184 -0.110864 -0.156835 0.158061 0.044191
internal_count=156770 113555 64693 43215 25602 17613 47578 48862 25234 17115 23151 13635 15388 11697 38794 7763 5060 6492 15350 23628 1044 8784 4499 3978 14749 9269 9111 4372 3647 4116
shrinkage=0.05


Tree=6
num_leaves=31
num_cat=0
split_feature=117 79 44 74 65 42 79 16 34 37 67 43 44 2 12 77 113 16 48 50 16 94 110 16 41 44 110 73 25 42
split_gain=560.922 155.59 50.519 41.0579 39.5684 26.5746 21.6994 18.1173 16.9258 15.3322 15.3267 14.3281 14.7486 13.11 11.878 11.7767 11.3883 11.0651 12.3536 11.7511 10.4001 9.55635 9.31214 9.13563 9.1336 8.87593 10.9395 8.55169 10.3665 9.03389
threshold=1.0000000180025095e-35 -0.37144999999999995 -0.29542999999999991 -1.3997999999999997 -1.50315 1.6808000000000003 -1.7142499999999996 -0.81888499999999986 -1.3300499999999997 -1.0419999999999998 -0.26673499999999994 -5.3385499999999988 -0.19422999999999999 -1.31985 -3.4378499999999996 0.074156000000000014 1.0000000180025095e-35 -3.5530999999999993 1.5083500000000003 -0.76277499999999987 -2.7714499999999997 -5.3136499999999991 2.5158500000000004 2.8714500000000007 -1.3288499999999999 2.9637500000000006 0.24425500000000003 -3.4829999999999997 -1.0630499999999998 -0.32546999999999998
decision_type=2 2 2 2 2 2 2 2 2 2 2 2 2 2 2 2 2 2 2 2 2 2 2 2 2 2 2 2 2 2
left_child=1 4 5 13 9 7 -4 15 16 22 -9 -6 -13 20 -10 -2 23 -5 19 -19 -3 -16 -1 -8 -21 26 -23 28 -15 -29
right_child=2 3 6 17 11 -7 8 10 14 -11 -12 12 -14 27 21 -17 -18 18 -20 24 -22 25 -24 -25 -26 -27 -28 29 -30 -31
leaf_value=-0.0036923060066861978 -0.0021188981755687047 -0.001161106054670336 -0.0056427649438481721 0.00052571056854540919 -0.013321442034932263 -0.0096718311387535248 -0.0028123766802881766 -0.00098567295209268284 -0.0048918627104766006 -0.0065928261390300726 0.010200782603571368 -0.0065608506670421386 -0.0095201358570985474 -0.01541699623492971 -0.01238934410782631 -0.0076376748066297713 0.0046421940704419367 -0.0085946637444376268 -0.013647174613852189 -0.0079185855638818133 -0.012405408231641834 0.0065115555045042427 0.0017748310647712742 0.013662764266036825 -0.01243614574845911 0.0095567655345302552 0.00075921628441985936 -0.012858955627868058 -0.020415689951455564 -0.017023696628021532
leaf_count=5933 4116 459 1584 412 3000 2451 3855 14749 598 8270 639 15022 19196 6329 149 3647 1823 10626 7609 2715 4009 4620 2113 176 12836 2233 2575 8069 3098 3859
internal_value=0 -0.202594 -0.0132357 -0.252091 -0.147159 -0.0533444 0.0450675 -0.0385232 0.0606734 -0.0890848 -0.0104232 -0.172632 -0.164416 -0.294717 0.0955379 -0.0942281 8.66098e-05 -0.219938 -0.222749 -0.20816 -0.224993 0.107615 -0.0451296 -0.0418623 -0.232949 0.113232 0.0890553 -0.309315 -0.341192 -0.284127
internal_count=156770 113555 43215 60021 53534 25602 17613 23151 16029 16316 15388 37218 34218 25823 10175 7763 5854 34198 33786 26177 4468 9577 8046 4031 15551 9428 7195 21355 9427 11928
shrinkage=0.05


Tree=7
num_leaves=31
num_cat=0
split_feature=117 80 76 75 44 10 65 44 91 27 2 9 42 45 69 113 42 48 75 72 42 42 33 73 1 47 20 34 2 29
split_gain=560.922 154.847 53.9229 42.4042 40.3959 31.985 18.7133 18.6225 16.0583 13.7117 13.2965 12.4115 12.3363 12.1379 11.9335 11.3695 11.3484 11.2825 10.4248 10.3066 10.016 9.36354 9.33972 9.18723 9.1531 9.86011 9.75319 9.03456 8.93094 9.4801
threshold=1.0000000180025095e-35 -0.37456499999999998 -1.2916999999999998 -1.2276499999999999 -0.62754499999999991 -0.79419999999999991 -1.5888999999999998 -0.29542999999999991 0.45348500000000008 -1.8062499999999997 -1.6675499999999996 -1.5890999999999997 1.7477000000000003 1.1914000000000002 -1.40465 1.0000000180025095e-35 1.3422000000000003 1.6514500000000003 0.12757000000000004 0.26702500000000001 0.60213000000000017 -0.32546999999999998 9.1414000000000026 -3.5992999999999999 -0.21976499999999996 -1.0586499999999999 2.3790500000000008 -1.13045 -1.1640499999999998 0.30748000000000003
decision_type=2 2 2 2 2 2 2 2 2 2 2 2 2 2 2 2 2 2 2 2 2 2 2 2 2 2 2 2 2 2
left_child=1 4 12 10 6 -4 8 16 -1 -8 22 -5 -2 27 -12 -6 -7 18 21 -17 23 -13 -3 -16 26 -26 -20 -9 29 -11
right_child=2 3 5 11 15 7 9 13 -10 28 14 17 -14 -15 20 19 -18 -19 24 -21 -22 -23 -24 -25 25 -27 -28 -29 -30 -31
leaf_value=0.0069593208778770945 0.0040989077755488289 0.010604387242782521 0.0027827817706809932 0.0072382364728049778 0.0100672663790939 -0.00107901670950688 0.012757234387694298 -0.0022419200962824097 0.0012418674205977517 0.010109070234672557 0.011389446841466616 0.0091180807114476028 0.011552097042188928 0.00040328061305924638 0.017164171921365361 0.0060487018254061706 0.0051156293833201976 0.014508022212207506 0.0041950502045800296 0.011855304015709804 0.021836319088599499 0.012714041416028322 -0.013793634221999538 0.014111120218422183 -0.032446659459353065 0.011308651573538038 0.018189081554700809 -0.0068146495411653633 0.007423723408247089 0.00072300488558292369
leaf_count=3618 9679 2635 9019 4198 19678 9552 1810 3290 7656 698 3734 5217 1256 2374 8283 8139 1750 4746 2762 1884 1264 11890 81 12245 26 3041 274 6295 7322 2354
internal_value=0 0.202594 0.0132357 0.251646 0.146924 -0.0158398 0.10305 -0.0435618 0.0615273 0.141492 0.291684 0.216512 0.099082 -0.0824682 0.301709 0.181589 -0.00240107 0.227286 0.214431 0.142802 0.314387 0.232349 0.197535 0.306855 0.164227 0.218754 0.109158 -0.104895 0.121674 0.0573879
internal_count=156770 113555 43215 60396 53159 32280 23458 23261 11274 12184 28242 32154 10935 11959 25526 29701 11302 27956 23210 10023 21792 17107 2716 20528 6103 3067 3036 9585 10374 3052
shrinkage=0.05


Tree=8
num_leaves=31
num_cat=0
split_feature=117 89 76 65 10 1 44 89 60 65 75 16 43 75 42 67 113 100 106 58 66 9 74 41 68 43 21 13 64 84
split_gain=507.044 140.923 49.8828 48.8525 29.692 18.9083 18.437 17.435 17.341 17.189 16.7818 13.3574 13.035 13.7757 11.2067 11.1976 10.2875 9.70317 9.86376 9.42317 9.14119 8.90586 8.80125 8.7156 9.2246 8.71059 10.2027 9.07252 8.44383 8.02446
threshold=1.0000000180025095e-35 -0.25782999999999995 -1.2916999999999998 -1.5248499999999996 -1.22495 -1.49535 2.7977000000000003 -1.6346499999999999 -1.3114499999999998 -1.4063999999999999 1.3257500000000002 -1.5630499999999998 -5.3385499999999988 1.1468500000000004 1.7477000000000003 -0.55642999999999987 1.0000000180025095e-35 -1.0394999999999999 0.80100500000000008 -7.4693999999999994 0.88074000000000008 -1.6766499999999998 15.071500000000002 0.94399000000000011 1.18625 0.89221000000000006 -1.4081999999999997 -0.83756999999999993 -0.087456499999999993 4.5205000000000011
decision_type=2 2 2 2 2 2 2 2 2 2 2 2 2 2 2 2 2 2 2 2 2 2 2 2 2 2 2 2 2 2
left_child=1 7 14 8 -4 23 10 9 -3 19 11 20 -7 16 -2 25 -14 -10 -19 28 -6 -9 -20 24 -5 26 -13 -28 -1 -15
right_child=2 3 4 5 6 12 -8 21 17 -11 -12 15 13 29 -16 -17 -18 18 22 -21 -22 -23 -24 -25 -26 -27 27 -29 -30 -31
leaf_value=0.0046271962831923438 -0.0039427384865074076 0.00029300676927859542 -0.0031822145958455834 -0.0091051006281350818 -0.0038745236233674978 -0.014157272540288486 0.0067241288400420006 -0.0076987586687227204 -0.002174487893865081 -0.014705994757005486 -0.0037767453078474491 -0.0025850730024623621 -0.010873368267949468 -0.0064722330207991549 -0.011049276499310978 0.0085965000053776879 -0.0078660547923478912 -0.0091452405672684187 -0.0043498850303114872 -0.011605209511541856 0.0082419040355439302 -0.011701998140614399 -0.025610378647311943 -0.0034174121428457447 0.00016275755816017815 -0.0006924755725614631 0.00075840423977298517 0.0056304993640222557 -0.0088467346360002093 -0.015393898632518133
leaf_count=371 9679 3354 7345 3973 2588 2609 3461 3250 3537 20650 2966 1308 17216 10589 1256 1496 8516 4133 6130 3588 354 19468 99 4295 622 3877 2783 6102 625 530
internal_value=0 -0.192639 -0.0125755 -0.15004 0.0153898 -0.17312 0.0386718 -0.25103 -0.0854223 -0.276677 0.0232335 0.0390616 -0.186408 -0.179567 -0.0951521 0.0555808 -0.197561 -0.107459 -0.129302 -0.198264 -0.0483349 -0.222583 -0.093755 -0.114166 -0.157013 0.0432125 0.0649157 0.0820853 -0.0765001 -0.137949
internal_count=156770 113555 43215 65603 32280 48350 24935 47952 17253 25234 21474 18508 39460 36851 10935 15566 25732 13899 10362 4584 2942 22718 6229 8890 4595 14070 10193 8885 996 11119
shrinkage=0.05


Tree=9
num_leaves=31
num_cat=0
split_feature=118 79 76 75 65 10 44 75 37 16 43 44 16 39 42 67 47 76 16 5 66 92 90 43 21 13 59 7 90 73
split_gain=507.044 141.136 49.8828 37.4971 35.9789 29.692 18.437 16.7818 14.4997 13.3574 13.3077 13.5945 11.787 11.7305 11.2067 11.1976 10.9671 10.3067 10.0395 9.56065 9.14119 8.88168 11.6016 8.71059 10.2027 9.07252 8.60339 8.52004 8.50614 8.37642
threshold=1.0000000180025095e-35 -0.37144999999999995 -1.2916999999999998 -1.2276499999999999 -1.50315 -1.22495 2.7977000000000003 1.3257500000000002 -1.0419999999999998 -1.5630499999999998 -5.3385499999999988 -0.19422999999999999 0.46410500000000005 0.95086000000000015 1.7477000000000003 -0.55642999999999987 0.68262500000000015 0.45145000000000007 -3.8384999999999994 4.6413000000000011 0.88074000000000008 1.5577500000000002 1.6569500000000004 0.89221000000000006 -1.4081999999999997 -0.83756999999999993 2.3091500000000003 -2.0537499999999995 0.87402500000000016 -2.3273999999999995
decision_type=2 2 2 2 2 2 2 2 2 2 2 2 2 2 2 2 2 2 2 2 2 2 2 2 2 2 2 2 2 2
left_child=2 4 14 12 8 -4 7 9 21 20 -6 17 19 -5 -1 23 28 -12 -18 27 -7 22 -2 24 -11 -26 -23 -3 -15 -29
right_child=1 3 5 13 10 6 -8 -9 -10 15 11 -13 -14 16 -16 -17 18 -19 -20 -21 -22 26 -24 -25 25 -27 -28 29 -30 -31
leaf_value=0.0039427384865074076 0.0035164916285760003 0.0074433331488154538 0.0031822145958455834 0.011177776770919648 0.012729491576704461 0.0038745236233674978 -0.0067241288400420006 0.0037767453078474491 0.0063030512458933183 0.0025850730024623621 0.0049946336607173481 0.0090590628714341623 0.015838642961812411 0.0064534836857093785 0.011049276499310978 -0.0085965000053776879 -0.018450164709915694 0.0090261637621784057 0.012040256367140616 0.0025459767035996544 -0.0082419040355439302 0.0074925876843099136 -0.0022966015841510501 0.0006924755725614631 -0.00075840423977298517 -0.0056304993640222557 0.034369043105059519 0.014790514165728222 -0.037617744236411524 0.011445334208655827
leaf_count=9679 4895 1252 7345 23570 3000 2588 3461 2966 8270 1308 10465 19196 10077 5621 1256 1496 55 4557 3079 445 354 437 2645 3877 2783 6102 69 9813 22 6087
internal_value=0 0.192639 0.0125755 0.23982 0.139839 -0.0153898 -0.0386718 -0.0232335 0.0844597 -0.0390616 0.16414 0.156222 0.278125 0.207101 0.0951521 -0.0555808 0.16292 0.124344 0.230085 0.255998 0.0483349 0.0417131 0.0295404 -0.0432125 -0.0649157 -0.0820853 0.223149 0.261316 0.125629 0.270185
internal_count=156770 113555 43215 60021 53534 32280 24935 21474 16316 18508 37218 34218 27674 32347 10935 15566 8777 15022 3134 17597 2942 8046 7540 14070 10193 8885 506 17152 5643 15900
shrinkage=0.05


Tree=10
num_leaves=31
num_cat=0
split_feature=117 93 76 65 10 89 46 1 69 75 16 46 34 13 91 58 42 49 96 103 16 61 48 55 87 51 64 88 18 74
split_gain=458.481 129.322 45.0316 43.0894 27.0836 23.2952 17.7433 17.0361 16.7439 15.2692 13.4501 13.7259 11.7738 11.2418 10.2985 10.2953 10.1394 9.99243 9.78762 9.55627 9.23927 11.383 9.10059 8.8146 8.67382 8.60194 8.56257 8.35285 7.89766 7.73969
threshold=1.0000000180025095e-35 0.053235500000000012 -1.2916999999999998 -1.50315 -0.79419999999999991 -1.6346499999999999 -0.13695999999999997 -1.49535 -1.3561999999999999 1.29315 -2.0971999999999995 -1.77125 -1.0361499999999999 3.1866500000000006 0.40786000000000006 -7.4693999999999994 1.7477000000000003 -1.1536999999999997 -1.1696499999999996 0.34810500000000005 0.43566000000000005 -6.9369999999999994 1.5763500000000004 -2.4234999999999993 -0.75774999999999981 16.560500000000005 -0.087456499999999993 1.9622500000000003 -1.0270499999999998 0.058907000000000008
decision_type=2 2 2 2 2 2 2 2 2 2 2 2 2 2 2 2 2 2 2 2 2 2 2 2 2 2 2 2 2 2
left_child=1 5 16 6 27 8 18 17 15 10 -6 -12 -13 20 25 26 28 -5 -3 -20 21 -7 23 -23 -16 -9 -1 29 -2 -4
right_child=2 3 4 7 9 13 -8 14 -10 -11 11 12 -14 -15 24 -17 -18 -19 19 -21 -22 22 -24 -25 -26 -27 -28 -29 -30 -31
leaf_value=0.0052198248268963791 -0.0060847319592201464 0.00063516961752153487 -0.0016167797483716843 -0.0010845863095244339 -0.0027200456503736065 0.0015185672218070512 -0.0073571520658421907 -0.010207631790251762 -0.01417808802557953 -0.002340268391804142 -0.0018260772842326777 0.0017619851658954118 0.0057225372667718223 -0.014646495366144525 -0.0096288688279010503 -0.011236972346759105 -0.010509314418775778 -0.0066273459445363647 -0.0066439948103835331 -0.0013348815873719542 -0.011364843021540626 -0.00069452104030846471 -0.01204269764133872 -0.0086198087609994593 -0.0068823224512832839 -0.022045101620424886 -0.0081418801261662396 0.0045871283810548138 -0.0020008392680622459 -0.006150904891147487
leaf_count=375 4137 4096 5369 2275 2011 522 4548 9767 19637 3443 2216 6300 9291 2737 9133 3967 1256 5736 3097 3752 12060 754 3945 10556 15612 318 668 750 5542 2900
internal_value=0 -0.183206 -0.0119485 -0.136754 0.014622 -0.232398 -0.0728252 -0.15991 -0.264862 0.0401351 0.0552412 0.0676259 0.0824341 -0.206291 -0.173456 -0.191778 -0.0904186 -0.101057 -0.0419782 -0.0747036 -0.197774 -0.175213 -0.182255 -0.161826 -0.15792 -0.211618 -0.0666478 -0.0511716 -0.0749227 -0.0641356
internal_count=156770 113555 43215 58334 32280 55221 15493 42841 24647 23261 19818 17807 15591 30574 34830 5010 10935 8011 10945 6849 27837 15777 15255 11310 24745 10085 1043 9019 9679 8269
shrinkage=0.05


Tree=11
num_leaves=31
num_cat=0
split_feature=117 93 76 65 10 89 46 1 69 75 16 46 34 13 59 42 106 49 96 103 16 61 48 55 88 25 18 111 74 11
split_gain=458.481 129.322 45.0316 43.0894 27.0836 23.2952 17.7433 17.0361 16.7439 15.2692 13.4501 13.7259 11.7738 11.2418 10.552 10.1394 10.0747 9.99243 9.78762 9.55627 9.23927 11.383 9.10059 8.8146 8.35285 7.97302 7.89766 7.74132 7.73969 7.8926
threshold=1.0000000180025095e-35 0.053235500000000012 -1.2916999999999998 -1.50315 -0.79419999999999991 -1.6346499999999999 -0.13695999999999997 -1.49535 -1.3561999999999999 1.29315 -2.0971999999999995 -1.77125 -1.0361499999999999 3.1866500000000006 -3.9980499999999997 1.7477000000000003 1.0674500000000002 -1.1536999999999997 -1.1696499999999996 0.34810500000000005 0.43566000000000005 -6.9369999999999994 1.5763500000000004 -2.4234999999999993 1.9622500000000003 0.8958600000000001 -1.0270499999999998 15.741500000000002 0.058907000000000008 2.5433000000000008
decision_type=2 2 2 2 2 2 2 2 2 2 2 2 2 2 2 2 2 2 2 2 2 2 2 2 2 2 2 2 2 2
left_child=1 5 15 6 24 8 18 17 27 10 -6 -12 -13 20 -9 26 25 -5 -3 -20 21 -7 23 -23 28 -16 -2 -1 -4 -30
right_child=2 3 4 7 9 13 -8 14 -10 -11 11 12 -14 -15 16 -17 -18 -19 19 -21 -22 22 -24 -25 -26 -27 -28 -29 29 -31
leaf_value=0.010973463580049957 0.0060847319592201464 -0.00063516961752153487 0.0016167797483716843 0.0010845863095244339 0.0027200456503736065 -0.0015185672218070512 0.0073571520658421907 0.013151289865313982 0.01417808802557953 0.002340268391804142 0.0018260772842326777 -0.0017619851658954118 -0.0057225372667718223 0.014646495366144525 0.0082998050947418224 0.010509314418775778 0.0068305400854153583 0.0066273459445363647 0.0066439948103835331 0.0013348815873719542 0.011364843021540626 0.00069452104030846471 0.01204269764133872 0.0086198087609994593 -0.0045871283810548138 0.011318521601767054 0.0020008392680622459 0.0039890925156827904 0.0072235411796548873 -0.0065400356277656923
leaf_count=4018 4137 4096 5369 2275 2011 522 4548 2455 19637 3443 2216 6300 9291 2737 12360 1256 13214 5736 3097 3752 12060 754 3945 10556 750 6801 5542 992 2674 226
internal_value=0 0.183206 0.0119485 0.136754 -0.014622 0.232398 0.0728252 0.15991 0.264862 -0.0401351 -0.0552412 -0.0676259 -0.0824341 0.206291 0.173456 0.0904186 0.166674 0.101057 0.0419782 0.0747036 0.197774 0.175213 0.182255 0.161826 0.0511716 0.187427 0.0749227 0.191778 0.0641356 0.123018
internal_count=156770 113555 43215 58334 32280 55221 15493 42841 24647 23261 19818 17807 15591 30574 34830 10935 32375 8011 10945 6849 27837 15777 15255 11310 9019 19161 9679 5010 8269 2900
shrinkage=0.05



feature importances:
log10_cardinality=24
recent_15%_loss_best_percentile50_ratio=22
recent_15%_loss_kurtosis=19
top_10%_correlation_best_percentile25_ratio=15
top_10%_loss_kurtosis=14
top_10%_loss_best_percentile75_ratio=13
all_loss_best_percentile75_ratio=11
secondaryLockingMode_random=11
top_20%_loss_best_percentile25_ratio=9
recent_15%_loss_best_percentile25_ratio=9
recent_15%_loss_best_percentile75_ratio=9
recent_15%_loss_skew=9
top_10%_loss_best_percentile50_ratio=8
recent_15%_correlation_best_percentile50_ratio=8
top_10%_loss_stddev_best_ratio=8
top_10%_correlation_percentile5_percentile25_ratio=7
all_correlation_best_percentile50_ratio=7
all_correlation_best_percentile75_ratio=7
top_20%_loss_stddev_median_ratio=7
top_20%_loss_best_percentile75_ratio=6
top_20%_correlation_stddev_median_ratio=5
recent_15%_loss_stddev_median_ratio=5
all_correlation_skew=5
top_10%_correlation_best_percentile75_ratio=5
all_loss_best_percentile50_ratio=5
all_loss_skew=5
recent_15%_correlation_percentile5_percentile25_ratio=5
top_10%_loss_best_percentile25_ratio=4
resultFilteringMode_age=4
all_correlation_stddev_median_ratio=4
top_30%_correlation_stddev_best_ratio=4
recent_10_correlation_best_percentile50_ratio=4
recent_25_loss_stddev_median_ratio=3
recent_25_loss_percentile5_percentile25_ratio=3
recent_25_loss_best_percentile50_ratio=3
top_30%_loss_best_percentile50_ratio=3
top_20%_loss_best_percentile50_ratio=3
top_20%_correlation_best_percentile50_ratio=3
recent_10_correlation_percentile5_percentile25_ratio=3
recent_25_correlation_best_percentile50_ratio=3
recent_25_correlation_best_percentile25_ratio=3
recent_15%_loss_percentile5_percentile25_ratio=3
recent_15%_correlation_stddev_best_ratio=2
top_20%_loss_percentile5_percentile25_ratio=2
recent_10_loss_best_percentile25_ratio=2
recent_10_loss_percentile5_percentile25_ratio=2
top_10%_loss_percentile5_percentile25_ratio=2
recent_15%_correlation_kurtosis=2
top_30%_loss_skew=2
recent_25_loss_best_percentile25_ratio=2
recent_25_correlation_stddev_best_ratio=2
top_10%_correlation_best_percentile50_ratio=2
recent_25_loss_best_percentile75_ratio=2
recent_15%_loss_stddev_best_ratio=2
recent_15%_correlation_stddev_median_ratio=2
all_loss_stddev_median_ratio=1
top_20%_loss_skew=1
recent_10_correlation_best_percentile25_ratio=1
top_30%_correlation_best_percentile25_ratio=1
top_30%_correlation_kurtosis=1
top_30%_correlation_skew=1
all_loss_kurtosis=1
top_30%_correlation_stddev_median_ratio=1
all_loss_stddev_best_ratio=1
secondaryLockingMode_top=1
all_loss_percentile5_percentile25_ratio=1
top_30%_loss_stddev_best_ratio=1
top_20%_loss_kurtosis=1
recent_10_correlation_kurtosis=1
recent_10_correlation_skew=1
top_20%_correlation_stddev_best_ratio=1
top_20%_correlation_kurtosis=1
recent_10_loss_best_percentile75_ratio=1
top_10%_loss_stddev_median_ratio=1
recent_15%_correlation_best_percentile25_ratio=1
recent_15%_correlation_best_percentile75_ratio=1
top_10%_correlation_stddev_median_ratio=1
top_10%_correlation_skew=1
top_10%_correlation_kurtosis=1
recent_25_loss_kurtosis=1
recent_25_correlation_best_percentile75_ratio=1

pandas_categorical:null
