tree
version=v2
num_class=4
num_tree_per_iteration=4
label_index=0
max_feature_idx=112
objective=multiclass num_class:4
feature_names=all_correlation_best_percentile25_ratio all_correlation_best_percentile50_ratio all_correlation_best_percentile75_ratio all_correlation_kurtosis all_correlation_percentile5_percentile25_ratio all_correlation_skew all_correlation_stddev_best_ratio all_correlation_stddev_median_ratio all_loss_best_percentile25_ratio all_loss_best_percentile50_ratio all_loss_best_percentile75_ratio all_loss_kurtosis all_loss_percentile5_percentile25_ratio all_loss_skew all_loss_stddev_best_ratio all_loss_stddev_median_ratio log10_cardinality recent_10_correlation_best_percentile25_ratio recent_10_correlation_best_percentile50_ratio recent_10_correlation_best_percentile75_ratio recent_10_correlation_kurtosis recent_10_correlation_percentile5_percentile25_ratio recent_10_correlation_skew recent_10_correlation_stddev_best_ratio recent_10_correlation_stddev_median_ratio recent_10_loss_best_percentile25_ratio recent_10_loss_best_percentile50_ratio recent_10_loss_best_percentile75_ratio recent_10_loss_kurtosis recent_10_loss_percentile5_percentile25_ratio recent_10_loss_skew recent_10_loss_stddev_best_ratio recent_10_loss_stddev_median_ratio recent_15%_correlation_best_percentile25_ratio recent_15%_correlation_best_percentile50_ratio recent_15%_correlation_best_percentile75_ratio recent_15%_correlation_kurtosis recent_15%_correlation_percentile5_percentile25_ratio recent_15%_correlation_skew recent_15%_correlation_stddev_best_ratio recent_15%_correlation_stddev_median_ratio recent_15%_loss_best_percentile25_ratio recent_15%_loss_best_percentile50_ratio recent_15%_loss_best_percentile75_ratio recent_15%_loss_kurtosis recent_15%_loss_percentile5_percentile25_ratio recent_15%_loss_skew recent_15%_loss_stddev_best_ratio recent_15%_loss_stddev_median_ratio recent_25_correlation_best_percentile25_ratio recent_25_correlation_best_percentile50_ratio recent_25_correlation_best_percentile75_ratio recent_25_correlation_kurtosis recent_25_correlation_percentile5_percentile25_ratio recent_25_correlation_skew recent_25_correlation_stddev_best_ratio recent_25_correlation_stddev_median_ratio recent_25_loss_best_percentile25_ratio recent_25_loss_best_percentile50_ratio recent_25_loss_best_percentile75_ratio recent_25_loss_kurtosis recent_25_loss_percentile5_percentile25_ratio recent_25_loss_skew recent_25_loss_stddev_best_ratio recent_25_loss_stddev_median_ratio top_10%_correlation_best_percentile25_ratio top_10%_correlation_best_percentile50_ratio top_10%_correlation_best_percentile75_ratio top_10%_correlation_kurtosis top_10%_correlation_percentile5_percentile25_ratio top_10%_correlation_skew top_10%_correlation_stddev_best_ratio top_10%_correlation_stddev_median_ratio top_10%_loss_best_percentile25_ratio top_10%_loss_best_percentile50_ratio top_10%_loss_best_percentile75_ratio top_10%_loss_kurtosis top_10%_loss_percentile5_percentile25_ratio top_10%_loss_skew top_10%_loss_stddev_best_ratio top_10%_loss_stddev_median_ratio top_20%_correlation_best_percentile25_ratio top_20%_correlation_best_percentile50_ratio top_20%_correlation_best_percentile75_ratio top_20%_correlation_kurtosis top_20%_correlation_percentile5_percentile25_ratio top_20%_correlation_skew top_20%_correlation_stddev_best_ratio top_20%_correlation_stddev_median_ratio top_20%_loss_best_percentile25_ratio top_20%_loss_best_percentile50_ratio top_20%_loss_best_percentile75_ratio top_20%_loss_kurtosis top_20%_loss_percentile5_percentile25_ratio top_20%_loss_skew top_20%_loss_stddev_best_ratio top_20%_loss_stddev_median_ratio top_30%_correlation_best_percentile25_ratio top_30%_correlation_best_percentile50_ratio top_30%_correlation_best_percentile75_ratio top_30%_correlation_kurtosis top_30%_correlation_percentile5_percentile25_ratio top_30%_correlation_skew top_30%_correlation_stddev_best_ratio top_30%_correlation_stddev_median_ratio top_30%_loss_best_percentile25_ratio top_30%_loss_best_percentile50_ratio top_30%_loss_best_percentile75_ratio top_30%_loss_kurtosis top_30%_loss_percentile5_percentile25_ratio top_30%_loss_skew top_30%_loss_stddev_best_ratio top_30%_loss_stddev_median_ratio
feature_infos=[-9.0793999999999997:106.40000000000001] [-6.1543999999999999:907.00999999999999] [-4.2420999999999998:4891.5] [-4.0632000000000001:42.643000000000001] [-11.725:138.13999999999999] [-12.686:13.564] [-15.976000000000001:11.614000000000001] [-5.9271000000000003:1428.2] [-92019:9486.5] [-76234:115850] [-15884:122060] [-2.3424:70.739999999999995] [-81702:10552] [-8.2988:19.844000000000001] [-537830:1354700] [-278130:1104700] [-4.9066000000000001:5.7077999999999998] [-4.2309000000000001:1253.7] [-2.4914999999999998:363.81999999999999] [-2.2536:296.80000000000001] [-2.5891000000000002:35.771000000000001] [-5.0574000000000003:1613.9000000000001] [-9.4370999999999992:11.792] [-15.170999999999999:8.0465] [-2.4289999999999998:373.92000000000002] [-41468:19059] [-27160:198690] [-23476:25385] [-1.7628999999999999:2.0127000000000002] [-41287:18631] [-6.274:1.8354999999999999] [-378090:1130600] [-339220:1263600] [-4.3403:8764.7999999999993] [-2.6692:7696.3000000000002] [-2.3054999999999999:5076.8999999999996] [-2.5735000000000001:33.960000000000001] [-5.2473000000000001:9928.8999999999996] [-11.163:11.558] [-14.411:7.4763999999999999] [-2.6036000000000001:5651.3999999999996] [-43914:15193] [-70213:398300] [-232340:48758] [-1.6065:49.856000000000002] [-36054:13028] [-7.5063000000000004:12.785] [-779600:1180300] [-3854900:1170100] [-4.9035000000000002:9369.6000000000004] [-3.0550999999999999:5709.8999999999996] [-2.6476999999999999:4628.8000000000002] [-2.8029999999999999:41.351999999999997] [-6.0103999999999997:9485.2999999999993] [-10.518000000000001:12.426] [-13.798999999999999:7.9203999999999999] [-2.8595999999999999:5095.8999999999996] [-110400:67570] [-21736:50533] [-40984:21684] [-1.9411:3.7551999999999999] [-121220:78999] [-9.4586000000000006:3.0712000000000002] [-777050:1005600] [-4907700:2416500] [-3.5528:5968.6000000000004] [-2.3841000000000001:2986.9000000000001] [-1.8844000000000001:1635.7] [-2.2686999999999999:28.308] [-4.1837:6406.6000000000004] [-13.297000000000001:10.804] [-13.407999999999999:6.319] [-2.3730000000000002:3109.4000000000001] [-103440:23691] [-37882:15295] [-54135:285190] [-3.0364:128.66999999999999] [-99591:32670] [-24.335000000000001:19.193000000000001] [-555170:44915] [-13952:44588] [-3.9630000000000001:22230] [-2.3159000000000001:13472] [-1.9112:5426.3999999999996] [-2.4296000000000002:31.773] [-4.7637999999999998:13939] [-14.045:11.459] [-14.471:7.2553999999999998] [-2.3260000000000001:9986.7999999999993] [-545800:11167] [-96031:6785.1999999999998] [-37547:28459] [-3.8111000000000002:275.38999999999999] [-426300:9476.5] [-36.381999999999998:24.898] [-440240:209600] [-10446:88057] [-4.4935999999999998:60504] [-2.3953000000000002:17238] [-2.0042:22608] [-2.6255999999999999:30.370000000000001] [-5.4583000000000004:58990] [-11.608000000000001:10.606999999999999] [-14.869999999999999:7.6917] [-2.3576999999999999:17510] [-42560:23966] [-66729:71515] [-20794:655530] [-4.2091000000000003:378.39999999999998] [-40448:27764] [-41.186:32.061] [-557080:589060] [-57896:353280]
tree_sizes=2600 2655 2614 2621 2609 2637 2621 2658 2587 2660 2617 2638 2610 2676 2609 2624 2587 2659 2622 2640 2604 2639 2639 2641 2608 2650 2604 2646

Tree=0
num_leaves=31
num_cat=0
split_feature=92 76 44 57 101 108 111 57 75 94 59 60 63 33 57 64 70 107 56 88 101 20 45 103 12 43 26 20 3 6
split_gain=347.177 99.3801 48.5427 21.48 15.0146 11.9446 11.9047 11.89 22.2466 14.7052 10.8492 10.6032 10.0683 10.0483 9.86823 9.85076 9.79911 9.52829 14.9674 9.93397 9.48205 12.3718 9.89453 9.74551 9.39103 12.1763 11.2042 11.7256 11.761 11.4282
threshold=-3.8109999999999995 -2.4297499999999999 -0.32089999999999991 0.43903000000000009 -1.6052499999999996 -2.3278499999999993 0.24526000000000001 -0.085257499999999986 -0.20727499999999996 -5.1475999999999997 -7.5341499999999995 3.3754500000000003 -15.265499999999998 -0.05407399999999999 -0.15354999999999999 -1.5514499999999998 -1.5603499999999999 -8.5766999999999971 -1.2219499999999999 6.2395500000000004 0.84521500000000016 1.0317500000000004 -5.9660499999999992 1.7358500000000003 1.0904500000000004 -6.1557999999999993 1.3300500000000002 1.9478500000000001 -1.5896499999999996 0.82769000000000015
decision_type=2 2 2 2 2 2 2 2 2 2 2 2 2 2 2 2 2 2 2 2 2 2 2 2 2 2 2 2 2 2
left_child=6 15 3 -3 24 13 -1 17 -9 12 11 -11 -10 -6 -15 -2 -5 18 -7 -20 21 22 -12 -24 25 -4 -27 -28 -29 -30
right_child=1 2 4 16 5 7 -8 8 9 10 20 -13 -14 14 -16 -17 -18 -19 19 -21 -22 -23 23 -25 -26 26 27 28 29 -31
leaf_value=-0.0016486922028015373 0.0084108739281153078 0.0066016616738133003 0.020763187429854099 0.0067125341801181973 0.010694183864915573 0.021924398625429553 -0.0065403281719436102 0.013560454241816967 0.080952380952380956 0.019266055045871561 0.04424242424242425 -0.0042253521126760568 0.022826086956521739 0.032785388127853886 0.016725698543880365 0.0020791245791245794 0.010069054119158503 0.0087266390240971093 0.011509715994020927 -0.0080000000000000002 0.0083686537861690623 0.013704486727742543 0.010656978504389949 0.0061877172653534186 0.0052557813594954449 0.0071676906224698777 0.009836477987421384 -0.0023569023569023572 0.02154882154882155 0.04986666666666667
leaf_count=5378 1827 51073 594 7558 1066 970 8654 17964 21 1308 55 142 368 365 847 15840 24908 27735 1338 200 18167 7095 13212 4315 5708 6999 1325 99 396 125
internal_value=0 0.171931 0.182611 0.152911 0.205083 0.212705 -0.0933105 0.20984 0.222676 0.203165 0.200388 0.33931 0.51928 0.329529 0.431243 0.0546782 0.185753 0.183249 0.279638 0.179454 0.195687 0.216531 0.193304 0.191134 0.157506 0.188859 0.173822 0.283462 0.468817 0.566859
internal_count=225652 211620 193953 83539 110414 95168 14032 92890 62647 44683 44294 1450 389 2278 1212 17667 32466 30243 2508 1538 42844 24677 17582 17527 15246 9538 8944 1945 620 521
shrinkage=0.05


Tree=1
num_leaves=31
num_cat=0
split_feature=44 51 65 99 64 31 13 32 9 92 62 64 60 64 56 98 44 44 13 13 2 78 9 33 64 78 78 9 57 103
split_gain=706.893 264.103 161.182 89.4375 65.4873 60.0602 54.5406 39.9403 35.9629 25.1741 21.9354 21.6269 22.6491 16.7313 17.1595 16.5498 15.8921 14.7928 13.3714 12.3554 12.2967 11.8624 11.2865 11.1541 10.828 10.7632 10.4013 10.2898 9.70169 9.32051
threshold=-0.72797499999999993 -2.4169499999999995 -1.6324499999999997 -1.6701999999999997 -1.4399499999999998 -0.22129499999999996 0.31824000000000002 -0.036515999999999993 -0.33214999999999995 -3.8109999999999995 0.81153500000000012 -0.95348999999999984 -0.5325249999999998 -0.68013499999999982 -0.84183999999999992 -2.0945999999999998 1.51705 0.81220500000000018 -3.5808999999999997 0.45658000000000004 2.3424 2.3636500000000003 0.31058500000000006 -0.090643499999999988 -1.2060499999999996 -2.4428999999999994 2.5772500000000007 -0.16816499999999998 -0.29956499999999991 2.4556500000000008
decision_type=2 2 2 2 2 2 2 2 2 2 2 2 2 2 2 2 2 2 2 2 2 2 2 2 2 2 2 2 2 2
left_child=1 7 5 6 -4 27 11 9 16 -1 13 -2 26 -6 25 20 -5 22 29 21 -7 -10 -8 -17 -11 -15 -13 -3 -14 -9
right_child=3 2 4 8 10 15 17 18 19 24 -12 12 28 14 -16 23 -18 -19 -20 -21 -22 -23 -24 -25 -26 -27 -28 -29 -30 -31
leaf_value=0.0041564792176039117 -0.018233890214797138 -0.00089200658179613762 -0.013248204309656826 -0.0066666666666666671 -0.0078676675006950237 -0.0023983469854623276 -0.014241807909604521 0.0017543859649122803 -0.012749036648356152 -0.018199065966141275 -0.009117156132990481 -0.011437673414859727 -0.012708827772348644 -0.010965867828612927 -0.0051144152694295062 0.0034612137698152145 -0.012248062015503876 -0.019621675938299613 -0.0083348185112576481 -0.015385419935153228 0.0074646074646074652 -0.0039180229053646784 -0.018804987061867798 0.0090001062586335147 -0.013908698394217243 0.0020626908456409299 -0.0033417579331648413 -0.0047288331780582149 -0.016414582121388407 0.063218390804597707
leaf_count=409 8380 7698 10024 8685 4796 4517 7375 38 12197 9136 7389 9731 7163 459 6322 10661 5590 32177 5611 15935 1036 1106 7085 3137 6871 5349 1187 11807 13752 29
internal_value=0 -0.119615 -0.072382 -0.304662 -0.153897 -0.000343147 -0.334938 -0.276093 -0.244234 -0.316927 -0.108109 -0.290868 -0.271437 -0.0757021 -0.0434185 0.0641138 -0.177046 -0.372937 -0.158037 -0.277037 -0.0111651 -0.240297 -0.329553 0.0944098 -0.327149 0.0206612 -0.21115 -0.0642912 -0.302909 0.567164
internal_count=225652 95289 73195 130363 34339 38856 86850 22094 43513 16416 24315 40213 31833 16926 12130 19351 14275 46637 5678 29238 5553 13303 14460 13798 16007 5808 10918 19505 20915 67
shrinkage=0.05


Tree=2
num_leaves=31
num_cat=0
split_feature=76 59 76 76 108 51 59 86 13 9 47 9 12 13 45 108 15 15 64 40 41 95 111 41 101 37 16 13 67 32
split_gain=596.165 167.753 98.6641 112.424 57.5506 31.3277 28.2422 27.2712 21.6457 20.4086 20.0171 16.7341 16.5209 17.0096 15.8862 11.851 11.3897 11.0806 21.1157 10.6829 10.5454 15.5107 13.9564 12.4365 11.5068 10.789 10.4591 10.3575 11.5883 9.9668
threshold=-1.5781499999999997 -0.021237499999999996 -1.5782499999999999 -2.6353999999999993 -2.2495499999999997 -2.0663499999999995 -0.50530999999999981 -0.59674499999999997 0.10450500000000001 0.34648000000000007 -1.0583499999999997 -0.061248999999999991 -2.7651499999999998 -0.42918999999999996 0.31368500000000005 3.9703500000000003 2.4962500000000003 -0.3828049999999999 -1.2060499999999996 3.0707500000000008 1.6055500000000003 -1.7576499999999997 -0.8424149999999998 -0.96036499999999991 -1.88425 -1.5157499999999999 -3.3378999999999999 3.0347500000000003 -0.81213999999999997 0.46107000000000004
decision_type=2 2 2 2 2 2 2 2 2 2 2 2 2 2 2 2 2 2 2 2 2 2 2 2 2 2 2 2 2 2
left_child=2 5 3 16 -3 9 -5 20 15 14 -7 -10 -12 -14 26 -9 -1 18 -13 -11 22 24 -6 27 -22 -25 -2 -24 -29 -4
right_child=1 4 29 6 7 10 -8 8 11 19 12 17 13 -15 -16 -17 -18 -19 -20 -21 21 -23 23 25 -26 -27 -28 28 -30 -31
leaf_value=-0.0023219314037760236 0.022335369993211136 0.0056670186554030272 -0.00321099271696624 0.0035618981320338786 0.014250055062036563 0.0017473388230568388 0.010742811501597444 0.01325655026843482 0.012571984144790965 0.014072775098640947 0.0049711147564367739 0.018028856091611891 0.0064085380987838171 0.010562158523006812 0.0055745574557455749 0.0076002393776181927 0.0044011923549009289 0.01816110088526602 0.012099882688117984 0.026190476190476195 0.028888888888888888 0.0045414462081128744 0.012350977587029091 0.0031275720164609059 0.01127739176910743 0.010284629981024668 0.010247502404365151 0.014558740865654863 0.032808398950131233 -0.0075850462796009143
leaf_count=14442 491 6629 9291 5746 13621 4979 10016 21793 8914 2281 14021 8063 13430 12873 5555 2785 1901 15212 7956 616 285 3024 4194 1620 1871 10540 16983 593 381 5546
internal_value=0 0.219999 0.0132078 0.0641022 0.260728 0.15854 0.162501 0.270416 0.290479 0.203811 0.132633 0.313846 0.144695 0.168827 0.187561 0.252312 -0.0307981 0.331658 0.301683 0.332988 0.234475 0.166281 0.245888 0.215143 0.272109 0.186623 0.211743 0.28225 0.433949 -0.0969199
internal_count=225652 178710 46942 32105 107481 71229 15762 100852 64723 25926 45303 40145 40324 26303 23029 24578 16343 31231 16019 2897 36129 5180 30949 17328 2156 12160 17474 5168 974 14837
shrinkage=0.05


Tree=3
num_leaves=31
num_cat=0
split_feature=44 76 66 81 6 60 76 59 103 15 60 76 63 9 85 61 42 86 92 6 2 13 44 47 61 109 81 27 23 49
split_gain=102.012 29.1899 28.4982 18.3558 15.0638 11.7603 10.9282 10.7462 10.6714 9.96356 11.848 9.51778 8.84527 8.72626 10.0911 8.71012 7.87859 7.86431 7.72904 8.69141 7.42033 7.51984 7.07596 7.01384 11.5093 7.15956 6.94204 6.63477 6.5233 6.49618
threshold=-0.6812649999999999 -1.5360499999999997 -1.49515 -1.65045 1.3582000000000003 -0.95032499999999998 5.0247500000000009 0.90123000000000009 2.7769500000000007 -1.5159499999999999 -1.4327499999999997 0.30838000000000004 -0.14203499999999997 1.18435 9.0510500000000018 -3.1116499999999996 -0.46112999999999993 1.5447500000000003 0.31237000000000009 -0.42610999999999993 -2.3581499999999997 -0.5753999999999998 2.6504500000000006 -0.38535499999999995 -7.9692999999999996 1.5263500000000001 11.931500000000002 0.94996000000000003 -0.47714999999999991 -1.7851499999999996
decision_type=2 2 2 2 2 2 2 2 2 2 2 2 2 2 2 2 2 2 2 2 2 2 2 2 2 2 2 2 2 2
left_child=1 9 4 16 11 23 7 -7 15 29 12 20 27 -9 -15 -4 -3 -12 -16 -20 21 -2 26 24 25 -5 -17 -11 -27 -1
right_child=2 3 8 5 -6 6 -8 13 -10 10 17 -13 -14 14 18 22 -18 -19 19 -21 -22 -23 -24 -25 -26 28 -28 -29 -30 -31
leaf_value=-0.003626220362622036 -0.0096829477292202232 -0.0035814627510129243 -0.0049050003974878765 0.0030894308943089435 -0.0035300854910622981 -0.002130396334110459 -0.012171372930866602 -0.010517268323175497 -0.0043231961836613002 0.0017832647462277093 -0.0023341090191100768 -0.0074209026299650073 -0.0086387717591090932 -0.0049831649831649834 -0.002040816326530612 -0.008166831421182439 -4.0016006402561028e-05 0.0013868356212601198 0.00085470085470085481 0.050877192982456146 -0.0056042329705447078 0.0033979219320415619 -0.010228671373971626 -0.0089999999999999993 -0.0060756484653569191 0.061290322580645144 0.018750000000000003 -0.01069182389937107 0.011111111111111112 0.0016607499897988332
leaf_count=1912 389 11271 4193 205 16298 12439 1027 2133 4472 1215 18908 27719 3083 3960 98 33383 6664 4735 39 57 25451 1187 15437 6400 14303 31 64 371 39 8169
internal_value=0 -0.0659324 -0.136062 -0.0888419 -0.114183 -0.108009 -0.0794141 -0.070419 -0.163073 -0.0309258 -0.0466233 -0.127157 -0.121796 -0.125444 -0.0818488 -0.169527 -0.0453118 -0.0317783 0.281787 0.611111 -0.105351 0.00338409 -0.175654 -0.134935 -0.115151 0.215758 -0.162307 -0.0226986 0.666667 0.0131601
internal_count=225652 97059 128593 58666 71044 40731 19753 18726 57549 38393 28312 54746 4669 6287 4154 53077 17935 23643 194 96 27027 1576 48884 20978 14578 275 33447 1586 70 10081
shrinkage=0.05


Tree=4
num_leaves=31
num_cat=0
split_feature=92 76 44 16 27 73 83 18 111 44 108 64 71 48 97 57 14 30 14 64 64 13 12 49 111 87 0 57 43 27
split_gain=322.622 92.2277 44.0562 22.2028 20.6154 14.1244 11.6507 11.4437 11.3803 10.6416 12.145 14.902 10.5218 12.3411 9.4071 11.4829 9.39862 9.36762 9.36569 9.30088 9.20962 9.20855 9.2682 9.15702 11.5131 10.7591 11.7342 8.91062 9.90871 10.5634
threshold=-3.8109999999999995 -2.4297499999999999 -0.32089999999999991 -3.3378999999999999 1.3336500000000002 8.8373500000000025 -1.6000499999999998 1.4265500000000004 0.24526000000000001 2.6655000000000002 -2.1390499999999997 4.990050000000001 1.7039500000000001 5.513300000000001 -1.6981499999999998 -13.836999999999998 -5.1915499999999986 1.7262500000000001 -1.8830499999999997 -0.25363499999999994 -1.5514499999999998 -1.9665499999999996 1.4403500000000002 -1.5102499999999999 -1.3485499999999997 -1.0154499999999997 0.63155000000000017 -0.042425999999999991 -0.97388999999999992 0.021348000000000002
decision_type=2 2 2 2 2 2 2 2 2 2 2 2 2 2 2 2 2 2 2 2 2 2 2 2 2 2 2 2 2 2
left_child=8 20 4 6 12 9 -4 -7 -1 17 11 -11 13 19 15 -12 -9 21 -14 -3 -2 -5 -23 24 25 26 -16 28 29 -19
right_child=1 2 3 5 -6 7 -8 16 -10 10 14 -13 18 -15 23 -17 -18 27 -20 -21 -22 22 -24 -25 -26 -27 -28 -29 -30 -31
leaf_value=-0.0015850848916414686 0.0080948970773413575 0.0080343208962763424 0.0022378973607680599 0.0055830472736429198 0.010132612183935144 0.019179728127752291 0.010559428523743399 -0.0011898495628743398 -0.0063732586441683104 0.015038548156955912 0.066997118714164597 0.040403713160923206 0.015350132132148728 0.012293435517961965 0.033589538412493777 0.0067810944331571773 0.045065138186990733 0.0076825459799441847 0.0045829546793041756 0.0057933159062661293 0.0019880318119402129 0.010949108225613464 0.0079312044335625234 0.010798361045904025 0.017670599100345043 0.0014407383588474322 -0.0046004130688134829 0.0092016541848600111 0.0032940136914916085 0.023535851573393329
leaf_count=5378 1827 27069 3745 2891 14694 1817 1589 315 8654 765 21 191 555 3127 168 3964 32 2995 15589 22505 15840 33008 8470 28280 2796 638 78 13812 4532 307
internal_value=0 0.165285 0.175525 0.196848 0.147288 0.202044 0.094339 0.331972 -0.0907048 0.199304 0.221434 0.40223 0.135459 0.146605 0.216614 0.142001 0.0614325 0.186929 0.0990654 0.140344 0.0524327 0.200471 0.206661 0.225902 0.302256 0.140327 0.429488 0.159172 0.115312 0.183118
internal_count=225652 211620 193953 110414 83539 105080 5334 2164 14032 102916 36901 956 68845 52701 35945 3985 347 66015 16144 49574 17667 44369 41478 31960 3680 884 246 21646 7834 3302
shrinkage=0.05


Tree=5
num_leaves=31
num_cat=0
split_feature=44 51 65 11 59 31 99 58 32 76 99 92 58 32 104 58 9 24 55 11 63 62 11 2 63 97 92 63 92 57
split_gain=676.81 251.086 151.483 92.8823 61.6124 56.5432 43.9927 40.3136 38.544 28.9865 28.6541 24.0937 19.3613 16.6668 16.4524 15.1564 14.0934 13.6517 12.837 12.3392 12.3217 11.1122 14.0438 10.9927 10.7353 10.3253 10.3116 10.2986 9.99118 10.0931
threshold=-0.72797499999999993 -2.4169499999999995 -1.6324499999999997 -0.021963499999999997 0.35079500000000002 -0.22129499999999996 -1.6701999999999997 -1.4447499999999998 -0.036515999999999993 -1.5139499999999997 -1.5173499999999998 -3.8109999999999995 -0.66998999999999986 0.6805650000000002 -1.9482499999999996 -1.6600499999999998 0.80645500000000014 -1.56795 -1.37625 0.16168000000000002 -0.74682999999999988 -2.4123999999999994 -1.1160499999999998 2.3424 -1.3970499999999999 -1.5806499999999997 1.2531500000000004 -1.4091499999999997 -1.7728499999999998 0.50761000000000012
decision_type=2 2 2 2 2 2 2 2 2 2 2 2 2 2 2 2 2 2 2 2 2 2 2 2 2 2 2 2 2 2
left_child=1 8 5 7 9 15 12 17 11 13 20 -1 -5 18 23 -3 -8 -2 -4 28 -9 -11 -23 -7 -12 26 -15 -6 29 -10
right_child=3 2 4 6 27 14 16 10 19 21 24 -13 -14 25 -16 -17 -18 -19 -20 -21 -22 22 -24 -25 -26 -27 -28 -29 -30 -31
leaf_value=0.0040593284654102876 -0.011342103483953292 -0.00035506852329338388 0.00086461637899389011 -0.015102539240891437 -0.014071238215716462 -0.0023111412975673172 -0.012015512153018552 -0.017743399483523756 0.006253082191822943 -0.013050980552831153 -0.014874581993556325 -0.015994755291326403 -0.018988133198591092 0.0091845493499873466 0.0046398413318421141 -0.0049975112800407784 -0.015978768775203697 -0.0054606182897785653 -0.0068885864612026424 -0.015288615072559693 -0.013928902726342538 -0.0025069858582813507 -0.0087446884771270449 0.0069021995742963391 -0.0094809361672467448 0.0014442871304388904 0.042138277230121063 -0.0093840092088838204 -0.0077354622997693597 -0.013726362843587657
leaf_count=409 4508 7876 2305 11049 7090 4619 12744 7803 738 1982 3109 16007 39738 380 13674 11629 11471 6435 3761 1137 21259 3921 6301 1058 12247 2861 76 5662 3583 220
internal_value=0 -0.115977 -0.069982 -0.297651 -0.14932 -0.00023921 -0.335333 -0.246716 -0.269383 -0.0961072 -0.268706 -0.309778 -0.362835 -0.0277936 0.0621861 -0.0624088 -0.277823 -0.157628 -0.0788336 -0.15314 -0.299031 -0.148738 -0.127005 -0.0117463 -0.211453 0.0652831 0.2936 -0.239725 -0.11495 0.0334618
internal_count=225652 95289 73195 130363 34339 38856 75002 55361 22094 21587 44418 16416 50787 9383 19351 19505 24215 10943 6066 5678 29062 12204 10222 5677 15356 3317 456 12752 4541 958
shrinkage=0.05


Tree=6
num_leaves=31
num_cat=0
split_feature=76 59 44 108 44 76 76 44 64 9 9 43 59 58 68 16 47 80 86 60 59 11 94 49 8 103 11 84 32 77
split_gain=551.115 154.44 133.668 53.0561 44.1171 37.8704 42.7147 29.7805 25.2294 24.4138 20.0848 16.303 16.2125 16.0512 15.3972 15.3715 14.7964 14.1343 12.7481 12.1164 11.7307 11.5734 11.3484 11.1423 10.9927 11.3438 10.7002 9.45766 9.43093 9.19505
threshold=-1.5781499999999997 -0.021237499999999996 -0.6358649999999999 -2.2495499999999997 0.81220500000000018 -1.5782499999999999 -2.3621499999999993 1.1674500000000003 -1.6722499999999998 -0.040777499999999987 0.15852000000000002 1.3616500000000002 -0.73046499999999981 -1.1698499999999996 0.52721000000000007 -3.4180499999999996 -1.0583499999999997 -6.6002999999999989 -0.12372499999999999 3.0122000000000004 1.7093500000000004 -2.0218499999999993 1.9353500000000003 1.3359500000000002 -4.7977499999999988 0.76675000000000015 -1.0009499999999998 10.511500000000002 0.46107000000000004 -7.1781499999999996
decision_type=2 2 2 2 2 2 2 2 2 2 2 2 2 2 2 2 2 2 2 2 2 2 2 2 2 2 2 2 2 2
left_child=2 4 5 -3 10 6 -1 8 17 24 16 21 -8 -4 -12 -6 -2 -5 -11 -17 -13 -10 -18 -23 -9 -26 -19 -24 -7 -25
right_child=1 3 13 7 15 28 12 9 11 18 14 20 -14 -15 -16 19 22 26 -20 -21 -22 23 27 29 25 -27 -28 -29 -30 -31
leaf_value=-0.0015520909587348503 0.0016282326886373809 0.0054407232395695506 0.0038052149600772997 0.004636026185970984 0.021176160498670604 -0.0031222693436157912 0.00054130138805088472 -0.0014729075945748822 -0.0057296925968717818 0.013802788740348439 0.0075286541283124987 0.0054638479230920784 0.00931956644196116 0.011675261583034894 0.014789861064840121 0.009146175202904552 0.0068178214543943814 0.011250369560061972 0.01696780201065156 0.013793866148212179 0.011305692503599104 0.010696794735786604 0.0024791794831014709 -0.0056503793799565329 0.00985347598985588 0.015231847634697596 0.01706772787922177 0.023181917870605181 -0.0073850476380056228 0.014179730817891513
leaf_count=16995 5552 6629 2333 822 896 9290 2119 430 253 14897 6244 5731 4108 6552 2803 15138 29483 2751 19288 4922 3767 22202 6041 157 7255 4036 8706 150 5545 10557
internal_value=0 0.211185 0.0125584 0.250063 0.152336 -0.0296668 0.0114407 0.259304 0.233757 0.289859 0.126145 0.215055 0.1268 0.192275 0.195613 0.215062 0.110883 0.298682 0.311794 0.20574 0.155639 0.232064 0.123047 0.234727 0.225795 0.235514 0.313451 0.0596227 -0.0942565 0.277788
internal_count=225652 178710 46942 107481 71229 38057 23222 100852 54946 45906 50273 42667 6227 8885 9047 20956 41226 12279 34185 20060 9498 33169 35674 32916 11721 11291 11457 6191 14835 10714
shrinkage=0.05


Tree=7
num_leaves=31
num_cat=0
split_feature=44 66 76 81 16 60 44 76 59 103 15 60 76 10 63 9 10 55 39 39 61 71 10 42 30 46 75 86 44 42
split_gain=96.8937 27.1631 27.104 17.1702 17.1537 11.3432 11.1532 10.5211 10.2016 10.1636 9.32687 11.3012 8.99932 8.82716 8.44123 8.42881 9.45431 10.3762 8.42467 8.96433 8.29982 7.84757 7.71522 7.55918 7.13558 7.09419 7.06883 6.87794 6.83018 6.77337
threshold=-0.6812649999999999 -1.49515 -1.5360499999999997 -1.65045 -0.81199999999999994 -0.95032499999999998 0.48381000000000002 5.0247500000000009 0.90123000000000009 2.7769500000000007 -1.5159499999999999 -1.4327499999999997 0.76101000000000008 0.08629100000000002 -0.14203499999999997 1.2013500000000004 1.3313500000000003 -0.50539999999999996 0.85709000000000002 -0.32176999999999994 -3.1116499999999996 -2.5222499999999997 0.98655500000000018 -0.46112999999999993 1.7635500000000002 0.7105800000000001 -4.3647999999999989 -1.3940499999999998 2.6504500000000006 0.88694000000000017
decision_type=2 2 2 2 2 2 2 2 2 2 2 2 2 2 2 2 2 2 2 2 2 2 2 2 2 2 2 2 2 2
left_child=2 4 10 23 12 -5 22 8 -7 20 -1 14 26 24 -12 -10 17 -17 19 21 -3 -19 25 -4 -13 -6 -2 -23 -22 -24
right_child=1 9 3 5 6 7 -8 -9 15 -11 11 13 -14 -15 -16 16 -18 18 -20 -21 28 27 29 -25 -26 -27 -28 -29 -30 -31
leaf_value=0.00063150589596409055 -0.0084908518005879074 -0.004756730979329494 -0.00347808935869196 -0.006548291291331625 -0.0042283575092944203 -0.0020201044498553166 -0.0074746776388355009 -0.011893570550050117 -0.010184317018959532 -0.0041888454333862332 -0.0010997883470403559 0.00049006048706672751 -0.0058444305597898441 -0.0034624528927983673 -0.0084380643765479806 -0.0074625234387667274 -0.0063776787299026708 0.046817294284431883 0.019200551811561627 -0.012966335764720428 -0.0078913942862312934 0.043268206474763503 -0.012140676196071518 -7.0153069725043004e-06 -0.0048378323222654594 0.0042243958139364301 -0.0022336938436950714 -1.7759517210722144e-05 -0.00997403993832921 -0.0051614173749832759
leaf_count=10081 1311 4193 11271 20978 11081 12439 28869 1027 2179 4472 1586 12200 9902 9498 3083 451 2927 35 288 178 33447 28 1540 6664 1945 707 15281 201 15437 2353
internal_value=0 -0.132195 -0.0637348 -0.0858623 -0.110802 -0.104453 -0.130412 -0.0763303 -0.0675082 -0.158644 -0.0300015 -0.0452118 -0.0778424 -0.0307197 -0.118771 -0.121272 -0.0776837 0.0458458 0.166343 0.0244942 -0.164968 0.215684 -0.0952846 -0.0437418 -0.00485119 -0.0744288 -0.0545624 0.105364 -0.170972 -0.158444
internal_count=225652 128593 97059 58666 71044 40731 44550 19753 18726 57549 38393 28312 26494 23643 4669 6287 4108 1181 730 442 53077 264 15681 17935 14145 11788 16592 229 48884 3893
shrinkage=0.05


Tree=8
num_leaves=31
num_cat=0
split_feature=92 76 57 91 48 16 61 99 41 109 54 30 111 73 30 17 68 95 6 43 45 58 71 101 108 99 57 4 45 26
split_gain=299.389 85.5804 35.5368 27.5346 26.7911 24.7211 23.5675 19.7863 13.4844 13.214 12.5296 12.5321 10.838 9.83292 10.9867 10.0135 9.66818 14.2608 11.4495 9.36605 10.4025 9.12851 9.05347 9.00673 9.25505 9.74356 8.80755 8.93 11.4029 9.14453
threshold=-3.8109999999999995 -2.4297499999999999 -0.085257499999999986 0.238625 5.513300000000001 -1.2229999999999996 1.4173500000000001 -1.1925499999999998 -0.55714499999999989 2.2384500000000007 2.9474000000000005 0.75319500000000017 0.24526000000000001 5.2568500000000009 -2.6627499999999995 -0.8601049999999999 2.2128000000000001 62.870500000000007 1.3853500000000001 -0.64551999999999998 -4.2501499999999988 1.0162500000000001 -13.094499999999998 -1.2062499999999996 -2.0404499999999994 0.56433500000000014 -1.2415499999999999 0.40731500000000004 -0.041765999999999991 -2.9023499999999998
decision_type=2 2 2 2 2 2 2 2 2 2 2 2 2 2 2 2 2 2 2 2 2 2 2 2 2 2 2 2 2 2
left_child=12 -2 4 10 8 7 22 13 16 -9 11 23 -1 -5 -15 -16 26 18 -18 -6 -21 -12 -7 -4 25 -25 -3 28 -28 -29
right_child=1 2 3 5 19 6 -8 9 -10 -11 21 -13 -14 14 15 -17 17 -19 -20 20 -22 -23 -24 24 -26 -27 27 29 -30 -31
leaf_value=-0.0015194708960537327 0.0025156346747607877 0.005807906933954176 0.0062876593026474446 0.0044427731516321024 0.01233574117053713 0.034806768464076841 0.011340984353164274 0.0084527065159014422 0.0048185383228166994 0.018182175401810746 0.012052742058806484 0.012672641397750581 -0.0061977644513567867 0.058864088862967262 -0.00055672683250258001 0.019175269216973531 0.01084802951562671 0.038954808820848064 0.0030715967263006956 0.055940791158766538 0.0029904237441859788 0.018817534731789227 0.0079533482830967447 0.015621146832790801 0.0098039145744934081 0.043957293607858793 0.0093226284531696593 0.015608332729811023 0.021694851018242527 0.0049751827797287086
leaf_count=5378 17667 24177 4941 16555 7555 83 24589 6757 21003 1064 3219 11424 8654 34 270 450 6745 109 1532 25 1047 2211 32847 708 12351 90 7559 591 525 5492
internal_value=0 0.15893 0.16875 0.186442 0.141455 0.170281 0.188825 0.127776 0.130582 0.195566 0.224601 0.211422 -0.0879789 0.0971392 0.278043 0.235518 0.145941 0.195877 0.18819 0.226596 0.0845459 0.296173 0.160419 0.184843 0.207023 0.376262 0.135009 0.167163 0.202535 0.120156
internal_count=225652 211620 193953 117593 76360 82649 57519 25130 67733 7821 34944 29514 14032 17309 754 720 46730 8386 8277 8627 1072 5430 32930 18090 13149 798 38344 14167 8084 6083
shrinkage=0.05


Tree=9
num_leaves=31
num_cat=0
split_feature=44 51 31 11 69 99 69 19 32 64 58 92 71 58 76 58 104 9 13 89 9 11 64 61 2 10 46 33 57 60
split_gain=647.111 239.398 135.792 90.1227 62.5742 42.8296 42.3223 38.8255 37.1582 34.5151 23.3727 23.0364 22.3103 18.7683 17.8767 17.1865 15.3132 13.6469 12.3955 10.9034 10.8153 10.6253 10.5329 10.2724 10.272 10.1732 9.90232 9.58473 9.74078 9.54726
threshold=-0.72797499999999993 -2.4169499999999995 -0.22129499999999996 -0.021963499999999997 -1.9154999999999998 -1.6701999999999997 -1.4816499999999999 -1.5874499999999998 -0.036515999999999993 -1.5011499999999998 -1.5249499999999998 -3.8109999999999995 0.95865000000000011 -0.66998999999999986 -1.5139499999999997 -0.42089999999999994 -1.9482499999999996 0.80645500000000014 -3.5808999999999997 -13.414499999999999 0.54534500000000008 0.16168000000000002 -1.2060499999999996 -1.0201499999999999 2.3424 2.0902500000000006 1.3451500000000001 -0.090643499999999988 -0.27435999999999994 -1.3312499999999996
decision_type=2 2 2 2 2 2 2 2 2 2 2 2 2 2 2 2 2 2 2 2 2 2 2 2 2 2 2 2 2 2
left_child=1 8 4 7 -3 13 16 15 11 -6 29 -1 -11 26 -8 -2 24 -7 -10 -17 -16 -20 -13 -14 -4 -12 -5 -18 -29 -9
right_child=3 2 6 5 9 17 14 10 18 12 25 22 23 -15 20 19 27 -19 21 -21 -22 -23 -24 -25 -26 -27 -28 28 -30 -31
leaf_value=0.0039392765781222135 -0.01075230750904986 -0.0024229768483426564 -0.002318974546557061 -0.012344287795884737 -0.012691446086913832 -0.011703400898466885 0.00028403390457788801 0.0089299577676308778 0.027220307306769043 -0.0094371684128096642 -0.0094203140195068275 -0.017490014957719572 0.00023182057976663006 -0.018610914076418222 -0.0043420735745605529 0.026942947456001082 0.0031672105926541052 -0.015622221601329237 -0.0060641275752432305 -0.014576216867058843 -0.012268943268572002 -0.014968595776651656 -0.013214244074247102 -0.0059098379676219412 0.0065551185999281215 -0.016942623655495235 -0.017284972004699504 0.010479071261753252 1.707380156330403e-05 -0.0042340335482477015
leaf_count=409 11697 16115 4658 5627 10095 12744 4858 422 67 8463 10903 9136 3188 39738 4501 43 11022 11471 4474 27862 1561 1137 6871 4292 1062 1373 5422 2618 762 3061
internal_value=0 -0.112521 -0.0676609 -0.29075 -0.128449 -0.328105 0.0141437 -0.24039 -0.263087 -0.178384 -0.171372 -0.303021 -0.130951 -0.355428 -0.0680637 -0.267963 0.0583678 -0.271113 -0.14872 -0.290242 -0.127596 -0.157213 -0.313026 -0.0657615 -0.0131761 -0.205204 -0.295302 0.0866451 0.162468 -0.0527506
internal_count=225652 95289 73195 130363 42153 75002 31042 55361 22094 26038 15759 16416 15943 50787 10920 39602 20122 24215 5678 27905 6062 5611 16007 7480 5720 12276 11049 14402 3380 3483
shrinkage=0.05


Tree=10
num_leaves=31
num_cat=0
split_feature=76 59 44 108 44 76 76 46 63 47 59 111 12 11 58 16 44 8 42 79 97 43 60 19 35 49 27 48 87 112
split_gain=509.428 141.896 123.874 48.9835 40.9089 35.6801 40.3011 30.5864 21.0282 18.7357 18.1865 17.7803 16.6886 15.635 14.867 14.1613 13.0795 12.3264 12.0968 12.068 11.7471 11.569 11.2803 11.133 10.9873 10.8686 10.5721 10.2365 10.1028 11.4412
threshold=-1.5781499999999997 -0.021237499999999996 -0.6358649999999999 -2.2495499999999997 0.81220500000000018 -1.5782499999999999 -2.5116499999999995 1.3061000000000003 -1.5989499999999996 -1.0583499999999997 -0.73046499999999981 -0.62892999999999988 -2.6893999999999996 -1.6753499999999997 -1.1698499999999996 -3.4180499999999996 -1.36425 -4.9694499999999993 -0.53783999999999987 -5.9421999999999988 -0.46630999999999995 1.3616500000000002 3.0122000000000004 -1.4278499999999996 -1.6734499999999997 1.3359500000000002 1.6774000000000002 -1.0175499999999997 -1.1604499999999998 -1.9314499999999997
decision_type=2 2 2 2 2 2 2 2 2 2 2 2 2 2 2 2 2 2 2 2 2 2 2 2 2 2 2 2 2 2
left_child=2 4 5 -3 9 6 -1 8 19 -2 -8 26 -11 -10 -4 -6 -15 -13 -19 -5 -21 25 -17 28 -20 -18 -9 -22 -14 -30
right_child=1 3 14 7 15 -7 10 11 13 12 -12 17 23 16 -16 22 21 18 24 20 27 -23 -24 -25 -26 -27 -28 -29 29 -31
leaf_value=-0.0016810777229059951 0.0020967985635571111 0.0052196934144453314 0.0036305071795177599 0.0044103707695952411 0.020273004356863744 -0.0045814214084754275 -2.5233926815541116e-05 0.016529682148744611 0.0039800758400780675 0.0046845070998515126 0.0087325643374586825 -0.0039825841057953585 0.012651831080319221 0.003412177869113236 0.011187936705688042 0.0087870482069918876 0.010599584048886048 0.015619583796346004 0.012657325024934708 0.011806806848844213 0.016716026085562743 0.0082487721260185443 0.013254048191308194 0.0061258327762919226 0.0074651226503277199 0.013866562762667454 0.012914198876203263 -0.009596211747296397 0.021985187717289079 0.0074866602512261423
leaf_count=16265 6823 6629 2333 860 896 14835 2402 17661 2446 16877 4555 309 4517 1573 6552 15138 19966 5311 8341 6738 7890 8148 4922 12050 3933 10030 7548 98 372 9634
internal_value=0 0.20278 0.0119891 0.239863 0.146481 -0.0288024 0.0110511 0.248687 0.224299 0.121291 0.114517 0.281287 0.133701 0.205479 0.184301 0.206653 0.213215 0.242234 0.247845 0.27507 0.285921 0.21918 0.197709 0.159053 0.219906 0.233871 0.308941 0.327869 0.18931 0.160532
internal_count=225652 178710 46942 107481 71229 38057 23222 100852 57749 50273 6957 43103 43450 42163 8885 20956 39717 17894 17585 15586 14726 38144 20060 26573 12274 29996 25209 7988 14523 10006
shrinkage=0.05


Tree=11
num_leaves=31
num_cat=0
split_feature=44 76 72 16 85 60 59 44 103 9 10 15 60 39 10 76 63 61 61 110 55 77 30 10 78 71 15 42 28 16
split_gain=91.6027 25.281 24.6329 16.3402 16.0844 10.8985 9.91874 9.87642 9.62248 8.99795 10.8952 8.82179 10.7601 8.78106 8.43165 8.27095 8.0755 7.9904 7.59948 7.15244 7.03348 7.55484 6.78335 6.77419 6.73053 8.71625 6.92437 6.64707 6.62592 10.023
threshold=-0.6812649999999999 -1.5360499999999997 -1.4980499999999999 -1.4643499999999998 -1.6513499999999997 -0.95032499999999998 0.90123000000000009 0.48381000000000002 2.8822000000000005 1.2013500000000004 1.3138500000000002 -1.5159499999999999 -1.4327499999999997 0.95368000000000008 0.08629100000000002 5.0247500000000009 -0.14203499999999997 -1.62435 -3.1116499999999996 -1.69865 -0.74443499999999985 -0.51079499999999989 1.7635500000000002 -5.8344499999999995 -0.50389499999999987 -1.8048499999999998 20.582500000000003 -0.46112999999999993 1.9254500000000003 0.26848500000000003
decision_type=2 2 2 2 2 2 2 2 2 2 2 2 2 2 2 2 2 2 2 2 2 2 2 2 2 2 2 2 2 2
left_child=1 11 3 -2 27 -6 15 17 18 -8 13 -1 16 -11 22 -7 -13 19 -4 23 -15 -22 28 -5 25 -24 -27 -3 -14 -30
right_child=2 4 8 7 5 6 9 -9 -10 10 -12 12 14 20 -16 -17 -18 -19 -20 -21 21 -23 24 -25 -26 26 -28 -29 29 -31
leaf_value=0.00061727382240887884 -0.003335875687098454 -0.0033334025017538651 -0.0046503490198210855 0.035358571708061087 -0.006361161680142201 -0.0019058329940086919 -0.010337514251943999 -0.0069708648194414099 -0.0039147515725747291 -0.0023882747375254722 -0.0066065934222519556 -0.0010596511142072877 0.00031518421993767965 -0.0048708011717619104 -0.0033741566446649179 -0.011537883935092877 -0.0082448961638996992 -0.0054932932535753307 -0.0082563266314390673 -0.003556074525671955 0.060220809103736943 0.014911397242051084 0.042621933576690564 0.002922206940097807 -0.0071350096134647715 -0.0037960348417413626 0.028507737259629087 -8.2192968740447955e-05 0.0011704981805607092 0.054456282028216688
leaf_count=10081 18982 11271 4263 45 20966 12427 2359 33807 4237 804 3101 1586 12100 114 9498 633 3083 13983 49502 2694 27 261 37 1080 1552 304 52 6703 62 38
internal_value=0 -0.0616817 -0.128352 -0.107804 -0.0830984 -0.101164 -0.0735472 -0.122943 -0.153435 -0.125079 -0.0805977 -0.029101 -0.0439128 0.0512487 -0.0297792 -0.0473674 -0.115825 -0.0917148 -0.159386 -0.0253178 0.248054 0.383036 -0.00450419 0.0843899 -0.0942546 0.0969505 0.0184033 -0.042371 0.00976442 0.428682
internal_count=225652 97059 128593 70591 58666 40692 19726 51609 58002 6666 4307 38393 28312 1206 23643 13060 4669 17802 53765 3819 402 288 14145 1125 1945 393 356 17974 12200 100
shrinkage=0.05


Tree=12
num_leaves=31
num_cat=0
split_feature=77 44 57 78 14 16 2 61 12 96 65 94 77 83 103 88 13 8 52 104 78 68 47 70 62 27 62 102 44 19
split_gain=253.634 75.9355 35.3886 23.1616 21.9555 19.5195 15.1619 13.1191 15.3188 13.8837 13.0171 12.0791 11.1321 11.053 11.0002 10.8202 10.8135 12.4485 13.364 10.9639 10.3736 9.88008 9.845 9.76194 9.54013 9.5247 9.35794 9.81302 9.75159 8.79731
threshold=-101.50499999999998 -0.32089999999999991 0.062451000000000013 1.4778500000000003 -1.9339499999999996 -3.3378999999999999 -2.6202499999999995 0.84653000000000012 1.2768500000000003 -5.8112499999999985 -0.77582499999999988 1.5390500000000003 1.7818500000000002 -1.6000499999999998 3.7423500000000005 -1.7377999999999998 -1.9665499999999996 -8.1004499999999986 -0.064381499999999994 -0.18303999999999998 -4.5039999999999987 2.6196500000000005 21.954500000000003 -1.4334499999999999 3.0144500000000005 1.3973500000000001 -0.3075949999999999 -1.3425499999999999 -0.35657499999999992 -1.3327499999999997
decision_type=2 2 2 2 2 2 2 2 2 2 2 2 2 2 2 2 2 2 2 2 2 2 2 2 2 2 2 2 2 2
left_child=4 2 3 21 29 13 -7 16 -9 20 -5 -6 25 -3 23 -13 -8 18 -18 -20 -10 -2 -21 -4 -12 -11 27 -23 -28 -1
right_child=1 5 14 10 11 6 7 8 9 12 24 15 -14 -15 -16 -17 17 -19 19 22 -22 26 -24 -25 -26 -27 28 -29 -30 -31
leaf_value=0.015604035947190285 0.0056164097723707413 0.0019125724139527345 0.0059963138271881206 0.0017643532538899019 -0.0047321462871272426 0.0019686795217898762 0.0031303024266411128 0.011814532694345278 0.031777401574327784 0.0067819998972062229 0.0054907041288926742 0.074404206424828007 0.0032928064668077553 0.0099590870350721415 0.00076700276813573907 0.0092203725556754268 0.0079850605435714383 0.0085703932624607033 0.024197953303434445 0.0011290197183762949 0.012695154217396511 0.033037139258069934 0.025794092128569764 0.0087707324071425365 0.030366173917044555 0.010717606969620284 0.0045677644344675012 0.011854322502223794 0.060118873460812662 0.0016484249162595295
leaf_count=454 27451 3772 11532 18819 13233 1802 2257 25108 197 7563 6950 22 2735 1596 1429 71 1232 51476 994 319 2862 154 158 30064 103 8609 1631 2168 21 870
internal_value=0 0.152548 0.120177 0.0937184 -0.0703263 0.181719 0.186553 0.189111 0.209038 0.177821 0.0576648 -0.0904624 0.161415 0.0862599 0.155266 0.49284 0.172474 0.177038 0.283819 0.387642 0.27865 0.123281 0.186065 0.160063 0.117079 0.177554 0.198829 0.265155 0.105509 0.129656
internal_count=225652 211002 100322 57297 14650 110680 105312 103510 47074 21966 25872 13326 18907 5368 43025 93 56436 54179 2703 1471 3059 31425 477 41596 7053 16172 3974 2322 1652 1324
shrinkage=0.05


Tree=13
num_leaves=31
num_cat=0
split_feature=44 51 58 11 69 99 58 69 63 64 99 64 76 11 44 92 53 19 11 15 9 95 0 63 63 28 9 60 2 64
split_gain=618.993 227.955 127.354 87.5038 44.0151 41.712 37.4133 32.8916 31.897 29.9095 27.3308 19.9381 19.7102 18.6494 18.484 18.3123 18.1982 16.7467 16.5201 16.8214 13.1631 13.0213 12.3238 12.0943 12.0893 11.9395 11.4698 10.6657 10.6453 10.4775
threshold=-0.72797499999999993 -2.4169499999999995 -0.27208499999999997 -0.021963499999999997 -1.5647499999999999 -1.6701999999999997 -1.4447499999999998 -1.8317499999999998 -0.51975499999999986 -0.72394499999999995 -1.5173499999999998 -1.0046499999999996 -1.5781499999999997 0.16168000000000002 0.81220500000000018 -3.3041999999999994 -2.2183999999999995 -1.59785 -0.71514999999999984 0.059778500000000005 0.80645500000000014 0.17657500000000001 -1.9435499999999999 -0.74682999999999988 -1.4091499999999997 -0.19531499999999999 0.31058500000000006 -0.52847499999999992 -2.9525499999999996 -1.4018499999999998
decision_type=2 2 2 2 2 2 2 2 2 2 2 2 2 2 2 2 2 2 2 2 2 2 2 2 2 2 2 2 2 2
left_child=1 8 4 6 11 14 17 -4 15 -6 23 -3 25 28 26 -1 -13 27 -11 22 -7 -18 -20 -8 -14 -9 -5 -2 -10 -12
right_child=3 2 7 5 9 20 10 12 13 18 29 16 24 -15 -16 -17 21 -19 19 -21 -22 -23 -24 -25 -26 -27 -28 -29 -30 -31
leaf_value=0.0016463606854279788 -0.0063171041505455557 -0.0017506992879206846 -0.0032233224380349024 -0.013000998017143701 -0.0090112572527018906 -0.011403441963406922 -0.017076685077288895 -0.0079167957369483677 0.0040319359704736584 0.0012189191174532031 -0.014206382002261009 -0.0048822276241912094 -0.013901940319196124 -0.014313115519389838 -0.018499048343518173 -0.016395724602627771 0.00024897855538749046 -0.0028333215656602185 0.015704363768607101 -0.0098007482748463381 -0.015270512764270419 0.0049648873720710765 -0.0024068747780143945 -0.013257911284606331 -0.0089796687969910059 0.00081539815315575409 -0.017421682569399837 -0.012631813145295205 -0.0079067780297835556 -0.0088683760864219467
leaf_count=387 3423 10701 7241 8495 5658 12744 7803 3712 544 6037 3169 1941 6682 3578 34564 11440 5750 3624 286 2563 11471 12053 2168 21259 6930 1473 7728 3896 6145 12187
internal_value=0 -0.109135 -0.0654134 -0.284017 -0.0149215 -0.321058 -0.234211 -0.15801 -0.256821 -0.0827587 -0.255649 0.0218868 -0.194591 -0.189633 -0.348207 -0.315693 0.0525508 -0.147941 -0.033266 -0.102958 -0.264574 0.068868 -0.00585433 -0.285599 -0.227692 -0.108416 -0.301999 -0.193509 -0.138385 -0.199332
internal_count=225652 95289 73195 130363 47157 75002 55361 26038 22094 16712 44418 30445 18797 10267 50787 11827 19744 10943 11054 5017 24215 17803 2454 29062 13612 5185 16223 7319 6689 15356
shrinkage=0.05


Tree=14
num_leaves=31
num_cat=0
split_feature=76 44 9 92 46 76 76 46 64 43 53 58 64 103 80 96 58 111 11 84 25 9 35 111 104 70 35 43 99 14
split_gain=471.319 114.793 110.296 67.7463 43.6707 33.652 38.0006 33.4448 24.8064 16.5478 14.3227 13.7443 13.4935 11.9902 11.8895 11.8469 11.7859 11.7102 11.4793 11.4561 11.4544 10.9536 12.5993 11.5381 10.7408 10.7288 10.636 10.5473 9.79449 10.8391
threshold=-1.5781499999999997 -0.6358649999999999 -0.082099999999999992 -2.1257499999999996 0.6894450000000002 -1.5782499999999999 -2.3621499999999993 1.3061000000000003 -1.6722499999999998 1.5555500000000004 2.5682500000000004 -1.1698499999999996 -0.74699499999999985 4.1752000000000011 -6.6002999999999989 4.304850000000001 -2.2499499999999997 -0.39947499999999997 -0.63184499999999988 1.5270500000000002 0.68749500000000008 1.4243500000000002 -1.7001499999999996 -9.481799999999998 -0.28796999999999989 1.48675 -1.6871499999999997 0.043385000000000007 -1.5883499999999999 2.3135500000000007
decision_type=2 2 2 2 2 2 2 2 2 2 2 2 2 2 2 2 2 2 2 2 2 2 2 2 2 2 2 2 2 2
left_child=1 5 4 24 12 6 -1 8 14 10 -10 -3 17 26 -5 19 -8 -2 -12 -14 -11 22 -9 -23 -4 -22 -6 -24 -16 -30
right_child=2 11 3 7 13 -7 16 21 9 20 18 -13 15 -15 28 -17 -18 -19 -20 -21 25 23 27 -25 -26 -27 -28 -29 29 -31
leaf_value=-0.0014768960526208266 0.0021756802723497969 0.0034684701643675031 0.0038106970216936794 0.0034235907396750818 0.01056015117578891 -0.0044555728289219733 -0.0014896709885770659 0.014596586639346329 0.0098975773970966189 -0.0028386747992119156 0.0095102146053731903 0.010719808964926169 0.0045540404811698033 0.019633592200177012 0.017036487356460288 0.0021417605907312776 0.0076267529149713284 0.0084826386070453504 0.016338848381901371 0.00882232893001972 0.0053904409191671311 -0.011632280242378777 0.013799809362921387 0.015857312295065033 0.01121737048394375 0.013530908998932202 0.0074697544634244736 0.008268413258819626 0.011797250504603724 0.041494330747982006
leaf_count=16995 2237 2333 8046 638 20260 14835 1156 11757 30209 804 2474 6552 14329 773 5910 8301 5071 14351 4556 5803 4086 100 3890 15335 1525 1428 11360 5287 5170 81
internal_value=0 0.0114253 0.194782 0.229764 0.148693 -0.0279743 0.0106863 0.243179 0.218147 0.200306 0.21326 0.176663 0.115961 0.193892 0.283647 0.094492 0.118999 0.152672 0.278824 0.115722 0.123741 0.281082 0.257057 0.313601 0.0999163 0.150024 0.189027 0.212252 0.295806 0.245117
internal_count=225652 46942 178710 101296 77414 38057 23222 91725 55356 43557 37239 8885 45021 32393 11799 28433 6227 16588 7030 20132 6318 36369 20934 15435 9571 5514 31620 9177 11161 5251
shrinkage=0.05


Tree=15
num_leaves=31
num_cat=0
split_feature=44 66 66 16 69 44 16 103 76 0 59 44 61 58 88 47 39 54 10 35 4 87 0 36 44 70 15 16 75 61
split_gain=86.7197 24.6715 24.572 15.8179 13.3349 9.98582 9.41143 9.32558 8.54128 8.04562 8.49648 8.39798 7.64167 7.50636 9.08196 8.44104 7.92263 7.45817 7.30327 7.26578 8.49615 7.10151 7.63038 8.67598 6.85135 8.15164 8.00914 6.97727 7.15211 7.20474
threshold=-0.6812649999999999 -1.1550499999999999 -1.49515 -0.81199999999999994 0.35241500000000003 0.48381000000000002 -2.2770499999999996 2.7769500000000007 0.76101000000000008 3.6648500000000004 -4.7721999999999989 -1.36425 -3.1116499999999996 -0.49880999999999992 -0.11817499999999999 -1.0004499999999996 2.3244500000000001 -1.7826499999999996 0.98655500000000018 -1.8396499999999996 -2.6944499999999993 1.7328500000000002 3.3906500000000004 -1.5551499999999996 0.33403000000000005 1.2406500000000003 0.12272500000000001 -0.17502499999999996 -2.7876499999999997 1.4478500000000001
decision_type=2 2 2 2 2 2 2 2 2 2 2 2 2 2 2 2 2 2 2 2 2 2 2 2 2 2 2 2 2 2
left_child=1 4 3 8 9 18 19 12 -2 11 -11 21 -4 15 -15 16 -8 -3 24 20 -6 22 -1 -24 26 27 -5 -26 -29 -30
right_child=2 17 7 5 6 -7 13 -9 -10 10 -12 -13 -14 14 -16 -17 -18 -19 -20 -21 -22 -23 23 -25 25 -27 -28 28 29 -31
leaf_value=0.0017359113765667089 -0.0024881908095294556 -0.0024284332606560139 -0.0044398361485604243 -0.0015308886987260861 0.045614017813830558 -0.0070652932472787802 0.003419652681061135 -0.0038998559839502241 -0.0055338284446160031 -0.011583374567796907 -0.0031956666710883487 -0.0019837434567566664 -0.0080917156768746442 -0.0083506206551977932 -0.0018888267577079 -0.0052432099068446735 -0.011714640891896083 -0.0061153840312776903 -0.0075774840500141775 -0.007785236081218349 0.0040099669210646813 -0.0018790294782803675 0.070158510807889693 0.011446955892662394 -0.0075791511243284322 -0.0039067525657846816 -0.0061855401113359064 0.028489367747314354 0.0020035495109641927 0.029701951039121346
leaf_count=7436 16592 4648 4193 4265 34 28869 1741 4472 9902 991 4501 41225 48884 5957 1943 3527 267 17977 3893 387 1020 5311 22 72 152 835 5971 137 351 77
internal_value=0 -0.0596501 -0.124621 -0.104215 -0.045281 -0.123141 -0.0892157 -0.149926 -0.0724875 -0.0343453 -0.0940818 -0.0282846 -0.15603 -0.102733 -0.13524 -0.0565042 0.0281332 -0.107144 -0.0898229 0.0366553 0.10707 0.00825856 0.0405721 0.504107 -0.0694991 0.0319873 -0.0849139 0.160167 0.244033 0.13963
internal_count=225652 97059 128593 71044 74434 44550 14876 57549 26494 59558 5492 54066 53077 13435 7900 5535 2008 22625 15681 1441 1054 12841 7530 94 11788 1552 10236 717 565 428
shrinkage=0.05


Tree=16
num_leaves=31
num_cat=0
split_feature=92 76 44 16 57 2 61 12 31 70 8 56 88 111 1 107 13 36 48 31 111 76 64 70 94 73 30 90 6 81
split_gain=259.064 74.6521 35.2243 18.1814 17.1913 13.881 12.158 14.544 11.3748 10.5977 10.5935 12.9895 10.7921 10.1736 10.0784 8.95008 8.83333 9.40974 8.51143 12.7692 11.1762 8.97584 8.32844 8.25438 9.05336 8.16373 9.95386 8.11766 10.8851 8.52101
threshold=-3.8109999999999995 -2.4297499999999999 -0.32089999999999991 -3.3378999999999999 0.43903000000000009 -2.6202499999999995 0.84653000000000012 1.0904500000000004 -0.59547499999999987 -1.9788499999999998 -8.1004499999999986 -1.2219499999999999 6.2395500000000004 0.24526000000000001 -1.4559499999999999 1.6528500000000002 0.31824000000000002 -1.6591499999999997 5.0184000000000006 1.3694500000000003 47.247000000000007 0.32925500000000002 -1.5514499999999998 5.441250000000001 -0.80216499999999991 1.8858500000000002 -0.34279499999999991 0.853495 -2.2598499999999997 3.1131500000000005
decision_type=2 2 2 2 2 2 2 2 2 2 2 2 2 2 2 2 2 2 2 2 2 2 2 2 2 2 2 2 2 2
left_child=13 22 4 9 15 -5 10 -8 -9 27 11 16 -13 -1 -6 18 -7 -18 19 20 23 -21 -2 -3 -25 -10 -27 28 -4 -29
right_child=1 2 3 5 14 6 7 8 25 -11 -12 12 -14 -15 -16 -17 17 -19 -20 21 -22 -23 -24 24 -26 26 -28 29 -30 -31
leaf_value=-0.0013623544864346734 0.007467788893397837 0.0057497190760881474 -0.011903319720228747 0.0019424937378123214 0.0055090683742953367 0.013337492945284454 0.011570474055914234 0.010207051237535562 0.0071769583874552872 0.0019937137029624689 0.0080415624233069801 0.010922746964812623 -0.0078562313509876781 -0.0059054599608696946 0.0088179683636006347 0.017990621370914714 0.065007834038719778 0.024076411665322334 0.0095897540341370099 0.0011754861407362027 0.027581709010537671 0.0062131168783353648 0.0016898792165543136 0.037070378291695356 0.010261778158239332 0.051415490832308397 -0.0070512692168333974 0.0041268928503050426 0.023401807295359574 0.046098323177091394
leaf_count=5378 1827 36269 66 1797 7961 695 22030 14344 10157 3946 53255 1622 228 8654 24505 381 39 490 3169 7234 156 3418 15840 109 337 20 403 868 421 33
internal_value=0 0.147099 0.156196 0.17507 0.1311 0.179711 0.182149 0.201295 0.174577 0.0827729 0.166163 0.257938 0.172528 -0.0830967 0.160143 0.112558 0.385882 0.541701 0.1107 0.105272 0.119526 0.0558473 0.0458408 0.117688 0.336454 0.134409 -0.0857692 0.204342 0.372373 0.113197
internal_count=225652 211620 193953 110414 83539 105080 103283 46954 24924 5334 56329 3074 1850 14032 32466 51073 1224 529 50692 47523 36871 10652 17667 36715 446 10580 423 1388 487 901
shrinkage=0.05


Tree=17
num_leaves=31
num_cat=0
split_feature=44 59 65 11 19 31 76 92 99 9 58 11 63 76 86 70 44 89 14 64 76 68 53 9 9 58 63 41 71 31
split_gain=591.65 209.831 105.146 85.0347 45.5435 45.2819 40.0891 37.8717 34.2445 20.0019 19.9547 19.5436 18.9433 17.775 17.5798 16.4061 16.0584 15.3044 14.2359 13.337 12.5845 12.0978 11.765 11.7319 11.0365 10.5934 9.50694 9.64154 9.34242 9.21325
threshold=-0.72797499999999993 0.4936850000000001 -1.3049499999999996 0.32925500000000008 -1.59785 -0.22129499999999996 -1.5575499999999998 -3.1335499999999996 -1.8596999999999999 0.56320000000000003 -0.42089999999999994 -1.1160499999999998 -1.6043499999999999 -1.5782499999999999 0.79768500000000009 1.1194500000000003 0.81220500000000018 -13.414499999999999 0.61114500000000016 -0.76964999999999983 -2.8205499999999994 -1.6345499999999997 -2.2183999999999995 0.80645500000000014 0.31058500000000006 -0.24922499999999997 -1.1479999999999997 0.94885500000000012 0.62167000000000006 -1.0115499999999999
decision_type=2 2 2 2 2 2 2 2 2 2 2 2 2 2 2 2 2 2 2 2 2 2 2 2 2 2 2 2 2 2
left_child=1 2 5 4 10 15 13 -3 16 -6 -2 19 -9 -4 22 -1 24 -12 20 29 -14 -16 -7 -10 -5 -23 -19 -28 -22 -8
right_child=3 7 6 8 9 14 11 12 23 -11 17 -13 18 -15 21 -17 -18 26 -20 -21 28 25 -24 -25 -26 -27 27 -29 -30 -31
leaf_value=-0.0020364241368262619 -0.01045417029907347 -0.0017128616029137532 -0.0069984296675534453 -0.01269867568292047 -0.0058629777255038776 -0.0044195232693087444 0.0054073383286381005 -0.015319194515317366 -0.011375846359257412 -0.011388833038418315 0.028142167863975033 -0.011415344322122666 0.0011420107119523792 0.00024212357783599112 0.0078715118947786083 -0.0081050605367300726 -0.018409578383428899 -0.01682859925637396 -0.016643662323584711 -0.0026344181381098737 -0.011967495877590321 -0.0021066292634672689 0.004079395285387275 -0.015309341019072636 -0.017430952007495507 -0.01423333894642549 -0.014736682928218304 -0.011343743341490612 -0.0072153067252942113 -0.012335307346023814
leaf_count=15884 13568 2428 3847 7121 10349 1166 223 9730 10969 7961 58 11036 699 5670 702 3723 30425 7951 2286 3830 7532 3712 15641 10068 6632 561 16203 9058 4553 2066
internal_value=0 -0.105883 -0.057545 -0.277408 -0.235029 -0.00622314 -0.138613 -0.229315 -0.320132 -0.165067 -0.262639 -0.186592 -0.248933 -0.0533229 0.0447736 -0.0636018 -0.346681 -0.284679 -0.212265 -0.111869 -0.190762 -0.0407796 0.0698535 -0.26498 -0.299394 -0.0736414 -0.286186 -0.270404 -0.203409 -0.212196
internal_count=225652 95289 68061 130363 65148 41389 26672 27228 65215 18310 46838 17155 24800 9517 21782 19607 44178 33270 15070 6119 12784 4975 16807 21037 13753 4273 33212 25261 12085 2289
shrinkage=0.05


Tree=18
num_leaves=31
num_cat=0
split_feature=76 59 44 74 44 59 44 64 76 9 76 47 9 41 102 27 66 16 58 58 83 42 9 11 2 60 24 110 39 25
split_gain=436.531 122.165 106.661 41.9105 34.6329 32.8895 25.3964 22.7715 21.9696 20.5109 18.3467 17.3853 16.3425 16.3363 15.2035 15.0957 13.3769 12.8686 12.7298 11.739 11.5826 12.7537 11.166 11.1554 10.9711 10.3558 10.2475 9.81949 9.72334 10.0677
threshold=-1.5781499999999997 -0.021237499999999996 -0.6358649999999999 -5.6191499999999985 0.81220500000000018 0.99254000000000009 0.97594000000000014 -1.6722499999999998 -1.5782499999999999 1.4243500000000002 -2.3621499999999993 -1.0583499999999997 0.23648000000000005 -0.45226999999999995 0.84422000000000008 1.6774000000000002 -0.30322499999999997 -3.4180499999999996 -1.1698499999999996 -0.9559899999999999 -1.5791499999999996 -0.62173499999999982 2.5457500000000004 -1.0488499999999996 2.6951500000000004 3.0122000000000004 -1.1426499999999999 -1.3531499999999996 3.2852500000000004 1.7534500000000002
decision_type=2 2 2 2 2 2 2 2 2 2 2 2 2 2 2 2 2 2 2 2 2 2 2 2 2 2 2 2 2 2
left_child=2 4 5 19 11 8 7 23 10 20 -1 -2 -13 24 -14 -11 -12 -6 -4 -3 28 26 -17 -5 -9 -19 -22 -24 29 -8
right_child=1 3 18 6 17 -7 9 13 -10 15 16 12 14 -15 -16 22 -18 25 -20 -21 21 -23 27 -25 -26 -27 -28 -29 -30 -31
leaf_value=-0.0016929624990712801 0.0017887287482332367 0.015349902260556263 0.0033195882235027342 0.0088982311971150599 0.018888161621037056 0.0066553930175381418 0.013583007851595431 0.01086568632744446 -0.0045846017541107901 0.016872697098224403 0.001934281741559055 0.005491912903194231 0.0071788706993989792 0.0083874816738487134 0.015139040681559513 0.0086113085384860212 0.012898883721590369 0.0080326519161404066 0.010284809390254224 0.0025159659064007667 0.0044042330448138874 0.007335395940229205 0.0041763035611005412 0.014595979757666354 0.017725795286895881 0.012281914057421057 0.018163741950056288 0.017692486321642324 0.006480031170723332 0.0084075009190402242
leaf_count=16261 6823 519 2333 2906 896 3097 19047 8853 14153 10489 3630 36224 4948 31215 2278 3207 916 15138 6552 4508 462 6583 408 9370 1818 4922 1435 2261 1621 2779
internal_value=0 0.187169 0.0108548 0.221276 0.135133 -0.0272408 0.228259 0.204297 -0.0416586 0.254982 -0.00801833 0.112007 0.123897 0.186369 0.193956 0.301064 0.0829471 0.190083 0.169564 0.0769163 0.231244 0.180258 0.235992 0.265036 0.240711 0.181589 0.296293 0.312579 0.249601 0.258506
internal_count=225652 178710 46942 107481 71229 38057 102454 54162 34960 48292 20807 50273 43450 41886 7226 16365 4546 20956 8885 5027 31927 8480 5876 12276 10671 20060 1897 2669 23447 21826
shrinkage=0.05


Tree=19
num_leaves=31
num_cat=0
split_feature=44 66 66 16 69 44 16 5 0 59 44 57 88 78 16 110 54 62 90 110 94 76 23 35 4 87 0 36 7 73
split_gain=81.8838 23.4313 23.2326 14.6652 12.5645 9.07627 8.97938 8.00704 7.65251 8.12812 7.96809 7.55883 8.28292 8.67148 7.47129 11.0152 7.13485 6.98728 6.89302 7.46344 7.21731 8.47494 8.19765 6.8918 7.85307 6.77227 7.15182 7.81476 6.57425 7.09657
threshold=-0.6812649999999999 -1.4592499999999997 -1.1550499999999999 -1.4643499999999998 0.35241500000000003 0.48381000000000002 -2.2770499999999996 -2.2143999999999999 3.6648500000000004 -4.7721999999999989 -1.36425 -0.85298499999999999 2.4187500000000006 -4.7187499999999991 -1.8258999999999999 -1.7506499999999996 -1.7826499999999996 -0.10686499999999999 -3.8743499999999993 0.16443000000000005 -0.80216499999999991 -1.0838499999999998 -1.7431499999999998 -1.8396499999999996 -2.6944499999999993 1.7328500000000002 3.3906500000000004 -1.5551499999999996 7.224400000000001 1.6354500000000003
decision_type=2 2 2 2 2 2 2 2 2 2 2 2 2 2 2 2 2 2 2 2 2 2 2 2 2 2 2 2 2 2
left_child=2 3 4 18 8 7 23 17 10 -10 25 -8 -13 -14 -3 -16 -4 -5 19 -2 21 22 -20 24 -6 26 -1 -28 29 -18
right_child=1 14 16 5 6 -7 11 -9 9 -11 -12 12 13 -15 15 -17 28 -19 20 -21 -22 -23 -24 -25 -26 -27 27 -29 -30 -31
leaf_value=0.0017086386732754603 -0.0038907691437013998 -0.005454035317229473 -0.0023279363355925751 -0.014099575506348168 0.04350403669805411 -0.0065780765624357546 -0.0023509483691334168 -0.003726134115909858 -0.011329418411811537 -0.003101268820896735 -0.0019178395225084386 -0.0075186005883364397 0.04963791569155613 -0.0013932723353024144 -0.0055800530299906677 -0.0085371044734403219 -0.0061859536382533626 -0.003550405601693226 0.034127409655981725 -0.014367694979542885 -0.0017802707099376037 -0.0075801246453301475 8.1124603793295585e-05 -0.0075784094217963066 0.0039337610026606226 -0.0018232119245658212 0.066094399776481891 0.011127286988822446 -0.01400194140741398 -0.00062857243093650066
leaf_count=7436 1244 11828 4648 995 34 33982 4730 16246 991 4501 41225 7346 23 1336 11514 33614 15597 738 52 729 13962 3127 562 387 1020 5311 22 72 659 1721
internal_value=0 -0.120945 -0.0577155 -0.101174 -0.0437719 -0.115695 -0.0864914 -0.085855 -0.0331578 -0.0915057 -0.0272487 -0.0997387 -0.12854 -0.0106912 -0.145959 -0.155645 -0.103901 -0.19203 -0.0630087 -0.155205 -0.0527575 -0.116868 0.0592537 0.0364226 0.104751 0.00834299 0.039871 0.485902 -0.118774 -0.112637
internal_count=225652 128593 97059 71637 74434 51961 14876 17979 59558 5492 54066 13435 8705 1359 56956 45128 22625 1733 19676 1973 17703 3741 614 1441 1054 12841 7530 94 17977 17318
shrinkage=0.05


Tree=20
num_leaves=31
num_cat=0
split_feature=92 76 44 27 16 2 73 88 44 108 64 70 111 68 43 62 10 75 57 0 8 76 31 104 28 44 6 100 1 18
split_gain=240.892 69.5427 32.4735 17.0129 16.7463 12.9931 11.0165 10.4507 10.2727 10.8238 12.9409 9.99649 9.66239 9.36678 9.91106 8.8303 8.7779 9.00969 15.1134 11.4925 9.01561 8.75251 8.64099 11.0551 8.48803 8.47067 8.63928 8.46836 9.62642 8.27516
threshold=-3.8109999999999995 -2.4297499999999999 -0.32089999999999991 1.3336500000000002 -3.3378999999999999 -2.6202499999999995 8.8373500000000025 6.2395500000000004 2.6655000000000002 -2.1390499999999997 4.990050000000001 -1.9788499999999998 0.24526000000000001 -0.77265499999999987 -1.5096499999999999 2.7031500000000004 0.89949000000000012 -2.2486499999999996 -1.1658499999999996 0.35834500000000008 -4.2036999999999987 2.9251500000000004 -0.042456499999999994 -0.34227999999999997 -0.96169499999999986 -0.74221499999999996 0.14566500000000002 -1.8424499999999997 -0.96707499999999991 1.79295
decision_type=2 2 2 2 2 2 2 2 2 2 2 2 2 2 2 2 2 2 2 2 2 2 2 2 2 2 2 2 2 2
left_child=12 -2 3 13 11 -6 8 29 15 10 -10 -4 -1 22 27 -7 17 18 -16 20 -20 24 -3 -24 -17 26 -18 28 -15 -8
right_child=1 2 4 -5 5 6 7 -9 9 -11 -12 -13 -14 14 16 21 25 -19 19 -21 -22 -23 23 -25 -26 -27 -28 -29 -30 -31
leaf_value=-0.0013116008645664501 0.0021956033352267547 0.0057562926244629272 0.0098798444198258326 0.0087993972959094242 0.0018333395920375004 0.0083751779741172323 0.018131139624348449 -0.0040408155226335915 0.013482751591270759 0.0094944773750821141 0.036950702314861604 0.0019107721143258516 -0.0057437385343056787 0.0038330238949610069 0.005438206710236794 0.013033627479109484 0.0037016002397088398 0.0034916653041697958 0.065262487543719341 0.0078955584190362766 0.023912465259404908 0.011296371801314049 0.00069106055997709482 0.0059230141356719388 0.0032248595771352355 0.011797729725290702 0.0095459318461179853 0.0078170232052229751 0.023483260563096121 0.0025979877047143021
leaf_count=5378 17667 17924 1388 14694 1797 57263 1700 180 744 35263 186 3946 8654 247 2972 634 3886 12758 38 356 345 1371 6354 4522 5689 2349 2857 13760 477 253
internal_value=0 0.141568 0.150313 0.126261 0.168379 0.172814 0.175163 0.28881 0.172736 0.194429 0.36462 0.0799068 -0.0806606 0.115588 0.131542 0.16063 0.112433 0.0901926 0.160225 0.366575 0.560445 0.10946 0.0933409 0.0573521 0.084184 0.152652 0.123552 0.165288 0.335619 0.322666
internal_count=225652 211620 193953 83539 110414 105080 103283 2133 101150 36193 930 5334 14032 68845 40045 64957 25561 16469 3711 739 383 7694 28800 10876 6323 9092 6743 14484 724 1953
shrinkage=0.05


Tree=21
num_leaves=31
num_cat=0
split_feature=44 59 69 11 76 99 18 70 58 31 99 11 58 54 32 19 76 69 15 62 64 9 63 56 68 60 60 61 11 7
split_gain=565.391 198.947 95.9331 82.7722 43.9517 39.5413 38.0844 35.1686 34.988 28.6111 25.8048 18.7783 17.778 17.6916 17.6636 15.6172 14.9492 14.7412 14.0959 13.117 12.8658 12.2609 11.5549 10.5873 10.342 10.3177 10.3009 10.1444 10.0832 10.0676
threshold=-0.72797499999999993 0.4936850000000001 -1.5268499999999998 -0.021963499999999997 -1.5575499999999998 -1.6701999999999997 -1.8420999999999998 -1.66245 -1.4447499999999998 -0.22129499999999996 -1.5173499999999998 -1.1160499999999998 -0.66998999999999986 0.3815150000000001 0.26973500000000006 -1.59785 -1.5360499999999997 -1.8732499999999999 0.64886500000000014 -2.4123999999999994 -0.88123499999999988 0.80645500000000014 -0.74682999999999988 -0.59919499999999981 -1.6326499999999997 -0.52847499999999992 -1.3312499999999996 -0.39365499999999992 -1.89055 4.788050000000001
decision_type=2 2 2 2 2 2 2 2 2 2 2 2 2 2 2 2 2 2 2 2 2 2 2 2 2 2 2 2 2 2
left_child=1 2 6 8 14 12 16 17 15 -8 22 19 -5 -9 23 25 29 -3 20 -6 -11 -7 -10 -4 -22 -2 -17 -20 -24 -1
right_child=3 7 4 5 11 21 9 13 10 18 -12 -13 -14 -15 -16 26 -18 -19 27 -21 24 -23 28 -25 -26 -27 -28 -29 -30 -31
leaf_value=-0.0039194197002094316 -0.0058144901511430896 -0.0027155522832012845 -0.0025773334733641537 -0.013740795062464894 -0.012805285908363049 -0.010824867916393309 -0.0016602722602556234 -0.010790177154961118 -0.01639348808369042 -0.00029562327115270588 -0.0094014399763287827 -0.01073501671839487 -0.017544369736735167 -0.015983613866368578 0.0019004083060204725 0.0093492132309352348 -0.011291651475502628 -0.0096191284086314683 0.0010921781126030021 -0.0035530388594856668 0.009555823177801891 -0.014591880664464062 0.0041943359305644523 -0.0096649324306955949 0.0040822416145825874 -0.012068296197753682 -0.0041288258286188888 -0.009081601023066363 -0.012817688593252602 0.01447256891239874
leaf_count=3749 3423 3420 4398 11049 1302 12744 14596 9512 7803 2791 15356 12056 39738 8822 4290 436 2314 5474 3714 5533 3446 11471 245 2133 6736 3896 3188 792 21014 211
internal_value=0 -0.10273 -0.0557166 -0.270937 -0.126565 -0.307411 -0.00202727 -0.223507 -0.222143 0.0205645 -0.243112 -0.17513 -0.334205 -0.265578 -0.0433273 -0.138274 -0.119522 -0.138358 0.064782 -0.106018 0.0919793 -0.251959 -0.272547 -0.0975358 0.118779 -0.182687 -0.049906 -0.013705 -0.252411 -0.0587493
internal_count=225652 95289 68061 130363 29712 75002 38349 27228 55361 32075 44418 18891 50787 18334 10821 10943 6274 8894 17479 6835 12973 24215 29062 6531 10182 7319 3624 4506 21259 3960
shrinkage=0.05


Tree=22
num_leaves=31
num_cat=0
split_feature=44 71 9 64 51 11 44 28 86 35 58 92 58 46 83 94 109 107 58 49 72 81 78 74 66 57 32 2 94 44
split_gain=324.029 112.367 74.9764 70.5886 37.8292 30.7903 25.8337 24.1097 23.6209 21.2854 15.0426 15.0124 14.6249 13.1549 12.4678 10.942 10.94 10.5684 12.0727 10.3855 10.3197 11.2906 10.3148 10.8912 11.2571 12.8436 10.4227 10.2836 11.2147 10.4834
threshold=-0.6358649999999999 2.1249500000000006 -0.040777499999999987 -1.6238499999999998 -2.0663499999999995 -1.0009499999999998 0.86870500000000017 0.44504500000000008 -0.12372499999999999 -1.6871499999999997 -1.3644499999999999 -3.3041999999999994 -0.42089999999999994 1.3061000000000003 -1.3879499999999998 2.7340000000000004 2.1406500000000004 0.66301500000000002 1.5626500000000003 5.7059000000000006 -0.17304999999999995 1.5491500000000002 -3.6902499999999994 -31.096999999999998 -0.30322499999999997 1.9429500000000004 0.30760000000000004 7.168400000000001 -2.2685499999999998 -1.3801499999999998
decision_type=2 2 2 2 2 2 2 2 2 2 2 2 2 2 2 2 2 2 2 2 2 2 2 2 2 2 2 2 2 2
left_child=1 3 6 5 27 16 10 9 13 22 20 -9 -3 -4 -8 -11 -1 -14 -19 -13 21 -2 -6 -24 26 -26 -25 29 -29 -5
right_child=2 12 8 4 7 -7 14 11 -10 15 -12 19 17 -15 -16 -17 -18 18 -20 -21 -22 -23 23 24 25 -27 -28 28 -30 -31
leaf_value=0.0076667531107788706 0.00011783189544780442 -0.0022905803762975764 0.0083579668403174854 0.001840785404787256 0.015451651948003587 0.013642554543781816 0.010055048890911312 0.0039887931357974055 0.012920030378465022 0.0061955549286276867 0.0075056004694956423 -0.0033388790137748032 0.0073572089949072265 0.011604610968265809 0.006037445396418175 -0.00083077254282093362 -0.0012869649929248481 -0.0012705283654940113 0.0090616774722220728 0.05367208824267003 0.0083352322620791654 0.0064130607077982245 0.0052122222375447355 0.00045219918672620126 0.0048856642878873473 0.052405563432818658 -0.0057810309284802358 -0.0054432582375361863 0.023773445171945237 0.0079394380607523581
leaf_count=4860 5739 17322 15829 2138 341 8136 24309 2845 40105 17871 13384 6153 1823 16203 6286 1593 1093 4977 868 21 2236 2757 3491 7303 1776 38 2363 105 451 13236
internal_value=0 0.0755236 0.198784 0.107032 0.0825255 0.209109 0.15376 0.0577816 0.232564 0.0770784 0.114196 -0.0173475 -0.0193505 0.200104 0.184659 0.112509 0.120688 0.0396262 0.00576021 -0.0628288 0.0689981 0.0432567 0.0316754 0.025263 0.000936938 0.11758 -0.0213318 0.149712 0.364965 0.141912
internal_count=225652 98804 126848 73814 59725 14089 54711 43795 72137 34776 24116 9019 24990 32032 30595 19464 5953 7668 5845 6174 10732 8496 15312 14971 11480 1814 9666 15930 556 15374
shrinkage=0.05


Tree=23
num_leaves=31
num_cat=0
split_feature=44 66 66 6 69 103 76 7 6 61 27 54 44 19 7 73 58 3 48 102 44 81 53 58 88 52 7 71 17 67
split_gain=77.2641 22.3171 21.867 13.9695 11.913 8.83958 8.4405 7.71792 7.59346 7.25258 7.08751 6.81103 6.79293 6.61476 6.3284 6.77449 7.21064 7.26817 6.62489 6.6206 6.30658 6.71474 6.46439 6.30012 7.6398 6.25452 7.56859 6.301 6.23212 6.10619
threshold=-0.6812649999999999 -1.49515 -1.1550499999999999 1.3582000000000003 1.4494500000000003 2.7769500000000007 0.30838000000000004 -2.0993499999999998 2.9850000000000008 -3.1116499999999996 -6.2517999999999985 -1.7826499999999996 -1.3801499999999998 -0.67028499999999991 7.224400000000001 1.6354500000000003 1.0609500000000003 0.61998000000000009 1.5508500000000003 -2.2389499999999996 2.6504500000000006 11.931500000000002 4.7987000000000011 -1.6600499999999998 -0.11817499999999999 -2.0502499999999997 0.10760000000000002 0.39211500000000005 -1.2473499999999997 1.2764000000000002
decision_type=2 2 2 2 2 2 2 2 2 2 2 2 2 2 2 2 2 2 2 2 2 2 2 2 2 2 2 2 2 2
left_child=2 3 4 6 12 9 7 10 23 -3 -2 -4 13 25 15 16 18 -18 19 -13 21 -11 -22 -6 -25 26 -1 -28 -24 -14
right_child=1 5 11 -5 8 -7 -8 -9 -10 20 -12 14 29 -15 -16 -17 17 -19 -20 -21 22 -23 28 24 -26 -27 27 -29 -30 -31
leaf_value=0.020408892250858748 -0.015147173554486332 -0.0040919586280705302 -0.002233407851580986 -0.0027775712731405305 -0.0019446936484476378 -0.003566261840524592 -0.0065363980739131652 -0.0050161888235223141 0.0034248571438775903 -0.0070780749002168838 0.00017552139946920803 0.00046346859822504787 -0.0020494798612901073 -0.0027343986973001324 -0.013710492666605956 -0.00057416855795449024 -0.011823158350232864 -0.0041755732631018599 -0.010147670529443653 -0.0051905670383028488 -0.0095182819053177999 0.019549278346095888 0.019071219508561485 -0.0077515759517292841 -0.0013992334067700336 0.00067820908518460214 0.0148498022976826 -0.013601258607075338 -0.004686522957999345 -0.013213340681372299
leaf_count=242 218 4193 4648 16298 2991 4472 27719 23649 749 33383 3160 1677 49078 4269 659 1721 2442 1297 1497 8684 14346 64 82 5999 1628 8933 95 116 1009 334
internal_value=0 -0.117352 -0.0558397 -0.0978486 -0.0423122 -0.141605 -0.110478 -0.0897802 -0.0913494 -0.147586 -0.0162787 -0.100739 -0.0335313 -0.00121052 -0.115311 -0.109292 -0.120157 -0.183412 -0.100288 -0.085508 -0.153279 -0.140527 -0.181009 -0.102655 -0.127834 0.0230826 0.210761 -0.0160955 -0.0580232 -0.0424881
internal_count=225652 128593 97059 71044 74434 57549 54746 27027 11367 53077 3378 22625 63067 13655 17977 17318 15597 3739 11858 10361 48884 33447 15437 10618 7627 9386 453 211 1091 49412
shrinkage=0.05


Tree=24
num_leaves=31
num_cat=0
split_feature=92 76 44 27 16 73 111 18 101 44 111 68 43 60 29 23 76 52 92 14 83 10 39 75 57 92 108 69 98 62
split_gain=223.826 64.5661 30.1891 15.9086 15.624 10.493 9.85393 9.72142 9.35893 10.0232 9.17377 8.77304 9.36002 8.73063 8.49366 8.39393 10.2063 8.40644 8.34363 8.34104 8.30578 8.25105 8.94293 8.50241 14.1743 9.89969 8.21938 11.2197 8.21565 8.14273
threshold=-3.8109999999999995 -2.4297499999999999 -0.32089999999999991 1.3336500000000002 -3.3378999999999999 8.8373500000000025 0.17620500000000003 1.4265500000000004 -1.6777499999999999 2.6655000000000002 0.24526000000000001 -0.77265499999999987 -1.5096499999999999 3.3497500000000007 -12.879999999999997 -0.34523999999999994 4.7074500000000006 -0.12409999999999997 4.6841000000000017 -5.1915499999999986 -1.5554999999999997 0.89949000000000012 0.65502500000000008 -2.2486499999999996 -2.2485499999999994 -1.8007999999999997 -2.1743499999999996 -1.1373499999999999 8.9706500000000009 3.0199500000000001
decision_type=2 2 2 2 2 2 2 2 2 2 2 2 2 2 2 2 2 2 2 2 2 2 2 2 2 2 2 2 2 2
left_child=10 -2 3 11 6 8 20 28 14 13 -1 -3 -13 -10 -6 16 29 -18 -19 -9 -4 23 -23 24 -14 -26 27 -11 -7 -15
right_child=1 2 4 -5 5 7 -8 19 9 26 -12 12 21 15 -16 -17 17 18 -20 -21 -22 22 -24 -25 25 -27 -28 -29 -30 -31
leaf_value=-0.00125770999765873 0.0021117983382324627 0.0044853980694599584 -0.00043600869782864002 0.008473377448680413 0.022644013654037936 0.017439355396938389 0.010133251263945193 -0.0025137507793496854 0.00819919206491675 0.003118424629619863 -0.0055809827819871512 0.0079658788840575537 0.0033294558059925338 -0.0020335909027158917 0.00576456666743812 0.0076545292262752574 -0.0018844445124913591 0.052046506044792988 0.014964506421697214 0.039967402386441565 0.007543783312662377 0.0057185000881893461 0.011255817187432097 0.0033382301683551408 0.053758112388482354 0.012384288580421151 0.0094048933849484179 0.024548679552046777 -0.0054285333741620079 0.0080068551480442819
leaf_count=5378 17667 28800 2895 14694 194 1711 1240 315 51982 223 8654 14484 2092 2053 11409 3813 100 58 118 32 1199 6416 2676 12758 38 1581 31766 503 106 697
internal_value=0 0.136271 0.144665 0.121516 0.162033 0.166301 0.0766952 0.275988 0.16396 0.169403 -0.078191 0.111209 0.126611 0.156899 0.120982 0.102968 0.0398482 0.333511 0.544149 0.0299339 0.0384101 0.10807 0.146959 0.0865311 0.154383 0.267271 0.19198 0.359293 0.322256 0.0102525
internal_count=225652 211620 193953 83539 110414 105080 5334 2164 102916 91313 14032 68845 40045 58821 11603 6839 3026 276 176 347 4094 25561 9092 16469 3711 1619 32492 726 1817 2750
shrinkage=0.05


Tree=25
num_leaves=31
num_cat=0
split_feature=44 59 65 11 19 31 76 92 99 54 64 9 58 11 76 104 44 70 89 64 9 50 61 9 76 32 32 41 100 11
split_gain=539.933 189.21 94.3665 80.5857 42.6856 40.7574 36.0292 34.5291 32.3435 18.9413 18.9312 18.6662 18.5781 16.9993 16.6337 16.0069 15.5579 15.1305 14.6906 12.817 10.9725 10.7753 10.6149 10.5551 9.85719 9.46754 9.2771 9.1344 9.09164 8.71029
threshold=-0.72797499999999993 0.4936850000000001 -1.3049499999999996 0.32925500000000008 -1.59785 -0.22129499999999996 -1.5575499999999998 -3.1335499999999996 -1.8596999999999999 0.4032400000000001 -0.76964999999999983 0.56320000000000003 -0.42089999999999994 -1.1160499999999998 -1.5782499999999999 -1.6580499999999996 0.81220500000000018 1.1194500000000003 -13.414499999999999 -1.4399499999999998 0.80645500000000014 -1.4793499999999999 -1.62435 0.31058500000000006 -2.8205499999999994 0.23151500000000005 0.11461000000000002 1.4975500000000002 -1.5708499999999999 -1.1160499999999998
decision_type=2 2 2 2 2 2 2 2 2 2 2 2 2 2 2 2 2 2 2 2 2 2 2 2 2 2 2 2 2 2
left_child=1 2 5 4 12 17 14 -3 16 19 -8 -6 29 -12 -4 21 23 -1 -14 -9 -10 -7 25 -5 -21 -17 -20 -28 -16 -2
right_child=3 7 6 8 11 15 10 9 20 -11 13 -13 18 -15 28 22 -18 -19 26 24 -22 -23 -24 -25 -26 -27 27 -29 -30 -31
leaf_value=-0.0019022454638523579 -0.0065374965158784956 -0.0015820652875626888 -0.0067248615716730357 -0.012052622809248084 -0.0054286495053950876 -0.0056259335545079982 -0.012520804004494034 -0.012143940887439635 -0.010809148757507273 -0.014598199699360282 -0.0023532561675883475 -0.010803457253857351 0.027862145875274566 -0.0092062302990110687 0.0081205466370849692 0.0017597710205947558 -0.017715496646509794 -0.007752539506622011 -0.015102790965646993 0.005806656834224197 -0.014648436090333811 0.001085861934376724 0.00055575292499302745 -0.01673074947068463 -0.0079594545845916107 0.0072241801512890102 -0.013207990992745633 -0.0081708230970561919 -0.0010829632424584957 -0.011234881210443132
leaf_count=15884 3836 2428 3847 7121 10349 2236 6267 8020 10969 10371 3830 7961 58 7058 847 3169 30425 3723 16169 371 10068 5734 4490 6632 6038 6153 13933 3110 4823 9732
internal_value=0 -0.099697 -0.053894 -0.264585 -0.223031 -0.00537192 -0.131166 -0.218026 -0.306688 -0.237042 -0.177064 -0.154917 -0.250064 -0.135389 -0.0503075 0.0428955 -0.332847 -0.0599896 -0.271583 -0.19803 -0.252648 -0.0156228 0.076224 -0.285829 -0.142741 0.107402 -0.273093 -0.245758 0.00589696 -0.198042
internal_count=225652 95289 68061 130363 65148 41389 26672 27228 65215 24800 17155 18310 46838 10888 9517 21782 44178 19607 33270 14429 21037 7970 13812 13753 6409 9322 33212 17043 5670 13568
shrinkage=0.05


Tree=26
num_leaves=31
num_cat=0
split_feature=76 59 44 108 76 76 44 46 9 64 47 9 43 35 27 59 65 16 80 43 58 39 11 59 54 35 48 60 42 6
split_gain=380.035 105.314 92.2905 38.293 29.3703 31.7418 29.1905 22.2551 18.5801 16.7315 16.0733 14.6251 13.6785 13.3878 13.1279 12.6484 12.6021 11.726 11.4542 11.3625 11.1947 10.9757 10.9513 10.6358 10.4517 9.93734 9.63254 9.57554 9.5285 11.6461
threshold=-1.5781499999999997 -0.021237499999999996 -0.6358649999999999 -2.2495499999999997 -1.5782499999999999 -2.3621499999999993 0.81220500000000018 1.3061000000000003 1.4243500000000002 -1.6722499999999998 -1.0583499999999997 0.23648000000000005 1.3616500000000002 -1.7001499999999996 1.6774000000000002 -0.73046499999999981 1.5817500000000002 -3.4180499999999996 -6.6002999999999989 -0.042256499999999995 -1.1698499999999996 3.0381500000000004 -2.0218499999999993 1.77695 0.14312500000000003 1.6202000000000003 -0.33989999999999992 3.0122000000000004 -0.48671499999999995 -2.5910499999999996
decision_type=2 2 2 2 2 2 2 2 2 2 2 2 2 2 2 2 2 2 2 2 2 2 2 2 2 2 2 2 2 2
left_child=2 6 4 -3 5 -1 10 9 13 18 -2 -12 22 -9 26 -7 -13 -8 -5 -15 -4 -16 -11 -14 -24 -23 -10 -19 29 -20
right_child=1 3 20 7 -6 15 17 8 14 12 11 16 23 19 21 -17 -18 27 28 -21 -22 25 24 -25 -26 -27 -28 -29 -30 -31
leaf_value=-0.0013782911379978387 0.0015364879216873434 0.0042899249594439892 0.0029551270449695525 0.003244137467841076 -0.0041990911274237255 0.00026453641685646412 0.01763831360618234 0.012103922625100585 0.021168050497868841 -0.0069894995282497943 0.0050986143478668573 0.0074314673216632626 0.0042278828892512955 0.012295940865454802 0.0097649883182705163 0.0079750543190134516 0.01597098050790155 0.0073527082226148288 0.049604932934090677 0.0066810304787997396 0.0094596683342924592 0.026305766316227577 0.0081921490088279255 0.0097372074306233316 0.010978124070462628 0.00090493859010071839 0.014797453890200811 0.011412566082073616 0.012170647907855466 0.017949300596914113
leaf_count=16995 6823 6629 2333 878 14835 2119 896 18192 1874 257 36224 5859 6309 3411 4587 4108 1367 15138 83 7032 6552 481 15855 3500 18883 122 7404 4922 11336 648
internal_value=0 0.173212 0.00899763 0.204632 -0.0266257 0.00939427 0.125061 0.212281 0.23962 0.191712 0.103868 0.115245 0.177011 0.216025 0.285962 0.107743 0.18116 0.17517 0.242105 0.170386 0.155612 0.221849 0.191777 0.124027 0.194192 0.423409 0.32168 0.167089 0.254776 0.430934
internal_count=225652 178710 46942 107481 38057 23222 71229 100852 43103 57749 50273 43450 44804 28635 14468 6227 7226 20956 12945 10443 8885 5190 34995 9809 34738 603 9278 20060 12067 731
shrinkage=0.05


Tree=27
num_leaves=31
num_cat=0
split_feature=44 66 66 16 69 44 16 76 0 59 44 75 16 108 76 78 9 34 62 77 76 57 82 78 35 100 87 0 36 5
split_gain=72.733 21.2871 20.7474 13.8477 11.3831 8.6457 8.48158 7.23907 7.23618 7.78415 7.21794 7.09847 7.0575 9.28028 7.88085 7.09271 7.93894 7.79356 7.03981 7.92559 8.3346 7.03586 7.95161 7.49469 6.5831 6.49763 6.43174 6.72566 7.10225 6.38874
threshold=-0.6812649999999999 -1.4592499999999997 -1.1550499999999999 -0.81199999999999994 0.35241500000000003 0.48381000000000002 -2.2770499999999996 0.76101000000000008 3.6648500000000004 -4.7721999999999989 -1.36425 -4.3647999999999989 -1.8258999999999999 1.8094000000000003 1.4322000000000001 -1.7869999999999997 -2.5326499999999998 -0.55953499999999989 -0.84513499999999986 -101.50499999999998 2.5244500000000003 -0.85298499999999999 2.2954000000000003 -4.0414999999999992 -1.8396499999999996 -1.5862499999999999 1.7328500000000002 3.3906500000000004 -1.5551499999999996 1.5992500000000003
decision_type=2 2 2 2 2 2 2 2 2 2 2 2 2 2 2 2 2 2 2 2 2 2 2 2 2 2 2 2 2 2
left_child=2 3 4 7 8 18 24 11 10 -10 26 -2 -3 -14 15 16 17 -15 -5 -20 -21 -8 25 -24 -6 -23 27 -1 -29 -28
right_child=1 12 -4 5 6 -7 21 -9 9 -11 -12 -13 13 14 -16 -17 -18 -19 19 20 -22 22 23 -25 -26 -27 29 28 -30 -31
leaf_value=0.0017001009369751641 -0.0079891937456326757 -0.0050903009366472986 -0.0048933134519785412 -0.0063932607718962158 0.0052242293594495825 -0.0064881347843473956 -0.002183625317993685 -0.0050216380591151175 -0.011021605240767757 -0.0029396088582029881 -0.0017809278956234587 -0.0017277556442996491 -0.0081280563784785261 -0.0056349307579415435 -0.0072580380801910028 -0.0042021629270659827 0.0018344261458261221 0.051897171835097095 0.036243888409287439 -0.0018794194400082427 -0.008403007623299855 -0.016207477107820934 0.031375786597288062 -0.0016187573091551528 -0.0073289605520706347 -0.0065535262305757838 -0.00051385708720575797 0.062644408827231296 0.010847902513478542 -0.0083151748221575675
leaf_count=7436 1338 11828 22625 5738 1054 28999 4730 10064 991 4501 41225 15457 31941 25 7581 4982 554 45 35 8423 1583 510 48 1373 387 6774 4473 22 72 838
internal_value=0 -0.113818 -0.0540503 -0.0949208 -0.0408726 -0.112754 -0.0816564 -0.0653672 -0.030769 -0.0876363 -0.0250215 -0.0444889 -0.137794 -0.147263 -0.110263 -0.0631751 0.103319 0.627352 -0.0817336 -0.055436 -0.0581841 -0.0945947 -0.122513 -0.00997054 0.0378635 -0.144616 0.0088528 0.0395557 0.469798 -0.0348678
internal_count=225652 128593 97059 71637 74434 44778 14876 26859 59558 5492 54066 16795 56956 45128 13187 5606 624 70 15779 10041 10006 13435 8705 1421 1441 7284 12841 7530 94 5311
shrinkage=0.05



feature importances:
recent_15%_loss_kurtosis=58
top_10%_loss_kurtosis=52
all_loss_best_percentile50_ratio=31
recent_25_loss_best_percentile50_ratio=27
recent_25_loss_stddev_median_ratio=26
recent_25_loss_best_percentile75_ratio=23
log10_cardinality=23
all_loss_kurtosis=23
top_20%_loss_kurtosis=19
recent_25_loss_kurtosis=17
recent_25_loss_best_percentile25_ratio=17
recent_25_loss_stddev_best_ratio=14
recent_25_loss_percentile5_percentile25_ratio=14
top_30%_correlation_best_percentile75_ratio=13
top_30%_loss_stddev_best_ratio=13
top_10%_correlation_best_percentile50_ratio=12
all_loss_skew=11
top_10%_correlation_percentile5_percentile25_ratio=11
top_30%_loss_kurtosis=11
recent_15%_loss_best_percentile75_ratio=11
recent_10_loss_best_percentile75_ratio=10
top_30%_correlation_stddev_best_ratio=10
recent_10_loss_stddev_median_ratio=10
recent_10_loss_stddev_best_ratio=10
top_10%_correlation_skew=10
all_loss_best_percentile75_ratio=10
top_10%_loss_skew=10
all_correlation_best_percentile75_ratio=10
recent_15%_correlation_best_percentile75_ratio=9
all_correlation_best_percentile25_ratio=9
recent_25_loss_skew=9
all_loss_stddev_median_ratio=9
all_correlation_stddev_best_ratio=9
recent_10_correlation_best_percentile75_ratio=8
top_10%_correlation_stddev_best_ratio=8
recent_15%_loss_stddev_best_ratio=8
top_10%_correlation_kurtosis=7
top_10%_loss_best_percentile25_ratio=7
recent_25_correlation_skew=7
recent_15%_loss_skew=7
top_20%_loss_skew=7
top_20%_correlation_stddev_median_ratio=7
recent_15%_loss_best_percentile50_ratio=7
recent_15%_correlation_stddev_best_ratio=7
top_10%_loss_best_percentile75_ratio=6
all_loss_percentile5_percentile25_ratio=6
all_loss_stddev_best_ratio=6
top_10%_correlation_best_percentile25_ratio=6
top_30%_correlation_stddev_median_ratio=6
top_20%_correlation_best_percentile25_ratio=6
recent_10_loss_skew=6
recent_15%_loss_stddev_median_ratio=6
top_20%_correlation_skew=6
recent_25_correlation_best_percentile75_ratio=6
recent_15%_loss_best_percentile25_ratio=6
top_10%_loss_percentile5_percentile25_ratio=5
top_20%_correlation_best_percentile75_ratio=5
all_correlation_stddev_median_ratio=5
top_30%_correlation_percentile5_percentile25_ratio=5
all_loss_best_percentile25_ratio=5
top_20%_correlation_stddev_best_ratio=5
recent_25_correlation_best_percentile25_ratio=5
recent_10_loss_kurtosis=4
recent_10_correlation_best_percentile50_ratio=4
top_30%_loss_skew=4
recent_15%_loss_percentile5_percentile25_ratio=4
recent_15%_correlation_kurtosis=4
recent_25_correlation_stddev_median_ratio=4
recent_25_correlation_percentile5_percentile25_ratio=4
top_30%_correlation_best_percentile25_ratio=3
top_10%_loss_stddev_median_ratio=3
all_correlation_percentile5_percentile25_ratio=3
top_20%_loss_best_percentile25_ratio=3
top_20%_loss_stddev_best_ratio=3
top_30%_loss_percentile5_percentile25_ratio=3
recent_10_correlation_stddev_best_ratio=3
top_30%_loss_best_percentile75_ratio=3
top_30%_correlation_skew=3
recent_15%_correlation_best_percentile25_ratio=3
top_30%_correlation_kurtosis=3
recent_25_correlation_stddev_best_ratio=3
recent_25_correlation_kurtosis=3
top_20%_loss_stddev_median_ratio=2
top_20%_loss_best_percentile50_ratio=2
top_30%_correlation_best_percentile50_ratio=2
all_correlation_best_percentile50_ratio=2
top_20%_correlation_kurtosis=2
top_20%_correlation_percentile5_percentile25_ratio=2
all_correlation_kurtosis=2
all_correlation_skew=2
top_10%_loss_best_percentile50_ratio=2
top_10%_correlation_stddev_median_ratio=2
top_10%_correlation_best_percentile75_ratio=2
recent_10_correlation_best_percentile25_ratio=2
recent_10_correlation_kurtosis=2
recent_10_correlation_stddev_median_ratio=2
recent_10_loss_best_percentile25_ratio=2
recent_10_loss_best_percentile50_ratio=2
top_30%_loss_stddev_median_ratio=1
recent_10_loss_percentile5_percentile25_ratio=1
recent_15%_correlation_best_percentile50_ratio=1
recent_15%_correlation_percentile5_percentile25_ratio=1
recent_15%_correlation_stddev_median_ratio=1
recent_25_correlation_best_percentile50_ratio=1
top_10%_loss_stddev_best_ratio=1
top_20%_correlation_best_percentile50_ratio=1
top_20%_loss_best_percentile75_ratio=1

pandas_categorical:null
