tree
version=v2
num_class=2
num_tree_per_iteration=2
label_index=0
max_feature_idx=114
objective=multiclass num_class:2
feature_names=all_correlation_best_percentile25_ratio all_correlation_best_percentile50_ratio all_correlation_best_percentile75_ratio all_correlation_kurtosis all_correlation_percentile5_percentile25_ratio all_correlation_skew all_correlation_stddev_best_ratio all_correlation_stddev_median_ratio all_loss_best_percentile25_ratio all_loss_best_percentile50_ratio all_loss_best_percentile75_ratio all_loss_kurtosis all_loss_percentile5_percentile25_ratio all_loss_skew all_loss_stddev_best_ratio all_loss_stddev_median_ratio log10_cardinality log10_trial num_parameters recent_10_correlation_best_percentile25_ratio recent_10_correlation_best_percentile50_ratio recent_10_correlation_best_percentile75_ratio recent_10_correlation_kurtosis recent_10_correlation_percentile5_percentile25_ratio recent_10_correlation_skew recent_10_correlation_stddev_best_ratio recent_10_correlation_stddev_median_ratio recent_10_loss_best_percentile25_ratio recent_10_loss_best_percentile50_ratio recent_10_loss_best_percentile75_ratio recent_10_loss_kurtosis recent_10_loss_percentile5_percentile25_ratio recent_10_loss_skew recent_10_loss_stddev_best_ratio recent_10_loss_stddev_median_ratio recent_15%_correlation_best_percentile25_ratio recent_15%_correlation_best_percentile50_ratio recent_15%_correlation_best_percentile75_ratio recent_15%_correlation_kurtosis recent_15%_correlation_percentile5_percentile25_ratio recent_15%_correlation_skew recent_15%_correlation_stddev_best_ratio recent_15%_correlation_stddev_median_ratio recent_15%_loss_best_percentile25_ratio recent_15%_loss_best_percentile50_ratio recent_15%_loss_best_percentile75_ratio recent_15%_loss_kurtosis recent_15%_loss_percentile5_percentile25_ratio recent_15%_loss_skew recent_15%_loss_stddev_best_ratio recent_15%_loss_stddev_median_ratio recent_25_correlation_best_percentile25_ratio recent_25_correlation_best_percentile50_ratio recent_25_correlation_best_percentile75_ratio recent_25_correlation_kurtosis recent_25_correlation_percentile5_percentile25_ratio recent_25_correlation_skew recent_25_correlation_stddev_best_ratio recent_25_correlation_stddev_median_ratio recent_25_loss_best_percentile25_ratio recent_25_loss_best_percentile50_ratio recent_25_loss_best_percentile75_ratio recent_25_loss_kurtosis recent_25_loss_percentile5_percentile25_ratio recent_25_loss_skew recent_25_loss_stddev_best_ratio recent_25_loss_stddev_median_ratio top_10%_correlation_best_percentile25_ratio top_10%_correlation_best_percentile50_ratio top_10%_correlation_best_percentile75_ratio top_10%_correlation_kurtosis top_10%_correlation_percentile5_percentile25_ratio top_10%_correlation_skew top_10%_correlation_stddev_best_ratio top_10%_correlation_stddev_median_ratio top_10%_loss_best_percentile25_ratio top_10%_loss_best_percentile50_ratio top_10%_loss_best_percentile75_ratio top_10%_loss_kurtosis top_10%_loss_percentile5_percentile25_ratio top_10%_loss_skew top_10%_loss_stddev_best_ratio top_10%_loss_stddev_median_ratio top_20%_correlation_best_percentile25_ratio top_20%_correlation_best_percentile50_ratio top_20%_correlation_best_percentile75_ratio top_20%_correlation_kurtosis top_20%_correlation_percentile5_percentile25_ratio top_20%_correlation_skew top_20%_correlation_stddev_best_ratio top_20%_correlation_stddev_median_ratio top_20%_loss_best_percentile25_ratio top_20%_loss_best_percentile50_ratio top_20%_loss_best_percentile75_ratio top_20%_loss_kurtosis top_20%_loss_percentile5_percentile25_ratio top_20%_loss_skew top_20%_loss_stddev_best_ratio top_20%_loss_stddev_median_ratio top_30%_correlation_best_percentile25_ratio top_30%_correlation_best_percentile50_ratio top_30%_correlation_best_percentile75_ratio top_30%_correlation_kurtosis top_30%_correlation_percentile5_percentile25_ratio top_30%_correlation_skew top_30%_correlation_stddev_best_ratio top_30%_correlation_stddev_median_ratio top_30%_loss_best_percentile25_ratio top_30%_loss_best_percentile50_ratio top_30%_loss_best_percentile75_ratio top_30%_loss_kurtosis top_30%_loss_percentile5_percentile25_ratio top_30%_loss_skew top_30%_loss_stddev_best_ratio top_30%_loss_stddev_median_ratio
feature_infos=[0:15.006999969482422] [0:234.80000305175781] [0:4882.39990234375] [-1.9805999994277954:10.654999732971191] [0:12.206000328063965] [-2.6215999126434326:3.3966999053955078] [0:0.45357000827789307] [0:85.734001159667969] [-11839:1584.199951171875] [-779.91998291015625:808.3699951171875] [-507.22000122070312:5197.10009765625] [-1.9981000423431396:209.69999694824219] [-7946.7001953125:1168.9000244140625] [-8.7989997863769531:13.902000427246094] [-488510:4586200] [-155060:615890] [3.7781999111175537:23.594999313354492] [1:2.6435000896453857] [5:34] [0:802.9000244140625] [0:559] [0:1258.9000244140625] [-1.9955999851226807:18.329000473022461] [0:587.8800048828125] [-2.2653999328613281:4.391200065612793] [0:0.48989999294281006] [0:198.35000610351562] [-1219.5:522.80999755859375] [-1235.800048828125:6594.60009765625] [-1117.5:8850.099609375] [-2:5.1111001968383789] [-935.07000732421875:423.33999633789062] [-2.6647000312805176:2.6666998863220215] [-297430:1188300] [-212310:1079600] [0:3575.699951171875] [0:10875] [0:26023] [-1.9921000003814697:19.042999267578125] [0:2033.4000244140625] [-2.9841001033782959:4.5872998237609863] [0:0.49930998682975769] [0:2715.5] [-709.03997802734375:502.79998779296875] [-3297.89990234375:18467] [-19963:8850.099609375] [-2:60.916000366210938] [-448.57998657226562:390.1099853515625] [-6.5598998069763184:7.9286999702453613] [-317810:4634900] [-2685700:920740] [0:3278.300048828125] [0:6019.10009765625] [0:9635.900390625] [-1.9896999597549438:20.330999374389648] [0:2503.199951171875] [-2.3831000328063965:4.6901998519897461] [0:0.48857000470161438] [0:1847.800048828125] [-1337.0999755859375:243.28999328613281] [-3297.89990234375:1716.199951171875] [-3973.300048828125:2211.89990234375] [-1.9981000423431396:20.041999816894531] [-1199:202.85000610351562] [-4.6810002326965332:4.6949000358581543] [-350350:5375700] [-3075900:1514600] [0:3617.800048828125] [0:3004.5] [0:2050.60009765625] [-2:22.038000106811523] [0:1885.800048828125] [-3.75:4.902900218963623] [0:0.5] [0:861.3800048828125] [-298.98001098632812:265.42999267578125] [-725.83001708984375:605.80999755859375] [-297.85000610351562:6594.60009765625] [-2:20.041999816894531] [-210.33999633789062:200.82000732421875] [-4.6949000358581543:4.4772000312805176] [-4756.89990234375:13260] [-250.80999755859375:12848] [0:11477] [0:24078] [0:20548] [-2:21.040000915527344] [0:5149] [-3.8805999755859375:4.8000001907348633] [0:0.5] [0:5943.7001953125] [-10733:179.94999694824219] [-197.66999816894531:780.010009765625] [-1242.300048828125:309.73001098632812] [-2:40.016998291015625] [-5728.2998046875:123.62000274658203] [-6.4818000793457031:6.08489990234375] [-6293.39990234375:12913] [-414.29000854492188:8168.7998046875] [0:26229] [0:21533] [0:37704] [-2:16.608999252319336] [0:18253] [-2.8459999561309814:4.248499870300293] [0:0.5] [0:5373.2001953125] [-1534.800048828125:415.8599853515625] [-911.79998779296875:855.30999755859375] [-860.95001220703125:27170] [-2:62.985000610351562] [-1393.0999755859375:342.82000732421875] [-8.0602998733520508:5.768700122833252] [-8886.900390625:104960] [-354.72000122070312:36623]
tree_sizes=2640 2562

Tree=0
num_leaves=31
num_cat=0
split_feature=77 78 77 78 13 75 92 42 78 75 45 113 75 111 12 75 5 111 13 5 31 13 113 13 37 75 37 46 77 110
split_gain=600.767 270.559 106.09 74.7242 73.6223 66.0682 37.2859 33.8573 30.0872 30.863 29.0652 27.4659 27.0181 23.6388 21.7381 21.1117 20.2337 18.6563 17.2757 15.6478 15.9665 14.7839 14.6588 12.8733 11.9842 11.4252 10.9495 10.8571 10.1384 9.66538
threshold=0.37805999815464025 -1.4999499917030332 0.95287501811981212 -1.8968500494956968 2.7189500331878667 1.0086500048637392 0.64768999814987194 0.49462001025676733 -1.5000500082969663 0.98899501562118541 0.94333499670028698 0.46383500099182134 0.99999499320983898 0.96584498882293712 0.82111501693725597 0.66981500387191784 0.081037998199462905 0.84830000996589672 1.9730499982833865 -0.051785498857498162 0.9436050057411195 0.13783500343561175 0.074632499366998686 3.2538499832153325 3.0762000083923344 0.99999499320983898 2.1516499519348149 4.5451500415802011 0.91780501604080211 13.067499637603762
decision_type=2 2 2 2 2 2 2 2 2 2 2 2 2 2 2 2 2 2 2 2 2 2 2 2 2 2 2 2 2 2
left_child=4 3 7 13 11 6 -4 22 9 -5 16 17 14 25 -9 -16 24 -1 -13 -10 -21 -11 -3 28 -8 -2 -19 -18 29 -17
right_child=1 2 5 8 -6 -7 10 12 19 21 -12 18 -14 -15 15 23 27 26 -20 20 -22 -23 -24 -25 -26 -27 -28 -29 -30 -31
leaf_value=-0.038978829389788298 -0.031168132065314914 -0.04466808592994001 -0.0013100436681222707 -0.053231441048034935 -0.0603905160390516 -0.060825267447784007 -0.044603121886416477 -0.06282983882470404 -0.042059937995177404 0.018279569892473119 -0.029071246819338422 -0.0028156221616712079 -0.00055865921787709503 -0.015682281059063136 -0.0095238095238095247 -0.055583154567009144 -0.038028169014084512 -0.011027756939234809 -0.036363636363636369 -0.036153846153846154 -0.021913161465400274 -0.038571174060217352 -0.05231163505894413 -0.057196272113399185 -0.054688710927408936 0.00086206896551724137 -0.021150076236114139 -0.045340817963111471 -0.048712113375400851 0.030769230769230771
leaf_count=803 5573 10334 458 4580 717 3926 6022 7011 2903 93 3144 4404 179 3928 210 8857 11644 3999 330 3380 2948 5613 9755 17919 3871 232 4591 6235 9667 26
internal_value=0 -0.462306 -0.497532 -0.342769 -0.161816 -0.435297 -0.413655 -0.53188 -0.393247 -0.445849 -0.419589 -0.139378 -0.553899 -0.241549 -0.556146 -0.542354 -0.434178 -0.183647 -0.051542 -0.334633 -0.295196 -0.376446 -0.483797 -0.544929 -0.485495 -0.29888 -0.164377 -0.405783 -0.518814 -0.553304
internal_count=143352 128508 99258 29250 14844 35300 31374 63958 19517 10286 30916 14127 43869 9733 43690 36679 27772 9393 4734 9231 6328 5706 20089 36469 9893 5805 8590 17879 18550 8883
shrinkage=0.1


Tree=1
num_leaves=31
num_cat=0
split_feature=17 13 107 81 82 14 36 13 107 8 17 17 109 20 17 91 7 7 17 16 75 16 31 7 16 8 16 2 7 78
split_gain=624.385 280.372 99.6718 104.827 73.1896 65.1187 42.4821 40.2785 31.9432 24.8491 22.843 22.4711 21.1214 19.4228 16.5255 16.1603 15.9153 14.9027 14.1871 13.23 13.0253 12.9071 12.7967 12.6948 12.4377 14.5084 12.0716 12.0028 11.4633 11.3122
threshold=1.5396000146865847 0.39982999861240393 0.94900500774383556 0.68787002563476574 0.012579499743878843 1.0000000180025095e-35 1.6876500248908999 1.9730499982833865 0.9774950146675111 0.69067001342773449 1.8116500377655032 2.0206999778747563 0.81906500458717357 1.0000000180025095e-35 1.738600015640259 0.99710500240325939 0.51898500323295604 0.43667499721050268 2.2367000579833989 13.694499969482424 0.99979501962661754 5.6952500343322763 0.94413501024246227 0.50438499450683605 7.5068500041961679 0.78859502077102672 5.2067999839782724 2.1367499828338627 0.83806499838829052 -1.7991000413894651
decision_type=2 2 2 2 2 2 2 2 2 2 2 2 2 2 2 2 2 2 2 2 2 2 2 2 2 2 2 2 2 2
left_child=4 9 3 6 16 -4 12 -5 10 -2 19 20 21 18 17 26 -1 -14 -12 23 24 -3 28 -7 -8 -26 -10 -28 -6 -13
right_child=1 2 5 7 22 8 11 -9 15 -11 13 29 14 -15 -16 -17 -18 -19 -20 -21 -22 -23 -24 -25 25 -27 27 -29 -30 -31
leaf_value=0.026115750071983874 -0 0.018942731277533043 0.059029418080309218 0.0067821067821067825 0.037902872976520348 0.043338954468802704 0.040664961636828645 0.052102376599634376 -0.0010989010989010991 0.032100840336134459 0.036216216216216221 0.0027777777777777779 0.071428571428571438 0.049500998003992019 0.046201873048907389 0.010273972602739725 0.015230224321133412 0.028207964601769914 0.047877013177159589 0.042826552462526771 0.022021660649819495 0.053002749933469352 0.025611824569905503 0.025856473133790123 0.058578987150415721 0.051080989495086417 0.056454720616570336 0.034022365299898341 0.025790513833992099 0.058925880257569535
leaf_count=3473 2546 227 4657 1386 6857 1186 1564 547 182 595 5365 72 175 12024 9610 584 11858 1808 3415 3736 277 11273 4127 2773 7938 14755 519 5902 2024 21897
internal_value=0 0.47752 0.48922 0.520922 0.243163 0.433012 0.529944 0.196068 0.412487 0.0608087 0.433735 0.554566 0.480362 0.458085 0.437764 0.328232 0.176962 0.320222 0.407517 0.367901 0.525149 0.523304 0.321187 0.310937 0.528631 0.537038 0.348175 0.358355 0.351424 0.587419
internal_count=143352 115013 111872 71529 28339 40343 69596 1933 35686 3141 28499 46503 23093 20804 11593 7187 15331 1983 8780 7695 24534 11500 13008 3959 24257 22693 6603 6421 8881 21969
shrinkage=0.1



feature importances:
all_loss_skew=6
top_10%_loss_best_percentile25_ratio=6
log10_trial=5
all_correlation_stddev_median_ratio=4
top_10%_loss_kurtosis=4
log10_cardinality=4
top_10%_loss_best_percentile75_ratio=3
all_correlation_skew=2
top_30%_loss_stddev_best_ratio=2
top_30%_loss_percentile5_percentile25_ratio=2
top_30%_loss_best_percentile25_ratio=2
recent_15%_correlation_best_percentile75_ratio=2
recent_10_loss_percentile5_percentile25_ratio=2
all_loss_best_percentile25_ratio=2
recent_15%_correlation_best_percentile50_ratio=1
recent_15%_correlation_stddev_median_ratio=1
recent_15%_loss_best_percentile75_ratio=1
recent_15%_loss_kurtosis=1
recent_10_correlation_best_percentile50_ratio=1
all_loss_stddev_best_ratio=1
top_10%_loss_stddev_best_ratio=1
top_10%_loss_stddev_median_ratio=1
top_20%_loss_best_percentile25_ratio=1
top_20%_loss_best_percentile50_ratio=1
all_loss_percentile5_percentile25_ratio=1
top_30%_loss_best_percentile75_ratio=1
top_30%_loss_kurtosis=1
all_correlation_best_percentile75_ratio=1

pandas_categorical:null
