tree
version=v2
num_class=1
num_tree_per_iteration=1
label_index=0
max_feature_idx=114
objective=regression
feature_names=all_correlation_best_percentile25_ratio all_correlation_best_percentile50_ratio all_correlation_best_percentile75_ratio all_correlation_kurtosis all_correlation_percentile5_percentile25_ratio all_correlation_skew all_correlation_stddev_best_ratio all_correlation_stddev_median_ratio all_loss_best_percentile25_ratio all_loss_best_percentile50_ratio all_loss_best_percentile75_ratio all_loss_kurtosis all_loss_percentile5_percentile25_ratio all_loss_skew all_loss_stddev_best_ratio all_loss_stddev_median_ratio log10_cardinality log10_trial num_parameters recent_10_correlation_best_percentile25_ratio recent_10_correlation_best_percentile50_ratio recent_10_correlation_best_percentile75_ratio recent_10_correlation_kurtosis recent_10_correlation_percentile5_percentile25_ratio recent_10_correlation_skew recent_10_correlation_stddev_best_ratio recent_10_correlation_stddev_median_ratio recent_10_loss_best_percentile25_ratio recent_10_loss_best_percentile50_ratio recent_10_loss_best_percentile75_ratio recent_10_loss_kurtosis recent_10_loss_percentile5_percentile25_ratio recent_10_loss_skew recent_10_loss_stddev_best_ratio recent_10_loss_stddev_median_ratio recent_15%_correlation_best_percentile25_ratio recent_15%_correlation_best_percentile50_ratio recent_15%_correlation_best_percentile75_ratio recent_15%_correlation_kurtosis recent_15%_correlation_percentile5_percentile25_ratio recent_15%_correlation_skew recent_15%_correlation_stddev_best_ratio recent_15%_correlation_stddev_median_ratio recent_15%_loss_best_percentile25_ratio recent_15%_loss_best_percentile50_ratio recent_15%_loss_best_percentile75_ratio recent_15%_loss_kurtosis recent_15%_loss_percentile5_percentile25_ratio recent_15%_loss_skew recent_15%_loss_stddev_best_ratio recent_15%_loss_stddev_median_ratio recent_25_correlation_best_percentile25_ratio recent_25_correlation_best_percentile50_ratio recent_25_correlation_best_percentile75_ratio recent_25_correlation_kurtosis recent_25_correlation_percentile5_percentile25_ratio recent_25_correlation_skew recent_25_correlation_stddev_best_ratio recent_25_correlation_stddev_median_ratio recent_25_loss_best_percentile25_ratio recent_25_loss_best_percentile50_ratio recent_25_loss_best_percentile75_ratio recent_25_loss_kurtosis recent_25_loss_percentile5_percentile25_ratio recent_25_loss_skew recent_25_loss_stddev_best_ratio recent_25_loss_stddev_median_ratio top_10%_correlation_best_percentile25_ratio top_10%_correlation_best_percentile50_ratio top_10%_correlation_best_percentile75_ratio top_10%_correlation_kurtosis top_10%_correlation_percentile5_percentile25_ratio top_10%_correlation_skew top_10%_correlation_stddev_best_ratio top_10%_correlation_stddev_median_ratio top_10%_loss_best_percentile25_ratio top_10%_loss_best_percentile50_ratio top_10%_loss_best_percentile75_ratio top_10%_loss_kurtosis top_10%_loss_percentile5_percentile25_ratio top_10%_loss_skew top_10%_loss_stddev_best_ratio top_10%_loss_stddev_median_ratio top_20%_correlation_best_percentile25_ratio top_20%_correlation_best_percentile50_ratio top_20%_correlation_best_percentile75_ratio top_20%_correlation_kurtosis top_20%_correlation_percentile5_percentile25_ratio top_20%_correlation_skew top_20%_correlation_stddev_best_ratio top_20%_correlation_stddev_median_ratio top_20%_loss_best_percentile25_ratio top_20%_loss_best_percentile50_ratio top_20%_loss_best_percentile75_ratio top_20%_loss_kurtosis top_20%_loss_percentile5_percentile25_ratio top_20%_loss_skew top_20%_loss_stddev_best_ratio top_20%_loss_stddev_median_ratio top_30%_correlation_best_percentile25_ratio top_30%_correlation_best_percentile50_ratio top_30%_correlation_best_percentile75_ratio top_30%_correlation_kurtosis top_30%_correlation_percentile5_percentile25_ratio top_30%_correlation_skew top_30%_correlation_stddev_best_ratio top_30%_correlation_stddev_median_ratio top_30%_loss_best_percentile25_ratio top_30%_loss_best_percentile50_ratio top_30%_loss_best_percentile75_ratio top_30%_loss_kurtosis top_30%_loss_percentile5_percentile25_ratio top_30%_loss_skew top_30%_loss_stddev_best_ratio top_30%_loss_stddev_median_ratio
feature_infos=[0:10.151000022888184] [0:57.75] [0:667.719970703125] [-1.9601000547409058:10.583999633789062] [0:6.5974001884460449] [-2.6215999126434326:3.3736999034881592] [0:0.44929000735282898] [0:18.982000350952148] [-1140.199951171875:1126.699951171875] [-764.3900146484375:269.05999755859375] [-336.32998657226562:220.17999267578125] [-1.9927999973297119:185.27999877929688] [-805.8499755859375:920.83001708984375] [-8.3022003173828125:13.159000396728516] [-488510:1184500] [-155060:585010] [3.7781999111175537:23.594999313354492] [1:2.6435000896453857] [5:34] [0:802.9000244140625] [0:559] [0:752] [-1.9809999465942383:17.629999160766602] [0:587.8800048828125] [-2.0394001007080078:4.3643999099731445] [0:0.48989999294281006] [0:198.35000610351562] [-105.55000305175781:185.78999328613281] [-1235.800048828125:1363.300048828125] [-92.185997009277344:2375.60009765625] [-2:5.1111001968383789] [-103.36000061035156:181.5] [-2.6642999649047852:2.6666998863220215] [-32675:1100300] [-212310:992750] [0:2250.300048828125] [0:5217.5] [0:26023] [-1.9921000003814697:19.042999267578125] [0:741.25] [-2.1024999618530273:4.5872998237609863] [0:0.49364000558853149] [0:1612.199951171875] [-376.8699951171875:283.67999267578125] [-147.91000366210938:1716.199951171875] [-760.97998046875:687.08001708984375] [-2:60.716999053955078] [-306.70001220703125:154.74000549316406] [-6.5598998069763184:7.9098000526428223] [-317810:1004000] [-2685700:920740] [0:3278.300048828125] [0:4367.39990234375] [0:7019.2998046875] [-1.9896999597549438:16.049999237060547] [0:2341.699951171875] [-2.2866001129150391:4.248499870300293] [0:0.48857000470161438] [0:1529.300048828125] [-571.69000244140625:101.55999755859375] [-972.25:1716.199951171875] [-1238.5:735.30999755859375] [-1.9927999973297119:20.041999816894531] [-334.89999389648438:65.290000915527344] [-4.6409001350402832:4.6949000358581543] [-161940:1038400] [-3075900:1514600] [0:2213.800048828125] [0:3004.5] [0:1668] [-2:22.038000106811523] [0:860.46002197265625] [-3.75:4.902900218963623] [0:0.5] [0:854.42999267578125] [-298.98001098632812:265.42999267578125] [-191.16999816894531:605.80999755859375] [-164.50999450683594:158.61000061035156] [-2:20.041999816894531] [-210.33999633789062:200.82000732421875] [-4.6949000358581543:4.4772000312805176] [-4756.89990234375:13260] [-250.80999755859375:12502] [0:5205.7001953125] [0:6859.5] [0:10204] [-2:17.218999862670898] [0:3791.39990234375] [-3.8805999755859375:4.3643999099731445] [0:0.5] [0:2085.800048828125] [-811.4000244140625:77.821998596191406] [-54.946998596191406:586.9000244140625] [-416.79000854492188:153.94999694824219] [-2:39.9739990234375] [-396.67001342773438:69.035003662109375] [-6.4766998291015625:6.08489990234375] [-6293.39990234375:12913] [-383.57000732421875:7059] [0:11282] [0:21533] [0:10724] [-2:16.049999237060547] [0:9321] [-2.2678000926971436:4.248499870300293] [0:0.4991300106048584] [0:5373.2001953125] [-1032.5999755859375:314.52999877929688] [-911.79998779296875:292.60000610351562] [-348.80999755859375:694.44000244140625] [-2:62.875] [-656.79998779296875:287.3699951171875] [-8.0500001907348633:5.768700122833252] [-8886.900390625:64322] [-107.79000091552734:36623]
tree_sizes=2500 2576 2595 2587 2575 2585 2597 2575 2598 2585 2600 2586 2550 2558 2600 2567 2556

Tree=0
num_leaves=31
num_cat=0
split_feature=78 75 46 78 12 83 46 78 62 10 13 34 44 111 23 52 46 25 47 54 13 98 53 103 90 62 106 60 43 56
split_gain=305.538 63.9033 67.0661 46.7787 38.5942 35.6362 30.0155 24.486 24.0198 21.4705 21.043 17.6366 18.314 17.1922 17.1599 18.1774 21.0179 16.582 16.5695 15.8589 15.7928 15.2495 15.2476 14.9274 17.0292 17.3978 14.876 14.6736 15.2107 14.9737
threshold=-1.4999499917030332 1.0000000180025095e-35 4.6849000453948983 -1.5000500082969663 0.8296400010585786 1.0001999735832217 -1.1630499958992002 -1.8600999712944029 3.8395000696182255 0.41342499852180487 2.2980500459671025 0.20517500489950183 0.97964501380920421 1.2455999851226809 2.4626499414443974 1.1547999978065493 1.1467500329017641 0.41658499836921697 0.95953500270843517 -0.99338999390602101 3.019649982452393 0.91516000032424938 3.6408499479293828 1.1302500367164614 2.1300500631332402 -0.76003998517990101 4.765399932861329 0.66859999299049389 0.9500350058078767 0.40444999933242803
decision_type=2 2 2 2 2 2 2 2 2 2 2 2 2 2 2 2 2 2 2 2 2 2 2 2 2 2 2 2 2 2
left_child=3 5 4 7 18 -2 19 14 10 17 13 -10 -13 -8 15 -1 -17 21 27 -6 26 -4 -16 -21 25 -25 -11 29 -29 -3
right_child=1 2 9 -5 6 -7 8 -9 11 20 -12 12 -14 -15 22 16 -18 -19 -20 23 -22 -23 -24 24 -26 -27 -28 28 -30 -31
leaf_value=2.4361505484501098 2.551517012242146 2.4997429134509255 2.5304250495217273 2.4996499461765271 2.5020371667757524 2.519013261909838 2.5273113676544074 2.5211481865376357 2.5300699343183553 2.529066960454295 2.5367076845335617 2.5199159069194512 2.4509114632110247 2.4568455291450904 2.5066272751768364 2.5048244790031795 2.5499143122138737 2.4873904481436178 2.5043023959497832 2.5658802781798395 2.5403613891250387 2.4790731320506594 2.5509114632110244 2.5404748727744342 2.5461533347415557 2.505826951310369 2.5519758076715955 2.5271561945071257 2.6059883862879478 2.520619114050751
leaf_count=37 2096 497 2913 2872 574 402 3220 3204 2894 2609 5472 2787 39 35 144 2416 108 97 828 74 6697 59 169 185 194 669 318 1168 25 1113
internal_value=0 0.0422008 0.0303426 -0.164866 -0.00607118 0.196325 0.0148813 -0.11517 0.0296555 0.0870703 0.0626667 -0.0207097 -0.0769015 -0.00100092 -0.182186 -0.2092 -0.198999 0.014239 -0.0992233 -0.11097 0.110296 0.0275185 0.0388414 -0.0418053 -0.0724553 -0.133211 0.049021 -0.0625082 0.0215441 -0.12479
internal_count=43915 34965 32467 8950 19774 2498 16143 6078 14447 12693 8727 5720 2826 3255 2874 2561 2524 3069 3631 1696 9624 2972 313 1122 1048 854 2927 2803 1193 1610
shrinkage=1


Tree=1
num_leaves=31
num_cat=0
split_feature=17 17 114 17 95 73 16 34 70 16 54 88 11 39 114 63 20 89 23 14 73 40 46 2 88 54 105 16 33 80
split_gain=353.423 300.028 56.5875 46.0992 37.7502 25.6145 23.5835 17.0075 15.3701 14.8766 16.4492 14.8246 14.0139 13.929 13.6364 20.6983 14.0012 14.0543 13.461 14.8496 13.3958 13.7911 13.2179 13.124 13.8903 14.3827 14.084 18.7125 15.7922 14.4629
threshold=1.8116500377655032 1.1504999995231631 0.079241499304771437 1.738600015640259 1.0432000160217287 0.39146499335765844 13.370500087738039 3.4098000526428227 5.9344499111175546 12.927000045776369 -0.45544500648975367 1.3786500096321108 -0.83900502324104298 2.3950999975204472 0.026645500212907795 0.94164499640464794 19.655500411987308 0.32853500545024877 3.0102499723434453 1.7920500040054324 0.27044500410556799 0.8236449956893922 1.4147000312805178 1.5026000142097475 1.3194499611854555 -1.6189499497413633 0.33549499511718756 7.2939000129699716 1.2946500182151797 -1.2660999894142149
decision_type=2 2 2 2 2 2 2 2 2 2 2 2 2 2 2 2 2 2 2 2 2 2 2 2 2 2 2 2 2 2
left_child=1 -1 4 11 6 7 -2 12 -6 10 -7 18 -5 -9 20 -16 -17 -18 23 -20 21 -8 -13 -3 25 -25 27 28 -27 -28
right_child=2 3 -4 5 8 9 14 13 -10 -11 -12 22 -14 -15 15 16 17 -19 19 -21 -22 -23 -24 24 -26 26 29 -29 -30 -31
leaf_value=0.02287790792376965 0.0064839288975240897 -0.051636270151375244 -0.0016920965325523969 0.054788587093353269 -0.015058895679324792 -0.034122806871837046 -0.035608908125798998 -0.013454043693267382 0.036228494511710278 -0.0035792950718175802 -0.10519766699760519 -0.016056325555301416 -0.0015700579917584051 -0.06885530473664403 0.017651394194581786 0.0065030323791092845 0.040464493055497451 0.00055748069808430917 -0.021634199406577754 0.013897947945663234 0.025392031091987417 0.014227221315277034 0.0079271299316901571 -0.044345484414134585 -0.050095374816721619 0.032572959033587506 0.026160359324193468 -0.01912899333890461 -0.026539080730382948 -0.027557899209185024
leaf_count=2129 10235 161 6262 45 806 106 73 156 63 84 47 2102 2257 64 3512 5220 248 137 269 209 1424 232 258 281 182 131 51 4197 69 2905
internal_value=0 -0.120245 0.0669292 -0.174987 0.0908504 -0.0596074 0.0992703 -0.0300702 -0.113407 -0.373923 -0.559563 -0.204422 -0.00468347 -0.295708 0.131762 0.11632 0.0786037 0.262638 -0.223982 -0.0609818 0.213184 0.0229923 -0.134344 -0.233749 -0.227928 -0.221419 -0.212934 -0.177049 0.121793 -0.266311
internal_count=43915 15703 28212 13574 21950 2759 21081 2522 869 237 153 10815 2302 220 10846 9117 5605 385 8455 478 1729 305 2360 7977 7816 7634 7353 4397 200 2956
shrinkage=0.1


Tree=2
num_leaves=31
num_cat=0
split_feature=73 94 46 61 46 16 94 49 38 29 0 46 102 62 13 75 95 25 65 55 13 106 32 46 29 57 23 104 65 86
split_gain=101.503 74.4829 74.3492 48.5619 48.3593 30.1848 26.0303 26.0034 18.9185 17.4928 18.3096 17.0628 16.6815 15.8984 17.1315 17.6776 14.9912 14.2032 14.1342 13.9326 13.5844 15.1139 13.493 14.7288 14.0437 13.0784 17.8984 15.7219 16.333 12.1785
threshold=0.37429499626159674 -1.9999499917030332 5.1949000358581552 0.70368498563766491 0.32577499747276312 12.479500293731691 -1.4560499787330625 0.17553000152111056 -0.93505001068115223 0.96422499418258678 1.1498499512672427 1.8115000128746035 2.2359499931335454 4.6506998538970956 1.4966500401496889 0.86534500122070324 0.32450000941753393 0.37221500277519232 -7.6365499496459952 1.2092500329017641 2.5695999860763554 1.0165500044822695 2.0565500259399419 3.1420500278472905 0.64014998078346264 0.26233500242233282 1.6068499684333803 1.0127499699592593 0.23595000058412555 1.5787499547004702
decision_type=2 2 2 2 2 2 2 2 2 2 2 2 2 2 2 2 2 2 2 2 2 2 2 2 2 2 2 2 2 2
left_child=1 -1 3 7 8 -4 11 9 -2 10 -3 17 -9 14 16 -16 -8 -5 -7 -6 -21 -22 24 -24 -15 26 -10 28 -28 -26
right_child=4 2 5 6 19 18 13 12 25 -11 -12 -13 -14 22 15 -17 -18 -19 -20 20 21 -23 23 -25 29 -27 27 -29 -30 -31
leaf_value=0.020610049052496828 -0.021730587329288755 -0.050086094601166677 0.0013225644665358837 -0.018349899618002662 -0.013480065748529528 -0.023186498141921728 0.058733089102639094 -0.0066296043591024716 -0.040970502014745752 0.013403291380183298 -0.017383486877802497 0.012691997960209847 0.0080107296110557263 -0.029773098163138657 -0.046642300281031383 0.0088390253098301376 -0.0067888140550278839 -0.066093913854007993 0.012472089345295805 -0.0070646305074434333 -0.0010126547700348169 0.017801042784014131 -0.020303909441011143 0.00076353402779652524 0.00054194892259289303 -0.006599375154549364 0.097838125058582859 -0.038919001556932925 0.0025268165588378908 0.017417098928329555
leaf_count=2104 2584 193 4428 509 618 113 36 6852 285 161 1516 160 878 133 58 5830 1163 71 6822 852 854 854 678 650 2498 2273 21 80 125 516
internal_value=0 0.0236321 0.012091 -0.0219615 -0.0978052 0.0777267 0.0196347 -0.0752653 -0.155685 -0.18108 -0.210766 -0.16219 -0.049667 0.031272 0.0607383 0.082925 -0.0482152 -0.241944 0.118911 -3.92148e-05 0.032493 0.0839419 -0.0153934 -0.0999228 0.0202771 -0.0984915 -0.243046 -0.0328791 0.16236 0.0343099
internal_count=43915 35369 33265 21902 8546 11363 12302 9600 5368 1870 1709 740 7730 11562 7087 5888 1199 580 6935 3178 2560 1708 4475 1328 3147 2784 511 226 146 3014
shrinkage=0.1


Tree=3
num_leaves=31
num_cat=0
split_feature=78 79 12 46 78 46 99 68 24 44 32 46 85 8 112 96 59 44 43 58 96 105 44 30 70 6 59 16 96 11
split_gain=172.526 37.4874 40.2827 30.5324 30.3644 20.8357 17.1872 20.6737 17.8369 17.1166 16.0136 19.9392 15.9378 15.7687 15.5 15.1226 14.9309 18.6005 14.7379 13.9894 13.6556 13.6278 12.9992 14.8854 12.9901 12.9803 12.9634 15.4378 12.8881 12.5581
threshold=-1.4999499917030332 1.0000000180025095e-35 0.8296400010585786 8.5399498939514178 -1.5000500082969663 -1.1630499958992002 1.6374500393867495 3.2805500030517583 -0.051450001075863831 0.98197001218795787 0.11499999836087228 4.6849000453948983 11.974500179290773 1.766250014305115 -1.5740500092506406 -0.18790500611066815 0.9660950005054475 0.95071500539779674 0.23004999756813052 18.713999748229984 -1.6429499983787534 0.25933499634265905 0.97964501380920421 -1.5218500494956968 -1.089150011539459 0.31067499518394476 0.93840497732162487 15.336999893188478 -1.0807500481605528 31.692999839782718
decision_type=2 2 2 2 2 2 2 2 2 2 2 2 2 2 2 2 2 2 2 2 2 2 2 2 2 2 2 2 2 2
left_child=4 9 14 5 6 19 12 10 -9 18 -8 -12 -1 15 -3 28 17 -17 25 22 -6 -18 23 -4 -23 -2 -13 -28 -7 -25
right_child=1 2 3 -5 20 13 7 8 -10 -11 11 26 -14 -15 -16 16 21 -19 -20 -21 -22 24 -24 29 -26 -27 27 -29 -30 -31
leaf_value=-0.01238375487243654 -0.023737613182918282 -0.053284079992949075 0.011782933901814582 0.0096401108587868736 0.012900153942730117 -0.0010102334238399761 0.009942245642259432 -0.05328488234016631 0.019691365604093319 -0.068983633195360508 -0.013529381461770122 0.032555691646524221 -0.042345127168421946 -0.019665855833741488 -0.004893763225136692 -0.0026015937629372183 0.0474473711885052 -0.026790717671091636 0.018237917252454473 0.070522497187961233 -0.022270448483718581 -0.02021920141801669 -0.052899047776834289 -0.015906025763757214 0.0095980416967513717 0.035218483635357449 -0.025532017049626411 0.04857493727593809 0.0065295092103190375 0.016971293600030649
leaf_count=2358 157 67 309 6840 115 2877 469 36 481 24 2222 166 192 305 5498 2970 81 356 2237 22 2757 173 67 1169 940 49 117 37 10695 129
internal_value=0 0.0317115 0.0226899 0.0386936 -0.123887 0.019049 -0.0838483 -0.0386389 0.146098 0.150553 -0.070359 -0.101684 -0.146397 0.0288263 -0.0547636 0.0326276 -0.0174707 -0.0519069 0.158809 -0.0870086 -0.208622 0.0784546 -0.0974203 -0.079427 0.0496338 -0.0971408 0.131696 -0.077271 0.0493123 -0.126386
internal_count=43915 34965 32498 26933 8950 20093 6078 3528 517 2467 3011 2542 2550 18397 5565 18092 4520 3326 2443 1696 2872 1194 1674 1607 1113 206 320 154 13572 1298
shrinkage=0.1


Tree=4
num_leaves=31
num_cat=0
split_feature=17 94 9 17 16 66 104 40 1 7 12 17 17 78 66 78 73 6 76 105 29 17 1 13 55 16 37 80 40 73
split_gain=231.949 178.034 42.3877 28.5576 25.9971 19.8197 17.3155 20.1499 16.4084 15.7879 14.8839 14.0172 14.5795 14.6802 13.9781 15.5246 13.2556 13.0998 13.0848 12.9118 14.0189 13.1662 12.5059 12.2259 12.1664 11.9245 13.3602 16.4481 13.9618 11.7619
threshold=1.8116500377655032 -1.9574500322341917 0.4601650089025498 1.738600015640259 15.831500053405763 3.8343000411987309 1.1242499947547915 1.150150001049042 1.2371500134468081 1.2565500140190127 0.8296400010585786 2.3661999702453618 2.1449999809265141 -1.2580500245094297 0.042119499295949943 -0.94911998510360707 0.39146499335765844 0.31317499279975897 0.98244500160217296 0.29466499388217932 0.12340500205755235 2.2899000644683842 2.6486999988555913 5.7300999164581308 3.2125999927520756 6.2939000129699716 7.0715000629425058 0.6575550138950349 0.72046998143196117 0.3070449978113175
decision_type=2 2 2 2 2 2 2 2 2 2 2 2 2 2 2 2 2 2 2 2 2 2 2 2 2 2 2 2 2 2
left_child=1 -1 17 8 10 16 7 -6 -3 -7 -4 12 -12 -14 15 -15 -5 19 -17 -2 -21 -22 -20 24 -13 26 27 -10 -28 -19
right_child=2 3 4 5 6 9 -8 -9 25 -11 11 23 13 14 -16 18 -18 29 22 20 21 -23 -24 -25 -26 -27 28 -29 -30 -31
leaf_value=0.016424073828597178 0.0015973437122429872 -0.040080953951467546 -0.0034520414809365088 0.00017487100763672567 0.013301158407274666 -0.03592727820882026 0.019145685609123886 -0.0010001251766670418 0.020130163610699664 0.05612917482852936 0.0034739435395601975 0.0056784866950832886 -0.0027295263296547205 0.026790805061658225 0.01259003662088066 -0.042491697417251 -0.026094985959075747 0.025494330244905813 0.0081619629128412766 -0.025413218292396622 -0.011820091099206707 0.013458778167049247 -0.045544241644718035 -0.049797322130516963 -0.055186218099716383 -0.016382377285628046 -0.0067410529293912523 -0.066552715624372163 -0.10481775587513334 -0.0017324442184772811
leaf_count=2231 966 285 1906 2251 2935 272 2336 1483 249 20 8370 208 854 120 5930 116 210 238 220 589 1039 257 54 76 39 10093 47 24 21 476
internal_value=0 -0.0974127 0.0542206 -0.140743 0.0689624 -0.0498945 0.121824 0.0850061 -0.164076 -0.29622 0.0490089 0.0589674 0.0632194 0.0959007 0.112238 -0.0466254 -0.0206677 -0.0476985 -0.143405 -0.0780341 -0.12621 -0.0680723 -0.0242247 -0.147236 -0.0393173 -0.15761 0.0263092 0.125097 -0.370294 0.0734315
internal_count=43915 15703 28212 13472 24647 2753 6754 4418 10719 292 17893 15987 15664 7294 6440 510 2461 3565 390 2851 1885 1296 274 323 247 10434 341 273 68 714
shrinkage=0.1


Tree=5
num_leaves=31
num_cat=0
split_feature=17 94 17 16 102 113 92 109 72 59 8 73 12 108 1 63 41 1 101 89 73 111 112 87 18 57 103 66 55 25
split_gain=189.224 126.93 50.8245 30.9631 24.8616 20.1044 16.8775 16.4032 17.5018 17.5018 19.2344 15.8839 14.9762 17.2745 13.2908 13.0929 13.1536 12.9788 12.3824 15.2359 12.7819 11.8879 13.6331 11.5948 11.4614 13.1094 11.456 11.3095 16.0217 11.1563
threshold=1.8741000294685366 -1.9574500322341917 1.738600015640259 11.747499942779543 -1.1417999863624571 -0.1596649959683418 0.85772499442100536 0.40453499555587774 0.69758000969886791 0.91767501831054699 0.89082500338554393 0.27590499818325048 0.84860000014305126 1.2849500179290774 1.2371500134468081 0.94559499621391307 0.24030499905347827 1.6924499869346621 57.344999313354499 0.36734500527381903 0.35794499516487127 0.98657500743865978 -0.037921000272035592 1.1380500197410586 23.500000000000004 0.30251000821590429 1.1756500005722048 8.503550052642824 2.6216000318527226 0.29542499780654913
decision_type=2 2 2 2 2 2 2 2 2 2 2 2 2 2 2 2 2 2 2 2 2 2 2 2 2 2 2 2 2 2
left_child=1 -1 14 12 6 -4 11 -6 9 17 18 -5 -2 -14 -3 16 -8 -9 19 20 -11 -12 -23 -13 25 -17 -27 -7 -29 -25
right_child=3 2 5 4 7 27 15 8 -10 10 21 23 13 -15 -16 24 -18 -19 -20 -21 -22 22 -24 29 -26 26 -28 28 -30 -31
leaf_value=0.014663915731632039 -0.0060410611463989454 -0.036072858456979717 -0.037301243177379477 0.028305031816164658 -0.0064187396063278522 -0.00093045865408622529 -0.044671058158079785 -0.0023341095059867798 0.0090747346938820951 0.0075351864163593577 0.028479399945424949 0.047015764315923053 0.0043151964209575356 -0.022122257623227191 -0.014184892961627935 -0.0090487570672630347 0.017166877895555089 0.032222366125604071 -0.062948564291000361 0.057032646735509243 -0.023422898328240543 -0.054764056893495422 0.031206062010356358 -0.048964084315120726 -0.022959033657725045 0.032466436573437278 0.0042300452776299615 -0.01237051322105083 -0.084010170069005755 -0.015183105814424634
leaf_count=2238 2305 285 166 75 571 5173 36 123 10083 465 575 24 6451 257 10434 649 773 934 30 48 187 39 35 133 208 175 803 235 36 369
internal_value=0 -0.0766978 -0.107308 0.0561799 0.0821411 -0.0301902 0.00378593 0.101565 0.109125 0.185195 0.110986 -0.14748 0.00912822 0.0330231 -0.147669 0.0381697 0.144151 0.282011 -0.000371372 0.0265907 -0.013439 0.236241 -0.141025 -0.208867 -0.0085546 0.0197032 0.0928257 -0.0197368 -0.218872 -0.24133
internal_count=43915 18567 16329 25348 16335 5610 3245 13090 12519 2436 1379 601 9013 6708 10719 2644 809 1057 730 700 652 649 74 526 1835 1627 978 5444 271 502
shrinkage=0.1


Tree=6
num_leaves=31
num_cat=0
split_feature=17 17 17 9 113 17 37 113 43 33 49 106 102 73 4 23 29 5 101 73 31 58 108 86 61 28 112 82 0 74
split_gain=153.272 103.254 40.9803 25.3025 16.3416 14.6587 13.9362 13.692 19.0837 17.0115 17.9205 12.3955 12.0122 12.0502 20.4078 15.1238 16.0345 18.9945 13.7676 12.5047 14.678 16.7282 11.8728 12.8259 11.2903 15.404 15.8039 14.0727 13.5525 12.936
threshold=1.8741000294685366 1.1504999995231631 1.738600015640259 0.52055001258850109 -0.1596649959683418 2.3661999702453618 55.509500503540046 0.037688000127673156 0.92975500226020824 0.033238500356674201 3.6042000055313115 4.066699981689454 2.2359499931335454 0.40000499784946447 1.0587499737739565 2.4626499414443974 0.88850498199462902 -0.69633001089096058 11.120999813079836 0.27590499818325048 0.95011499524116527 2.0784499645233159 0.95762500166893016 -0.9680349826812743 0.90791499614715587 0.94188499450683605 0.69933500885963451 0.014641500078141691 1.3515500426292422 1.4320500493049624
decision_type=2 2 2 2 2 2 2 2 2 2 2 2 2 2 2 2 2 2 2 2 2 2 2 2 2 2 2 2 2 2
left_child=1 -1 12 -2 -4 7 11 9 -9 10 -5 -7 13 14 -3 16 -15 -18 19 20 21 22 23 -16 25 26 27 29 -26 -10
right_child=3 2 4 5 -6 6 -8 8 24 -11 -12 -13 -14 15 18 -17 17 -19 -20 -21 -22 -23 -24 -25 28 -27 -28 -29 -30 -31
leaf_value=0.013818602218433075 -0.0022644766236669454 -0.041276046988732391 -0.033571119175617954 0.0015623787380844142 -0.0017217722609953194 -0.022173264687829985 0.067851767511594871 0.0083694920830922961 0.036578799816933308 0.012775055032792998 -0.089479997212236581 0.029570722636186854 -0.0011663851497086836 -0.014156978794764172 -0.017399236391628943 0.010823859243435393 0.079245818537824309 0.00082218518773596785 -0.0014844421372628694 -0.018719435439496716 -0.020354101960475629 0.070513284817720068 -0.052096003132897452 0.023735707035431496 0.0068378233968621437 0.010515055040050085 -0.045279444584363629 -0.0015800263731719222 -0.026471488790218885 -0.016632235978470477
leaf_count=2129 3980 319 166 1253 5457 366 21 7626 182 5671 22 53 772 2711 124 337 34 337 643 4942 325 39 37 195 202 1612 79 3911 309 61
internal_value=0 -0.069028 -0.0958658 0.0505619 -0.0266202 0.0641974 -0.116438 0.0679951 0.0499669 0.104285 -8.54853e-05 -0.156281 -0.131868 -0.141108 -0.165994 -0.0928941 -0.114887 0.0800926 -0.153509 -0.169257 -0.0461342 0.0833778 0.0152642 0.0774595 0.00949974 0.0219615 -0.00971837 -0.00129203 -0.133042 0.232213
internal_count=43915 18567 16438 25348 5623 21368 440 20928 13982 6946 1275 419 10815 10043 6624 3419 3082 371 6305 5662 720 395 356 319 6356 5845 4233 4154 511 243
shrinkage=0.1


Tree=7
num_leaves=31
num_cat=0
split_feature=17 94 29 16 17 73 64 94 86 22 9 83 59 16 109 31 90 12 44 94 3 24 66 16 54 73 36 35 24 14
split_gain=124.945 95.9442 26.3208 18.4238 14.143 16.406 13.4862 14.0909 14.4321 13.4956 13.1101 15.0427 13.7921 12.825 14.0184 15.5228 15.1626 12.7123 16.1508 12.5477 12.4467 12.3826 12.3723 11.751 13.2423 12.6619 11.5548 11.5075 13.3418 11.283
threshold=1.8116500377655032 -1.9574500322341917 0.68568500876426708 15.889500141143801 1.738600015640259 0.39146499335765844 1.4051499962806704 3.1201500892639165 -0.63005501031875599 -1.5960499644279478 0.82021498680114757 1.1973499655723574 0.81257501244544994 10.54949998855591 0.61072999238967907 0.94705498218536388 7.4995000362396249 0.91737499833107006 0.8984850049018861 1.0000000180025095e-35 -1.0489500164985655 1.0278499722480776 1.243650019168854 12.927000045776369 -0.45544500648975367 0.41015000641345983 2.5001000165939335 3.6055500507354741 2.6201000213623051 0.60648500919342052
decision_type=2 2 2 2 2 2 2 2 2 2 2 2 2 2 2 2 2 2 2 2 2 2 2 2 2 2 2 2 2 2
left_child=1 -1 13 17 -3 6 7 8 -6 20 12 -12 -5 -2 -15 -16 26 18 -4 21 -8 -11 -13 24 -7 -25 27 -17 -29 -10
right_child=2 4 3 10 5 23 9 -9 29 19 11 22 -14 14 15 16 -18 -19 -20 -21 -22 -23 -24 25 -26 -27 -28 28 -30 -31
leaf_value=0.012058559371344662 -0.0076836990679108041 -0.011972478915004879 0.0042740218182335454 0.038183300853609208 0.033231620800495153 -0.025998502294972262 -0.0016081097798469743 -0.05706636884382793 -0.028052417236439725 0.00010414049119224596 -0.045525999367237092 0.014168526196698531 0.0065898789337038091 -0.0079115791726876283 0.0097176148258330403 -0.020284705890237162 -0.045103396134204179 0.0068109269046503513 -0.0054674849353968189 0.012059352797779007 -0.077315493019259718 -0.018420125896195665 0.034067739580319896 -0.02649110576936177 -0.089769939032006779 0.055868847774607801 0.007648276461159966 0.019097965394749363 -0.05914220643043519 0.014305085445705213
leaf_count=2231 2182 10719 5154 143 250 106 39 28 94 829 36 1090 4097 1186 2267 424 83 7665 2541 398 49 639 438 56 47 28 711 170 25 190
internal_value=0 -0.0714954 0.0397948 0.0574214 -0.103304 -0.0393709 -0.015678 0.120838 0.157096 -0.0549421 0.105419 0.183673 0.0765541 -0.0131348 0.0154304 0.045901 -0.0363643 0.0392846 0.0105724 -0.0368945 -0.437634 -0.0795922 0.198726 -0.290895 -0.455884 0.00962212 -0.0104864 -0.110382 0.0906717 0.00285349
internal_count=43915 15703 28212 21164 13472 2753 2516 562 534 1954 5804 1564 4240 7048 4866 3680 1413 15360 7695 1866 88 1468 1528 237 153 84 1330 619 195 284
shrinkage=0.1


Tree=8
num_leaves=31
num_cat=0
split_feature=73 48 16 27 95 44 48 82 64 104 59 56 114 68 2 86 48 94 94 58 73 47 63 87 70 88 72 62 42 21
split_gain=32.7515 22.9552 22.5646 22.4807 16.0405 15.6782 15.61 17.3359 13.7621 13.4199 19.3719 16.262 15.8712 15.3178 17.2354 14.9044 12.7226 15.3805 19.6154 14.8132 14.047 13.1402 14.9512 13.5779 13.0598 12.1623 12.1362 14.0856 12.0777 11.8443
threshold=0.34650500118732458 1.6068999767303469 15.831500053405763 0.96655499935150158 0.91807499527931224 0.89765501022338878 2.8457499742507939 0.013238499872386457 0.97545501589775097 0.46638000011444097 0.9753050208091737 -0.54873499274253834 0.031703500077128417 9.3642001152038592 10.090499877929689 0.94818499684333812 3.7160500288009648 -1.894550025463104 -1.3547499775886533 1.3609499931335451 0.32802499830722814 0.93719500303268444 0.96565499901771557 1.2622500061988833 13.059500217437746 0.94108498096466076 -0.29660999774932856 -1.1744499802589414 5.450550079345704 5.5595500469207773
decision_type=2 2 2 2 2 2 2 2 2 2 2 2 2 2 2 2 2 2 2 2 2 2 2 2 2 2 2 2 2 2
left_child=2 3 16 8 -4 -6 7 -7 25 13 11 -11 15 14 -3 -13 17 19 20 -1 28 23 -23 -22 -18 -2 -9 -28 -19 -15
right_child=1 9 4 -5 5 6 -8 26 -10 10 -12 12 -14 29 -16 -17 24 18 -20 -21 21 22 -24 -25 -26 -27 27 -29 -30 -31
leaf_value=0.011230875631022362 -0.007725105540778804 -0.011094625991797514 -0.0069969586568808407 0.0024180348837139587 0.012412947127008401 0.010831607430052938 0.013368932680941682 -0.076278643250465406 -0.012238056779230212 -0.057136352474872892 -0.013500517040151153 0.029226431306803004 0.0045142482219535122 0.0046213376186626815 0.025948365396923492 -0.008214787253759858 0.0061644745702534977 -0.0083741721268053414 -0.00041156726030709494 -0.019837441952789532 -0.049233476959523709 -0.053148178207986764 -0.004115021296522834 0.018724796936220055 0.080282821382085479 0.0092029763222898093 0.073401620848612348 -0.0071645422984695202 0.039019972139171195 0.051073299762275481
leaf_count=1578 1355 1805 795 2020 3791 798 1041 25 5176 39 526 530 2809 231 135 133 2515 1350 14267 170 42 212 88 98 24 618 22 1594 56 72
internal_value=0 -0.03707 0.0201185 -0.0689713 0.0648936 0.0796393 0.0311732 -0.0125822 -0.095292 0.00950702 0.0439643 0.0707766 0.0779895 -0.0525099 -0.0851689 0.217156 0.00241482 -0.00700084 -0.0166661 0.0820936 -0.113664 -0.269598 -0.387651 -0.0166269 0.0686508 -0.0242275 -0.0713736 -0.0606773 -0.064865 0.156594
internal_count=43915 15449 28466 9169 8066 7271 3480 2439 7149 6280 4037 3511 3472 2243 1940 663 20400 17861 16113 1748 1846 440 300 140 2539 1973 1641 1616 1406 303
shrinkage=0.1


Tree=9
num_leaves=31
num_cat=0
split_feature=17 73 17 16 102 29 88 10 62 0 41 56 9 86 54 24 19 1 6 19 41 70 90 0 9 8 46 102 6 64
split_gain=95.0415 62.0657 21.8125 18.6536 18.8939 16.9988 16.0041 14.8613 19.5735 13.1828 12.5741 12.4774 12.2762 11.8569 17.5385 13.7801 13.0885 11.4158 12.0604 11.3502 11.0194 14.3125 10.9968 10.9482 13.2628 13.8167 13.1672 12.4125 10.826 10.6211
threshold=1.8741000294685366 0.21320500224828723 1.738600015640259 11.747499942779543 -1.1417999863624571 0.18931999802589419 0.38735000789165502 0.39729499816894537 -1.0240499973297117 1.2860500216484072 0.28875499963760382 -0.20967499911785123 0.30747000873088842 -0.49243500828742975 0.23329499363899234 1.427650034427643 2.3116500377655034 1.2371500134468081 0.31582500040531164 3.583900094032288 0.27509500086307531 0.21045500040054324 1.6167500019073489 1.2652000188827517 0.25006499886512762 0.68288499116897594 3.6101499795913701 -1.2634999752044676 0.24618499726057055 4.6596498489379892
decision_type=2 2 2 2 2 2 2 2 2 2 2 2 2 2 2 2 2 2 2 2 2 2 2 2 2 2 2 2 2 2
left_child=1 -1 17 9 5 10 19 8 -4 -2 -5 -10 28 14 23 16 -15 18 -3 -6 -16 -22 -12 26 -25 -26 -7 -28 -8 -30
right_child=3 2 7 4 6 13 12 -9 11 -11 22 -13 -14 15 20 -17 -18 -19 -20 -21 21 -23 -24 24 25 -27 27 -29 29 -31
leaf_value=0.0092385646670997031 0.0057642945392646985 -0.040569167421923742 0.045232381305452124 -0.062780335382239469 0.019510562290145674 -0.0047978464028109674 -0.033397942584408223 0.0004916928497566669 -0.04855804543746145 -0.0023617587731465176 0.016551295748123758 -0.011043220338781915 0.0073067766575751359 0.0082848358415816333 -0.0012359131026912381 -0.011315154876464452 0.037603510061711504 -0.0098423892494550243 0.011668879064646635 -0.026032528699490062 -0.044469880647129485 -0.00072049996150391445 -0.050616606382223275 0.068417227382843324 -0.049345875969008801 -0.0011997883159256327 0.051712556967028867 -0.0070464539892819466 -0.0033239961127406285 0.064546289046605435
leaf_count=2495 2985 225 59 73 1369 138 121 4061 95 6028 65 1328 10932 547 222 234 211 10249 55 57 225 112 39 26 63 1106 135 49 587 24
internal_value=0 -0.0543565 -0.0771365 0.0398152 0.0599657 -0.00834102 0.0768988 -0.0263629 -0.112076 0.00329495 -0.309671 -0.135477 0.0646729 0.0090434 -0.0339301 0.0989758 0.164461 -0.103866 -0.303081 0.176901 -0.185345 -0.2993 -0.0863667 0.0218649 -0.0222335 -0.0379449 0.185522 0.360648 -0.0606998 -0.0065806
internal_count=43915 18567 16072 25348 16335 3245 13090 5543 1482 9013 177 1423 11664 3068 2076 992 758 10529 280 1426 559 337 104 1517 1195 1169 322 184 732 611
shrinkage=0.1


Tree=10
num_leaves=31
num_cat=0
split_feature=61 73 110 49 51 41 46 27 110 16 35 3 63 11 50 109 92 54 40 61 79 67 61 82 64 1 64 43 103 104
split_gain=21.7633 22.1941 20.328 19.5445 19.3348 16.5114 14.3812 13.8154 15.0574 14.5693 14.0483 14.8821 12.8983 12.5526 15.4262 12.6728 12.9933 12.7977 12.5248 13.1404 16.0095 12.0214 19.5978 13.9863 14.8695 12.8301 12.7234 11.9514 13.6345 16.3275
threshold=0.75959500670433056 0.21320500224828723 -1.5227499604225156 1.5020499825477602 1.2414500117301943 0.33960500359535223 -1.4708999991416929 0.96457499265670787 -0.45891000330448145 17.963500022888187 1.405550003051758 -1.0585500001907346 0.86108997464180004 5.6718499660491952 0.026788500137627128 0.92660498619079601 0.92850500345230114 -1.5123500227928159 -0.4310650080442428 0.19759500026702884 0.99732500314712536 2.3907499313354497 0.6828649938106538 0.087140999734401717 4.2242000102996835 1.8456500172615053 0.86263000965118419 0.96165502071380626 1.1236500144004824 -0.088218998163938508
decision_type=2 2 2 2 2 2 2 2 2 2 2 2 2 2 2 2 2 2 2 2 2 2 2 2 2 2 2 2 2 2
left_child=1 -1 -3 5 6 -4 -2 8 9 21 11 -11 -12 14 -6 16 17 -16 -10 -20 -21 -7 23 24 25 -23 -24 -5 -29 -30
right_child=4 2 3 27 13 7 -8 -9 18 10 12 -13 -14 -15 15 -17 -18 -19 19 20 -22 22 26 -25 -26 -27 -28 28 29 -31
leaf_value=0.0074384607660462031 -0.043978578511037328 -0.017340335968995927 -0.0020868326443524497 0.002289808288724889 -0.019462440370908246 -0.025019053386206615 -0.0043042015033033934 0.00053501243937790881 -0.052228210981075586 -0.027350428182145826 0.046508479734946942 0.068190276888864379 -0.028678929248702863 0.0053919970748291177 0.060213531926274301 0.0096375134302463857 -0.0075821479833852127 0.0030002058619780737 -0.036820080295205115 -0.00064080655849221445 0.087512355333282832 0.01221091594014849 -0.048852048490358436 0.022725913082731183 -0.10332928036267941 -0.038975000399753365 0.031095405829113881 0.023912278154621956 -0.065410170880230989 -0.0093714955242274311
leaf_count=2242 95 947 6832 8355 394 1495 2387 984 52 23 29 56 107 12122 40 1287 1921 1731 100 1086 21 70 23 58 26 163 148 115 55 951
internal_value=0 -0.0203365 -0.0301247 -0.0235854 0.0243688 -0.0517242 -0.0582276 -0.0991927 -0.12895 -0.178898 0.068358 0.403746 -0.126463 0.0360867 -0.0041469 0.010926 -0.0188608 0.0429243 -0.0417477 -0.0210453 0.0103148 -0.205706 -0.0694282 -0.216613 -0.316012 -0.235973 0.203422 0.00988962 -0.0870646 -0.124352
internal_count=43915 23938 21696 20749 19977 11273 2482 4441 3457 2198 215 79 136 17495 5373 4979 3692 1771 1259 1207 1107 1983 488 317 259 233 171 9476 1121 1006
shrinkage=0.1


Tree=11
num_leaves=31
num_cat=0
split_feature=78 73 51 11 9 13 32 74 12 72 43 4 39 104 74 43 85 104 51 110 57 20 41 71 41 45 71 11 8 95
split_gain=36.0743 13.3046 16.2711 16.9599 15.1004 14.7596 12.8862 15.4094 14.4364 13.868 16.7947 14.533 13.2171 12.6813 12.6226 12.3838 12.0358 11.6724 13.1182 11.555 11.2047 12.7275 15.071 11.3373 11.1808 18.9883 16.3945 14.5838 14.7802 15.1458
threshold=-1.4999499917030332 0.21320500224828723 1.1628499627113345 -0.83900502324104298 0.79671502113342296 2.6776000261306767 1.4991499781608584 2.6929500102996831 0.93612498044967662 0.1928450018167496 0.93942499160766613 1.312750041484833 1.2489500045776369 1.6515499949455263 5.0747499465942392 0.96421498060226452 6.361649990081788 1.5923500061035158 1.1502500176429751 -0.79572501778602589 0.33326500654220587 8.6591000556945819 0.39949500560760504 1.1372500061988833 0.36235499382019049 0.92803001403808605 7.2679998874664316 1.0819500088691714 0.85850501060485851 0.97536498308181774
decision_type=2 2 2 2 2 2 2 2 2 2 2 2 2 2 2 2 2 2 2 2 2 2 2 2 2 2 2 2 2 2
left_child=14 13 3 -3 15 6 9 12 -9 10 -6 -11 -8 -2 24 -4 -7 20 -19 -16 21 22 -5 -22 26 -26 -1 -27 -29 -30
right_child=1 2 4 17 5 16 7 8 -10 11 -12 -13 -14 -15 19 -17 -18 18 -20 -21 23 -23 -24 -25 25 27 -28 28 29 -31
leaf_value=-0.0047407193591517188 0.0067407794998149686 0.066148636828769342 0.0013180304125516836 -0.014348683943478239 0.019659452082274795 0.010147961166331239 -0.047189378443064992 0.066420650935691342 -0.00095849503012536809 -0.0031429111957550051 -0.037728443643115214 0.017638979969578528 -0.010272906274379542 0.039020292600616818 -0.0082473856838125928 -0.0053214165773703441 -0.00030710279732419735 0.00097354978242653089 0.072829895753126886 0.052019120380282405 -0.024639096707105637 -0.091286886572837844 -0.082035620212554936 -0.0029778651280357158 -0.01584732653601292 0.034535581002132498 0.029267126958945702 0.047813801243901256 -0.095191379215406338 -0.0081191775045896843
leaf_count=6336 2475 33 16259 547 77 4844 111 46 103 611 151 749 768 128 57 3396 1425 1113 26 72 280 25 35 1763 1986 139 145 40 23 152
internal_value=0 0.0145006 0.00896838 -0.0523052 0.017174 0.0513857 -0.0117084 -0.0989396 0.198431 0.0447611 -0.183474 0.0830241 -0.149347 0.0832809 -0.0566497 0.00170864 0.0777143 -0.0585219 0.0261382 0.253897 -0.0949097 -0.214203 -0.184192 -0.0594661 -0.0611912 -0.120441 -0.0397986 0.0929232 -0.0702774 -0.19563
internal_count=43915 34965 32362 3822 28540 8885 2616 1028 149 1588 228 1360 879 2603 8950 19655 6269 3789 1139 129 2650 607 582 2043 8821 2340 6481 354 215 175
shrinkage=0.1


Tree=12
num_leaves=31
num_cat=0
split_feature=17 17 17 76 78 24 114 24 71 19 72 62 56 19 88 113 38 30 35 111 21 88 105 67 17 63 43 103 67 8
split_gain=66.0086 38.2356 15.5844 13.5354 12.8847 13.7626 13.4916 14.3187 11.9387 11.5739 13.3553 11.3263 12.0636 12.3885 10.7919 10.7564 12.2218 10.5151 10.8297 10.4654 10.4639 10.0798 11.4236 11.8581 10.3023 14.4185 13.1008 15.3692 12.7281 12.4674
threshold=1.8741000294685366 1.1504999995231631 1.738600015640259 0.80937498807907116 -1.5819500088691709 1.1707499623298647 0.3297600001096726 1.2909500002861025 5.125349998474122 1.2220500111579897 1.634649991989136 14.795499801635744 0.11296499893069269 2.5687500238418584 0.36898000538349157 -0.1596649959683418 1.7281000018119814 4.9683499336242685 4.2205498218536386 0.42651000618934637 1.9923999905586245 -0.46904000639915461 0.29568499326705938 1.9033499956130984 2.3661999702453618 0.97365498542785656 0.93726497888565075 1.7052999734878542 1.6541499495506289 0.73658499121665966
decision_type=2 2 2 2 2 2 2 2 2 2 2 2 2 2 2 2 2 2 2 2 2 2 2 2 2 2 2 2 2 2
left_child=1 20 4 -2 5 8 -6 9 -3 14 -11 12 -7 -14 -8 16 -4 18 -15 -9 -1 22 -5 -24 -23 26 29 -28 -27 -26
right_child=3 2 15 21 6 11 7 19 -10 10 -12 -13 13 17 -16 -17 -18 -19 -20 -21 -22 24 23 -25 25 28 27 -29 -30 -31
leaf_value=-0.017204078169245469 -0.0052519385174905602 -0.0072191522632388417 -0.038663029223680499 0.014661133454905618 -0.01167051760625132 -0.0076421336474152392 -0.008319089114665985 -0.0019385055417106265 0.062199544787406927 -0.00094252530035081805 -0.077561419858382302 -0.029029075402609062 0.054981978679751298 -0.004606093524338363 0.091142150511344278 -0.0011300690694674045 0.035994076614196485 0.047957956625355617 0.042766691964180745 0.086447055517016244 0.010023504864946423 0.0044762621863065561 -0.015844852293466594 -0.076955728381872188 0.032292528064162648 -0.076755891418924527 0.069885388367316309 -0.015453966127501596 -0.014937289990484715 -0.021828233765725472
leaf_count=152 1718 2746 140 90 7011 197 20 21 25 182 26 71 91 231 24 5457 26 72 61 37 1977 22857 154 40 54 51 51 36 96 201
internal_value=0 -0.0452997 -0.0616312 0.0331813 -0.0838331 -0.0338703 -0.107678 0.096475 -0.0659286 -0.00663122 -0.105199 0.0889976 0.130301 0.219804 0.459325 -0.018929 -0.269697 0.1373 0.0529028 0.544454 0.0807959 0.0394121 -0.147846 -0.28445 0.04169 -0.10193 0.0106472 0.345726 -0.363846 -0.103674
internal_count=43915 18567 16438 25348 10815 3494 7321 310 2771 252 208 723 652 455 44 5623 166 364 292 58 2129 23630 284 194 23346 489 342 87 147 255
shrinkage=0.1


Tree=13
num_leaves=31
num_cat=0
split_feature=17 73 16 14 105 90 34 35 17 73 105 4 113 60 54 26 87 35 71 34 41 58 36 24 53 70 36 100 75 70
split_gain=53.467 32.2444 13.3975 13.4648 16.1637 15.498 11.4533 16.3366 11.0554 11.667 15.4471 14.4393 14.0499 13.2159 14.917 12.4045 14.7541 17.6052 14.3742 14.8711 12.9263 12.6096 12.1026 11.6684 11.4757 11.7592 16.9727 14.6876 10.7046 10.6868
threshold=1.8741000294685366 0.24618999660015109 10.245500087738039 19.475500106811527 0.31589500606060034 1.488849997520447 2.0950000286102299 2.2361500263214116 1.738600015640259 0.40000499784946447 0.20686499774456027 1.1515499949455263 0.18048500269651416 0.92922499775886547 -1.2057500481605528 2.0368999242782597 2.601100087165833 3.5189499855041508 4.3703000545501718 2.2385500669479375 0.2882049977779389 3.7672499418258671 9.7513003349304217 2.0690000057220463 8.9858503341674822 0.65277501940727245 4.7715499401092538 1.7244499921798708 0.94386500120162975 0.13977500051259997
decision_type=2 2 2 2 2 2 2 2 2 2 2 2 2 2 2 2 2 2 2 2 2 2 2 2 2 2 2 2 2 2
left_child=1 -1 -2 -4 -5 6 7 -6 9 10 -3 12 13 24 -15 -13 17 18 19 20 -17 22 -18 -11 25 27 -27 -12 -9 -10
right_child=2 8 3 4 5 -7 -8 28 29 23 11 15 -14 14 -16 16 21 -19 -20 -21 -22 -23 -24 -25 -26 26 -28 -29 -30 -31
leaf_value=0.0056689630858989546 -0.0014065435687336354 -0.088662281155586248 0.0049686189050513847 0.005198179084154932 -0.041833534402563086 -0.035556597498858852 0.0099467653220224571 -0.027792596200416832 0.0011021588000881793 -0.003787810208458026 -0.06299831231619106 -0.0052898764960705967 0.013519954226784786 -0.040644998662173748 0.044404699781845358 0.018942967946069283 0.0028632336063310507 -0.064230151863201801 0.042001294070168546 0.0150620278685984 -0.030914379173848924 -0.05137245385877548 0.065292162139241286 0.046371930520585247 0.0047723576963484829 -0.0054680510788227867 -0.077402070406320939 -0.02829150656657577 0.027929779326214512 -0.0082476528287250446
leaf_count=2870 5450 25 18260 839 151 246 259 58 3485 3498 162 4380 118 32 58 57 128 92 38 99 593 31 41 47 111 289 37 493 85 1883
internal_value=0 -0.0407697 0.0298631 0.041895 -0.0449587 -0.146752 -0.0538624 -0.188939 -0.0585889 -0.0777207 -0.102016 -0.0991136 -0.193828 -0.226675 0.141648 -0.0765583 -0.1726 -0.228378 -0.179991 -0.210432 -0.265423 0.0725463 0.180087 -0.0312279 -0.257032 -0.291515 -0.136323 -0.368755 0.053291 -0.0217759
internal_count=43915 18567 25348 19898 1638 799 553 294 15697 10329 6784 6759 1300 1182 90 5459 1079 879 787 749 650 200 169 3545 1092 981 326 655 143 5368
shrinkage=0.1


Tree=14
num_leaves=31
num_cat=0
split_feature=96 64 46 56 85 28 66 24 15 24 108 9 2 54 73 64 62 1 60 98 62 6 16 28 15 0 33 102 81 30
split_gain=14.3554 13.9083 16.9442 14.2024 12.0519 12.0926 12.9476 14.501 12.4811 11.465 15.1196 14.2424 11.3804 19.992 15.7708 11.5292 14.8163 11.2884 16.5897 12.513 12.0129 11.3131 13.6748 16.278 12.0729 13.7768 15.197 11.9776 11.9409 11.248
threshold=0.33281500637531286 0.50264501571655285 0.32577499747276312 2.2943500280380253 1.72995001077652 0.89449501037597667 56.825998306274421 2.7052999734878544 434.39498901367193 0.31659500300884252 1.9341999888420107 0.86134499311447155 3.6439499855041508 -1.7452999949455259 0.27590499818325048 4.6813499927520761 19.906499862670902 8.6744503974914569 0.79820999503135692 0.092371501028537764 19.906499862670902 0.29598499834537512 10.114500045776369 0.73080000281333934 0.7348499894142152 1.1243500113487246 0.8078100085258485 0.050955999642610557 -0.035820500925183289 -0.72477999329566944
decision_type=2 2 2 2 2 2 2 2 2 2 2 2 2 2 2 2 2 2 2 2 2 2 2 2 2 2 2 2 2 2
left_child=1 -1 3 12 5 6 7 29 9 11 -11 -7 13 -3 -14 16 -16 19 -19 21 -21 22 23 -4 25 -23 27 -27 -25 -2
right_child=4 2 17 -5 -6 8 -8 -9 -10 10 -12 -13 14 -15 15 -17 -18 18 -20 20 -22 24 -24 28 -26 26 -28 -29 -30 -31
leaf_value=0.0061042095680633891 0.0057986235069388617 0.060828100526055633 -0.038233266286789233 0.027555978406738763 -0.015308359510723561 0.050919381578763329 -0.055823097521798648 0.059358845371752983 0.063251019460814337 0.0013343968912180293 -0.084289723350888204 -0.038837461444464601 0.0081809342952340169 -0.0076553027041326178 -0.0031590580273652235 0.037552986931109776 -0.063464433463608347 0.11664147320247831 0.0048019334673881538 -0.0076026554270082446 0.035790407702778325 -0.031354901254577121 0.0017425822798476183 -0.036054773140797573 0.0074903791330647607 0.012291150136927418 -0.021118296648709831 -0.009924413863269763 -0.0024416689000754583 -0.015047446943415628
leaf_count=4047 369 43 157 151 1008 90 57 32 35 1148 21 22 1526 4914 6438 69 41 21 36 1912 66 149 11836 113 5702 802 262 348 1633 867
internal_value=0 0.00544275 -0.000769745 -0.0293631 -0.0600597 -0.024555 -0.0919915 -0.0710328 0.0433428 0.0272453 -0.00203761 0.332886 -0.0328964 -0.0706124 -0.00974089 -0.0310765 -0.0354068 0.0155916 0.46006 0.0144892 -0.0615476 0.0216504 0.00477556 -0.0739047 0.0535716 -0.0243502 0.00616723 0.0556853 -0.0461709 -0.0882398
internal_count=43915 40266 36219 13182 3649 2641 1325 1268 1316 1281 1169 112 13031 4957 8074 6548 6479 23037 57 22980 1978 21002 13739 1903 7263 1561 1412 1150 1746 1236
shrinkage=0.1


Tree=15
num_leaves=31
num_cat=0
split_feature=17 94 45 56 39 6 28 23 69 105 17 43 94 38 113 43 96 3 106 54 84 3 56 113 56 26 57 65 87 89
split_gain=39.9812 30.51 13.4437 11.4923 21.1921 17.0004 16.0842 13.4055 12.2409 10.7965 10.5767 14.3625 11.3771 10.7764 11.7077 12.4989 12.2106 11.6465 11.5104 13.5034 12.4479 10.9629 17.6336 18.015 17.675 13.7981 13.7424 12.4731 12.8747 11.546
threshold=1.8116500377655032 -1.785549998283386 0.096317499876022353 0.78935500979423534 1.4783499836921694 0.31982499361038214 0.35898499190807348 1.9156499505043032 6.996000051498414 0.30255499482154852 2.3661999702453618 0.96545499563217174 -0.9587700068950652 -1.7142500281333921 0.038259999826550491 0.92914497852325451 0.7583499848842622 -1.5394999980926511 1.0658000111579897 4.9206500053405771 2.7648500204086308 -0.74384999275207508 0.51109999418258678 0.08970350027084352 1.9528500437736513 20.038499832153324 0.37182499468326574 1.6988499760627749 1.4154500365257265 0.36048500239849096
decision_type=2 2 2 2 2 2 2 2 2 2 2 2 2 2 2 2 2 2 2 2 2 2 2 2 2 2 2 2 2 2
left_child=1 -1 3 -2 7 8 -7 9 -6 -5 13 -12 -13 -4 16 17 -15 -16 20 21 -19 26 -23 27 25 -25 -20 28 29 -24
right_child=2 -3 10 4 5 6 -8 -9 -10 -11 11 12 -14 14 15 -17 -18 18 19 -21 -22 22 23 24 -26 -27 -28 -29 -30 -31
leaf_value=0.0059478301799581607 -0.015648510282337269 -0.0059887980955687257 -0.01199316143734297 0.056802800480200324 -0.016536427480676477 -0.0090557680953116653 0.076989797817336197 0.098582744811262404 0.031803621248952273 -0.0053612348208060632 -0.0049536022597848027 -0.10804984462261201 -0.022846122653711411 0.0068792332707694045 0.021504024942715964 -0.0011500663952641527 -0.039173647170436796 0.0034099076363273556 0.006901413790728738 -0.036484853134435773 -0.0072301433218221016 0.033239615562690457 -0.055358056670853077 -0.0076314660262608476 0.070166321843862539 -0.087173362659371423 -0.016018379971482397 0.030376859342873985 0.014672643379856755 0.01147920557608207
leaf_count=2558 753 13145 467 49 541 42 45 28 58 65 442 25 42 7832 375 7617 58 4328 1803 68 1474 383 56 421 28 23 306 402 433 48
internal_value=0 -0.0404434 0.0225111 -0.0670813 0.0142243 -0.0585627 0.354506 0.365857 -0.118558 0.213584 0.0278299 -0.114937 -0.546386 0.0306118 0.0333521 0.0191155 0.0654069 0.0420958 0.0354597 0.0769427 0.00706799 0.0846398 0.142103 0.0904502 -0.0689233 -0.117519 0.0357592 0.170561 0.0708418 -0.245101
internal_count=43915 15703 28212 1581 828 686 87 142 599 114 26631 509 67 26122 25655 17765 7890 10148 9773 3971 5802 3903 1794 1411 472 444 2109 939 537 104
shrinkage=0.1


Tree=16
num_leaves=31
num_cat=0
split_feature=17 94 71 102 17 29 112 11 10 56 23 36 13 52 87 53 85 68 12 53 106 6 87 53 13 15 29 73 89 26
split_gain=33.1299 21.3121 12.0085 10.7195 10.4135 9.9158 11.3079 9.75858 10.5437 10.4576 10.3061 10.5292 12.3824 15.3121 10.4369 10.2682 17.7326 15.561 13.6808 12.115 12.7718 17.8971 12.5664 12.0403 11.8076 11.7901 12.7289 11.5074 11.358 10.5446
threshold=1.8741000294685366 -1.785549998283386 23.263999938964847 9.5017995834350604 1.738600015640259 0.68568500876426708 1.3634999990463259 -0.67822998762130726 0.39729499816894537 -0.20967499911785123 14.817999839782717 32.902999877929695 1.7422000169754031 5.0069000720977792 1.776950001716614 10.926499843597414 3.3625999689102177 8.5716500282287615 0.97464999556541454 5.0431499481201181 0.79249498248100292 0.29749500751495367 1.2864499688148501 10.000999927520754 1.7196499705314638 1.1221500039100649 0.51358500123023998 0.3321750015020371 0.3396150022745133 15.309499740600588
decision_type=2 2 2 2 2 2 2 2 2 2 2 2 2 2 2 2 2 2 2 2 2 2 2 2 2 2 2 2 2 2
left_child=1 -1 3 4 -3 -2 -7 -6 9 -9 11 12 13 14 -11 18 17 24 19 25 -21 23 -23 -22 28 26 -10 -26 -17 -28
right_child=5 2 -4 -5 7 6 -8 8 15 10 -12 -13 -14 -15 -16 16 -18 -19 -20 20 21 22 -24 -25 27 -27 29 -29 -30 -31
leaf_value=0.005196045945202914 -0.0011385051118987168 -0.006399294675522975 -0.048499174079587384 0.047298740521073343 0.025845317779616878 0.0033259871498377822 0.043881346306939059 -0.041232194586804043 0.052472650749342792 0.0023464180783527655 0.054281433533739168 0.054813518547094792 -0.016048463219625494 -0.03859373673330993 0.041885622658512811 0.016805976033210754 -0.033280340101983816 -0.03842999874791013 0.056154970514277619 -0.0026877912206034506 0.0024360345469580757 -0.0028943197952734459 0.06273301930531211 0.070136575657745892 -0.018978402820917277 0.0067494972751740989 -0.010013144408214263 0.021132940784940182 0.11409433245658876 0.04558804392814636
leaf_count=2595 6164 10371 62 40 132 19115 69 95 35 205 27 26 862 64 99 30 225 79 48 310 279 37 138 29 130 1096 1339 159 20 35
internal_value=0 -0.0320926 -0.0457488 -0.0440371 -0.0453403 0.0235073 0.0347185 -0.0101618 -0.0167683 -0.0921799 -0.0684749 -0.0816157 -0.0949275 0.058633 0.152227 0.00928263 -0.106455 0.0153838 0.0315238 0.0238097 0.131532 0.233203 0.488575 0.0881044 0.108525 -0.0102915 -0.0707983 0.0308978 0.557213 -0.0859681
internal_count=43915 18567 15972 15910 15870 25348 19184 5499 5367 1378 1283 1256 1230 368 304 3989 643 418 3346 3298 793 483 175 308 339 2505 1409 289 50 1374
shrinkage=0.1



feature importances:
log10_trial=28
top_10%_correlation_stddev_best_ratio=20
log10_cardinality=16
recent_15%_loss_kurtosis=14
top_20%_loss_kurtosis=12
recent_10_correlation_skew=9
recent_25_correlation_kurtosis=9
recent_25_correlation_skew=9
top_10%_loss_kurtosis=9
recent_15%_loss_best_percentile25_ratio=9
recent_10_loss_best_percentile75_ratio=8
all_loss_skew=8
recent_25_loss_kurtosis=8
all_correlation_best_percentile50_ratio=7
recent_25_loss_skew=7
top_30%_correlation_kurtosis=7
all_loss_percentile5_percentile25_ratio=7
recent_15%_correlation_stddev_best_ratio=7
all_loss_best_percentile50_ratio=7
top_30%_correlation_stddev_best_ratio=7
all_correlation_stddev_best_ratio=7
top_30%_loss_stddev_best_ratio=7
top_10%_correlation_kurtosis=6
recent_15%_loss_best_percentile50_ratio=6
top_20%_correlation_skew=6
top_20%_correlation_percentile5_percentile25_ratio=6
recent_10_correlation_percentile5_percentile25_ratio=6
top_30%_correlation_skew=6
all_loss_kurtosis=6
recent_25_loss_percentile5_percentile25_ratio=5
recent_25_correlation_best_percentile75_ratio=5
all_correlation_best_percentile25_ratio=5
top_30%_correlation_stddev_median_ratio=5
all_loss_best_percentile25_ratio=5
recent_25_loss_best_percentile25_ratio=5
recent_25_loss_best_percentile75_ratio=5
top_20%_loss_skew=5
recent_25_loss_stddev_median_ratio=5
recent_15%_correlation_best_percentile25_ratio=5
top_10%_correlation_percentile5_percentile25_ratio=5
top_20%_correlation_kurtosis=5
top_30%_loss_stddev_median_ratio=4
top_30%_correlation_percentile5_percentile25_ratio=4
top_20%_loss_percentile5_percentile25_ratio=4
top_10%_correlation_skew=4
top_20%_correlation_stddev_median_ratio=4
recent_25_correlation_stddev_median_ratio=4
top_20%_correlation_stddev_best_ratio=4
recent_25_correlation_stddev_best_ratio=4
top_30%_loss_skew=4
top_20%_correlation_best_percentile75_ratio=4
recent_10_loss_stddev_median_ratio=4
recent_10_loss_best_percentile50_ratio=4
recent_10_correlation_best_percentile25_ratio=4
all_correlation_kurtosis=4
recent_15%_correlation_best_percentile50_ratio=4
recent_15%_correlation_skew=4
recent_10_loss_kurtosis=3
recent_10_loss_stddev_best_ratio=3
recent_10_loss_skew=3
top_30%_loss_best_percentile50_ratio=3
top_10%_correlation_stddev_median_ratio=3
top_10%_loss_best_percentile25_ratio=3
all_loss_best_percentile75_ratio=3
recent_25_correlation_best_percentile25_ratio=3
all_loss_stddev_best_ratio=3
all_loss_stddev_median_ratio=3
top_10%_loss_stddev_median_ratio=3
recent_10_correlation_stddev_median_ratio=3
recent_10_correlation_stddev_best_ratio=3
top_10%_correlation_best_percentile50_ratio=3
all_correlation_best_percentile75_ratio=3
recent_15%_loss_stddev_best_ratio=3
recent_25_correlation_percentile5_percentile25_ratio=3
recent_15%_loss_skew=3
all_correlation_percentile5_percentile25_ratio=3
top_30%_loss_percentile5_percentile25_ratio=3
recent_25_loss_best_percentile50_ratio=3
recent_15%_correlation_percentile5_percentile25_ratio=3
recent_15%_correlation_kurtosis=3
top_30%_loss_kurtosis=3
recent_25_loss_stddev_best_ratio=3
top_10%_correlation_best_percentile25_ratio=3
top_30%_loss_best_percentile75_ratio=3
top_30%_correlation_best_percentile75_ratio=2
top_20%_loss_stddev_median_ratio=2
recent_10_correlation_best_percentile50_ratio=2
recent_25_correlation_best_percentile50_ratio=2
top_20%_loss_best_percentile50_ratio=2
recent_10_correlation_best_percentile75_ratio=2
recent_10_loss_best_percentile25_ratio=2
recent_15%_loss_percentile5_percentile25_ratio=2
recent_15%_loss_best_percentile75_ratio=2
top_20%_correlation_best_percentile25_ratio=2
recent_15%_correlation_best_percentile75_ratio=2
top_10%_loss_skew=2
top_10%_loss_percentile5_percentile25_ratio=2
top_10%_loss_best_percentile50_ratio=2
recent_10_loss_percentile5_percentile25_ratio=2
recent_15%_loss_stddev_median_ratio=1
recent_15%_correlation_stddev_median_ratio=1
top_10%_correlation_best_percentile75_ratio=1
all_correlation_skew=1
all_correlation_stddev_median_ratio=1
top_10%_loss_stddev_best_ratio=1
top_30%_correlation_best_percentile50_ratio=1
top_30%_correlation_best_percentile25_ratio=1
num_parameters=1
top_20%_correlation_best_percentile50_ratio=1
recent_10_correlation_kurtosis=1

pandas_categorical:null
