tree
version=v2
num_class=1
num_tree_per_iteration=1
label_index=0
max_feature_idx=114
objective=regression
feature_names=all_correlation_best_percentile25_ratio all_correlation_best_percentile50_ratio all_correlation_best_percentile75_ratio all_correlation_kurtosis all_correlation_percentile5_percentile25_ratio all_correlation_skew all_correlation_stddev_best_ratio all_correlation_stddev_median_ratio all_loss_best_percentile25_ratio all_loss_best_percentile50_ratio all_loss_best_percentile75_ratio all_loss_kurtosis all_loss_percentile5_percentile25_ratio all_loss_skew all_loss_stddev_best_ratio all_loss_stddev_median_ratio log10_cardinality log10_trial num_parameters recent_10_correlation_best_percentile25_ratio recent_10_correlation_best_percentile50_ratio recent_10_correlation_best_percentile75_ratio recent_10_correlation_kurtosis recent_10_correlation_percentile5_percentile25_ratio recent_10_correlation_skew recent_10_correlation_stddev_best_ratio recent_10_correlation_stddev_median_ratio recent_10_loss_best_percentile25_ratio recent_10_loss_best_percentile50_ratio recent_10_loss_best_percentile75_ratio recent_10_loss_kurtosis recent_10_loss_percentile5_percentile25_ratio recent_10_loss_skew recent_10_loss_stddev_best_ratio recent_10_loss_stddev_median_ratio recent_15%_correlation_best_percentile25_ratio recent_15%_correlation_best_percentile50_ratio recent_15%_correlation_best_percentile75_ratio recent_15%_correlation_kurtosis recent_15%_correlation_percentile5_percentile25_ratio recent_15%_correlation_skew recent_15%_correlation_stddev_best_ratio recent_15%_correlation_stddev_median_ratio recent_15%_loss_best_percentile25_ratio recent_15%_loss_best_percentile50_ratio recent_15%_loss_best_percentile75_ratio recent_15%_loss_kurtosis recent_15%_loss_percentile5_percentile25_ratio recent_15%_loss_skew recent_15%_loss_stddev_best_ratio recent_15%_loss_stddev_median_ratio recent_25_correlation_best_percentile25_ratio recent_25_correlation_best_percentile50_ratio recent_25_correlation_best_percentile75_ratio recent_25_correlation_kurtosis recent_25_correlation_percentile5_percentile25_ratio recent_25_correlation_skew recent_25_correlation_stddev_best_ratio recent_25_correlation_stddev_median_ratio recent_25_loss_best_percentile25_ratio recent_25_loss_best_percentile50_ratio recent_25_loss_best_percentile75_ratio recent_25_loss_kurtosis recent_25_loss_percentile5_percentile25_ratio recent_25_loss_skew recent_25_loss_stddev_best_ratio recent_25_loss_stddev_median_ratio top_10%_correlation_best_percentile25_ratio top_10%_correlation_best_percentile50_ratio top_10%_correlation_best_percentile75_ratio top_10%_correlation_kurtosis top_10%_correlation_percentile5_percentile25_ratio top_10%_correlation_skew top_10%_correlation_stddev_best_ratio top_10%_correlation_stddev_median_ratio top_10%_loss_best_percentile25_ratio top_10%_loss_best_percentile50_ratio top_10%_loss_best_percentile75_ratio top_10%_loss_kurtosis top_10%_loss_percentile5_percentile25_ratio top_10%_loss_skew top_10%_loss_stddev_best_ratio top_10%_loss_stddev_median_ratio top_20%_correlation_best_percentile25_ratio top_20%_correlation_best_percentile50_ratio top_20%_correlation_best_percentile75_ratio top_20%_correlation_kurtosis top_20%_correlation_percentile5_percentile25_ratio top_20%_correlation_skew top_20%_correlation_stddev_best_ratio top_20%_correlation_stddev_median_ratio top_20%_loss_best_percentile25_ratio top_20%_loss_best_percentile50_ratio top_20%_loss_best_percentile75_ratio top_20%_loss_kurtosis top_20%_loss_percentile5_percentile25_ratio top_20%_loss_skew top_20%_loss_stddev_best_ratio top_20%_loss_stddev_median_ratio top_30%_correlation_best_percentile25_ratio top_30%_correlation_best_percentile50_ratio top_30%_correlation_best_percentile75_ratio top_30%_correlation_kurtosis top_30%_correlation_percentile5_percentile25_ratio top_30%_correlation_skew top_30%_correlation_stddev_best_ratio top_30%_correlation_stddev_median_ratio top_30%_loss_best_percentile25_ratio top_30%_loss_best_percentile50_ratio top_30%_loss_best_percentile75_ratio top_30%_loss_kurtosis top_30%_loss_percentile5_percentile25_ratio top_30%_loss_skew top_30%_loss_stddev_best_ratio top_30%_loss_stddev_median_ratio
feature_infos=[0:12.711000442504883] [0:234.80000305175781] [0:520.20001220703125] [-1.9805999994277954:9.1830997467041016] [0:8.4558000564575195] [-2.4089999198913574:3.2063000202178955] [0:0.44990000128746033] [0:85.734001159667969] [-77.53399658203125:309.83999633789062] [-511.20999145507812:387.51998901367188] [-507.22000122070312:72.955001831054688] [-1.9981000423431396:192.47000122070312] [-58.727001190185547:242.66000366210938] [-7.7746000289916992:13.902000427246094] [-131640:1154900] [-9913.400390625:442250] [3.7781999111175537:23.594999313354492] [1:2.6435000896453857] [5:34] [0:548] [0:332.47000122070312] [0:1258.9000244140625] [-1.9716000556945801:18.329000473022461] [0:494] [-2.1505000591278076:4.391200065612793] [0:0.48989999294281006] [0:111.91000366210938] [-59.666999816894531:502.79998779296875] [-386.1400146484375:207.80000305175781] [-448.3800048828125:904.30999755859375] [-2:5.1111001968383789] [-57.700000762939453:300.1400146484375] [-2.6616001129150391:2.6666998863220215] [-34729:1061100] [-777.90997314453125:612280] [0:1405.9000244140625] [0:965.989990234375] [0:13410] [-1.9809000492095947:16.416999816894531] [0:1200.9000244140625] [-2.9841001033782959:4.2589998245239258] [0:0.49364000558853149] [0:264.20001220703125] [-709.03997802734375:502.79998779296875] [-101.73999786376953:164.97999572753906] [-19963:98.351997375488281] [-2:59.408000946044922] [-448.57998657226562:390.1099853515625] [-6.2386999130249023:7.784599781036377] [-33279:1294900] [-1702.0999755859375:815240] [0:1176.800048828125] [0:6019.10009765625] [0:7084] [-1.9694000482559204:16.975000381469727] [0:596.6300048828125] [-2.2249000072479248:4.3515000343322754] [0:0.48677998781204224] [0:1847.800048828125] [-540.72998046875:243.28999328613281] [-330.6300048828125:223.92999267578125] [-39.515998840332031:2211.89990234375] [-1.9981000423431396:20.041999816894531] [-165.3800048828125:202.85000610351562] [-4.6771998405456543:4.6949000358581543] [-350350:1181300] [-1700.0999755859375:442250] [0:2803.60009765625] [0:1262.0999755859375] [0:1638.199951171875] [-2:22.038000106811523] [0:1562.699951171875] [-3.75:4.902900218963623] [0:0.5] [0:357.1400146484375] [-105.75:116.41000366210938] [-725.83001708984375:149.10000610351562] [-297.85000610351562:50.743000030517578] [-2:18.031000137329102] [-84.397003173828125:110.26000213623047] [-4.4745998382568359:4.3798999786376953] [-66.294998168945312:13048] [-77.902999877929688:12848] [0:2799.39990234375] [0:3222.5] [0:9910.7998046875] [-2:17.344999313354492] [0:2497.800048828125] [-3.8805999755859375:4.2736001014709473] [0:0.5] [0:1327] [-422.3800048828125:32.63800048828125] [-47.165000915527344:89.73699951171875] [-639.70001220703125:218.74000549316406] [-2:39.839000701904297] [-316.6400146484375:25.025999069213867] [-6.4607000350952148:3.4049999713897705] [-58.161998748779297:12764] [-32.486000061035156:8168.7998046875] [0:2238.699951171875] [0:13748] [0:37704] [-2:16.049999237060547] [0:2074.39990234375] [-2.2678000926971436:4.248499870300293] [0:0.5] [0:4198.89990234375] [-187.3699951171875:124.41000366210938] [-73.639999389648438:267.92001342773438] [-222.27999877929688:27170] [-1.9997999668121338:62.117000579833984] [-112.31999969482422:69.013999938964844] [-7.9783000946044922:4.0064997673034668] [-58:94934] [-74.500999450683594:9726.7001953125]
tree_sizes=2482 2554 2576 2574 2564 2565 2574 2531 2567 2557 2573 2551 2570 2541 2563 2546 2556

Tree=0
num_leaves=31
num_cat=0
split_feature=78 13 53 68 60 10 46 78 60 75 102 46 53 113 46 65 38 25 55 9 65 77 50 20 48 44 3 56 59 102
split_gain=651.785 128.229 75.6552 54.0628 52.0767 31.3005 30.7993 24.7897 22.4074 20.9552 27.7651 21.9001 21.8774 20.7766 20.4707 18.0737 17.5258 17.4598 16.7344 20.8944 16.4308 16.2083 16.1775 16.1102 15.983 15.9796 16.9638 15.9321 15.3902 16.0826
threshold=-1.4958000183105467 2.0079499483108525 1.0000000180025095e-35 2.0935499668121342 0.74573498964309703 0.40737500786781317 0.08093500137329103 -0.66688999533653248 0.71921998262405407 0.99191498756408703 0.21916999667882922 1.4071999788284304 3.0894500017166142 0.159840002655983 3.7481499910354619 0.30463999509811407 0.17413000017404559 0.34107001125812536 1.5463500022888186 0.80004999041557323 30.522000312805179 0.97125500440597545 2.0428500175476079 13.694499969482424 0.53057497739791881 0.6277500092983247 -0.35100500285625452 1.3538500070571902 0.67911002039909374 -0.31422999501228327
decision_type=2 2 2 2 2 2 2 2 2 2 2 2 2 2 2 2 2 2 2 2 2 2 2 2 2 2 2 2 2 2
left_child=2 5 28 9 14 7 15 22 13 10 11 12 20 -5 -3 16 -6 24 19 -11 -4 -7 -2 -23 -12 -8 -27 -20 29 -1
right_child=1 4 3 8 6 21 25 -9 -10 18 17 -13 -14 -15 -16 -17 -18 -19 27 -21 -22 23 -24 -25 -26 26 -28 -29 -30 -31
leaf_value=2.6034068378136146 2.6596900975413229 2.6877128745384273 2.6261904914107888 2.6244090903444244 2.7225015038030507 2.6996553248928876 2.650530884805482 2.6887807217739872 2.696185405944366 2.6525396607032752 2.6628257573140814 2.6985757562411976 2.6516168018965596 2.6790186698405685 2.7080596387198419 2.6941350134336122 2.6909532078702285 2.649185261316759 2.6869220301988936 2.677905625759462 2.6966114711655331 2.6721887703358314 2.6874870468810288 2.7508971857066959 2.7023257568514358 2.7173375471620216 2.7055959588393841 2.6399728153627504 2.6976454500469669 2.6889924238019343
leaf_count=37 645 1537 621 96 569 2479 39 1732 570 1122 200 80 1608 254 729 1426 255 242 483 457 35 365 310 28 210 5513 1584 85 782 54
internal_value=0 0.104297 -0.258803 -0.298433 0.163917 -0.0206689 0.196765 -0.0982464 -0.0751687 -0.338372 -0.392408 -0.44318 -0.461349 -0.27433 0.0278562 0.0947492 0.212653 -0.209878 -0.262968 -0.315919 -0.615254 0.0519114 -0.227599 -0.136766 -0.084156 0.228931 0.232438 -0.115769 0.0164307 -0.372792
internal_count=24147 17211 6936 6063 11652 5559 9386 2687 920 5143 2996 2344 2264 350 2266 2250 824 652 2147 1579 656 2872 955 393 410 7136 7097 568 873 91
shrinkage=1


Tree=1
num_leaves=31
num_cat=0
split_feature=17 94 8 17 17 50 40 61 14 16 20 81 29 58 97 80 13 2 84 16 61 54 33 25 6 65 98 16 13 29
split_gain=618.269 199.158 118.478 64.9207 48.1925 32.2393 27.4097 25.4809 18.3222 18.2113 17.7356 18.3463 17.7181 15.9234 17.2926 16.0516 15.8322 15.8161 15.7592 15.6719 15.3318 15.28 14.8622 14.5115 15.6926 16.6572 15.3494 14.2129 14.082 14.0031
threshold=1.738600015640259 -1.9812999963760374 0.61989000439643871 1.5396000146865847 1.9286500215530398 2.0140500068664555 0.62365999817848217 0.76166498661041271 6.0141999721527108 17.725999832153324 1.0000000180025095e-35 0.07950450107455255 0.72779998183250438 2.3066499233245854 0.034404499456286437 0.412994995713234 0.19351500272750857 7.6303999423980722 1.419250011444092 7.0526001453399667 -0.24046500027179715 -1.5579999685287473 3.1686500310897832 0.36543999612331396 0.25112500786781317 2.1915000677108769 0.068785998970270171 18.585000038146976 1.8231000304222109 0.86717501282691967
decision_type=2 2 2 2 2 2 2 2 2 2 2 2 2 2 2 2 2 2 2 2 2 2 2 2 2 2 2 2 2 2
left_child=1 -1 5 6 28 17 12 10 16 -10 11 20 18 -9 15 -15 -6 -2 -3 -20 -5 -14 -13 24 25 -8 -27 -11 -4 -12
right_child=2 3 4 7 8 -7 23 13 9 27 29 22 21 14 -16 -17 -18 -19 19 -21 -22 -23 -24 -25 -26 26 -28 -29 -30 -31
leaf_value=0.007317391006883953 -0.010395795326070649 -0.068559218969887606 -0.003217249012039024 -0.0763269721219937 -0.04185477213727104 0.0097405399528568901 -0.056242972624902965 -0.0080900184160940872 0.013477537029075183 -0.068565306067466733 -0.029148228043829119 -0.011800888403138119 -0.084285186065567869 0.0180503001116743 0.066003009257838127 -0.080169750005006798 0.024635376262219219 -0.034354492471187929 -0.0017202346452644896 -0.047600194802721041 0.0055652740152545002 -0.029720881754073544 -0.084266932217442261 -0.04119868240295313 -0.018357130349530869 0.036563156274231998 -0.044048238794008897 0.025054208934307098 0.01185828690097215 0.00020026185071270769
leaf_count=2399 911 334 784 24 36 641 238 964 868 50 1597 67 54 99 64 20 6849 395 84 655 482 1035 49 507 1686 44 51 24 2955 181
internal_value=0 -0.180378 0.141948 -0.254243 0.180366 -0.0862707 -0.331475 -0.152167 0.224981 0.0941777 -0.210761 -0.06542 -0.414125 -0.0295641 0.240862 0.0154273 0.242877 -0.176421 -0.505325 -0.423852 0.0168106 -0.324265 -0.424115 -0.260734 -0.222752 -0.421126 -0.0671243 -0.382022 0.0869722 -0.261606
internal_count=24147 10634 13513 8235 11566 1947 4688 3547 7827 942 2400 622 2162 1147 183 119 6885 1306 1073 739 506 1089 116 2526 2019 333 95 74 3739 1778
shrinkage=0.1


Tree=2
num_leaves=31
num_cat=0
split_feature=46 73 13 61 93 77 29 55 61 73 60 11 20 44 23 41 63 46 94 15 70 57 0 67 70 14 9 73 84 96
split_gain=272.049 155.251 72.6553 37.0311 34.9182 42.4325 32.7598 22.3963 20.9596 29.8759 20.4673 19.6184 19.6019 19.5199 17.1451 16.729 16.5477 18.4733 17.2583 15.8466 17.202 15.3664 19.4673 15.9442 15.3514 15.0448 14.393 15.8826 15.6361 14.2688
threshold=0.52079501748085033 0.38983999192714697 2.0079499483108525 0.78274500370025646 0.70972502231597911 0.95212501287460338 0.24554000049829486 1.5751499533653261 0.69693499803543102 0.32275499403476721 0.87649500370025646 3.795450091362 9.7990002632141131 0.9599599838256837 2.068449974060059 0.33482499420642858 0.91595000028610241 4.1195499897003183 -1.1996499896049497 1.6270999908447268 -1.1559000015258787 0.27070499956607824 1.4380499720573428 2.2758500576019292 -1.9168999791145322 0.80807998776435863 0.66683498024940502 0.37665499746799475 4.1410000324249276 -0.99211999773979176
decision_type=2 2 2 2 2 2 2 2 2 2 2 2 2 2 2 2 2 2 2 2 2 2 2 2 2 2 2 2 2 2
left_child=1 4 26 14 -1 8 -4 10 9 -6 12 13 25 -10 -3 -11 17 18 -8 20 -20 -17 23 -23 -5 -7 27 29 -28 -2
right_child=2 3 6 24 5 7 16 -9 11 15 -12 -13 -14 -15 -16 21 -18 -19 19 -21 -22 22 -24 -25 -26 -27 28 -29 -30 -31
leaf_value=-0.017610955234096941 -0.024662357789498789 -0.034074426122831951 -0.0081519626276323406 -0.073669881535613019 0.0058046674969568423 -0.049159510753335738 -0.023873112978282311 0.00055323416565610775 0.0046958737373997824 -0.003424591679052718 -0.0043061976502468064 0.020030077998262678 0.017560413965712424 -0.056627459038387652 -0.015617382042469319 -0.064840074349194768 0.01993731436818915 0.01864748796216421 -0.04267982545587206 0.024318373493432213 0.0060744492056076993 -0.062727777502401091 0.0024463365315109172 0.0099518652260303514 0.01112202133408329 -0.022124897723443043 -0.0043353168491987474 -0.045447659325599674 0.024572585698749341 -0.00041729043672166606
leaf_count=1404 351 2637 534 23 2249 303 241 1117 923 559 693 1289 92 55 622 96 6208 1021 97 303 285 123 186 40 298 642 564 125 280 787
internal_value=0 -0.0954479 0.118037 -0.273599 -0.0301752 -0.00568705 0.158434 -0.104848 0.0454562 -0.00598438 -0.176116 0.11927 -0.265033 0.0124722 -0.305518 -0.149417 0.174146 0.0937104 -0.00857104 0.072405 -0.0630556 -0.294091 -0.196631 -0.448923 0.0504659 -0.307931 -0.0485555 -0.116119 0.0525498 -0.0789534
internal_count=24147 13351 10796 3580 9771 8367 8689 2847 5520 3253 1730 2267 1037 978 3259 1004 8155 1947 926 685 382 445 349 163 321 945 2107 1263 844 1138
shrinkage=0.1


Tree=3
num_leaves=31
num_cat=0
split_feature=78 13 53 68 61 81 107 3 46 59 82 21 57 81 23 86 78 110 45 65 46 53 45 83 7 58 7 67 3 86
split_gain=361.623 72.501 43.1424 32.1808 28.282 22.1669 18.0701 16.5133 17.0693 16.2374 16.2173 16.0364 20.2736 18.7264 15.5607 15.3577 13.6423 21.1532 19.9279 14.9937 13.4194 13.3273 14.2975 13.1442 13.0655 12.9346 14.4814 12.8632 12.9948 14.2941
threshold=-1.4958000183105467 2.2337499856948857 1.0000000180025095e-35 2.0935499668121342 0.69023501873016369 0.056908499449491508 1.3502500057220461 2.8682999610900883 -0.59841999411582936 0.81589502096176159 0.0028302499558776621 1.885249972343445 0.24941500276327136 0.23674499988555911 2.4943000078201298 1.200250029563904 -0.41206499934196467 0.84054997563362133 0.90543499588966381 0.92932501435279857 0.24819499999284747 9.0223999023437518 0.88710501790046703 1.2234500050544741 0.8548949956893922 0.99862998723983776 0.32622501254081732 4.6198501586914071 0.73576998710632335 -0.29520499706268305
decision_type=2 2 2 2 2 2 2 2 2 2 2 2 2 2 2 2 2 2 2 2 2 2 2 2 2 2 2 2 2 2
left_child=2 5 -1 11 7 6 15 8 10 -5 -3 12 -4 -14 20 -2 17 18 25 -19 21 22 23 -13 -22 26 -6 28 -10 -30
right_child=1 4 3 9 16 -7 -8 -9 27 -11 -12 14 13 -15 -16 -17 -18 19 -20 -21 24 -23 -24 -25 -26 -27 -28 -29 29 -31
leaf_value=0.001506989979252373 0.00051107317383730438 0.027044781326101375 -0.044508773688640861 -0.023455956748553688 -0.039271283108327129 -0.012370445398439692 -0.047070299456380818 -0.04957053793801202 0.008495180059323754 0.004541574194411601 -0.016305280102075204 -0.058839939962190502 -0.014298793839953111 -0.059242531319254457 0.015446679566947508 0.014780865647061422 0.022123584708427027 -0.064308247310027752 0.0018262553244978938 0.0010992657352279832 -0.00047725402947628137 -0.010715079074504816 -0.023364129571227341 -0.036936957205588587 -0.047588538897188407 0.011416858572101939 0.024770969495388061 0.025823417457483584 -0.051563397127312505 0.015915324834157835
leaf_count=873 4270 104 288 315 36 1273 73 54 2174 605 507 359 2095 97 71 916 2621 57 995 91 231 211 555 1157 79 1659 1838 413 77 53
internal_value=0 0.0776869 -0.192772 -0.222699 0.128448 -0.0053003 0.0233608 0.0528557 0.0617566 -0.0504454 -0.0892655 -0.253513 -0.195649 -0.162876 -0.3074 0.0303154 0.163483 0.131111 0.143271 -0.240915 -0.320051 -0.346571 -0.370964 -0.421237 -0.12483 0.178477 0.235407 0.0957185 0.066587 -0.240528
internal_count=24147 17211 6936 6063 10679 6532 5259 3382 3328 920 611 5143 2480 2192 2663 5186 7297 4676 4528 148 2592 2282 2071 1516 310 3533 1874 2717 2304 130
shrinkage=0.1


Tree=4
num_leaves=31
num_cat=0
split_feature=17 78 113 17 22 5 53 2 29 17 7 34 100 27 44 80 7 4 20 54 1 98 43 113 50 22 30 59 87 16
split_gain=386.374 109.688 67.8177 50.4315 30.0118 20.6486 20.348 20.0803 19.2046 18.6634 16.0063 14.6863 14.4192 20.2953 13.376 13.1507 12.8866 12.371 16.7796 12.2933 12.3897 16.5178 18.2573 13.7762 13.5816 18.4508 14.4923 12.1649 14.3842 14.2133
threshold=1.8116500377655032 -0.48879499733448023 0.25037999451160436 1.6505500078201296 -0.28748500347137446 1.6291499733924868 2.0348000526428227 7.6303999423980722 0.73462000489234935 1.9286500215530398 0.40425500273704534 1.1618999838829043 4.3458998203277597 0.83709999918937694 0.89988499879837047 -1.0655500292778013 0.39246000349521643 1.1035000085830691 2.279000043869019 -1.6861000061035154 2.1879500150680546 0.054374501109123237 0.86965498328208934 0.0757264979183674 0.20764499902725223 1.6808000206947329 -1.0749999880790708 0.95070499181747448 3.2978999614715581 9.3413500785827654
decision_type=2 2 2 2 2 2 2 2 2 2 2 2 2 2 2 2 2 2 2 2 2 2 2 2 2 2 2 2 2 2
left_child=1 3 5 4 8 9 -6 11 -1 10 17 16 -3 -14 -7 -10 -4 18 -2 -8 -21 22 -22 -23 26 -26 -25 29 -29 -17
right_child=2 12 7 -5 6 14 19 -9 15 -11 -12 -13 13 -15 -16 27 -18 -19 -20 20 21 23 -24 24 25 -27 -28 28 -30 -31
leaf_value=-0.034723403896909567 0.067236946458401892 0.0048905941279630098 -0.064363735169172293 -0.0056887268095579396 0.0026557120340646228 0.0012400676053145837 0.044279133280118309 -0.027545954515131157 -0.071153313150772682 0.018373927205030324 0.0062912895793594027 0.017045837446193028 -0.073933036110617897 -0.0046575390250305007 -0.053352292615633748 -0.045091659370369797 -0.0057052315700621831 0.057961070645939222 -0.042715956781591687 -0.030125592411153736 0.06941641006204817 -0.084895373760042969 -0.0048806596886027953 -0.061465332781275119 -0.049340496848647795 0.011950177857370089 0.025890244461677887 0.0065407756222299789 -0.076113074499627828 -0.019779542742560718
leaf_count=2036 23 3047 40 2321 587 145 30 392 52 7966 2319 314 55 183 65 254 588 110 35 708 36 37 407 24 192 66 91 249 23 1752
internal_value=0 -0.125696 0.127299 -0.183535 -0.228453 0.153892 -0.132571 -0.0852687 -0.276284 0.160129 0.0845059 -0.00612349 0.0303896 -0.206666 -0.156576 -0.214287 -0.0944144 0.382566 0.00886057 -0.191282 -0.203468 -0.122302 0.0115703 -0.26695 -0.209218 -0.336615 0.0765952 -0.202937 -0.00448337 -0.229846
internal_count=24147 12150 11997 8865 6544 10663 2178 1334 4366 10453 2487 942 3285 238 210 2330 628 168 58 1591 1561 853 443 410 373 258 115 2278 272 2006
shrinkage=0.1


Tree=5
num_leaves=31
num_cat=0
split_feature=17 78 113 17 31 21 72 11 31 103 2 113 47 111 60 73 108 16 25 108 53 25 13 7 13 101 55 34 2 63
split_gain=312.963 88.847 54.9323 40.8496 25.2375 22.5776 18.908 17.8266 27.1221 22.9347 16.265 16.113 17.3771 15.5533 14.9401 14.5904 15.0924 14.3227 18.0579 17.4506 14.4963 21.4223 18.1413 15.6216 14.6838 13.8717 13.8003 13.7468 13.5306 13.3584
threshold=1.8116500377655032 -0.48879499733448023 0.25037999451160436 1.6505500078201296 0.84563499689102184 1.5811499953269961 -0.47370499372482294 0.65673997998237621 0.86478498578071605 1.2133499979972842 7.6303999423980722 0.17013499885797503 0.96639502048492443 1.2256000041961672 0.79271501302719127 0.28794500231742864 0.88475999236106884 16.744500160217289 0.35649499297142034 0.84329497814178478 3.6683501005172734 0.31395499408245092 4.3246498107910165 0.35096500813961035 4.6343500614166269 14.617000102996828 2.7698500156402592 0.062070500105619437 10.103499889373781 0.95153999328613292
decision_type=2 2 2 2 2 2 2 2 2 2 2 2 2 2 2 2 2 2 2 2 2 2 2 2 2 2 2 2 2 2
left_child=1 3 6 4 15 7 -2 8 -6 -10 27 -7 -13 17 26 -1 -17 18 20 -19 23 -22 -23 -9 -25 -3 -5 -4 -21 -16
right_child=2 25 10 14 5 11 -8 13 9 -11 -12 12 -14 -15 29 16 -18 19 -20 28 21 22 -24 24 -26 -27 -28 -29 -30 -31
leaf_value=0.0053756045394165574 -0.02497121440547128 0.0036727188424785515 -0.04075661893838492 -0.0185275991509069 0.050389566758404607 -0.02679457022564723 0.014307062445357422 -0.052294214838935482 0.015672164314454146 -0.035512293090468314 -0.024791358799046401 0.030827283149673826 -0.027569829303808885 -0.083419107932310846 0.010306114252102282 -0.040529758239403753 0.010352917400098617 -0.067890087853778494 -0.019663405068961762 -0.016660058958464504 -0.027573117926236124 0.0033319960117340086 0.081186435678425969 0.025328512492734767 -0.036889117447341364 -0.042300249413767865 0.025403283593746336 0.0030785499554541376 0.065528297708148053 -0.009456171146006262
leaf_count=86 124 3218 78 859 46 2384 10539 31 101 657 392 105 99 26 766 975 62 66 371 434 248 250 34 507 41 67 78 864 21 618
internal_value=0 -0.113126 0.114569 -0.165181 -0.205608 -0.177343 0.138503 -0.115661 -0.241676 -0.286922 -0.0767418 -0.244864 0.0248751 -0.0657267 -0.0511985 -0.342051 -0.374876 -0.0557516 -0.00561361 -0.198371 0.0581745 -0.0609924 0.126526 0.167668 0.206735 0.0273507 -0.148706 -0.00551114 -0.128668 0.0148163
internal_count=24147 12150 11997 8865 6544 5421 10663 2833 804 758 1334 2588 204 2029 2321 1123 1037 2003 1482 521 1111 532 284 579 548 3285 937 942 455 1384
shrinkage=0.1


Tree=6
num_leaves=31
num_cat=0
split_feature=17 78 113 17 103 24 5 2 29 61 17 7 7 18 70 104 78 111 97 28 3 62 107 48 49 91 78 21 39 88
split_gain=253.5 71.966 45.3232 33.0881 22.4091 22.3821 17.9468 17.4196 17.0355 16.3512 14.1746 13.6624 13.5679 15.6549 14.9115 18.0932 13.4598 12.7844 12.2984 13.9411 12.2708 11.5683 11.3828 12.3156 11.3006 11.8068 11.184 12.0618 12.8101 11.066
threshold=1.8116500377655032 -0.48879499733448023 0.17392500489950183 1.6505500078201296 2.8970500230789189 1.0123500227928164 1.6291499733924868 7.6303999423980722 0.73462000489234935 0.86831998825073253 1.9286500215530398 0.40425500273704534 0.74684500694274913 10.500000000000002 -0.96371001005172718 1.80869996547699 -1.4390500187873838 0.95983499288558971 0.0099475998431444185 0.21464999765157702 -0.042587500065565102 -1.4667000174522398 0.89590999484062206 1.3192999958992007 0.046667998656630523 0.98994499444961559 -0.78010499477386464 9.3373503684997576 2.0331499576568608 0.50165501236915599
decision_type=2 2 2 2 2 2 2 2 2 2 2 2 2 2 2 2 2 2 2 2 2 2 2 2 2 2 2 2 2 2
left_child=1 3 6 5 7 8 10 -4 -1 18 11 16 14 -14 -10 -16 -2 29 -7 -20 -3 -5 23 -22 25 -13 27 28 -15 -8
right_child=2 20 4 21 -6 9 17 -9 12 -11 -12 24 13 26 15 -17 -18 -19 19 -21 22 -23 -24 -25 -26 -27 -28 -29 -30 -31
leaf_value=-0.028722896500942133 0.099308595392439108 0.0051301733129220668 -0.0019435920997669821 -0.080333094149827963 0.033234442134837172 -0.042698950777974046 -0.027448484301567079 -0.025962928047614731 -0.02814604508168252 0.050805262408473273 0.015521276987789044 -0.043558426279770704 -0.040813509302754562 0.025927398796607593 -0.013117357793745106 0.064889461090487821 0.021867538148299198 -0.042840112899382089 -0.061969080815712611 -0.0073307439191623849 -0.019899128512902695 -0.0039496747560731132 -0.0016345075233865178 -0.089048384269699465 0.0068852855732126411 0.0056706245541572574 -0.06119537568092346 -0.026812674087427914 -0.016060970054597272 0.037357294690190702
leaf_count=2174 27 2759 1178 20 143 114 49 406 1102 44 7673 95 93 281 728 31 133 97 48 1722 132 2301 362 32 2039 100 25 84 98 57
internal_value=0 -0.101814 0.103112 -0.148663 -0.0467746 -0.185047 0.128317 -0.0810006 -0.222844 -0.0945555 0.134253 0.0670753 -0.165524 -0.0321202 -0.207173 -0.0993131 0.349357 -0.166064 -0.108629 -0.0881246 0.0246156 -0.0460787 -0.11536 -0.333917 0.0468581 -0.183128 0.0395384 0.0747162 0.150702 0.0739991
internal_count=24147 12150 11997 8865 1727 6544 10270 1584 4616 1928 10067 2394 2442 581 1861 759 160 203 1884 1770 3285 2321 526 164 2234 195 488 463 379 106
shrinkage=0.1


Tree=7
num_leaves=31
num_cat=0
split_feature=17 73 9 2 29 83 52 17 50 16 23 12 55 86 6 52 60 19 35 72 30 38 33 6 68 59 4 83 77 70
split_gain=206.698 71.9829 47.7712 21.551 17.9085 17.4491 16.0595 14.865 13.4188 13.3856 12.8719 14.4923 12.7291 15.4077 13.3523 13.1101 12.6331 12.4957 15.6268 18.7219 15.4495 14.5332 12.4188 12.185 11.8183 11.6677 11.4588 16.0169 11.4183 11.3865
threshold=1.738600015640259 0.25429500639438635 0.5965000092983247 7.6303999423980722 0.72982999682426464 5.1651000976562509 7.3716499805450448 1.9286500215530398 1.8647499680519106 4.942699909210206 3.0807499885559086 0.94585502147674572 1.8156500458717348 2.0651999711990361 0.37771999835968023 2.6394499540328984 0.91758501529693615 1.5541999936103823 1.2053499817848208 1.7276499867439272 0.30124999582767492 -1.5470499992370603 0.14869000017642978 0.24363500624895099 8.3335499763488787 0.82866501808166515 1.5907000303268435 3.14740002155304 0.9219300150871278 -0.95786499977111805
decision_type=2 2 2 2 2 2 2 2 2 2 2 2 2 2 2 2 2 2 2 2 2 2 2 2 2 2 2 2 2 2
left_child=1 -1 3 5 12 8 29 17 9 -2 11 25 14 15 -3 -14 -13 18 19 20 22 -22 -4 -5 -25 -8 -10 -28 -15 -6
right_child=2 4 7 23 6 -7 10 -9 26 -11 -12 16 13 28 -16 -17 -18 -19 -20 -21 21 -23 -24 24 -26 -27 27 -29 -30 -31
leaf_value=0.003315755021019628 0.067558063815037414 -0.024589881088052476 -0.054618434131145477 -0.051119654191719315 -0.01755694449701875 0.023785326022299984 -0.03372102108868686 0.014551328418936816 0.012326999992635181 -0.0077180594583100906 -0.03791406182355659 -0.080632830054863644 0.020765957032379351 -0.00080984782528232884 0.026557278174620409 -0.019586363750876804 0.021109621112163253 0.001866736813701413 0.022185205807789043 0.038269119197502734 -0.0033675648993061434 -0.090855096037290542 0.029478986990653863 -0.015436549394722755 0.04208185500220249 0.043920325510990545 -0.0046099232111363056 -0.099131278544664386 0.081466081834608517 -0.0069173280006417856
leaf_count=2805 24 2765 25 91 2174 336 22 6653 948 1501 43 23 95 37 52 528 26 2131 774 64 31 49 59 596 38 161 173 20 31 1872
internal_value=0 -0.104295 0.0820746 -0.0142706 -0.153542 0.023099 -0.110448 0.118768 -0.00396684 -0.0653339 0.123393 0.216535 -0.206623 -0.0849978 -0.236457 -0.134331 -0.26647 0.0619729 0.154073 -0.0760207 -0.25503 -0.569537 0.0444999 -0.169006 -0.119891 0.345864 0.0780531 -0.144049 0.366983 -0.126342
internal_count=24147 10634 13513 3727 7829 3002 4321 9786 2666 1525 275 232 3508 691 2817 623 49 3133 1002 228 164 80 84 725 634 183 1141 193 68 4046
shrinkage=0.1


Tree=8
num_leaves=31
num_cat=0
split_feature=48 73 9 66 70 68 71 19 70 29 14 47 62 77 102 47 1 94 93 65 72 19 23 39 22 47 87 83 3 60
split_gain=85.6601 53.7415 20.266 20.0252 21.2659 16.1494 15.1375 14.774 14.0615 13.9999 13.8926 13.25 13.2248 13.1692 18.6527 14.5115 13.1046 15.8983 13.067 13.0017 13.0764 12.6475 12.4734 12.0936 12.0567 12.8361 11.8236 11.6028 11.5065 10.8194
threshold=1.5740500092506411 0.42602498829364782 0.6281149983406068 0.20130499452352527 -0.15711500495672223 5.1142001152038583 1.9752500057220461 2.2725000381469731 -0.57407501339912403 0.7637300193309785 1.5482000112533572 0.76236000657081615 13.973499774932863 0.95253500342369091 0.3999099880456925 0.4370149970054627 2.4421499967575078 -1.0788499712944029 0.8508250117301942 1.3176500201225283 -0.47370499372482294 5.4111499786376962 1.8543500304222109 1.2827499508857729 -1.2047500014305113 0.96943500638008129 2.1640000343322758 3.8967000246047978 -0.40162999927997584 0.96106499433517467
decision_type=2 2 2 2 2 2 2 2 2 2 2 2 2 2 2 2 2 2 2 2 2 2 2 2 2 2 2 2 2 2
left_child=1 3 16 12 5 6 -5 22 -8 -10 -11 -7 23 14 18 -16 -2 26 24 20 -4 -9 27 -1 25 -6 28 -3 -18 -19
right_child=2 7 19 4 13 11 8 21 9 10 -12 -13 -14 -15 15 -17 17 29 -20 -21 -22 -23 -24 -25 -26 -27 -28 -29 -30 -31
leaf_value=-0.0041429815338461439 0.006099614118673314 -0.018890283207795996 -0.054600113174981549 -0.0093664327515075325 -0.016629631431014449 -0.050481579949458448 -0.043914662532086646 0.0012801174309778319 -0.031059833236460416 0.05175824813820698 -0.017114186286926271 0.012685909324160248 -0.037737979056934517 -0.0086291133178144526 -0.039892054574434149 0.019860205311338214 0.048474774459033337 -0.018005304930683894 0.0051314235375561181 0.014198741694064427 0.0060533395342526174 -0.053185491929662987 -0.052602327183673261 0.0095606260075064148 -0.0027613510057653071 -0.072262465102331974 -0.016969489393865361 -0.058407110472520202 0.0020661451123856213 0.034098050530467716
leaf_count=905 1559 1567 36 3179 270 36 265 459 159 54 64 428 72 1352 43 742 103 780 1648 3851 2811 47 133 2233 969 49 102 78 111 42
internal_value=0 -0.0475314 0.0746337 -0.0216981 -0.0452966 -0.0980643 -0.12 -0.188551 -0.27447 -0.116927 0.144037 0.0778498 0.0463624 -0.00176557 0.0289462 0.165872 0.00144099 -0.0801464 -0.00766357 0.104105 0.0528638 -0.0377894 -0.231456 0.056085 -0.0831259 -0.251751 0.110486 -0.20764 0.24403 -0.153431
internal_count=24147 14752 9395 12468 9258 4185 3721 2284 542 277 118 464 3210 5073 3721 785 2697 1138 2936 6698 2847 506 1778 3138 1288 319 316 1645 214 822
shrinkage=0.1


Tree=9
num_leaves=31
num_cat=0
split_feature=17 94 13 61 17 52 3 107 30 34 24 18 79 112 20 54 0 41 79 2 73 58 54 40 54 35 98 86 2 103
split_gain=149.42 43.4486 31.0794 28.3362 16.6452 18.0804 15.5769 15.8582 16.2338 12.999 12.9765 15.5544 12.6663 12.4784 13.7851 18.3426 15.6642 14.4456 14.3093 12.3609 12.1477 11.8893 11.6967 11.466 13.3699 11.6816 11.4164 11.3903 16.8907 12.0142
threshold=1.8116500377655032 -1.9812999963760374 0.27642500400543218 0.56900498270988475 1.738600015640259 7.3716499805450448 0.79862001538276683 0.95086500048637401 -1.019550025463104 0.43565998971462255 1.3986499905586245 13.500000000000002 0.99986499547958385 -0.1061899997293949 5.9563500881195077 -1.4341500401496885 2.2500499486923222 0.30190500617027288 0.99283498525619518 3.9424500465393071 0.26621499657630926 0.95307999849319469 -1.0798000097274778 1.8246499896049502 -0.85745501518249501 5.3336501121521005 0.038678500801324851 -0.92934998869895924 1.8324000239372256 1.629350006580353
decision_type=2 2 2 2 2 2 2 2 2 2 2 2 2 2 2 2 2 2 2 2 2 2 2 2 2 2 2 2 2 2
left_child=1 -1 9 13 5 10 -4 -8 -9 -2 12 -12 23 27 16 -16 -15 -17 -18 26 -13 22 -6 -5 25 -25 -19 28 -3 -29
right_child=2 3 6 4 21 -7 7 8 -10 -11 11 20 -14 14 15 17 18 19 -20 -21 -22 -23 -24 24 -26 -27 -28 29 -30 -31
leaf_value=0.0042176451450422819 -0.011890157310480483 0.021311530812841949 0.010061667495556731 -0.012444967058901744 -0.0049619124393270476 0.013018714894879513 0.0044548577990538808 0.022574827580579691 -0.038510244557490719 -0.070734092883947428 0.048459733439528425 0.038420557206676857 0.029740689543710244 -0.017325254521527136 0.074995545761005297 0.049512747500805143 0.048596022645039344 -0.093231347522565303 -0.047790465205907823 0.0091453013257083732 -0.0093358755742431309 -0.0062091234145565744 0.025027522031896034 -0.10964262344335254 -0.0064935291984251561 -0.028316389566118066 -0.015477557531718551 -0.0043100252775079449 -0.032927233949227371 -0.02385071009357876
leaf_count=2406 445 61 10567 3532 198 349 693 56 195 41 69 62 69 1365 37 47 67 28 20 117 378 511 379 38 56 33 58 541 977 752
internal_value=0 -0.0781665 0.0791634 -0.107882 -0.0622093 -0.0885906 0.0896217 -0.0334544 -0.248817 -0.168544 -0.106611 0.0431598 -0.12706 -0.171554 -0.107447 0.0928139 -0.147031 -0.00444307 0.264382 -0.120107 -0.0260656 0.04899 0.147365 -0.135065 -0.430275 -0.718431 -0.407927 -0.21938 -0.297398 -0.156748
internal_count=24147 12150 11997 9744 5674 4586 11511 944 251 486 4237 509 3728 4070 1739 287 1452 250 87 203 440 1088 577 3659 127 71 86 2331 1038 1293
shrinkage=0.1


Tree=10
num_leaves=31
num_cat=0
split_feature=48 73 61 35 77 102 9 102 61 77 88 88 9 104 25 75 75 2 112 14 28 39 46 48 62 66 2 66 29 38
split_gain=57.6041 36.4726 20.7533 16.5437 18.9488 13.5115 14.0311 13.9669 13.4334 17.4682 13.7988 25.4356 13.0781 18.8043 14.176 12.7885 12.3062 13.5145 13.1579 13.4863 13.0219 12.2148 13.0933 12.2143 18.0695 15.251 14.8817 17.0259 14.3773 13.452
threshold=1.5740500092506411 0.42602498829364782 0.60946500301361095 1.4815500378608706 0.1255999952554703 -1.4323499798774717 0.81303501129150402 -1.2443500161170957 0.47806499898433691 0.97125500440597545 1.9159500002861025 1.4151999950408938 0.78498500585556041 1.5295500159263613 0.24215000122785571 0.89976501464843761 0.9210450053215028 3.1105500459671025 0.35377499461174017 46.155000686645515 0.92604500055313121 1.4277500510215761 0.22440999746322635 1.0000000180025095e-35 0.9596650004386903 0.48495000600814825 5.7633500099182138 0.76859498023986828 0.7054249942302705 -1.1538500189781187
decision_type=2 2 2 2 2 2 2 2 2 2 2 2 2 2 2 2 2 2 2 2 2 2 2 2 2 2 2 2 2 2
left_child=1 3 -2 4 -1 6 15 -7 -5 12 11 -11 21 14 -14 -6 -3 18 19 20 -18 22 -10 -19 29 -26 27 -27 -28 -25
right_child=2 16 -4 8 5 7 -8 -9 9 10 -12 -13 13 -15 -16 -17 17 23 -20 -21 -22 -23 -24 24 25 26 28 -29 -30 -31
leaf_value=0.0016452907365323928 -0.0022112844521721838 -0.040918654575943951 0.0087716228612863927 -0.0053321521457612283 0.052630144035494014 -0.034170162817775802 0.047978755231223892 -0.011174833548228014 0.012059160015162301 -0.010924605735220846 -0.042952720865607266 0.033625674806535243 -0.055684393067513743 0.052373721321259649 0.0127870401021712 -0.010045551857825135 -0.04194158800781575 0.008672576169402613 0.0020345850978921724 0.043725138643513559 -0.0030961226358591954 0.00081685257824800023 0.066584969447417694 -0.050465597892772253 0.055964678845235288 -0.040291444417359178 -0.056889809495524357 0.01447705863043666 -0.0018734215435228848 -0.013980573789818297
leaf_count=1839 2268 176 7127 2263 37 298 67 2324 221 817 100 152 31 121 1228 271 446 346 149 23 107 2644 55 173 42 69 95 320 95 243
internal_value=0 -0.0389779 0.0612029 -0.0176961 -0.063457 -0.112491 0.0650546 -0.137883 0.0113001 0.0385378 -0.0758613 -0.0393633 0.0669779 0.147199 0.111011 -0.0251633 -0.155152 -0.133942 -0.24453 -0.313048 -0.344254 0.0290651 0.229248 -0.0759693 -0.130253 -0.0222132 -0.0644207 0.0476234 -0.293816 -0.291534
internal_count=24147 14752 9395 12468 4836 2997 375 2622 7632 5369 1069 969 4300 1380 1259 308 2284 2108 725 576 553 2920 276 1383 1037 621 579 389 190 416
shrinkage=0.1


Tree=11
num_leaves=31
num_cat=0
split_feature=78 13 29 45 87 8 34 94 73 55 72 20 0 39 57 46 57 87 54 41 22 38 1 103 11 6 22 22 110 80
split_gain=79.2485 25.2086 13.9523 15.4977 17.3763 16.1195 15.4201 15.3909 13.7669 13.0234 15.7208 13.2779 14.1587 17.3983 12.9398 12.2628 12.1983 12.1497 11.9715 11.8513 11.815 11.7883 11.2822 11.388 11.253 11.2848 11.234 11.1428 12.5347 12.7401
threshold=-1.4482499957084654 2.0389499664306645 2.5670499801635747 0.2491400018334389 4.5761499404907235 0.30911000072956091 0.82537499070167553 0.40215998888015753 0.42602498829364782 1.5463500022888186 1.5103500485420229 4.1560001373291025 1.6717500090599062 4.3430500030517587 0.41955499351024633 3.1246000528335576 0.29883499443531042 1.1083499789237978 1.0986999869346621 0.40370000898838049 -1.5849000215530393 -1.0516999959945676 9.2703003883361834 1.7912000417709353 33.356500625610359 0.36656999588012701 -1.3354499936103819 -1.3445500135421751 -1.3408499956130979 -0.42055499553680414
decision_type=2 2 2 2 2 2 2 2 2 2 2 2 2 2 2 2 2 2 2 2 2 2 2 2 2 2 2 2 2 2
left_child=9 8 3 4 5 -3 -7 -8 22 14 11 12 13 -11 15 24 17 -14 -12 -19 -13 -6 -2 -24 25 -1 -18 -17 -29 -30
right_child=1 2 -4 -5 21 6 7 -9 -10 10 18 20 16 -15 -16 27 26 19 -20 -21 -22 -23 23 -25 -26 -27 -28 28 29 -31
leaf_value=-0.015086634949243666 -0.0016170672623310623 0.012130431166809539 0.05629830504102367 0.0072461474792768115 -0.024203090301968835 0.016423812472676658 -0.022270415777840266 -0.075880738184787341 -0.045463521967471492 0.0040194124145046728 0.023239910089794327 -0.071625059098005303 -0.068531002293170343 -0.073056089541604446 0.029168712190891566 0.051766819712963513 -0.043376244090754412 -0.019349702297190973 -0.015969799267183435 -0.081636707529877173 0.0062853932503656972 0.062637607642897858 0.073809262231374392 -0.019002395272254946 0.045314986864104873 0.015050751296803356 0.0060498457972530846 -0.077213499993085868 -0.060823144663411835 0.013364685217351145
leaf_count=4236 5459 184 56 10447 22 83 328 64 71 530 340 20 71 31 76 47 58 411 101 33 727 54 39 20 32 128 222 20 26 211
internal_value=0 0.0377847 0.0650803 0.0625868 -0.0777677 -0.129983 -0.227324 -0.310231 -0.0170996 -0.0868584 -0.0290647 -0.0650626 -0.124039 -0.00239662 -0.117643 -0.124262 -0.209877 -0.301212 0.142599 -0.239791 0.0419944 0.374995 -0.0114698 0.423477 -0.137694 -0.142027 -0.0418842 0.0699775 -0.0118958 0.0522594
internal_count=24147 16827 11238 11182 735 659 475 392 5589 7320 2544 2103 1356 561 4776 4700 795 515 441 444 747 76 5518 59 4396 4364 280 304 257 237
shrinkage=0.1


Tree=12
num_leaves=31
num_cat=0
split_feature=17 76 31 113 85 61 30 24 103 77 61 38 11 36 72 78 24 63 3 48 41 102 110 67 81 43 67 102 102 2
split_gain=94.6932 28.2593 21.6778 19.4507 17.4501 16.8843 16.5446 14.1594 13.6113 13.1376 13.0853 13.6464 12.1036 14.2822 12.0067 11.7889 13.465 14.2954 10.7322 13.0454 10.747 10.5022 10.2062 9.98972 11.6772 9.97982 11.5404 9.92186 9.55192 9.53238
threshold=1.8116500377655032 0.2051850035786629 0.82537499070167553 0.17392500489950183 60.754501342773445 0.79365497827529918 -1.2829999923706052 1.3986499905586245 1.5902499556541445 0.99460500478744518 0.8098450005054475 0.64857500791549694 3.6791000366210942 1.9013500213623049 -0.47370499372482294 -0.70315000414848317 1.8288499712944033 0.95016500353813182 2.8682999610900883 3.4946498870849614 0.39469999074935919 -0.53870999813079823 -0.97565498948097218 8.0058498382568377 -0.094318497925996767 0.98662501573562633 1.0296499729156496 -0.25554999709129328 2.8441499471664433 2.3883000612258916
decision_type=2 2 2 2 2 2 2 2 2 2 2 2 2 2 2 2 2 2 2 2 2 2 2 2 2 2 2 2 2 2
left_child=1 -1 -3 14 5 7 -5 23 -8 15 11 12 13 -7 -2 16 -9 29 20 22 -16 -17 -20 24 -4 26 -19 -25 -23 -18
right_child=3 2 4 6 -6 10 8 9 -10 -11 -12 -13 -14 -15 18 21 17 25 19 -21 -22 28 -24 27 -26 -27 -28 -29 -30 -31
leaf_value=0.0028604110117310178 -0.024319512959112201 -0.021762502069822581 -0.052837645872072736 -0.031111133399713845 -0.04812935354078518 -0.061727900922298434 -0.0080795935833373588 0.020159099612226353 0.010998720887921544 -0.039069946482777597 -0.00120927887579764 -0.032068188762978504 0.049173162167270981 0.030539746757815869 0.0094977231339797713 0.018539743409270334 -0.058688618920066139 -0.02290056823264985 -0.055342196623484302 -0.086391098580012718 -0.0047002178440447399 -0.059765499808650091 0.012606974921765782 -0.015975713580846786 -0.010528037727915954 0.0045677894105513898 -0.12653989493846893 0.060518425282759553 0.018722041696310043 0.0099493243982867602
leaf_count=2672 114 1133 66 193 102 25 888 493 646 72 1202 38 150 51 9453 42 22 21 30 24 565 69 84 30 5605 24 22 39 20 252
internal_value=0 -0.0622266 -0.0878332 0.0630202 -0.0702114 -0.0651246 -0.0351706 -0.0861744 -0.000453099 0.0213656 0.0321839 0.233777 0.327005 0.00188547 0.0795319 0.0521103 0.0959155 -0.0568646 0.0831545 -0.193816 0.0869698 -0.226772 -0.0527439 -0.105603 -0.110204 -0.47092 -0.759253 0.272601 -0.421279 0.0443825
internal_count=24147 12150 9478 11997 8345 8243 1727 6777 1534 1037 1466 264 226 76 10270 965 834 341 10156 138 10018 131 114 5740 5671 67 43 69 89 274
shrinkage=0.1


Tree=13
num_leaves=31
num_cat=0
split_feature=17 73 13 27 89 74 51 13 112 43 48 40 86 43 41 3 32 2 90 109 18 11 60 98 75 68 59 13 18 32
split_gain=76.7015 24.7163 19.582 14.8947 13.5372 12.6755 12.4376 12.0183 14.7297 14.9707 11.5932 11.1206 18.7891 16.3102 13.47 24.2189 16.7744 11.92 12.5354 12.0244 17.0587 10.7425 10.7116 13.3528 11.3069 10.4456 10.5383 10.3509 10.5384 11.2392
threshold=1.8116500377655032 0.24678499996662143 0.27642500400543218 0.78946998715400707 0.3039849996566773 1.6108500361442568 1.564349949359894 1.2843999862670901 0.37681500613689428 0.76859000325202953 2.4505000114440922 0.38683000206947332 -0.95831498503684986 0.83715498447418224 0.27062000334262853 -1.3409499526023863 1.7437999844551089 5.4592001438140878 1.227449953556061 0.93160998821258556 13.500000000000002 -0.49875500798225397 0.66819000244140636 0.31848499178886419 0.69712999463081371 7.3420000076293954 0.91687500476837169 3.731549978256226 6.5000000000000009 2.6445499658584599
decision_type=2 2 2 2 2 2 2 2 2 2 2 2 2 2 2 2 2 2 2 2 2 2 2 2 2 2 2 2 2 2
left_child=1 -1 21 7 -5 11 25 22 -9 -10 -8 12 -6 -14 15 -13 -17 19 -19 27 -21 -2 23 -3 -25 26 -7 28 -15 -30
right_child=2 3 -4 4 5 6 10 8 9 -11 -12 14 13 17 -16 16 -18 18 -20 20 -22 -23 -24 24 -26 -27 -28 -29 29 -31
leaf_value=0.0026016110028095679 -0.044757527404505282 -0.021757748808036714 0.0065019613303565803 0.00034623438639696255 -0.0098184394577401704 0.021522727734606034 -0.0018057297287362346 -0.029157942356279744 -0.017423893186179075 0.068601050227880475 -0.07436406208823125 0.051187801857789365 0.028712528905807402 0.03444340229034424 -0.005834685921579829 -0.019341991994887182 -0.074230584055185331 -0.10233621670390076 -0.035330108742592702 -0.029160517142262574 0.076077065989375123 -0.0068061099666629349 0.043756156650985166 -0.023688935382025586 0.035452685418881871 0.0023820553707261374 0.084715986180873157 -0.080367604688722269 -0.044149558645548287 0.03458367884159088
leaf_count=2821 92 298 11511 2150 1024 71 267 782 55 32 24 33 39 23 3509 146 90 53 59 43 24 394 41 49 95 117 42 49 194 20
internal_value=0 -0.0560039 0.0567182 -0.080806 -0.064356 -0.0893791 0.0594629 -0.177864 -0.248154 0.142175 -0.0778992 -0.103994 -0.17598 -0.334042 -0.0748793 -0.290539 -0.402741 -0.38614 -0.670384 -0.295955 0.0853653 -0.139903 -0.0513987 -0.0967548 0.153281 0.233256 0.450105 -0.385285 -0.298782 -0.367913
internal_count=24147 12150 11997 9329 7977 5827 521 1352 869 87 291 5306 1528 504 3778 269 236 465 112 353 67 486 483 442 144 230 113 286 237 214
shrinkage=0.1


Tree=14
num_leaves=31
num_cat=0
split_feature=13 61 48 88 66 73 68 52 33 73 0 90 56 11 96 15 9 16 15 32 106 85 93 96 61 25 106 51 49 93
split_gain=30.2537 20.4042 14.2079 17.0817 22.6228 11.241 18.8111 17.6379 13.4379 12.9383 12.3097 12.7132 11.7032 11.1975 11.1966 10.9 16.3368 12.1701 10.6703 12.3026 10.3867 10.3561 10.634 10.0525 17.0682 10.4092 10.042 9.87737 10.9073 11.8981
threshold=2.0079499483108525 0.69257497787475597 1.6709499955177309 1.370450019836426 2.4253000020980839 0.27768500149250036 2.1456500291824345 9.1349997520446795 0.027377999387681488 0.28729499876499182 1.3366499543190005 0.49973499774932867 -0.42141500115394587 34.863000869750984 -2.8588999509811397 13.363500118255617 0.65015500783920299 9.4409499168396014 1.4114999771118166 -0.068596500903367982 0.74052000045776378 5.0463500022888192 0.94688498973846447 -0.013878500089049338 0.78624001145362865 0.32510499656200414 4.0811498165130624 4.6068999767303476 0.050002001225948341 0.93691498041152965
decision_type=2 2 2 2 2 2 2 2 2 2 2 2 2 2 2 2 2 2 2 2 2 2 2 2 2 2 2 2 2 2
left_child=5 2 3 -2 13 7 14 21 -8 20 23 -12 -13 18 -7 -4 17 -17 19 -5 -10 27 -23 -11 25 -25 -6 28 29 -1
right_child=1 -3 15 4 26 6 8 -9 9 10 11 12 -14 -15 -16 16 -18 -19 -20 -21 -22 22 -24 24 -26 -27 -28 -29 -30 -31
leaf_value=0.0063540986355613257 -0.0097181388936192908 0.0057763632478918074 0.0066113869501238324 -0.048777811513060619 0.037680510316411828 -0.07869660171369712 -0.034834643123076138 0.042009110372475907 -0.076183186865904751 0.026821805370062832 -0.040608370262715555 -0.064928684532642375 0.0042609586637484004 0.065741748464378455 -0.01020319723252789 0.033692710211983438 0.024786582512733264 -0.03830416322996219 -0.027317543260458502 0.0085439821278703379 -0.0088130287613187516 -0.028012661465576717 0.046621100959323702 -0.021535160224283895 -0.065222782960959846 0.057516966677374319 -0.030254312480489418 0.040956027557452521 0.0013145798331725147 -0.057955367637403089
leaf_count=51 2684 9010 2123 42 233 24 97 99 34 371 72 25 1105 22 4290 27 78 180 177 345 70 210 21 31 35 36 24 60 2505 66
internal_value=0 0.0277748 -0.0177517 -0.0581795 0.0659973 -0.0451091 -0.0694896 0.0049956 0.0141064 0.0338691 0.0551191 0.00134226 0.0273021 -0.0424894 -0.105842 0.041463 -0.142165 -0.289133 -0.0697908 0.0232301 -0.308379 -0.00911166 -0.212278 0.191778 -0.0862526 0.209406 0.313364 0.00838698 -0.000793184 -0.29923
internal_count=24147 14945 5935 3527 843 9202 6190 3012 1876 1779 1675 1202 1130 586 4314 2408 285 207 564 387 104 2913 231 473 102 67 257 2682 2622 117
shrinkage=0.1


Tree=15
num_leaves=31
num_cat=0
split_feature=17 94 9 37 73 103 65 55 102 56 68 56 4 41 106 29 87 60 90 85 6 5 111 103 33 103 102 46 68 89
split_gain=57.3905 23.1835 17.8231 12.1732 12.6237 12.0409 11.4033 11.18 11.0272 12.7755 13.6604 13.3721 11.2741 11.1495 10.5459 16.2263 12.572 13.9941 10.4503 10.3473 10.4194 9.75173 21.0492 9.61071 9.54239 9.53206 9.28487 9.27649 10.1927 9.04106
threshold=1.738600015640259 -1.476899981498718 0.6281149983406068 6.1635000705719003 0.29106000065803533 1.3732500076293948 2.2380499839782719 1.3073499798774721 1.6261000037193301 -0.37521000206470484 4.8457000255584726 0.71589499711990368 1.3262500166893008 0.26079499721527105 0.82899999618530285 0.34514500200748449 2.9254499673843388 0.93465000391006481 0.47791500389575964 60.754501342773445 0.37364000082015997 1.6291499733924868 0.95950502157211315 1.3769499659538271 1.1572999954223635 1.7151499986648562 -0.89346498250961293 3.7481499910354619 2.529999971389771 0.36080500483512884
decision_type=2 2 2 2 2 2 2 2 2 2 2 2 2 2 2 2 2 2 2 2 2 2 2 2 2 2 2 2 2 2
left_child=1 -1 3 6 5 7 8 -5 9 -2 11 12 18 -14 15 -13 17 23 -11 20 -3 -4 -23 -16 -6 -21 -22 28 -9 -26
right_child=2 19 21 4 24 -7 -8 27 -10 10 -12 14 13 -15 16 -17 -18 -19 -20 25 26 22 -24 -25 29 -27 -28 -29 -30 -31
leaf_value=0.00066474267675243703 0.037459818564229093 -0.0091278698117770955 0.0072090790864931982 0.019413032992319626 0.0090615212956853524 -0.0098111051087555259 0.0076955108744551515 -0.056177836528846198 0.01953045502305031 0.017870049516359964 0.013232692364107798 -0.040219661978383864 0.015524201150293704 -0.053173439839371929 -0.071046449095010761 0.017515126991179564 -0.0940477837893096 0.05709567607070009 -0.029490250464135073 -0.06915937321928313 0.061064997315406801 0.023481583039438914 -0.054459474767957421 -0.011319177171103976 -0.019540336496800512 0.0068023990839719776 0.00048199068340990284 -0.016105507863195322 -0.13421094295653432 0.015395865981937738
leaf_count=3880 59 6566 9075 22 377 217 1736 70 167 75 203 60 27 189 35 258 22 24 123 53 39 63 77 117 364 24 72 38 22 93
internal_value=0 -0.0549561 0.0432475 -0.00993023 -0.0952926 -0.249296 0.0232494 -0.465132 -0.0453548 -0.0790714 -0.102696 -0.153997 -0.287867 -0.445862 -0.0465892 0.0662177 -0.227764 -0.138675 -0.115507 -0.0903458 -0.0861425 0.0680503 -0.19386 -0.250722 -0.0271544 -0.45483 0.217679 -0.5767 -0.748379 -0.124308
internal_count=24147 10634 13513 4298 1203 369 3095 152 1359 1192 1133 930 414 216 516 318 198 176 198 6754 6677 9215 140 152 834 77 111 130 92 457
shrinkage=0.1


Tree=16
num_leaves=31
num_cat=0
split_feature=17 14 73 17 6 72 100 7 87 73 73 23 35 64 25 23 105 103 0 35 23 72 15 103 38 18 99 105 101 67
split_gain=47.1586 14.9184 14.5123 15.2689 13.3717 13.289 12.9298 13.1766 12.2075 13.3898 15.4654 13.693 12.632 20.2018 14.4233 16.4172 12.3984 12.2138 12.743 12.3947 11.8863 11.3228 11.1256 11.0874 14.7836 10.9959 10.9639 10.8039 11.1436 14.7737
threshold=1.9286500215530398 6.0141999721527108 0.27681499719619757 1.6505500078201296 0.32776500284671789 2.3227000236511235 84.439998626708999 0.59181499481201183 1.271050035953522 0.44557000696659094 0.39826500415802008 1.9970499873161318 1.384649991989136 1.1719999909400942 0.2598049938678742 1.3402499556541445 0.29167500138282781 1.0351499915122988 1.4907500147819521 4.2310500144958505 1.5065000057220461 -0.51602497696876515 1.5835499763488772 1.4846999645233157 -1.5391499996185301 8.5000000000000018 4.1343998908996591 0.25416000187397009 8.8558998107910174 5.2613999843597421
decision_type=2 2 2 2 2 2 2 2 2 2 2 2 2 2 2 2 2 2 2 2 2 2 2 2 2 2 2 2 2 2
left_child=2 4 -1 5 21 -4 7 27 17 10 11 12 14 -14 -10 -16 -17 18 -5 26 -15 25 -6 -9 -25 -2 -19 -3 29 -29
right_child=1 6 3 8 22 -7 -8 23 9 -11 -12 -13 13 20 15 16 -18 19 -20 -21 -22 -23 -24 24 -26 -27 -28 28 -30 -31
leaf_value=0.0020301382491850206 -0.094239049878987402 0.060609481719935812 -0.0092053195455426146 0.061789907582781536 0.011702859920089839 0.028296764691670737 -0.082853610143065456 -0.019508077981881797 0.049743191599845887 -0.075075704312842828 0.023480662021383242 -0.0087440505641320759 0.029202868544540701 0.011877472128816033 -0.0020530664197536646 0.013050843609703912 -0.053209622579676513 -0.014780264467421343 -0.023593186484328635 0.050794680789113048 -0.0048853860570890967 0.006433332975457489 0.036685433215819872 -0.060777961160685567 0.0043366381464418303 0.00023459451539175854 -0.079528375770206813 -0.0072547056829649686 0.048929649857538088 0.042885571760191046
leaf_count=3659 22 41 6004 44 567 96 20 480 40 23 296 1277 359 807 436 36 131 833 29 28 889 6605 260 37 605 28 27 341 56 71
internal_value=0 0.0566618 -0.0344673 -0.0521158 0.0756472 -0.0861512 -0.0293761 -0.0195765 -0.0126075 0.0101937 0.0142916 -0.00212918 0.0382498 0.0765248 -0.0840753 -0.12265 -0.389259 -0.114489 0.278706 -0.146813 0.0309081 0.0607445 0.195571 -0.0801158 0.00583928 -0.413338 -0.168131 0.113872 0.0707496 0.0138597
internal_count=24147 9133 15014 11355 7482 6100 1651 1631 5255 4294 4271 3975 2698 2055 643 603 167 961 73 888 1696 6655 827 1122 642 50 860 509 468 412
shrinkage=0.1



feature importances:
log10_trial=20
top_10%_correlation_stddev_best_ratio=16
all_loss_skew=13
recent_25_loss_best_percentile75_ratio=13
all_correlation_best_percentile75_ratio=12
top_10%_loss_kurtosis=11
top_30%_correlation_percentile5_percentile25_ratio=10
top_30%_correlation_kurtosis=10
recent_15%_loss_kurtosis=10
recent_10_loss_best_percentile75_ratio=10
recent_15%_loss_skew=8
top_10%_correlation_best_percentile50_ratio=8
all_loss_best_percentile50_ratio=8
recent_25_loss_best_percentile50_ratio=8
all_correlation_stddev_median_ratio=8
all_correlation_kurtosis=8
top_10%_correlation_skew=7
top_10%_loss_best_percentile75_ratio=7
top_30%_loss_stddev_best_ratio=7
recent_10_correlation_stddev_best_ratio=7
recent_10_correlation_percentile5_percentile25_ratio=7
log10_cardinality=7
recent_10_correlation_kurtosis=6
recent_25_correlation_best_percentile75_ratio=6
recent_25_correlation_kurtosis=6
recent_25_correlation_percentile5_percentile25_ratio=6
all_correlation_stddev_best_ratio=6
top_20%_loss_kurtosis=6
recent_15%_correlation_stddev_best_ratio=6
recent_25_loss_stddev_best_ratio=6
recent_15%_correlation_kurtosis=6
all_loss_kurtosis=6
top_10%_correlation_kurtosis=6
recent_10_correlation_best_percentile50_ratio=6
top_20%_correlation_percentile5_percentile25_ratio=6
recent_15%_correlation_best_percentile25_ratio=5
top_20%_correlation_kurtosis=5
all_correlation_best_percentile25_ratio=5
recent_25_loss_best_percentile25_ratio=5
num_parameters=5
top_10%_correlation_best_percentile25_ratio=5
all_loss_stddev_best_ratio=5
top_20%_correlation_skew=4
top_10%_loss_stddev_best_ratio=4
top_20%_loss_stddev_median_ratio=4
recent_25_loss_stddev_median_ratio=4
top_10%_loss_best_percentile25_ratio=4
recent_25_correlation_stddev_best_ratio=4
recent_25_correlation_skew=4
top_20%_correlation_best_percentile25_ratio=4
top_20%_loss_best_percentile75_ratio=4
recent_25_correlation_best_percentile50_ratio=4
recent_10_loss_kurtosis=4
recent_10_correlation_skew=4
recent_10_loss_stddev_best_ratio=4
recent_10_loss_stddev_median_ratio=4
all_loss_stddev_median_ratio=4
recent_15%_correlation_percentile5_percentile25_ratio=4
recent_15%_loss_best_percentile25_ratio=4
recent_15%_loss_percentile5_percentile25_ratio=4
recent_15%_loss_stddev_median_ratio=4
top_30%_loss_best_percentile25_ratio=3
top_30%_correlation_stddev_median_ratio=3
all_correlation_percentile5_percentile25_ratio=3
all_correlation_skew=3
top_20%_loss_skew=3
top_30%_loss_kurtosis=3
top_20%_correlation_stddev_median_ratio=3
top_30%_loss_percentile5_percentile25_ratio=3
recent_10_correlation_best_percentile25_ratio=3
top_30%_loss_skew=3
recent_10_correlation_best_percentile75_ratio=3
top_20%_correlation_best_percentile75_ratio=3
top_10%_loss_skew=3
all_correlation_best_percentile50_ratio=3
recent_10_loss_skew=3
recent_15%_correlation_skew=3
recent_25_loss_percentile5_percentile25_ratio=3
recent_25_loss_kurtosis=3
recent_15%_loss_best_percentile50_ratio=3
recent_10_loss_percentile5_percentile25_ratio=3
recent_15%_loss_best_percentile75_ratio=3
recent_25_correlation_stddev_median_ratio=3
top_30%_loss_best_percentile50_ratio=2
top_20%_loss_stddev_best_ratio=2
top_30%_correlation_stddev_best_ratio=2
top_30%_correlation_skew=2
recent_15%_loss_stddev_best_ratio=2
top_30%_correlation_best_percentile75_ratio=2
top_30%_correlation_best_percentile50_ratio=2
all_loss_best_percentile25_ratio=2
recent_25_correlation_best_percentile25_ratio=2
top_10%_loss_percentile5_percentile25_ratio=2
recent_10_loss_best_percentile25_ratio=2
top_20%_correlation_best_percentile50_ratio=2
top_20%_correlation_stddev_best_ratio=2
recent_10_loss_best_percentile50_ratio=2
recent_15%_correlation_best_percentile50_ratio=1
top_10%_loss_best_percentile50_ratio=1
top_10%_loss_stddev_median_ratio=1
top_30%_loss_best_percentile75_ratio=1
top_10%_correlation_stddev_median_ratio=1
top_10%_correlation_percentile5_percentile25_ratio=1
recent_15%_correlation_best_percentile75_ratio=1
recent_25_loss_skew=1
top_20%_loss_best_percentile25_ratio=1
all_loss_percentile5_percentile25_ratio=1
top_30%_correlation_best_percentile25_ratio=1
all_loss_best_percentile75_ratio=1

pandas_categorical:null
