tree
version=v2
num_class=2
num_tree_per_iteration=2
label_index=0
max_feature_idx=114
objective=multiclass num_class:2
feature_names=all_correlation_best_percentile25_ratio all_correlation_best_percentile50_ratio all_correlation_best_percentile75_ratio all_correlation_kurtosis all_correlation_percentile5_percentile25_ratio all_correlation_skew all_correlation_stddev_best_ratio all_correlation_stddev_median_ratio all_loss_best_percentile25_ratio all_loss_best_percentile50_ratio all_loss_best_percentile75_ratio all_loss_kurtosis all_loss_percentile5_percentile25_ratio all_loss_skew all_loss_stddev_best_ratio all_loss_stddev_median_ratio log10_cardinality log10_trial num_parameters recent_10_correlation_best_percentile25_ratio recent_10_correlation_best_percentile50_ratio recent_10_correlation_best_percentile75_ratio recent_10_correlation_kurtosis recent_10_correlation_percentile5_percentile25_ratio recent_10_correlation_skew recent_10_correlation_stddev_best_ratio recent_10_correlation_stddev_median_ratio recent_10_loss_best_percentile25_ratio recent_10_loss_best_percentile50_ratio recent_10_loss_best_percentile75_ratio recent_10_loss_kurtosis recent_10_loss_percentile5_percentile25_ratio recent_10_loss_skew recent_10_loss_stddev_best_ratio recent_10_loss_stddev_median_ratio recent_15%_correlation_best_percentile25_ratio recent_15%_correlation_best_percentile50_ratio recent_15%_correlation_best_percentile75_ratio recent_15%_correlation_kurtosis recent_15%_correlation_percentile5_percentile25_ratio recent_15%_correlation_skew recent_15%_correlation_stddev_best_ratio recent_15%_correlation_stddev_median_ratio recent_15%_loss_best_percentile25_ratio recent_15%_loss_best_percentile50_ratio recent_15%_loss_best_percentile75_ratio recent_15%_loss_kurtosis recent_15%_loss_percentile5_percentile25_ratio recent_15%_loss_skew recent_15%_loss_stddev_best_ratio recent_15%_loss_stddev_median_ratio recent_25_correlation_best_percentile25_ratio recent_25_correlation_best_percentile50_ratio recent_25_correlation_best_percentile75_ratio recent_25_correlation_kurtosis recent_25_correlation_percentile5_percentile25_ratio recent_25_correlation_skew recent_25_correlation_stddev_best_ratio recent_25_correlation_stddev_median_ratio recent_25_loss_best_percentile25_ratio recent_25_loss_best_percentile50_ratio recent_25_loss_best_percentile75_ratio recent_25_loss_kurtosis recent_25_loss_percentile5_percentile25_ratio recent_25_loss_skew recent_25_loss_stddev_best_ratio recent_25_loss_stddev_median_ratio top_10%_correlation_best_percentile25_ratio top_10%_correlation_best_percentile50_ratio top_10%_correlation_best_percentile75_ratio top_10%_correlation_kurtosis top_10%_correlation_percentile5_percentile25_ratio top_10%_correlation_skew top_10%_correlation_stddev_best_ratio top_10%_correlation_stddev_median_ratio top_10%_loss_best_percentile25_ratio top_10%_loss_best_percentile50_ratio top_10%_loss_best_percentile75_ratio top_10%_loss_kurtosis top_10%_loss_percentile5_percentile25_ratio top_10%_loss_skew top_10%_loss_stddev_best_ratio top_10%_loss_stddev_median_ratio top_20%_correlation_best_percentile25_ratio top_20%_correlation_best_percentile50_ratio top_20%_correlation_best_percentile75_ratio top_20%_correlation_kurtosis top_20%_correlation_percentile5_percentile25_ratio top_20%_correlation_skew top_20%_correlation_stddev_best_ratio top_20%_correlation_stddev_median_ratio top_20%_loss_best_percentile25_ratio top_20%_loss_best_percentile50_ratio top_20%_loss_best_percentile75_ratio top_20%_loss_kurtosis top_20%_loss_percentile5_percentile25_ratio top_20%_loss_skew top_20%_loss_stddev_best_ratio top_20%_loss_stddev_median_ratio top_30%_correlation_best_percentile25_ratio top_30%_correlation_best_percentile50_ratio top_30%_correlation_best_percentile75_ratio top_30%_correlation_kurtosis top_30%_correlation_percentile5_percentile25_ratio top_30%_correlation_skew top_30%_correlation_stddev_best_ratio top_30%_correlation_stddev_median_ratio top_30%_loss_best_percentile25_ratio top_30%_loss_best_percentile50_ratio top_30%_loss_best_percentile75_ratio top_30%_loss_kurtosis top_30%_loss_percentile5_percentile25_ratio top_30%_loss_skew top_30%_loss_stddev_best_ratio top_30%_loss_stddev_median_ratio
feature_infos=[0:15.006999969482422] [0:234.80000305175781] [0:4882.39990234375] [-1.9805999994277954:10.654999732971191] [0:12.206000328063965] [-2.6215999126434326:3.3966999053955078] [0:0.45357000827789307] [0:85.734001159667969] [-11839:1584.199951171875] [-779.91998291015625:808.3699951171875] [-507.22000122070312:5197.10009765625] [-1.9981000423431396:209.69999694824219] [-7946.7001953125:1168.9000244140625] [-8.7989997863769531:13.902000427246094] [-488510:4586200] [-155060:615890] [3.7781999111175537:23.594999313354492] [1:2.6435000896453857] [5:34] [0:802.9000244140625] [0:559] [0:1258.9000244140625] [-1.9955999851226807:18.329000473022461] [0:587.8800048828125] [-2.2653999328613281:4.391200065612793] [0:0.48989999294281006] [0:198.35000610351562] [-1219.5:522.80999755859375] [-1235.800048828125:6594.60009765625] [-1117.5:8850.099609375] [-2:5.1111001968383789] [-935.07000732421875:423.33999633789062] [-2.6647000312805176:2.6666998863220215] [-297430:1188300] [-212310:1079600] [0:3575.699951171875] [0:10875] [0:26023] [-1.9921000003814697:19.042999267578125] [0:2033.4000244140625] [-2.9841001033782959:4.5872998237609863] [0:0.49930998682975769] [0:2715.5] [-709.03997802734375:502.79998779296875] [-3297.89990234375:18467] [-19963:8850.099609375] [-2:60.916000366210938] [-448.57998657226562:390.1099853515625] [-6.5598998069763184:7.9286999702453613] [-317810:4634900] [-2685700:920740] [0:3278.300048828125] [0:6019.10009765625] [0:9635.900390625] [-1.9896999597549438:20.330999374389648] [0:2503.199951171875] [-2.3831000328063965:4.6901998519897461] [0:0.48857000470161438] [0:1847.800048828125] [-1337.0999755859375:243.28999328613281] [-3297.89990234375:1716.199951171875] [-3973.300048828125:2211.89990234375] [-1.9981000423431396:20.041999816894531] [-1199:202.85000610351562] [-4.6810002326965332:4.6949000358581543] [-350350:5375700] [-3075900:1514600] [0:3617.800048828125] [0:3004.5] [0:2050.60009765625] [-2:22.038000106811523] [0:1885.800048828125] [-3.75:4.902900218963623] [0:0.5] [0:861.3800048828125] [-298.98001098632812:265.42999267578125] [-725.83001708984375:605.80999755859375] [-297.85000610351562:6594.60009765625] [-2:20.041999816894531] [-210.33999633789062:200.82000732421875] [-4.6949000358581543:4.4772000312805176] [-4756.89990234375:13260] [-250.80999755859375:12848] [0:11477] [0:24078] [0:20548] [-2:21.040000915527344] [0:5149] [-3.8805999755859375:4.8000001907348633] [0:0.5] [0:5943.7001953125] [-10733:179.94999694824219] [-197.66999816894531:780.010009765625] [-1242.300048828125:309.73001098632812] [-2:40.016998291015625] [-5728.2998046875:123.62000274658203] [-6.4818000793457031:6.08489990234375] [-6293.39990234375:12913] [-414.29000854492188:8168.7998046875] [0:26229] [0:21533] [0:37704] [-2:16.608999252319336] [0:18253] [-2.8459999561309814:4.248499870300293] [0:0.5] [0:5373.2001953125] [-1534.800048828125:415.8599853515625] [-911.79998779296875:855.30999755859375] [-860.95001220703125:27170] [-2:62.985000610351562] [-1393.0999755859375:342.82000732421875] [-8.0602998733520508:5.768700122833252] [-8886.900390625:104960] [-354.72000122070312:36623]
tree_sizes=2580 2576

Tree=0
num_leaves=31
num_cat=0
split_feature=82 75 13 91 13 45 113 8 103 75 43 0 91 111 5 101 98 30 18 70 6 53 93 5 47 0 37 53 92 41
split_gain=125.56 66.1396 31.8901 31.4498 25.7828 14.3141 11.8379 16.3141 11.1384 10.5293 10.5172 10.6748 9.59767 9.20936 9.03987 8.86589 8.27871 7.65243 7.56071 7.74975 7.15943 6.57064 9.07633 8.71774 7.80154 7.46497 6.86471 6.5361 6.37346 6.22561
threshold=0.021113499999046329 0.99999499320983898 0.84738999605178844 0.92776501178741466 -0.18800499290227887 -0.50662499666213978 0.35261999070644384 0.74345499277114879 2.481549978256226 0.91761499643325817 0.93424499034881603 1.5958500504493716 0.96345502138137828 0.87928497791290294 -0.86996999382972706 2.3050500154495244 0.034946499392390258 4.7249498367309579 14.500000000000002 0.14264500141143802 0.17410499602556231 2.5000499486923222 0.93836498260498058 -0.09047250077128409 0.9534749984741212 3.3348000049591069 14.4064998626709 38.139499664306648 0.36392499506473547 0.32971499860286718
decision_type=2 2 2 2 2 2 2 2 2 2 2 2 2 2 2 2 2 2 2 2 2 2 2 2 2 2 2 2 2 2
left_child=2 3 12 4 -2 -4 7 -6 17 13 -9 -12 -1 -7 -11 28 -16 -3 19 29 -5 23 24 26 25 -23 -22 -20 -8 -13
right_child=1 8 5 20 6 9 15 10 -10 14 11 18 -14 -15 16 -17 -18 -19 27 -21 21 22 -24 -25 -26 -27 -28 -29 -30 -31
leaf_value=-0.011971830985915493 0.0036710719530102793 0.0046188509200150206 -0.027916331456154464 0.019607843137254902 -0.028728277466734533 -0.025000000000000001 -0.034545454545454546 -0.020893576676937666 -0.031132075471698113 -0 -0.022953451043338687 -0.046820809248554918 -0.0014032600992204111 -0.0035658101730466699 -0.012667955306209042 -0.0096704484062668829 -0.017915774446823698 -0.021848739495798322 -0.045040650406504068 0.027586206896551724 -0.01068363421130512 -0.017908178777743994 0.0066147859922178996 -0.017539422790836059 -0.023431274900398407 0.020000000000000004 0.026732673267326736 -0 -0.018138424821002388 -0.0073825503355704706
leaf_count=2272 681 2663 1243 102 13753 448 660 16876 212 1026 2492 173 7055 3814 42422 1851 7005 238 1230 58 3379 9867 257 13444 8032 105 101 68 1676 149
internal_value=0 -0.200379 -0.116336 -0.208768 -0.23609 -0.129097 -0.240856 -0.249404 0.00160617 -0.125688 -0.224651 -0.288249 -0.039777 -0.0581886 -0.13139 -0.169811 -0.134117 0.0244743 -0.375447 -0.2 -0.178054 -0.179139 -0.197744 -0.159064 -0.201511 -0.17509 -0.095977 -0.42681 -0.22774 -0.285714
internal_count=143352 78067 65285 74954 39667 55958 38986 34799 3113 54715 21046 4170 9327 4262 50453 4187 49427 2901 1678 380 35287 35185 18261 16924 18004 9972 3480 1298 2336 322
shrinkage=0.1


Tree=1
num_leaves=31
num_cat=0
split_feature=82 75 13 91 13 79 81 8 79 109 101 109 91 44 107 14 49 7 7 80 7 2 53 31 77 13 89 54 58 2
split_gain=125.56 66.1396 31.8901 31.4498 25.7828 14.1778 11.3379 12.1895 11.3027 11.297 10.8491 9.87924 9.59767 8.97807 8.7425 8.66413 7.86693 7.19708 7.171 7.20781 7.80488 8.6657 6.93126 8.54343 8.31207 6.93515 6.84761 8.55594 7.82286 6.81525
threshold=0.021113499999046329 0.99999499320983898 0.84738999605178844 0.92776501178741466 -0.18800499290227887 1.2102499604225161 0.36240999400615698 0.74345499277114879 0.96329498291015636 -0.43727999925613398 2.3050500154495244 0.89288499951362621 0.96345502138137828 0.92113500833511364 0.84847497940063488 8.6345000267028826 781.17999267578136 0.46559500694274908 0.3085049986839295 6.8293999876947396e-14 0.73869499564170849 5.8371500968933114 1.6431500315666201 0.95213499665260326 0.95614498853683483 2.6563500165939335 0.33804500102996832 -1.443849980831146 0.72729498147964489 3.6108499765396123
decision_type=2 2 2 2 2 2 2 2 2 2 2 2 2 2 2 2 2 2 2 2 2 2 2 2 2 2 2 2 2 2
left_child=2 3 12 4 -2 8 7 15 14 -3 -8 16 -1 -9 -4 -6 -10 -17 -5 22 26 -22 -20 -24 -25 -26 -21 28 -28 -13
right_child=1 9 5 18 6 -7 10 13 11 -11 -12 29 -14 -15 -16 17 -18 -19 19 20 21 -23 23 24 25 -27 27 -29 -30 -31
leaf_value=0.011971830985915493 -0.0036710719530102793 0.048387096774193554 0.024716553287981863 0.00081632653061224504 0.029647200897093075 0.032262382864792508 0.025047438330170781 0.021619950535861503 0.016380555109898925 -0.0016556291390728479 0.0055821371610845294 0.0097787200212004766 0.0014032600992204111 0.032519829164124464 0.0037387836490528417 0.0070524412296564202 0.057446808510638304 0.024418938307030132 0.014012917719741648 0.021800281293952183 0.03494809688581315 0.020825688073394497 0.015561569688768607 0.023823874100117194 0.012888888888888889 -0.034939759036144581 0.013142857142857144 0.015803814713896459 -0.029142857142857144 0.013642659279778395
leaf_count=2272 681 93 441 490 11593 747 1054 19408 12466 3020 1254 15094 7055 1639 4012 553 94 3485 10683 4266 1445 2180 7390 5973 225 83 175 2202 175 23104
internal_value=0 0.200379 0.116336 0.208768 0.23609 0.129097 0.240856 0.246906 0.126478 -0.00160617 0.144714 0.132472 0.039777 0.224688 0.058163 0.276822 0.166879 0.220406 0.178054 0.180447 0.211529 0.264552 0.167118 0.188209 0.226556 -0 0.183338 0.125392 -0.08 0.121158
internal_count=143352 78067 65285 74954 39667 55958 38986 36678 55211 3113 2308 50758 9327 21047 4453 15631 12560 4038 35287 34797 10443 3625 24354 13671 6281 308 6818 2552 350 38198
shrinkage=0.1



feature importances:
all_loss_skew=5
top_20%_loss_best_percentile25_ratio=4
top_10%_loss_best_percentile25_ratio=3
recent_25_correlation_best_percentile75_ratio=3
all_correlation_stddev_median_ratio=3
top_30%_correlation_best_percentile75_ratio=2
top_10%_loss_percentile5_percentile25_ratio=2
top_10%_loss_stddev_median_ratio=2
top_30%_loss_best_percentile75_ratio=2
all_loss_best_percentile25_ratio=2
all_correlation_best_percentile25_ratio=2
all_correlation_skew=2
all_correlation_best_percentile75_ratio=2
top_30%_loss_best_percentile25_ratio=1
top_30%_correlation_percentile5_percentile25_ratio=1
top_30%_loss_stddev_best_ratio=1
top_20%_loss_stddev_median_ratio=1
top_20%_loss_best_percentile75_ratio=1
top_20%_loss_best_percentile50_ratio=1
top_30%_loss_percentile5_percentile25_ratio=1
top_20%_correlation_stddev_best_ratio=1
top_10%_loss_stddev_best_ratio=1
top_10%_loss_skew=1
top_10%_loss_best_percentile75_ratio=1
top_10%_correlation_kurtosis=1
recent_25_correlation_stddev_median_ratio=1
recent_25_correlation_kurtosis=1
recent_15%_loss_stddev_best_ratio=1
recent_15%_loss_percentile5_percentile25_ratio=1
recent_15%_loss_best_percentile75_ratio=1
recent_15%_loss_best_percentile50_ratio=1
recent_15%_loss_best_percentile25_ratio=1
recent_15%_correlation_stddev_best_ratio=1
recent_15%_correlation_best_percentile75_ratio=1
recent_10_loss_percentile5_percentile25_ratio=1
recent_10_loss_kurtosis=1
num_parameters=1
all_loss_stddev_best_ratio=1
all_correlation_stddev_best_ratio=1

pandas_categorical:null
