tree
version=v2
num_class=1
num_tree_per_iteration=1
label_index=0
max_feature_idx=114
objective=regression
feature_names=all_correlation_best_percentile25_ratio all_correlation_best_percentile50_ratio all_correlation_best_percentile75_ratio all_correlation_kurtosis all_correlation_percentile5_percentile25_ratio all_correlation_skew all_correlation_stddev_best_ratio all_correlation_stddev_median_ratio all_loss_best_percentile25_ratio all_loss_best_percentile50_ratio all_loss_best_percentile75_ratio all_loss_kurtosis all_loss_percentile5_percentile25_ratio all_loss_skew all_loss_stddev_best_ratio all_loss_stddev_median_ratio log10_cardinality log10_trial num_parameters recent_10_correlation_best_percentile25_ratio recent_10_correlation_best_percentile50_ratio recent_10_correlation_best_percentile75_ratio recent_10_correlation_kurtosis recent_10_correlation_percentile5_percentile25_ratio recent_10_correlation_skew recent_10_correlation_stddev_best_ratio recent_10_correlation_stddev_median_ratio recent_10_loss_best_percentile25_ratio recent_10_loss_best_percentile50_ratio recent_10_loss_best_percentile75_ratio recent_10_loss_kurtosis recent_10_loss_percentile5_percentile25_ratio recent_10_loss_skew recent_10_loss_stddev_best_ratio recent_10_loss_stddev_median_ratio recent_15%_correlation_best_percentile25_ratio recent_15%_correlation_best_percentile50_ratio recent_15%_correlation_best_percentile75_ratio recent_15%_correlation_kurtosis recent_15%_correlation_percentile5_percentile25_ratio recent_15%_correlation_skew recent_15%_correlation_stddev_best_ratio recent_15%_correlation_stddev_median_ratio recent_15%_loss_best_percentile25_ratio recent_15%_loss_best_percentile50_ratio recent_15%_loss_best_percentile75_ratio recent_15%_loss_kurtosis recent_15%_loss_percentile5_percentile25_ratio recent_15%_loss_skew recent_15%_loss_stddev_best_ratio recent_15%_loss_stddev_median_ratio recent_25_correlation_best_percentile25_ratio recent_25_correlation_best_percentile50_ratio recent_25_correlation_best_percentile75_ratio recent_25_correlation_kurtosis recent_25_correlation_percentile5_percentile25_ratio recent_25_correlation_skew recent_25_correlation_stddev_best_ratio recent_25_correlation_stddev_median_ratio recent_25_loss_best_percentile25_ratio recent_25_loss_best_percentile50_ratio recent_25_loss_best_percentile75_ratio recent_25_loss_kurtosis recent_25_loss_percentile5_percentile25_ratio recent_25_loss_skew recent_25_loss_stddev_best_ratio recent_25_loss_stddev_median_ratio top_10%_correlation_best_percentile25_ratio top_10%_correlation_best_percentile50_ratio top_10%_correlation_best_percentile75_ratio top_10%_correlation_kurtosis top_10%_correlation_percentile5_percentile25_ratio top_10%_correlation_skew top_10%_correlation_stddev_best_ratio top_10%_correlation_stddev_median_ratio top_10%_loss_best_percentile25_ratio top_10%_loss_best_percentile50_ratio top_10%_loss_best_percentile75_ratio top_10%_loss_kurtosis top_10%_loss_percentile5_percentile25_ratio top_10%_loss_skew top_10%_loss_stddev_best_ratio top_10%_loss_stddev_median_ratio top_20%_correlation_best_percentile25_ratio top_20%_correlation_best_percentile50_ratio top_20%_correlation_best_percentile75_ratio top_20%_correlation_kurtosis top_20%_correlation_percentile5_percentile25_ratio top_20%_correlation_skew top_20%_correlation_stddev_best_ratio top_20%_correlation_stddev_median_ratio top_20%_loss_best_percentile25_ratio top_20%_loss_best_percentile50_ratio top_20%_loss_best_percentile75_ratio top_20%_loss_kurtosis top_20%_loss_percentile5_percentile25_ratio top_20%_loss_skew top_20%_loss_stddev_best_ratio top_20%_loss_stddev_median_ratio top_30%_correlation_best_percentile25_ratio top_30%_correlation_best_percentile50_ratio top_30%_correlation_best_percentile75_ratio top_30%_correlation_kurtosis top_30%_correlation_percentile5_percentile25_ratio top_30%_correlation_skew top_30%_correlation_stddev_best_ratio top_30%_correlation_stddev_median_ratio top_30%_loss_best_percentile25_ratio top_30%_loss_best_percentile50_ratio top_30%_loss_best_percentile75_ratio top_30%_loss_kurtosis top_30%_loss_percentile5_percentile25_ratio top_30%_loss_skew top_30%_loss_stddev_best_ratio top_30%_loss_stddev_median_ratio
feature_infos=[0:13.322999954223633] [0:123.16999816894531] [0:660] [-1.9720000028610229:9.7283000946044922] [0:8.7288999557495117] [-2.3831000328063965:3.1986000537872314] [0:0.45234999060630798] [0:39.5260009765625] [-673.78997802734375:1584.199951171875] [-779.91998291015625:808.3699951171875] [-130.22999572753906:5197.10009765625] [-1.9804999828338623:209.69999694824219] [-525.969970703125:1168.9000244140625] [-7.2824997901916504:12.815999984741211] [-474060:4586200] [-2829.300048828125:585160] [3.7781999111175537:23.594999313354492] [1:2.6435000896453857] [5:34] [0:596] [0:474.60000610351562] [0:660] [-1.989300012588501:17.048000335693359] [0:482.95001220703125] [-2.2483999729156494:4.3643999099731445] [0:0.48796001076698303] [0:170.53999328613281] [-211.02000427246094:522.80999755859375] [-342.60000610351562:92.456001281738281] [-1117.5:264.3900146484375] [-2:5.1111001968383789] [-144.41000366210938:423.33999633789062] [-2.6647000312805176:2.6666998863220215] [-297430:1188300] [-4669.39990234375:635940] [0:2326.300048828125] [0:1518.300048828125] [0:4172.10009765625] [-1.9888999462127686:17.406999588012695] [0:1316.800048828125] [-2.1061000823974609:4.3643999099731445] [0:0.49930998682975769] [0:499.60000610351562] [-277.6199951171875:418.92999267578125] [-145.1199951171875:18467] [-2125.699951171875:4190.2001953125] [-2:60.832000732421875] [-254:268.83999633789062] [-6.1435999870300293:7.9205999374389648] [-174910:4634900] [-277580:250190] [0:1827.699951171875] [0:2956.89990234375] [0:9635.900390625] [-1.9772000312805176:20.330999374389648] [0:1795.5999755859375] [-2.3831000328063965:4.6901998519897461] [0:0.47909000515937805] [0:831.53997802734375] [-1312.9000244140625:87.353996276855469] [-220.17999267578125:538.969970703125] [-3973.300048828125:1561.5999755859375] [-1.9931000471115112:20.041999816894531] [-1170.5:86.778999328613281] [-4.6810002326965332:4.6949000358581543] [-286860:5375700] [-4515.39990234375:672590] [0:3617.800048828125] [0:2174.5] [0:1803.300048828125] [-2:22.038000106811523] [0:1885.800048828125] [-3.614799976348877:4.902900218963623] [0:0.5] [0:747.20001220703125] [-52.247001647949219:44.057998657226562] [-104.16999816894531:108.93000030517578] [-195:91.378997802734375] [-2:18.030000686645508] [-45.060001373291016:42.745998382568359] [-4.4745001792907715:4.1294999122619629] [-4220.10009765625:13185] [-36.810001373291016:6782.7998046875] [0:2604.699951171875] [0:4629.7998046875] [0:8935.7001953125] [-2:21.040000915527344] [0:1921] [-3.8805999755859375:4.8000001907348633] [0:0.5] [0:1660.5999755859375] [-1587.800048828125:88.939002990722656] [-164.50999450683594:780.010009765625] [-800.08001708984375:173.83999633789062] [-2:39.803001403808594] [-511.07000732421875:75.893997192382812] [-6.4565000534057617:3.8159000873565674] [-6132.5:11496] [-414.29000854492188:7158.2998046875] [0:5515.39990234375] [0:8674] [0:12786] [-2:16.330999374389648] [0:5019.2998046875] [-2.2678000926971436:4.248499870300293] [0:0.49930998682975769] [0:2623.300048828125] [-95.333999633789062:415.8599853515625] [-303.33999633789062:283.42001342773438] [-632.65997314453125:283.98001098632812] [-1.9989000558853149:61.866001129150391] [-35.153999328613281:342.82000732421875] [-7.9544000625610352:4.7817997932434082] [-8093.10009765625:104960] [-192.72000122070312:8809.599609375]
tree_sizes=2602 2684 2692 2704 2688 2688 2713 2689 2712 2704 2692 2688 2680 2673 2666 2680

Tree=0
num_leaves=31
num_cat=0
split_feature=78 48 60 46 38 26 13 74 56 35 87 47 106 56 103 71 5 101 26 62 64 38 99 24 20 38 62 57 34 47
split_gain=0.918137 0.282737 0.116621 0.0956357 0.0820208 0.0883114 0.0794953 0.0787655 0.0852233 0.0777091 0.109089 0.0917202 0.0887589 0.0775391 0.0735188 0.0829827 0.0730506 0.0715106 0.0804102 0.0712626 0.116409 0.0697374 0.0695948 0.0920691 0.0796654 0.0694925 0.0691851 0.0684962 0.0707122 0.0833332
threshold=-1.4654499888420103 2.3787000179290776 0.8818500041961671 1.4515500068664553 -1.4889000058174131 0.86557000875473034 4.3577501773834237 0.55893501639366161 0.3191049993038178 1.5194500088691714 8.2634997367858904 0.95094501972198497 3.9897500276565556 0.36339500546455389 1.9417499899864199 2.416549921035767 0.36433498561382299 26.569999694824222 1.1820999979972842 4.6108498573303232 4.6169500350952157 -1.5275999903678892 1.5275500416755678 -0.47289501130580897 6.3254501819610605 8.1795001029968279 1.610849976539612 0.41210500895977026 0.24898999929428103 0.98574501276016246
decision_type=2 2 2 2 2 2 2 2 2 2 2 2 2 2 2 2 2 2 2 2 2 2 2 2 2 2 2 2 2 2
left_child=3 2 4 7 5 14 -3 -1 22 10 11 -4 -11 16 -2 -16 -5 -10 -19 25 27 -7 23 -9 -25 -6 -24 28 29 -21
right_child=1 6 9 13 19 21 -8 8 17 12 -12 -13 -14 -15 15 -17 -18 18 -20 20 -22 -23 26 24 -26 -27 -28 -29 -30 -31
leaf_value=0.8064158549124848 0.80849884658645477 0.80833696450955173 0.80955829766871046 0.80490337978736737 0.80770496155251426 0.80681979670846105 0.80907920363845454 0.8013807913348725 0.8068345368366262 0.80868822622825143 0.81288229208706486 0.8070064869410597 0.80701921952815114 0.80801601120457422 0.81190088519385428 0.80633028606837587 0.80797338365869231 0.80052609032097122 0.80770557733043236 0.80763910060761923 0.80900652190325217 0.8099248523894873 0.80746889097384622 0.80804321692659897 0.80260301369534437 0.80279841557019704 0.81018993500390835 0.80970743078233853 0.80631355830653528 0.80473451178599387
leaf_count=4880 576 5826 164 182 6245 429 1918 27 884 2660 37 998 362 954 141 33 135 39 26 1053 285 87 169 262 30 29 209 83 1413 109
internal_value=0 0.00324714 0.000671611 -0.00934872 -0.00111544 0.00643196 0.00813746 -0.0108943 -0.00491241 0.00510981 -0.00170206 -0.00340414 0.00781246 -0.0014128 0.0133596 0.0313734 -0.0149626 -0.011079 -0.0430917 -0.00215211 -0.00621199 -0.00363729 0.00348376 -0.00739358 -0.00222761 -0.000247705 0.0126633 -0.0082714 -0.00918279 -0.00340414
internal_count=30245 22448 14704 7797 10483 1266 7744 6526 1646 4221 1199 1162 3022 1271 750 174 317 949 65 9217 2943 516 697 319 292 6274 378 2658 2575 1162
shrinkage=1


Tree=1
num_leaves=31
num_cat=0
split_feature=17 78 18 2 114 96 73 96 50 30 18 46 17 94 39 39 6 94 36 36 50 73 70 70 54 80 84 104 41 32
split_gain=1.40145 0.231975 0.122892 0.12182 0.115235 0.0882701 0.087655 0.0848592 0.101305 0.0777472 0.0835188 0.0750998 0.0722805 0.0753066 0.07109 0.0813666 0.0704853 0.0704434 0.0681296 0.0756017 0.0666786 0.0658224 0.0644899 0.0741617 0.0739293 0.0690115 0.11785 0.062803 0.0620216 0.0722829
threshold=1.8116500377655032 -0.090244498103857027 12.500000000000002 6.2728998661041269 0.088411998003721251 -0.31479999423027033 0.27952499687671667 -1.5572000145912168 6.9756500720977792 4.76889991760254 21.500000000000004 -1.7062500119209287 1.738600015640259 -0.79774001240730275 1.9449999928474428 1.5298500061035158 0.20715999603271487 -1.211149990558624 6.9349501132965097 21.278999328613285 2173.5000000000005 0.44539999961853033 -0.34399500489234919 -0.5327949821949004 -1.627749979496002 -0.49835999310016627 1.3338999748229983 -0.11507000029087065 0.43694499135017401 2.3682500123977666
decision_type=2 2 2 2 2 2 2 2 2 2 2 2 2 2 2 2 2 2 2 2 2 2 2 2 2 2 2 2 2 2
left_child=1 2 11 7 12 6 -6 8 -2 10 16 -1 -4 -14 15 -11 -3 -5 -7 -20 21 -9 23 25 -24 26 -13 -12 29 -29
right_child=3 9 4 17 5 18 -8 20 -10 14 27 22 13 -15 -16 -17 -18 -19 19 -21 -22 -23 24 -25 -26 -27 -28 28 -30 -31
leaf_value=-0.002489815879307571 -0.00062650515346512675 0.0055494545620273462 -0.0011210952572902188 -0.00083940219335257998 0.0020289629651808446 -0.0021815589174462974 -0.0014285067462444171 0.00085119232268910489 0.0061364111935962801 -0.0015877341626272087 -0.002816212848376702 -0.0039233479648828505 -0.00094325658954187014 0.00081894513413073946 -0.0040630358241828561 0.0028537436564154222 -0.00013999557122588158 0.0003119128062848894 -0.0058878630765580708 0.00072388772497929284 -0.0028982469375478104 -0.0028593547312387576 -0.0040365902904533979 -0.0033184640189652804 0.00081688011785774448 -0.00080084539640328629 0.0012296668604853316 0.00083786238728509861 0.0043822626357099843 0.0066080542807669743
leaf_count=160 599 22 4920 625 81 941 774 11932 23 186 34 50 563 426 79 53 2129 3550 98 21 48 48 33 93 641 1241 395 387 70 23
internal_value=0 -0.0076219 -0.00984461 0.0060794 -0.0118276 -0.0185691 -0.0110096 0.00762524 -0.00376429 0.000154987 0.00191851 -0.0039069 -0.00964287 -0.00184209 -0.0146242 -0.00602804 -0.00081805 0.0013956 -0.0246666 -0.0472108 0.00821422 0.00836325 -0.00253772 -0.00569373 0.00579247 -0.00417733 0.00650676 0.0133705 0.0163124 0.0116156
internal_count=30245 13420 10437 16825 7824 1915 855 12650 622 2983 2665 2613 5909 989 318 239 2151 4175 1060 119 12028 11980 2453 1779 674 1686 445 514 480 410
shrinkage=0.1


Tree=2
num_leaves=31
num_cat=0
split_feature=46 73 60 43 75 75 7 16 96 58 73 105 11 23 47 63 57 70 55 102 28 16 0 41 15 60 54 2 90 46
split_gain=0.42786 0.284046 0.140742 0.12382 0.0997034 0.087449 0.0777535 0.0772169 0.0929533 0.076506 0.0746354 0.0849616 0.0711882 0.0691751 0.0668755 0.105237 0.117726 0.0753028 0.0674611 0.0713149 0.0667679 0.0695884 0.0666078 0.065407 0.0650511 0.0673288 0.0668417 0.0650467 0.0660953 0.0640412
threshold=3.1148000955581669 0.40534000098705297 0.87392500042915355 0.95056498050689708 0.99181500077247631 0.99296498298645031 0.99500000476837169 8.2560000419616717 -1.4868000149726865 0.30137999355793005 0.34157499670982366 0.39694499969482427 21.980999946594242 1.0000000180025095e-35 0.98325499892234813 0.98361998796463024 0.31084500253200537 -1.0999500155448911 5.9437999725341806 6.2072000503540048 1.3586999773979189 12.998000144958498 2.0247499942779545 0.37918500602245336 1.1977000236511233 0.93250998854637157 1.6338999867439272 7.0220499038696298 6.3025000095367441 -0.48341000080108637
decision_type=2 2 2 2 2 2 2 2 2 2 2 2 2 2 2 2 2 2 2 2 2 2 2 2 2 2 2 2 2 2
left_child=1 2 3 4 10 24 9 8 -5 23 27 13 -9 -12 -2 22 20 -18 19 -19 -17 -22 -16 -3 26 -26 -4 28 -1 -6
right_child=14 6 5 7 29 -7 -8 12 -10 -11 11 -13 -14 -15 15 16 17 18 -20 -21 21 -23 -24 -25 25 -27 -28 -29 -30 -31
leaf_value=0.00048225455978921216 0.00064147844016383638 -0.00043505873036338017 0.00049114218279208081 -0.0044276910011831205 -0.0018735804594314832 -0.00033586566777951557 0.00021537577050049009 -0.0010931999358423173 0.0012554441074966096 -0.0014359480661161042 0.0046211977963269294 -0.0034182655526345355 0.00070398288007404762 -0.00038007381507394132 -0.0018256843474346728 -0.0003169805012879375 -0.0016877368939781771 0.0022240104326858878 -0.003802582018432163 -0.0035936355760151691 -0.0066786741398067936 0.00046003511048514742 0.0018904533779079266 0.0049367228166802843 0.00085406205624434506 0.0027861189269710201 -0.0012799192711176501 -0.00045749114219920985 -0.0014900836449032282 -0.00027710451178058094
leaf_count=4239 8548 68 2113 32 473 1340 369 2833 286 2622 28 92 239 2251 392 363 72 499 21 22 36 22 55 34 926 224 237 1096 177 536
internal_value=0 -0.00264934 -0.00105614 -0.00285593 -0.00089546 0.00351102 -0.0114689 -0.00799827 0.00683556 -0.0133142 0.000302536 -0.004389 -0.0095338 -0.00318628 0.00533962 -0.0008618 0.00467608 0.0135073 0.0175437 0.0197835 -0.00820369 -0.0397089 -0.0136844 0.0135554 0.00614113 0.0123039 0.00312529 0.00232061 0.004032 -0.010255
internal_count=30245 20215 17122 12282 8892 4840 3093 3390 318 2724 7883 2371 3072 2279 10030 1482 1035 614 542 521 421 58 447 102 3500 1150 2350 5512 4416 1009
shrinkage=0.1


Tree=3
num_leaves=31
num_cat=0
split_feature=78 48 69 70 80 112 100 14 13 39 64 85 6 85 83 0 11 58 99 102 36 9 57 56 9 65 39 35 29 44
split_gain=0.526689 0.164196 0.100916 0.0858357 0.0683561 0.0737631 0.0734437 0.0668395 0.063693 0.0713884 0.0688484 0.0630826 0.119038 0.0762825 0.0718303 0.0759072 0.0758764 0.0947156 0.0697718 0.0806062 0.0648776 0.0845183 0.0678456 0.0864058 0.0748138 0.0774023 0.0624311 0.0620884 0.0729322 0.0661012
threshold=-1.4654499888420103 2.3787000179290776 16.763999938964847 -1.7220000028610227 0.46754500269889837 -1.3020499944686887 11.836500167846681 355.38000488281256 3.9495999813079838 4.0173501968383798 0.072230000048875823 113.18500137329103 0.29296499490737921 11.508999824523928 4.0622501373291025 1.0857500433921816 22.69999980926514 2.2677500247955327 5.9418001174926767 0.86967498064041149 2.9981499910354619 0.84600001573562633 0.34834499657154089 1.315050005912781 0.71303498744964611 0.87025499343872081 2.5595500469207768 1.1216000318527224 0.79943001270294201 0.90470001101493847
decision_type=2 2 2 2 2 2 2 2 2 2 2 2 2 2 2 2 2 2 2 2 2 2 2 2 2 2 2 2 2 2
left_child=-1 2 3 -2 5 -5 11 -8 9 10 -3 13 -13 14 16 -16 17 18 20 -20 22 26 24 -24 25 -7 -22 28 -18 -29
right_child=1 8 -4 4 -6 6 7 -9 -10 -11 -12 12 -14 -15 15 -17 27 -19 19 -21 21 -23 23 -25 -26 -27 -28 29 -30 -31
leaf_value=-0.00070806883169479784 -0.001962856410325251 -0.0051729401750933565 0.0013518290566540995 -0.00078404723582151451 -0.00069915464592527595 0.0011991567697056803 -0.0007367845007329681 0.0042117362093579561 0.0010217686108452018 -0.0006938934486298698 0.00056593189781252646 -0.0055273855333307798 0.0021114634623860614 0.0012608591534223382 -0.0050688804814680707 0.00099358841382665556 0.0019046911532341533 -0.0010300558330045043 0.0024694661962602177 -0.0030646630774180481 0.00048494423121542393 0.0020660790774988335 0.00055055401995088217 0.0066389982239343226 -0.00073155836603036616 -0.00027120603168818822 -0.0017127845111376734 0.00038342682802285284 -0.0041286403203711795 0.0019998877580810113
leaf_count=7797 220 21 572 887 1183 531 1084 28 2602 522 4599 51 34 715 21 1250 33 835 33 130 1844 327 810 24 1767 1099 139 597 51 439
internal_value=0 0.00245938 0.000496664 -3.03931e-05 0.000279526 0.000955281 0.00161411 -0.00612181 0.0061861 0.00414601 0.00539846 0.00241582 -0.0247185 0.00263248 0.00191416 0.00893422 0.000883735 -0.000257228 0.000993693 -0.0194426 0.00150296 0.00576523 -0.000824113 0.00725761 -0.00280826 0.00207789 0.00330893 0.00856385 -0.017584 0.0106839
internal_count=30245 22448 14704 14132 13912 12729 11842 1112 7744 5142 4620 10730 85 10645 9930 1271 8659 7539 6704 163 6541 2310 4231 834 3397 1630 1983 1120 84 1036
shrinkage=0.1


Tree=4
num_leaves=31
num_cat=0
split_feature=17 78 112 2 12 17 104 36 1 99 30 17 46 0 90 0 48 8 31 105 7 4 99 5 32 6 55 36 104 87
split_gain=0.900141 0.149446 0.119811 0.0981136 0.0856177 0.0759425 0.0729003 0.0717294 0.0834269 0.0688878 0.0634607 0.0631025 0.0762956 0.0731925 0.0721179 0.0643516 0.0614543 0.0663551 0.0791669 0.0593643 0.109131 0.0627087 0.0778117 0.0573016 0.0687823 0.0646809 0.0645261 0.0744356 0.0672509 0.0641217
threshold=1.8116500377655032 -0.090244498103857027 -1.3677999973297117 6.2728998661041269 0.83318501710891735 1.738600015640259 1.7572500109672549 6.9349501132965097 1.7357000112533572 1.8503500223159792 4.7918999195098886 2.1053999662399296 0.11620000004768373 1.3744500279426577 7.9546999931335458 1.6978500485420229 0.13053999841213229 0.75907000899314891 0.92128500342369091 0.34135000407695776 0.83000501990318309 1.3878499865531924 1.5395500063896181 0.89768001437187206 -0.26415500044822687 0.29656499624252325 1.3327500224113467 5.2980999946594247 1.0480499863624575 5.500349998474122
decision_type=2 2 2 2 2 2 2 2 2 2 2 2 2 2 2 2 2 2 2 2 2 2 2 2 2 2 2 2 2 2
left_child=1 4 -2 -4 7 23 -7 16 9 -9 -3 12 13 -5 15 -15 17 -1 -19 21 -21 -13 -23 24 26 29 27 28 -6 -26
right_child=2 10 3 11 5 6 -8 8 -10 -11 -12 19 -14 14 -16 -17 -18 18 -20 20 -22 22 -24 -25 25 -27 -28 -29 -30 -31
leaf_value=-0.00066608755587983955 -0.00049295854495243067 0.00017043718061849944 0.00070047989579481772 0.0034862475463959541 0.0039830963982703084 0.0003199354681305464 -0.0021668870700523256 -0.0021590237260430251 -0.003519495725692272 0.0055251612351275986 -0.0013410296814606315 -5.5101552955162378e-05 -0.00062335354355907838 -0.001814618491053838 0.004666565467736551 0.00065977746689038753 -0.0013946387552896571 0.0048321528623301467 -0.0011726624029075826 0.0017381950866783393 -0.0016494922142535366 -0.00070138267431132223 0.0019405175699466781 0.00017615543346915206 -0.0013314712265977224 -0.00053199217440874603 -0.00073808405851898129 -0.0027529752257490353 -0.0004400130423600785 0.00069081983148035686
leaf_count=472 1161 2673 11906 81 110 1177 131 28 243 20 310 405 1521 145 35 382 1737 52 38 148 266 135 640 590 3151 2205 237 31 50 165
internal_value=0 -0.00610843 0.00487222 0.00559872 -0.00789247 -0.006247 0.00070873 -0.0128778 -0.0276697 0.0104272 0.000133622 0.00114403 -0.00237287 0.00675943 0.00270899 -0.000210336 -0.0110055 -0.00191606 0.0229679 0.00591855 -0.00438435 0.00953329 0.0148032 -0.00763835 -0.0085706 -0.00951734 0.00364186 0.0173193 0.0260087 -0.0123084
internal_count=30245 13420 16825 15664 10437 7847 1308 2590 291 48 2983 3758 2164 643 562 527 2299 562 90 1594 414 1180 775 6539 5949 5521 428 191 160 3316
shrinkage=0.1


Tree=5
num_leaves=31
num_cat=0
split_feature=17 78 112 18 12 2 28 111 7 2 2 72 35 18 37 47 113 1 40 50 25 25 58 102 87 25 32 2 14 46
split_gain=0.729114 0.121051 0.097047 0.0942687 0.0987777 0.079472 0.0750517 0.0661963 0.0706559 0.0649296 0.0731129 0.069615 0.0664969 0.0829375 0.0677628 0.0784405 0.0704539 0.0669304 0.0636525 0.0630084 0.0785296 0.0613971 0.0604376 0.063811 0.0631749 0.0603274 0.094636 0.0603085 0.0612223 0.0600022
threshold=1.8116500377655032 -0.090244498103857027 -1.3677999973297117 12.500000000000002 0.70098999142646801 6.2728998661041269 0.95306000113487255 0.95802497863769542 0.60952499508857738 2.0782500505447392 3.463250041007996 0.2793049961328507 2.2501499652862553 22.500000000000004 4.2450499534606942 0.97027498483657848 0.024080500006675724 1.6437500119209292 2.028750061988831 0.19170499593019488 0.36707998812198644 0.41818501055240637 0.57331499457359325 -1.1474000215530393 1.2348499894142153 0.27896000444889074 0.62713000178337108 7.8571500778198251 2.060250043869019 -0.33703999221324915
decision_type=2 2 2 2 2 2 2 2 2 2 2 2 2 2 2 2 2 2 2 2 2 2 2 2 2 2 2 2 2 2
left_child=1 3 -2 -1 7 -4 -3 8 18 -6 11 -11 14 19 17 22 -17 -12 -5 25 -21 -19 -16 -24 -25 26 -14 -27 -29 -15
right_child=2 6 5 4 9 -7 -8 -9 -10 10 12 -13 13 29 15 16 -18 21 -20 20 -22 -23 23 24 -26 27 -28 28 -30 -31
leaf_value=-0.00019027809896328103 -0.00044366266570364037 0.00010049688637315897 0.00063043188157148539 0.00025347155464315542 0.00054875966409997836 0.00010296277160328298 -0.0028318242648512956 -0.0045109757855768583 -0.002701639490071928 -0.00017874901170014508 -0.0036061400091754294 -0.0016435744199874128 -0.00073401653282146196 -0.0002127193731239651 0.0043946559062331093 0.0027369082587855786 -0.0023098512061828017 -0.0011221500194327427 -0.0055380581445725902 -0.0009312942765478167 -0.004232456279402998 0.002529529302797102 0.0025244888657644064 -0.0041122048739634922 0.00032016094028665799 9.4095439928063175e-05 0.0056820217970137803 -0.0043481013226482901 0.0018743970520084816 0.001700126631319738
leaf_count=2613 1161 2893 11906 197 349 3758 90 97 282 405 107 1631 47 331 45 33 171 2261 21 507 84 47 101 40 164 449 45 64 21 325
internal_value=0 -0.00549759 0.004385 -0.00710323 -0.00884003 0.00503885 0.000120259 -0.0212026 -0.0165646 -0.0078188 -0.00849399 -0.0135219 -0.00637981 -0.00171402 -0.00932323 0.000651345 -0.0149346 -0.0116114 -0.00304428 -0.00659957 -0.0140049 -0.0104779 0.00973575 0.00468825 -0.0054893 0.000391772 0.0240426 -0.00368291 -0.0281078 0.00734956
internal_count=30245 13420 16825 10437 7824 15664 2983 597 500 7227 6878 2036 4842 1873 2969 554 204 2415 218 1217 591 2308 350 305 204 626 92 534 85 656
shrinkage=0.1


Tree=6
num_leaves=31
num_cat=0
split_feature=17 78 112 88 18 107 114 4 96 73 43 112 73 25 51 24 72 28 29 36 97 46 21 57 36 102 112 15 62 39
split_gain=0.590582 0.0980517 0.0800049 0.0775609 0.0763576 0.0757476 0.0670186 0.0749779 0.0649049 0.0682511 0.0667944 0.0638318 0.0730462 0.117786 0.0767678 0.0834886 0.0615714 0.0607919 0.0671349 0.0603575 0.05925 0.0587501 0.0700527 0.0587309 0.0915756 0.0579978 0.0576459 0.0571318 0.0553993 0.0588008
threshold=1.8116500377655032 -0.090244498103857027 -1.0641499757766721 -0.73183000087738026 12.500000000000002 0.91265499591827404 0.088411998003721251 2.1225500106811528 -0.31479999423027033 0.27952499687671667 0.98266500234603893 0.13257499784231189 0.24706000089645389 0.26547500491142279 1.5833500027656557 1.7594500184059145 -0.037224000319838517 0.95306000113487255 0.9048449993133546 4.6777498722076425 0.022917999885976318 -1.7062500119209287 2.0001000165939335 0.29194499552249914 5.0729501247406015 -1.0000000180025095e-35 0.12299999967217447 10.16249990463257 -0.22507999837398526 1.4073500037193301
decision_type=2 2 2 2 2 2 2 2 2 2 2 2 2 2 2 2 2 2 2 2 2 2 2 2 2 2 2 2 2 2
left_child=1 4 5 16 21 -2 7 -6 9 -8 19 12 13 -5 -15 23 -4 18 -3 -10 -9 22 -1 -16 25 -25 -14 -23 -24 -30
right_child=2 17 3 11 6 -7 8 20 10 -11 -12 -13 26 14 15 -17 -18 -19 -20 -21 -22 27 28 24 -26 -27 -28 -29 29 -31
leaf_value=-0.0058429572084679497 -0.00045267105814761018 3.1275837902125716e-05 0.0016075411932947843 -0.0029681330218510188 -0.00068686976370843048 0.0014064149325791833 0.0021003565828626356 -0.0025916007980673126 -0.0011516397708905334 -0.00095052070444578409 -0.0039464949809568323 3.2183746029641261e-05 0.00062615832690096087 0.0022269023842656881 -0.0029113004349970392 0.0023269664649510891 -0.0045882192027386073 -0.0025486418441545942 0.0040122715398929155 -0.0032315314774965182 0.0025014294585543537 -0.00015471824497203027 -0.0035330756879602635 -0.00060748877236619595 -0.0032869533464116489 0.0040280299419361469 0.0037866622819725812 0.0021771571051265874 -0.00098642274643457066 0.0051635446267689327
leaf_count=37 1682 2850 23 144 5757 252 81 28 758 774 131 2530 11566 144 126 82 53 90 43 171 124 2343 48 55 57 53 58 110 53 22
internal_value=0 -0.00494783 0.0039465 0.00473236 -0.0063929 -0.00210432 -0.00795603 -0.00628989 -0.0130971 -0.0066149 -0.0183257 0.00489583 0.0058378 -0.00438778 0.00265723 -0.00491408 -0.0271319 0.000108233 0.000904472 -0.0153448 0.0156324 -0.0017125 -0.0202787 -0.0128559 -0.000441372 0.0166735 0.00641928 -0.000501498 -0.00880244 0.00817568
internal_count=30245 13420 16825 14891 10437 1934 7824 5909 1915 855 1060 14815 12285 661 517 373 76 2983 2893 929 152 2613 160 291 165 108 11624 2453 123 75
shrinkage=0.1


Tree=7
num_leaves=31
num_cat=0
split_feature=17 94 113 32 68 94 89 32 8 71 4 44 67 10 112 68 104 6 83 113 109 12 30 25 14 55 42 76 9 103
split_gain=0.49018 0.107857 0.0769335 0.0759635 0.0758919 0.0752169 0.108862 0.0713435 0.0707039 0.0678617 0.0738163 0.0769224 0.0673522 0.0657405 0.0678204 0.0671405 0.0703059 0.0660148 0.0647065 0.0867563 0.0633426 0.0625079 0.061011 0.0579981 0.056496 0.056959 0.0770764 0.0659497 0.0699706 0.0559146
threshold=1.738600015640259 -1.8136500120162962 0.075617499649524703 -0.26415500044822687 20.869000434875492 -1.7332499623298643 0.34993998706340795 1.025150001049042 0.9548499882221223 2.4865999221801762 1.4980500340461733 0.89348500967025768 2.8284499645233159 0.50770500302314769 0.13257499784231189 6.325050115585328 1.7572500109672549 0.23687500506639483 1.2857499718666079 -0.23659000545740125 0.8087650239467622 0.71803501248359691 -0.1583449989557266 0.30110499262809759 114.0900001525879 1.7709500193595888 1.9670000076293948 0.92466500401496898 0.62885499000549328 1.1306499838829043
decision_type=2 2 2 2 2 2 2 2 2 2 2 2 2 2 2 2 2 2 2 2 2 2 2 2 2 2 2 2 2 2
left_child=1 -1 4 24 18 6 -5 13 -6 10 12 -12 -9 17 15 16 -15 -4 19 -2 -19 -7 -17 -16 25 26 27 28 -3 -20
right_child=2 3 7 5 8 21 -8 9 -10 -11 11 -13 -14 14 23 22 -18 20 29 -21 -22 -23 -24 -25 -26 -27 -28 -29 -30 -31
leaf_value=4.9758325153357778e-05 0.0041819706167602402 0.0013862263884090811 -0.0022815277554571675 -0.0053369702115956263 0.0017480588946594473 -0.0015700108686850876 0.00017354508159593435 0.0007944177989718499 -0.002488831218354227 -0.00036671514827298275 0.00025254502553977761 -0.0023544417586293157 0.0032247899151293608 0.0016867355509360854 0.0014143909127451481 -0.00017356090187930909 -0.0043792013218626382 -0.00028546333214514913 -0.00088634499373674974 -0.00032071548711555737 -0.002613476618370485 -0.00063638763517676804 -0.0062460215629211498 -0.0046172430156730115 -0.0036684929024298021 -0.0011869974264841195 -0.0020298204985010671 0.0024361796888855941 -0.0029175988157492199 0.00052418315693965117
leaf_count=2588 44 112 223 85 633 797 62 1563 42 1033 651 137 123 428 25 78 20 1614 289 1558 126 7155 21 44 34 153 72 280 57 10198
internal_value=0 -0.00517785 0.00313006 -0.00684562 0.00452506 -0.00771396 -0.0301281 0.000204362 0.0148443 0.00314045 0.00598291 -0.002007 0.00971723 -0.00378822 0.0052246 0.00895127 0.0141593 -0.00661649 0.00394888 -0.00197046 -0.00454044 -0.00729961 -0.0146166 -0.0243187 0.00308754 0.00509387 0.0100756 0.0149462 -0.000653596 0.00485312
internal_count=30245 11395 18850 8807 12764 8099 147 6086 675 3507 2474 788 1686 2579 616 547 448 1963 12089 1602 1740 7952 99 69 708 674 521 449 169 10487
shrinkage=0.1


Tree=8
num_leaves=31
num_cat=0
split_feature=73 60 7 47 19 56 16 42 100 102 105 105 22 62 92 32 82 42 9 71 103 54 76 22 60 2 90 29 29 2
split_gain=0.156787 0.0904817 0.069472 0.0685204 0.0782427 0.0639046 0.0609431 0.101212 0.0727975 0.0593428 0.0592409 0.0758658 0.0618929 0.0720852 0.0729121 0.0644461 0.0636832 0.0624301 0.0611719 0.0609659 0.0591183 0.0599179 0.0579477 0.0590192 0.0868991 0.0887822 0.0966354 0.0651031 0.0760991 0.0960423
threshold=0.40534000098705297 0.87392500042915355 0.99500000476837169 0.95670500397682201 19.1254997253418 1.6128000020980837 17.506000518798832 3.2673499584198002 11.262499809265138 -1.7610000371932981 0.36087499558925634 0.30038499832153326 -1.0561500191688535 6.8259000778198251 0.90622499585151683 -0.26415500044822687 0.022385499440133575 5.4312999248504648 0.76753500103950512 1.8053500056266787 1.0600499510765078 -1.1879499554634092 0.97503501176834118 -0.17859999835491178 0.82505500316619884 5.6895501613616952 7.2344999313354501 0.71869498491287243 0.69994500279426586 3.463250041007996
decision_type=2 2 2 2 2 2 2 2 2 2 2 2 2 2 2 2 2 2 2 2 2 2 2 2 2 2 2 2 2 2
left_child=1 3 9 4 22 -3 -7 8 -8 -2 11 -5 15 17 18 -13 -16 -14 19 -15 -4 -22 23 24 25 26 -1 28 -25 -30
right_child=2 5 20 10 -6 6 7 -9 -10 -11 -12 12 13 14 16 -17 -18 -19 -20 -21 21 -23 -24 27 -26 -27 -28 -29 29 -31
leaf_value=0.00011426670811454823 0.0030201191982632738 0.00043627938418711238 -0.004458927233512937 -1.8057710613031272e-05 0.0021756827553945607 -0.00050872673447063723 0.001052432433337074 0.0059222325411657298 -0.0052391685146306252 -0.00085754978880648886 0.00026809777116580267 0.0040885132393201021 -0.0020228582112549395 0.0020264305143468885 -0.00026320258593381902 -0.00032694906126204594 -0.0026671545690480913 0.001363182802929416 0.005607063089963049 -0.0013187416768921149 0.003021667132593065 0.00015056423199611942 -0.00064203449377990822 0.00058965924125599172 0.00061743302886692981 -0.00088934411678268761 -0.0026238437618161048 2.4775646185142506e-06 -0.0013017818542834904 0.0038095922805116791
leaf_count=3383 40 8178 22 1549 174 1348 148 39 21 2958 1122 35 890 111 277 595 183 58 25 107 97 290 1129 1998 1404 1596 134 2129 48 157
internal_value=0 0.000811222 -0.00639025 -0.000573945 0.000703751 0.00324515 -0.00262891 0.0133031 0.00270636 -0.00805813 -0.00370936 -0.00558141 -0.00924905 -0.0124668 -0.00479362 -0.000816456 -0.0121956 -0.018157 0.00921831 0.00384534 0.00583543 0.00870195 0.000397921 0.00110746 -0.000794151 -0.00270765 9.94291e-05 0.00396822 0.00777921 0.0261278
internal_count=30245 26838 3407 17104 12152 9734 1556 208 169 2998 4952 3830 2281 1651 703 630 460 948 243 218 409 387 11978 10849 6517 5113 3517 4332 2203 205
shrinkage=0.1


Tree=9
num_leaves=31
num_cat=0
split_feature=17 100 31 25 73 59 102 82 112 88 14 10 58 41 53 113 29 101 79 6 35 67 52 30 0 3 6 87 113 110
split_gain=0.365809 0.0700384 0.0747426 0.0639901 0.063231 0.076359 0.0622906 0.0777672 0.0595898 0.0673364 0.0660207 0.0593525 0.0592871 0.0591079 0.0582073 0.0575226 0.0561855 0.0689044 0.0547654 0.0593726 0.0547587 0.0717404 0.0645975 0.0682811 0.0836379 0.0620258 0.075523 0.0614683 0.0711899 0.0610999
threshold=1.8116500377655032 24.362999916076664 0.97204500436782848 0.25673499703407293 0.32311500608921057 0.95606499910354625 0.36882999539375311 0.011932500172406437 -0.98679998517036427 -0.73183000087738026 0.26782000064849859 0.62292501330375682 27.458499908447269 0.43694499135017401 6.6549999713897714 0.074975501745939269 0.77587500214576732 22.760499954223636 0.99484500288963329 0.32576499879360205 1.1216000318527224 15.145499706268312 9.0599503517150897 0.58565500378608715 1.2865499854087832 -1.2991500496864317 0.29852500557899481 2.0238499641418461 0.085152499377727522 -1.0472499728202818
decision_type=2 2 2 2 2 2 2 2 2 2 2 2 2 2 2 2 2 2 2 2 2 2 2 2 2 2 2 2 2 2
left_child=1 2 4 15 13 12 7 -3 10 -10 -2 -7 -6 -1 -15 -4 -5 -18 19 -9 21 22 23 25 -25 26 -11 28 -26 -28
right_child=8 6 3 16 5 11 -8 18 9 20 -12 -13 -14 14 -16 -17 17 -19 -20 -21 -22 -23 -24 24 27 -27 29 -29 -30 -31
leaf_value=-2.052360790933795e-05 0.0018549127717015169 0.0023747987137433314 -0.0032739002919425367 -0.0017436810903859899 -0.00047044789508647925 -0.0004497062246324883 -0.0031080883353300057 -0.0016358419645366665 -0.0026238647012694462 -0.0086718535316841951 -0.00030915988875557178 0.004250826994644203 -0.0055575616141457273 0.0024315377113168098 -0.0030424287722615358 0.0017009499892419963 -0.00031454828591916752 -0.0029994042412467802 -0.0065569322102237496 0.003837383000857451 0.00046011099873944326 0.0030554124915469737 -0.0049123980255136573 0.002567244610082068 -0.0003593037707405617 -0.00058895649913655128 0.0017394877392156371 -0.0016574526655883917 0.0029739600846603997 -0.0039699114577950176
leaf_count=4300 151 64 167 415 5829 48 171 200 74 21 2123 61 23 166 22 27 1784 101 20 22 13229 63 31 141 206 430 29 181 93 53
internal_value=0 -0.00389405 -0.00345549 -0.00837425 -0.00228146 -0.00441595 -0.0157941 -0.00725155 0.00310598 0.00384996 -0.00165459 0.0218087 -0.00490442 0.000553588 0.0179097 -0.0258152 -0.00690314 -0.00458405 -0.0154498 -0.0109345 0.00400376 -0.00232828 -0.00407646 -0.00286634 0.00425997 -0.0111692 -0.0332106 -0.00202994 0.00677464 -0.0195073
internal_count=30245 13420 12943 2494 10449 5961 477 306 16825 14551 2274 109 5852 4488 188 194 2300 1885 242 222 14477 1248 1185 1154 621 533 103 480 299 82
shrinkage=0.1


Tree=10
num_leaves=31
num_cat=0
split_feature=73 13 31 43 103 11 18 7 56 27 2 26 58 66 66 43 37 3 38 101 33 100 54 51 61 33 110 4 62 58
split_gain=0.117859 0.0911829 0.0873986 0.0713785 0.0711585 0.0687723 0.0661315 0.0654343 0.0723248 0.0728856 0.0632159 0.0627262 0.0601387 0.0741059 0.0753393 0.0690327 0.0626613 0.067055 0.0654776 0.0651409 0.0769898 0.0767787 0.0603193 0.0778085 0.0723429 0.128115 0.0667264 0.0591569 0.0588226 0.0584607
threshold=0.45900999009609228 2.6033500432968144 0.94978499412536632 0.94434499740600597 1.1245500445365908 18.681500434875492 27.500000000000004 0.79112499952316295 0.74015501141548168 0.891270011663437 1.6539499759674074 0.40253500640392309 0.60374999046325695 2.1554499864578252 2.0929999351501469 1.070949971675873 9.0008502006530779 -0.85576000809669484 3.1532000303268437 1.9073500037193301 0.055020499974489219 9.7512497901916522 1.7003499865531924 2.4408999681472783 0.82025501132011425 0.080350499600172057 -0.82293000817298878 1.7166000008583071 -1.2188499569892881 1.1355000138282778
decision_type=2 2 2 2 2 2 2 2 2 2 2 2 2 2 2 2 2 2 2 2 2 2 2 2 2 2 2 2 2 2
left_child=1 6 3 28 27 11 12 8 9 -8 -6 -2 13 14 22 16 -14 -18 19 21 -21 -19 23 -1 -24 -26 -25 -4 -3 -5
right_child=5 2 4 29 10 -7 7 -9 -10 -11 -12 -13 15 -15 -16 -17 17 18 -20 20 -22 -23 24 26 25 -27 -28 -29 -30 -31
leaf_value=-9.2476361553079278e-05 -0.0026201373232565641 -0.0036898988572093439 -0.00025114521093886391 -0.0016634529897631744 0.0026633844794087887 -0.0064463717741256761 0.0042861012082236506 -0.00045233970674758792 0.0043152014506928514 -0.0011878431830555202 0.00044968360523328074 -0.00055692200180552194 -0.00040818090163037194 0.00089773807899103672 -0.0049252236673055453 -0.002461756555652719 0.0010864591347975268 0.0019838989774309999 0.0030052309848282938 0.0033415304056393941 -0.0013771768185320485 -0.0038001113316837561 1.07989070205473e-05 5.9258934670874986e-05 -0.0002508428605137735 -0.0062129533817077672 0.0028672674372666571 -0.0033254189169594512 6.7675657591301797e-05 0.00031388122111119957
leaf_count=2633 168 42 674 476 131 22 36 141 98 75 8448 1199 7414 968 32 149 630 153 56 37 528 27 176 163 78 67 176 69 5161 218
internal_value=0 0.0004331 0.00211579 -0.000897201 0.00402178 -0.0089975 -0.0014448 0.0121235 0.0233541 0.0058749 0.00483486 -0.00810485 -0.00180221 0.00127714 -0.000964608 -0.00327204 -0.00291246 0.00314593 -0.00292492 -0.00540375 -0.0106816 0.011163 -0.000495369 0.000911198 -0.0135182 -0.0300575 0.015171 -0.00536643 0.000373435 -0.0104233
internal_count=30245 28856 15219 5897 9322 1389 13637 350 209 111 8579 1367 13287 4293 3325 8994 8845 1431 801 745 565 180 3293 2972 321 145 339 743 5203 694
shrinkage=0.1


Tree=11
num_leaves=31
num_cat=0
split_feature=78 73 51 2 13 31 58 34 103 10 21 26 56 94 92 4 107 12 80 22 39 5 31 89 29 54 22 25 32 1
split_gain=0.130393 0.0678601 0.0656717 0.0759869 0.0655507 0.0725911 0.0691651 0.101029 0.0888559 0.0781705 0.0964557 0.112338 0.0732839 0.0848949 0.0677593 0.0650557 0.0624614 0.0721508 0.0623177 0.0606708 0.0679097 0.0947932 0.0663631 0.0662518 0.064169 0.0832136 0.0639553 0.0733561 0.0620613 0.0601342
threshold=-1.4654499888420103 0.44111499190330511 1.1375499963760378 2.1426500082015996 4.0457999706268319 0.9655749797821046 2.6957999467849736 1.856750011444092 2.9671499729156499 0.42609000205993658 59.336500167846687 2.5152999162673955 1.9810500144958498 -1.157549977302551 0.87845999002456676 1.0483999848365786 0.95039498805999767 0.94143497943878185 -0.17261999845504758 -0.41263999044895167 2.852949976921082 -0.12800999730825421 0.7334749996662141 0.3213649988174439 0.81536501646041881 0.12875999510288241 0.36336500942707067 0.27344499528408056 1.203999996185303 2.5088499784469609
decision_type=2 2 2 2 2 2 2 2 2 2 2 2 2 2 2 2 2 2 2 2 2 2 2 2 2 2 2 2 2 2
left_child=2 4 -1 16 6 -6 7 9 -8 15 12 14 -11 -14 -12 -2 17 -4 -10 22 -21 -22 23 -17 26 -26 -23 -28 -25 -16
right_child=1 -3 3 -5 5 -7 8 -9 18 10 11 -13 13 -15 29 19 -18 -19 -20 20 21 24 -24 28 25 -27 27 -29 -30 -31
leaf_value=-0.001052545024613878 0.0015280225562173935 -0.0021129032514269324 0.002545945598974142 -0.00033113453039167163 8.9532086271816238e-05 0.00083146350683340137 -0.00080709796424297507 0.00059617100397870815 0.0018862968646844273 0.0002622330536820336 -0.0069689643658314123 0.0044694504963800957 -0.0043058887605197096 -0.00043151050251397712 -0.00036869028138051575 -0.0011609449845523861 -0.00021273922548888634 -0.002576908235524541 -0.00098400987143512403 0.00028651666483845778 -0.0045834424156371662 -0.0033529467725505434 -0.0013523237878113659 0.0004510181785888596 0.0012287628167541699 -0.0039074941881470137 -0.0022393120531341995 0.0026954432929593825 0.004647487625542064 -0.004796168323567448
leaf_count=1143 163 135 243 6127 2764 2522 1684 3375 233 7608 34 23 71 278 85 246 253 31 112 1227 69 33 1175 219 48 92 40 122 42 48
internal_value=0 0.0012237 -0.0035231 -0.00232026 0.00135894 0.00443515 0.000403939 0.00114525 -0.00507568 -0.000253321 0.00144064 -0.0208264 0.00197234 -0.0121971 -0.0298503 -0.0042236 0.00920223 0.0196635 0.00954487 -0.00518319 -0.000837438 -0.0120827 -0.00939718 0.000165187 -0.00513088 -0.0214649 0.00659612 0.0147699 0.0112631 -0.0196658
internal_count=30245 22448 7797 6654 22313 5286 17027 14998 2029 11623 8147 190 7957 349 167 3476 527 274 345 3313 1631 404 1682 507 335 140 195 162 261 133
shrinkage=0.1


Tree=12
num_leaves=31
num_cat=0
split_feature=17 89 20 1 66 38 32 25 4 105 43 41 11 32 11 43 30 40 38 28 57 11 3 18 24 100 2 43 3 102
split_gain=0.258689 0.063294 0.0631401 0.0840975 0.0882286 0.0742175 0.0615918 0.0666958 0.0643472 0.0823182 0.071852 0.0716256 0.0684125 0.0769904 0.0609428 0.0603938 0.0896095 0.0879973 0.109331 0.0754213 0.0605212 0.0813177 0.0766272 0.0694922 0.0621668 0.060342 0.0600421 0.0597078 0.0596595 0.0594701
threshold=1.738600015640259 0.38858500123023992 3.3584500551223759 2.5000499486923222 0.1203650012612343 -1.4323499798774717 -0.26415500044822687 0.27896000444889074 1.1885499954223635 0.34739500284194952 0.91969501972198497 0.39093500375747686 18.072499275207523 0.12578499317169192 7.7820501327514657 0.950975000858307 -0.96930497884750355 0.18108499795198443 -1.2035500407218931 0.82857498526573192 0.32229499518871313 2.8990000486373906 -0.67667001485824574 18.500000000000004 1.1171500086784365 1.8607000112533572 7.2146999835968026 0.96215498447418224 -0.062460498884320252 0.83193999528884899
decision_type=2 2 2 2 2 2 2 2 2 2 2 2 2 2 2 2 2 2 2 2 2 2 2 2 2 2 2 2 2 2
left_child=1 6 3 5 -5 -3 7 14 9 15 11 12 -10 -14 25 16 -8 19 -19 -17 22 -22 23 -18 -25 -1 28 -9 -20 -29
right_child=-2 2 -4 4 -6 -7 8 27 10 -11 -12 -13 13 -15 -16 17 20 18 26 -21 21 -23 -24 24 -26 -27 -28 29 -30 -31
leaf_value=-0.0046536193617452738 0.00022738592947006697 0.0012408193199497852 0.00094034519114704652 0.0035254553305276203 -0.0016777631958854321 -0.00033062093890875229 -0.003796718835867784 0.00023261553655705335 0.00042811333274865446 -0.0020340706001281909 -0.00067299413522123319 -0.0017004517836513779 -0.0075903970748186118 -0.00091166012695996154 0.0028302815566290051 0.002006484247976914 0.0015183910740445921 0.0034443556143759833 0.00040509637076626922 -0.003498351356107118 -0.0047102427799612864 -0.00061411074725015169 -0.0032598004502748762 -0.0045870777059107927 0.0015925172595652164 -0.00069671608993104666 -0.0046260802882898133 0.003190096279281063 -0.0043480857366895572 -0.002090945607284084
leaf_count=57 18850 449 624 35 473 909 122 480 1720 618 3909 209 20 126 31 32 223 103 464 112 78 128 60 41 27 119 28 145 28 25
internal_value=0 -0.0037615 0.000695493 -0.00221649 -0.0131927 0.0018895 -0.00500775 0.00305156 -0.00586596 -0.0106806 -0.0042053 0.000550763 0.00251703 -0.0182656 -0.012581 -0.00655197 -0.0134207 -0.000471332 0.00467828 -0.0227505 -0.00804424 -0.0216507 -5.8662e-05 0.00665048 -0.0213341 -0.0197821 -0.00121754 0.00802994 0.0013459 0.0241347
internal_count=30245 11395 2490 1866 508 1358 8905 857 8048 2064 5984 2075 1866 146 207 1446 679 767 623 144 557 206 351 291 68 176 520 650 492 170
shrinkage=0.1


Tree=13
num_leaves=31
num_cat=0
split_feature=17 16 86 7 59 7 74 53 27 44 75 58 4 87 113 65 75 54 41 4 105 10 70 38 51 113 32 105 13 58
split_gain=0.209538 0.0639877 0.0613755 0.0556097 0.084693 0.0605209 0.0667058 0.0703083 0.0601377 0.0574728 0.0579748 0.0531186 0.0473841 0.0619211 0.0670847 0.0509709 0.0577853 0.0530493 0.0684399 0.0563506 0.0521171 0.0504894 0.0489226 0.0626975 0.0569604 0.0478048 0.0472524 0.0536619 0.0587811 0.062052
threshold=1.738600015640259 23.1879997253418 -1.4463999867439268 1.313849985599518 0.79935500025749218 0.6057800054550172 1.6093000173568728 5.9709000587463388 0.76484498381614696 0.98494002223014843 0.99895501136779796 1.9615499973297121 1.9464499950408938 1.078049957752228 0.028998499736189846 -39.631000518798821 0.99296498298645031 5.5947999954223642 0.29589499533176428 1.6109499931335451 0.30460500717163091 0.39519999921321874 4.7897498607635507 3.0401500463485722 3.6078000068664555 6.0024499893188485 -0.26415500044822687 0.35360001027584081 2.5633000135421757 0.97316497564315807
decision_type=2 2 2 2 2 2 2 2 2 2 2 2 2 2 2 2 2 2 2 2 2 2 2 2 2 2 2 2 2 2
left_child=2 12 3 5 8 6 7 9 -5 10 -1 -7 15 21 -15 -2 -17 18 19 22 25 -14 23 -18 -25 -21 27 28 29 -4
right_child=1 -3 26 4 -6 11 -8 -9 -10 -11 -12 -13 13 14 -16 16 17 -19 -20 20 -22 -23 -24 24 -26 -27 -28 -29 -30 -31
leaf_value=0.0004828767144949043 0.0026544585538995935 0.0046725570777198305 -4.9302374124556926e-05 0.0018441342412760216 0.0040876038031586051 -0.00034525557863836182 -0.0033289220100414241 0.0036678779515477802 -0.0045774910716136225 -0.0042685481930675451 0.0044046312631689944 -0.0046069182513262304 -0.0011629844666458666 0.0016682752086867201 -0.00051733749912984421 0.00029952319111610271 -0.0016519406906793069 0.0027517376242783566 7.0325880203370167e-05 -0.0022512136853665341 0.0035506100330692583 -0.0067962325446737498 -0.0038892621895380824 0.0038703171553924076 -0.0011167844092207296 0.0029798611942678695 -0.00052445057431013936 0.0017407676491207444 0.0014469964889234261 -0.0025668745305996378
leaf_count=654 87 32 379 35 84 1166 40 80 25 24 40 30 41 162 1055 15110 448 58 1536 58 45 26 75 43 49 25 8347 189 170 132
internal_value=0 0.00204647 -0.00338535 0.00138891 0.0203796 4.44408e-05 0.00656104 0.00855854 -0.00831543 0.00542537 0.00708914 -0.00452153 0.0019705 -0.00389342 -0.00226401 0.00239991 0.00227951 -0.00234804 -0.00310811 -0.0109873 0.00810184 -0.0334902 -0.0149604 -0.0116364 0.0121414 -0.00675589 -0.00451352 0.00249979 -0.00163765 -0.00699634
internal_count=30245 18850 11395 2178 144 2034 838 798 60 718 694 1196 18818 1284 1217 17534 17447 2337 2279 743 128 67 615 540 92 83 9217 870 681 511
shrinkage=0.1


Tree=14
num_leaves=31
num_cat=0
split_feature=73 60 44 5 61 34 56 11 25 83 15 37 21 0 44 64 8 14 7 34 25 37 106 81 14 62 8 106 68 56
split_gain=0.0720695 0.0548809 0.0576947 0.0783391 0.0751599 0.0689011 0.079114 0.062787 0.062335 0.0751114 0.0719384 0.0755106 0.0625739 0.0612752 0.0610503 0.0593401 0.0668764 0.0693822 0.0682061 0.0583793 0.0579698 0.06088 0.0579243 0.0572585 0.057007 0.0568433 0.0566049 0.0560861 0.0559191 0.0611015
threshold=0.45900999009609228 0.74082499742507946 0.73219001293182384 1.2397000193595888 0.43020001053810125 2.5005999803543095 -0.073506001383066163 0.098959997296333327 0.33444499969482427 2.5901499986648564 3.5123499631881718 6.4988999366760263 8.912149906158449 1.7591499686241152 0.64730501174926769 3.88444995880127 0.774145007133484 5.619150161743165 0.53044500946998607 3.27240002155304 0.28619499504566198 17.894499778747562 1.8580499887466433 0.35160499811172491 76.817497253417983 17.404500007629398 0.81753501296043407 5.4065499305725107 20.869000434875492 0.38396500051021581
decision_type=2 2 2 2 2 2 2 2 2 2 2 2 2 2 2 2 2 2 2 2 2 2 2 2 2 2 2 2 2 2
left_child=1 2 4 15 5 6 7 14 23 12 11 -11 19 -9 -1 24 17 -17 -18 -10 21 22 -8 -6 -4 -20 -22 -7 -3 -30
right_child=-2 28 3 -5 8 27 20 13 9 10 -12 -13 -14 -15 -16 16 18 -19 25 -21 26 -23 -24 -25 -26 -27 -28 -29 29 -31
leaf_value=0.0034551161791845832 -0.00070358381495825195 8.7000590635654724e-05 -0.00034691355665793732 0.0015752116365902844 0.0012842150393414136 0.00071456747164505888 2.3559006124558833e-05 -0.0010194949171268546 0.0017173132806927991 -0.0041019240728664133 0.002033336788548955 0.0025778905372135343 -0.001663832747951731 0.0039716764032069985 -0.0024083543568849566 -0.0033017457280917332 0.0044003682072798261 -0.00015680428524501622 -0.0056743729910522234 -0.0029309195241269967 -0.00096882765563763892 -0.0042549711814048822 0.0041209677029778622 -0.0031576585407735065 -0.002591119552824362 0.00075529331251428548 -0.00359470087112806 -0.0031687773337277271 0.0028231970405101147 0.00053313270775179377
leaf_count=115 1389 20025 2776 174 889 802 511 162 272 110 35 20 97 29 21 235 32 100 20 30 1223 31 37 30 118 44 88 39 142 649
internal_value=0 0.000338674 -0.00188036 -0.00493207 0.000471096 -0.00236205 -0.00528559 0.00907594 0.00631315 -0.00196272 -0.0199083 -0.0307426 0.00545839 -0.00261673 0.0254973 -0.00601449 -0.0169613 -0.0236296 0.00630804 0.0125557 -0.00777037 0.000563218 0.00300209 0.0113921 -0.00438419 -0.0125398 -0.0114509 0.00534484 0.00119576 0.00944244
internal_count=30245 28856 8040 3499 4541 3058 2217 327 1483 564 165 130 399 191 136 3325 431 335 96 302 1890 579 548 919 2894 64 1311 841 20816 791
shrinkage=0.1


Tree=15
num_leaves=31
num_cat=0
split_feature=17 100 31 31 4 50 57 10 4 4 54 52 73 43 65 56 42 4 31 38 39 51 36 22 52 96 46 30 34 43
split_gain=0.159035 0.0538651 0.0599147 0.0571484 0.0690802 0.083291 0.094771 0.0681292 0.0610544 0.120328 0.0977268 0.0844455 0.0702258 0.0757827 0.0769735 0.0685224 0.0668017 0.0652345 0.0695289 0.0596636 0.0590897 0.0576707 0.0571688 0.0991496 0.0583827 0.0731898 0.0566044 0.0658106 0.102719 0.102513
threshold=1.8116500377655032 24.362999916076664 0.97204500436782848 0.9534749984741212 1.2855499982833865 0.073500499129295363 0.26016499102115637 0.19622999429702762 1.1885499954223635 1.1070500016212466 1.1039499640464785 8.6290001869201678 0.38884499669075018 0.9108949899673463 0.20931500196456912 0.95364999771118175 4.0462999343872079 1.3987500071525576 0.86475500464439403 -1.7081499695777891 1.3226500153541567 3.3381500244140629 2.4005500078201298 -1.210050046443939 4.5044999122619638 0.42032499611377722 -0.25104500353336329 4.9645500183105478 6.5098001956939706 0.92396497726440441
decision_type=2 2 2 2 2 2 2 2 2 2 2 2 2 2 2 2 2 2 2 2 2 2 2 2 2 2 2 2 2 2
left_child=1 2 3 8 7 -6 -7 -5 9 12 16 26 13 14 -1 19 20 18 -13 -16 -11 -20 24 -24 25 -8 -10 28 -28 -29
right_child=-2 -3 -4 4 5 6 22 -9 11 10 -12 17 -14 -15 15 -17 -18 -19 21 -21 -22 -23 23 -25 -26 -27 27 29 -30 -31
leaf_value=-0.0048145622287743862 0.00020479435125552413 -0.0013003601872456647 -0.00065868608454824071 0.0050506089754307117 -0.0014885503946819717 -0.0023579198728839405 0.0015165015065201975 0.00078713418808921834 0.00024250561281531939 -0.00055108641586772437 -0.0062372059503193276 0.0047609804387859726 -0.0012187501846893923 0.0017159806371761005 0.0031100837327539925 0.0052604203830317912 0.0028561623577077529 -0.0026439892034553526 -0.0027096259661247733 -0.00080808305851461603 -0.0021155350554245378 0.0033925825292022808 -0.0039692700015589721 0.00061144809064845674 0.0036308971532122872 -0.0028083498926286627 -0.00084740385607499121 0.0021911963501931742 0.002738544813300472 -0.0010892993437664701
leaf_count=35 16825 477 2494 39 343 111 262 962 3771 436 41 27 298 332 45 24 38 217 59 285 541 21 58 255 102 46 1629 220 84 168
internal_value=0 -0.00256756 -0.00218295 -0.00113181 0.00342556 -0.00176813 0.00362666 0.00953244 -0.0023319 -0.0070268 -0.0145073 -0.000759613 0.000725304 0.00606236 -0.00340898 0.00101413 -0.0125738 -0.016476 0.0037311 -0.00273788 -0.0141738 -0.011078 0.00780349 -0.00237375 0.0155729 0.00870582 0.000107572 -0.00405199 -0.0067156 0.00770776
internal_count=30245 13420 12943 10449 2178 1177 834 1001 8271 2075 1056 6196 1019 721 389 354 1015 324 107 330 977 80 723 313 410 308 5872 2101 1713 388
shrinkage=0.1



feature importances:
log10_trial=12
all_correlation_best_percentile75_ratio=12
top_10%_correlation_stddev_best_ratio=12
all_correlation_percentile5_percentile25_ratio=12
recent_10_correlation_stddev_best_ratio=10
recent_10_loss_skew=10
recent_15%_loss_best_percentile25_ratio=9
recent_25_correlation_stddev_median_ratio=9
recent_25_correlation_skew=9
all_correlation_stddev_median_ratio=8
recent_15%_correlation_kurtosis=8
recent_15%_correlation_best_percentile50_ratio=8
recent_10_loss_percentile5_percentile25_ratio=8
recent_15%_loss_kurtosis=8
top_30%_loss_skew=8
top_30%_correlation_stddev_best_ratio=7
recent_25_correlation_kurtosis=7
top_30%_correlation_kurtosis=7
num_parameters=7
top_30%_loss_stddev_best_ratio=7
all_loss_kurtosis=7
recent_15%_correlation_percentile5_percentile25_ratio=7
top_10%_loss_kurtosis=7
recent_10_loss_kurtosis=6
recent_10_loss_best_percentile75_ratio=6
top_30%_correlation_best_percentile50_ratio=6
all_correlation_best_percentile25_ratio=6
all_loss_stddev_best_ratio=6
recent_25_correlation_stddev_best_ratio=6
recent_25_loss_best_percentile50_ratio=6
recent_25_loss_kurtosis=6
all_correlation_stddev_best_ratio=6
recent_25_correlation_best_percentile25_ratio=5
recent_15%_loss_percentile5_percentile25_ratio=5
top_20%_loss_skew=5
top_20%_loss_kurtosis=5
recent_10_loss_stddev_median_ratio=5
recent_15%_loss_best_percentile50_ratio=5
recent_15%_correlation_stddev_best_ratio=5
top_20%_correlation_percentile5_percentile25_ratio=5
top_10%_correlation_kurtosis=5
all_loss_best_percentile75_ratio=5
top_30%_correlation_percentile5_percentile25_ratio=5
all_loss_skew=5
recent_10_correlation_kurtosis=5
all_correlation_best_percentile50_ratio=4
recent_15%_correlation_best_percentile75_ratio=4
all_correlation_kurtosis=4
top_10%_loss_best_percentile25_ratio=4
all_correlation_skew=4
all_loss_best_percentile25_ratio=4
all_loss_best_percentile50_ratio=4
all_loss_percentile5_percentile25_ratio=4
log10_cardinality=4
top_30%_correlation_skew=4
recent_10_correlation_stddev_median_ratio=4
recent_15%_loss_stddev_median_ratio=4
top_30%_correlation_best_percentile25_ratio=4
recent_10_loss_best_percentile50_ratio=4
recent_15%_correlation_best_percentile25_ratio=4
recent_15%_correlation_stddev_median_ratio=4
top_30%_correlation_stddev_median_ratio=3
top_20%_correlation_stddev_median_ratio=3
top_20%_correlation_stddev_best_ratio=3
top_20%_correlation_best_percentile25_ratio=3
top_10%_loss_skew=3
top_30%_correlation_best_percentile75_ratio=3
recent_25_correlation_percentile5_percentile25_ratio=3
top_10%_correlation_percentile5_percentile25_ratio=3
top_10%_correlation_best_percentile50_ratio=3
all_loss_stddev_median_ratio=3
recent_25_correlation_best_percentile50_ratio=3
recent_15%_loss_skew=3
recent_25_loss_stddev_median_ratio=3
recent_25_loss_stddev_best_ratio=3
recent_10_correlation_best_percentile75_ratio=3
recent_10_correlation_skew=3
recent_25_loss_skew=3
recent_25_correlation_best_percentile75_ratio=2
top_20%_loss_best_percentile50_ratio=2
recent_15%_correlation_skew=2
recent_10_loss_stddev_best_ratio=2
recent_10_loss_best_percentile25_ratio=2
recent_10_correlation_best_percentile50_ratio=2
top_30%_loss_best_percentile25_ratio=2
top_30%_loss_kurtosis=2
top_30%_loss_stddev_median_ratio=2
top_10%_correlation_skew=2
recent_25_loss_best_percentile75_ratio=2
top_20%_correlation_skew=2
top_10%_correlation_stddev_median_ratio=2
top_20%_correlation_best_percentile75_ratio=2
top_10%_correlation_best_percentile25_ratio=2
top_10%_loss_stddev_median_ratio=2
recent_25_loss_best_percentile25_ratio=2
top_10%_loss_best_percentile50_ratio=2
recent_10_correlation_percentile5_percentile25_ratio=1
recent_10_correlation_best_percentile25_ratio=1
top_30%_loss_percentile5_percentile25_ratio=1
top_30%_loss_best_percentile75_ratio=1
top_10%_loss_percentile5_percentile25_ratio=1
top_10%_loss_stddev_best_ratio=1
top_20%_correlation_best_percentile50_ratio=1
top_20%_correlation_kurtosis=1
recent_25_loss_percentile5_percentile25_ratio=1
top_20%_loss_stddev_best_ratio=1
top_10%_correlation_best_percentile75_ratio=1

pandas_categorical:null
