tree
version=v2
num_class=1
num_tree_per_iteration=1
label_index=0
max_feature_idx=114
objective=regression
feature_names=all_correlation_best_percentile25_ratio all_correlation_best_percentile50_ratio all_correlation_best_percentile75_ratio all_correlation_kurtosis all_correlation_percentile5_percentile25_ratio all_correlation_skew all_correlation_stddev_best_ratio all_correlation_stddev_median_ratio all_loss_best_percentile25_ratio all_loss_best_percentile50_ratio all_loss_best_percentile75_ratio all_loss_kurtosis all_loss_percentile5_percentile25_ratio all_loss_skew all_loss_stddev_best_ratio all_loss_stddev_median_ratio log10_cardinality log10_trial num_parameters recent_10_correlation_best_percentile25_ratio recent_10_correlation_best_percentile50_ratio recent_10_correlation_best_percentile75_ratio recent_10_correlation_kurtosis recent_10_correlation_percentile5_percentile25_ratio recent_10_correlation_skew recent_10_correlation_stddev_best_ratio recent_10_correlation_stddev_median_ratio recent_10_loss_best_percentile25_ratio recent_10_loss_best_percentile50_ratio recent_10_loss_best_percentile75_ratio recent_10_loss_kurtosis recent_10_loss_percentile5_percentile25_ratio recent_10_loss_skew recent_10_loss_stddev_best_ratio recent_10_loss_stddev_median_ratio recent_15%_correlation_best_percentile25_ratio recent_15%_correlation_best_percentile50_ratio recent_15%_correlation_best_percentile75_ratio recent_15%_correlation_kurtosis recent_15%_correlation_percentile5_percentile25_ratio recent_15%_correlation_skew recent_15%_correlation_stddev_best_ratio recent_15%_correlation_stddev_median_ratio recent_15%_loss_best_percentile25_ratio recent_15%_loss_best_percentile50_ratio recent_15%_loss_best_percentile75_ratio recent_15%_loss_kurtosis recent_15%_loss_percentile5_percentile25_ratio recent_15%_loss_skew recent_15%_loss_stddev_best_ratio recent_15%_loss_stddev_median_ratio recent_25_correlation_best_percentile25_ratio recent_25_correlation_best_percentile50_ratio recent_25_correlation_best_percentile75_ratio recent_25_correlation_kurtosis recent_25_correlation_percentile5_percentile25_ratio recent_25_correlation_skew recent_25_correlation_stddev_best_ratio recent_25_correlation_stddev_median_ratio recent_25_loss_best_percentile25_ratio recent_25_loss_best_percentile50_ratio recent_25_loss_best_percentile75_ratio recent_25_loss_kurtosis recent_25_loss_percentile5_percentile25_ratio recent_25_loss_skew recent_25_loss_stddev_best_ratio recent_25_loss_stddev_median_ratio top_10%_correlation_best_percentile25_ratio top_10%_correlation_best_percentile50_ratio top_10%_correlation_best_percentile75_ratio top_10%_correlation_kurtosis top_10%_correlation_percentile5_percentile25_ratio top_10%_correlation_skew top_10%_correlation_stddev_best_ratio top_10%_correlation_stddev_median_ratio top_10%_loss_best_percentile25_ratio top_10%_loss_best_percentile50_ratio top_10%_loss_best_percentile75_ratio top_10%_loss_kurtosis top_10%_loss_percentile5_percentile25_ratio top_10%_loss_skew top_10%_loss_stddev_best_ratio top_10%_loss_stddev_median_ratio top_20%_correlation_best_percentile25_ratio top_20%_correlation_best_percentile50_ratio top_20%_correlation_best_percentile75_ratio top_20%_correlation_kurtosis top_20%_correlation_percentile5_percentile25_ratio top_20%_correlation_skew top_20%_correlation_stddev_best_ratio top_20%_correlation_stddev_median_ratio top_20%_loss_best_percentile25_ratio top_20%_loss_best_percentile50_ratio top_20%_loss_best_percentile75_ratio top_20%_loss_kurtosis top_20%_loss_percentile5_percentile25_ratio top_20%_loss_skew top_20%_loss_stddev_best_ratio top_20%_loss_stddev_median_ratio top_30%_correlation_best_percentile25_ratio top_30%_correlation_best_percentile50_ratio top_30%_correlation_best_percentile75_ratio top_30%_correlation_kurtosis top_30%_correlation_percentile5_percentile25_ratio top_30%_correlation_skew top_30%_correlation_stddev_best_ratio top_30%_correlation_stddev_median_ratio top_30%_loss_best_percentile25_ratio top_30%_loss_best_percentile50_ratio top_30%_loss_best_percentile75_ratio top_30%_loss_kurtosis top_30%_loss_percentile5_percentile25_ratio top_30%_loss_skew top_30%_loss_stddev_best_ratio top_30%_loss_stddev_median_ratio
feature_infos=[0:15.006999969482422] [0:234.80000305175781] [0:4882.39990234375] [-1.9805999994277954:10.654999732971191] [0:12.206000328063965] [-2.6215999126434326:3.3966999053955078] [0:0.45357000827789307] [0:85.734001159667969] [-11839:1584.199951171875] [-779.91998291015625:808.3699951171875] [-507.22000122070312:5197.10009765625] [-1.9981000423431396:209.69999694824219] [-7946.7001953125:1168.9000244140625] [-8.7989997863769531:13.902000427246094] [-488510:4586200] [-155060:615890] [3.7781999111175537:23.594999313354492] [1:2.6435000896453857] [5:34] [0:802.9000244140625] [0:559] [0:1258.9000244140625] [-1.9955999851226807:18.329000473022461] [0:587.8800048828125] [-2.2653999328613281:4.391200065612793] [0:0.48989999294281006] [0:198.35000610351562] [-1219.5:522.80999755859375] [-1235.800048828125:6594.60009765625] [-1117.5:8850.099609375] [-2:5.1111001968383789] [-935.07000732421875:423.33999633789062] [-2.6647000312805176:2.6666998863220215] [-297430:1188300] [-212310:1079600] [0:3575.699951171875] [0:10875] [0:26023] [-1.9921000003814697:19.042999267578125] [0:2033.4000244140625] [-2.9841001033782959:4.5872998237609863] [0:0.49930998682975769] [0:2715.5] [-709.03997802734375:502.79998779296875] [-3297.89990234375:18467] [-19963:8850.099609375] [-2:60.916000366210938] [-448.57998657226562:390.1099853515625] [-6.5598998069763184:7.9286999702453613] [-317810:4634900] [-2685700:920740] [0:3278.300048828125] [0:6019.10009765625] [0:9635.900390625] [-1.9896999597549438:20.330999374389648] [0:2503.199951171875] [-2.3831000328063965:4.6901998519897461] [0:0.48857000470161438] [0:1847.800048828125] [-1337.0999755859375:243.28999328613281] [-3297.89990234375:1716.199951171875] [-3973.300048828125:2211.89990234375] [-1.9981000423431396:20.041999816894531] [-1199:202.85000610351562] [-4.6810002326965332:4.6949000358581543] [-350350:5375700] [-3075900:1514600] [0:3617.800048828125] [0:3004.5] [0:2050.60009765625] [-2:22.038000106811523] [0:1885.800048828125] [-3.75:4.902900218963623] [0:0.5] [0:861.3800048828125] [-298.98001098632812:265.42999267578125] [-725.83001708984375:605.80999755859375] [-297.85000610351562:6594.60009765625] [-2:20.041999816894531] [-210.33999633789062:200.82000732421875] [-4.6949000358581543:4.4772000312805176] [-4756.89990234375:13260] [-250.80999755859375:12848] [0:11477] [0:24078] [0:20548] [-2:21.040000915527344] [0:5149] [-3.8805999755859375:4.8000001907348633] [0:0.5] [0:5943.7001953125] [-10733:179.94999694824219] [-197.66999816894531:780.010009765625] [-1242.300048828125:309.73001098632812] [-2:40.016998291015625] [-5728.2998046875:123.62000274658203] [-6.4818000793457031:6.08489990234375] [-6293.39990234375:12913] [-414.29000854492188:8168.7998046875] [0:26229] [0:21533] [0:37704] [-2:16.608999252319336] [0:18253] [-2.8459999561309814:4.248499870300293] [0:0.5] [0:5373.2001953125] [-1534.800048828125:415.8599853515625] [-911.79998779296875:855.30999755859375] [-860.95001220703125:27170] [-2:62.985000610351562] [-1393.0999755859375:342.82000732421875] [-8.0602998733520508:5.768700122833252] [-8886.900390625:104960] [-354.72000122070312:36623]
tree_sizes=2529 2629 2632 2605 2650 2604 2625 2645 2620 2649 2596 2620 2614 2562 2594

Tree=0
num_leaves=31
num_cat=0
split_feature=77 69 3 10 15 65 5 48 68 18 12 78 86 101 86 58 62 78 43 15 0 59 13 13 34 12 24 89 89 5
split_gain=23.3808 20.693 16.7206 16.4156 12.1698 12.0225 9.60135 9.10621 8.4184 7.33355 6.65369 6.59767 6.75988 6.58573 7.25816 8.25724 6.49589 6.47333 6.37604 6.29484 6.11652 6.05908 6.55412 6.58983 6.0349 5.85858 5.85928 5.7209 5.73975 5.53956
threshold=0.37805999815464025 2.666799902915955 0.11184500157833101 0.51266500353813182 5.0183000564575204 -10.872499942779539 -0.083695501089096055 3.4303499460220341 1.8950499892234804 10.500000000000002 0.94151499867439281 -1.8398500084877012 6.4364500045776376 20.274000167846683 0.67689999938011181 7.2517998218536386 19.7504997253418 -1.0661500096321104 0.95355498790740978 7.7288000583648691 1.3735499978065493 0.97373500466346752 2.9233499765396123 3.3882499933242802 74.007499694824233 0.98106500506401073 1.584150016307831 0.3074949979782105 0.30904500186443334 -0.39766000211238856
decision_type=2 2 2 2 2 2 2 2 2 2 2 2 2 2 2 2 2 2 2 2 2 2 2 2 2 2 2 2 2 2
left_child=5 3 9 8 -4 -1 7 10 11 -3 19 12 -2 14 15 18 17 27 -12 -5 -21 22 -8 -24 -10 26 -7 -11 -29 -15
right_child=1 2 4 6 -6 25 21 -9 24 16 13 -13 -14 29 -16 -17 -18 -19 -20 20 -22 -23 23 -25 -26 -27 -28 28 -30 -31
leaf_value=1.949960430058975 1.9636706919239317 1.9565105252829966 1.9539455813868631 1.9576963713989446 1.9373494190113205 1.9654605346730685 1.9618247733253482 1.9656619874888142 1.9577148288877009 1.9539291640273779 1.9758616098102435 1.9600081825582467 1.9949987437140466 1.9337930707308117 1.9558868641725342 1.9267634505397224 1.9522909058599007 1.9633618868548022 1.9641989810385192 1.9489273158034135 1.9070441997592933 1.9589837065785909 1.9671665415052622 1.9634073230457767 1.9426544222007505 1.977312176632078 1.9543712139750447 1.993570172152429 1.9610145591861066 1.9613563599221102
leaf_count=522 4292 6833 2972 7881 519 13426 18825 2337 10482 1739 649 29666 70 141 867 51 842 6262 1688 168 44 3591 6043 20422 273 402 494 56 1644 151
internal_value=0 -0.00434049 -0.0331613 0.00124663 -0.0963145 0.0375766 0.0116702 -0.0114424 -0.013384 -0.0204732 -0.0228795 -0.00567596 0.0306372 0.0132348 0.0261407 0.0545938 -0.00393434 0.00337848 0.0632805 -0.0387076 -0.208751 0.018279 0.021414 0.0315598 -0.0377717 0.0430098 0.0395728 -0.031479 0.00977263 -0.13063
internal_count=143352 128508 20867 107641 3491 14844 62858 13977 44783 17376 11640 34028 4362 3547 3255 2388 10543 9701 2337 8093 212 48881 45290 26465 10755 14322 13920 3439 1700 292
shrinkage=1


Tree=1
num_leaves=31
num_cat=0
split_feature=76 10 101 13 105 18 41 15 65 14 105 46 42 67 33 97 53 83 2 25 94 6 73 73 16 16 58 10 44 97
split_gain=19.2804 14.7214 10.3631 13.6218 8.94401 8.51267 8.11061 7.6632 7.57965 7.21314 6.96735 6.94401 6.73355 6.68833 6.68772 6.67224 6.47112 6.00102 5.89729 5.88525 5.8321 6.1262 5.81238 5.9382 5.79295 10.5204 10.2084 8.8829 7.55914 6.76058
threshold=0.45718500018119818 0.51266500353813182 1.0000000180025095e-35 1.4575499892234804 0.33995500206947332 14.500000000000002 0.31586499512195593 4.3724999427795419 -10.872499942779539 0.75314500927925121 0.32797500491142279 -1.4478500485420225 2.9263000488281254 26.682499885559086 2.4638500213623051 0.16251999884843829 1.9096500277519228 10.328500270843508 7.0645499229431161 0.34221500158309942 -1.3821499943733213 0.27497500181198126 0.32487499713897711 0.2373200058937073 17.551500320434574 18.482999801635746 40.690999984741218 0.66725498437881481 0.85883498191833507 0.025455499999225143
decision_type=2 2 2 2 2 2 2 2 2 2 2 2 2 2 2 2 2 2 2 2 2 2 2 2 2 2 2 2 2 2
left_child=8 2 9 4 16 -3 7 -5 18 -2 20 -8 -12 -11 22 24 -4 -10 -1 -20 -9 -22 23 -15 27 -26 28 29 -27 -7
right_child=1 5 3 6 -6 15 11 10 17 13 12 -13 -14 14 -16 -17 -18 -19 19 -21 21 -23 -24 -25 25 26 -28 -29 -30 -31
leaf_value=-0.014766816481051269 -0.0043585646470232628 -0.00096173645423644071 0.020527155603745476 -0.0066939069398051793 -0.0067531827346942941 -0.0033214890057008646 0.0096614900772692639 -0.050866732866718223 0.0040444592383046931 3.2483891896035502e-05 -0.0095779886316720662 -0.0042559576054693798 0.039530081289509938 0.017888070849908722 0.00097888640257630128 0.041575058640503308 0.001985785017712521 -0.027650397842129072 -0.011067471480263132 0.055003955186559608 -0.027131314009197594 -0.0067258974167868054 0.01233633746082584 -0.024591853181702664 -0.0044636124672155558 0.0066361650187637261 -0.027394255003357522 0.0037916558837547058 0.00013869859878250508 0.0013996358471451637
leaf_count=349 4834 26457 199 3722 1267 3648 384 65 13656 30746 403 5399 30 36 381 41 3479 60 28 26 388 237 60 383 4538 2363 122 14664 7391 17996
internal_value=0 -0.00383329 -0.0168379 -0.0384299 0.00492855 0.00492621 -0.0586037 -0.0887845 0.0350866 -0.00761035 -0.161187 -0.0333182 -0.0617558 -0.00210809 -0.0890881 0.0125061 0.0298897 0.0390581 -0.100084 0.207447 -0.223584 -0.193936 -0.167735 -0.20942 0.0121802 -0.00478118 0.0135321 0.0189137 0.0171277 0.00603911
internal_count=143352 129233 52013 15573 4945 77220 10628 4845 14119 36440 1123 5783 433 31606 860 50763 3678 13716 403 54 690 625 479 419 50722 14414 9876 36308 9754 21644
shrinkage=0.1


Tree=2
num_leaves=31
num_cat=0
split_feature=77 69 10 0 14 113 49 1 1 73 102 2 38 109 33 84 75 23 4 102 62 59 2 62 29 88 88 109 2 88
split_gain=15.4598 15.6127 13.2713 11.1831 9.78846 8.85821 8.44011 7.96879 6.7017 6.61128 6.60755 8.78477 8.19279 7.19346 6.43194 8.53192 8.18525 6.24509 6.20732 6.10449 5.83661 5.81348 5.76108 6.37905 5.72548 5.51977 6.2195 5.79633 8.60461 5.46146
threshold=0.37805999815464025 4.2075998783111581 0.63690501451492321 2.2550500631332402 0.59291499853134166 0.015547499991953375 -1.8267000317573545 1.9999499917030337 2.071449995040894 0.30790500342845922 -0.93171998858451832 4.1605999469757089 0.20793999731540683 0.84625500440597545 77.963996887207045 25.78549957275391 0.9805549979209901 10.707499980926515 3.1557499170303349 -0.96434000134468068 -1.4898499846458433 0.92424499988555919 2.5058499574661259 7.586750030517579 0.64157000184059154 -0.75374501943588246 0.26816999912261968 0.7160950005054475 5.1998500823974618 -0.095327999442815767
decision_type=2 2 2 2 2 2 2 2 2 2 2 2 2 2 2 2 2 2 2 2 2 2 2 2 2 2 2 2 2 2
left_child=6 2 4 22 7 -6 -1 -2 -4 -5 19 12 17 -14 20 16 -16 -12 -11 -10 24 -18 -3 -24 29 -25 -27 28 -28 -7
right_child=1 3 8 9 5 14 -8 -9 10 18 11 -13 13 -15 15 -17 21 -19 -20 -21 -22 -23 23 25 -26 26 27 -29 -30 -31
leaf_value=-0.0095475702933226422 -0.0069689468229317533 -0.0065282763706045049 -4.536337512994833e-05 -0.020282480543664168 0.012501042493515545 0.058818624965075797 0.0035067036550763177 -0.00094900125709198192 0.00088157817836474165 -0.0087386368105851608 0.012714916816506367 0.0026216834221808524 -0.025371040112028523 0.0039942309296282629 -0.014867140672003648 0.035482078972789981 0.010181116105711742 -0.028716164656184817 0.020161230834200978 -0.012887946423967329 -0.00030182341457519731 -0.013574799909433234 3.237311131366635e-06 -0.038297947997949562 -0.0071486636982158284 0.0009580332390438707 0.028333349872117095 -0.0089894683093733763 -0.023627415354898637 0.013549822720622582
leaf_count=513 4174 2701 13725 524 540 29 14331 4647 6408 1047 2178 11326 90 1141 808 45 296 37 80 339 65189 158 8918 49 132 1319 99 2133 47 329
internal_value=0 -0.00352948 0.000762138 -0.0318387 -0.00664735 -0.00255489 0.0305556 -0.0379757 0.0168129 -0.110021 0.0278256 0.0396682 0.0838787 0.018473 -0.00358324 -0.0730464 -0.0883032 0.120228 -0.0668718 0.00189735 -0.00220094 0.0191364 -0.0233833 -0.0143765 0.106531 -0.0496106 -0.0450705 -0.0767004 0.116063 0.172168
internal_count=143352 128508 111591 16917 76347 67526 14844 8821 35244 1651 21519 14772 3446 1231 66986 1307 1262 2215 1127 6747 65679 454 15266 12565 490 3647 3598 2279 146 358
shrinkage=0.1


Tree=3
num_leaves=31
num_cat=0
split_feature=77 69 3 112 103 15 9 24 0 24 41 103 3 83 31 53 72 80 3 25 61 46 87 79 25 8 57 57 59 79
split_gain=12.5225 12.682 11.2959 9.48873 8.25953 10.1967 8.05042 8.17123 7.04667 6.9415 6.77511 7.39086 6.57025 6.54065 5.97902 6.65565 5.68645 5.59172 5.5678 7.04569 7.07444 7.09253 5.42018 5.38547 6.85893 5.76733 5.66509 7.24299 5.53102 5.36382
threshold=0.37805999815464025 2.666799902915955 0.11184500157833101 0.18491499871015551 1.6057500243186953 9.1332998275756854 0.71778500080108654 2.210649967193604 1.506150007247925 1.6935500502586367 0.30969500541687017 49.503499984741218 -1.4614500403404234 20.51249980926514 0.93955498933792125 8.4470000267028826 1.903750002384186 -1.8349500298500059 -1.0447500348091123 0.27831500768661505 0.46241499483585363 5.0934500694274911 4.6172001361846933 0.97456499934196483 0.36844499409198767 0.8173850178718568 0.26739500463008886 0.23673499375581744 0.92241501808166515 0.9980050027370454
decision_type=2 2 2 2 2 2 2 2 2 2 2 2 2 2 2 2 2 2 2 2 2 2 2 2 2 2 2 2 2 2
left_child=9 3 -3 6 5 29 7 10 -5 -1 11 -2 13 23 18 -16 -15 -12 19 20 -9 -22 -14 25 26 -8 27 -25 -26 -4
right_child=1 2 4 8 -6 -7 12 14 -10 -11 17 -13 22 16 15 -17 -18 -19 -20 -21 21 -23 -24 24 28 -27 -28 -29 -30 -31
leaf_value=0.0031414606233634065 -0.0027301993459668858 -0.0015310364118325918 -0.010119098821821191 -0.0035324738688853295 0.00023084943393128802 -0.027878889255836366 -0.01697328060152049 0.0049624218921927579 0.00042650294285136875 -0.0091957802811119451 0.012015271285067339 -0.03654307246208191 0.0019567494394347683 -0.072251469746232033 -0.00036213508322454838 0.035384245588513157 -0.00767543587833643 -0.00017155375766064314 0.0054892423071669465 -0.016894781121680903 0.051329906845046569 0.012658477922280628 -0.0020598084619679051 0.008874492707555413 0.021962807532524904 0.0098086979407683138 -0.0049594740952547574 -0.030834243268335379 -0.00018244318278699085 0.0054473533575613818
leaf_count=14373 11815 17376 1994 11110 943 305 94 103 7552 471 383 65 44819 25 1470 54 30 22182 679 43 129 75 3632 61 149 556 1965 186 464 249
internal_value=0 -0.00317653 -0.0257391 0.00119738 -0.0776467 -0.107238 0.00549721 -0.00577733 -0.0193038 0.0275 -0.00982324 -0.029152 0.013522 -0.0281297 0.04881 0.00904469 -0.370282 0.000352955 0.107705 0.21016 0.26326 0.371125 0.0165566 -0.0227144 -0.0415978 0.0593561 -0.067537 -0.210276 0.0520033 -0.0839104
internal_count=143352 128508 20867 107641 3491 2548 88979 36998 18662 14844 34445 11880 51981 3530 2553 1524 55 22565 1029 350 307 204 48451 3475 2825 650 2212 247 613 2243
shrinkage=0.1


Tree=4
num_leaves=31
num_cat=0
split_feature=76 69 10 5 0 63 68 5 70 71 10 79 96 66 85 7 63 99 37 96 27 112 16 94 36 96 99 36 5 112
split_gain=10.464 10.0784 9.53455 7.71272 7.30941 8.55283 7.04794 6.92519 6.61346 6.58236 7.51464 8.2251 7.48896 6.68746 7.58793 6.74309 6.55979 6.38074 6.47016 6.70251 6.22626 5.97353 6.00174 5.78435 7.55897 5.72312 5.8649 8.34733 6.00322 5.89736
threshold=0.2495749965310097 4.9372000694274911 0.61757498979568493 0.98102998733520519 1.969250023365021 0.94213500618934642 15.71299982070923 -0.13923499733209607 -1.2058500051498411 1.0347500443458559 0.024951499886810783 0.97379499673843395 -0.08893949910998343 0.26982000470161444 3.3375999927520756 0.40102998912334448 0.92642498016357433 68.866001129150405 1.4002000093460085 -0.45792500674724573 1.0000000180025095e-35 0.65816000103950512 15.996999740600588 -1.4661499857902525 7.0005500316619882 0.16586999595165255 1.2612499594688418 20.001000404357914 -0.19260500371456143 -0.25163500010967249
decision_type=2 2 2 2 2 2 2 2 2 2 2 2 2 2 2 2 2 2 2 2 2 2 2 2 2 2 2 2 2 2
left_child=20 2 9 4 -3 -6 7 16 -5 12 11 -11 -2 -14 25 -16 -4 18 -12 -20 -1 22 -17 24 -21 -15 28 29 -27 -28
right_child=1 3 6 8 5 -7 -8 -9 -10 10 17 -13 13 14 15 21 -18 -19 19 23 -22 -23 -24 -25 -26 26 27 -29 -30 -31
leaf_value=-0.01025421869466365 0.0028715624534306496 -0.0022513379090771837 -0.0087112760283749834 -0.0006906392980523951 0.020499776452541734 -0.0028964254157378888 0.0058566540451465412 0.0015585401780114387 -0.012103906635277571 -0.018020252918020323 -2.0166122239313184e-05 -0.0036869733653217942 -0.008725964055891244 -0.0050260139480261812 0.040265024209421289 -0.0034048850012153489 -0.00055420393010900139 -0.020397639137703972 -0.00034312410664387585 0.0039849047232286073 0.0030637218440586699 0.036269108889003594 0.030918922113468413 -0.0055227934516861076 -0.051699901871383194 -0.0072789895689735805 0.015656283839580117 -0.048616529214713315 0.013421241318603647 -0.0014371855258681621
leaf_count=361 9932 12977 1176 783 313 312 3105 30713 1444 447 35783 3837 1045 2298 71 309 6098 166 7613 979 12720 60 61 6936 25 180 218 36 632 2722
internal_value=0 -0.00270734 0.000563859 -0.0263577 -0.017426 0.0882039 0.0127588 0.00901452 -0.0809107 -0.00626795 -0.0115834 -0.0518253 0.0106147 -0.0129411 -0.00115077 0.117144 -0.0187297 -0.00823603 -0.00760308 -0.0246316 0.0269618 0.0700021 0.022539 -0.0449589 0.0259833 -0.0108888 0.0129959 -0.00755761 0.0883252 -0.00169711
internal_count=143352 130271 114442 15829 13602 625 41092 37987 2227 73350 55786 4284 17564 7632 6587 501 7274 51502 51336 15553 13081 430 370 7940 1004 6086 3788 2976 812 2940
shrinkage=0.1


Tree=5
num_leaves=31
num_cat=0
split_feature=73 112 69 62 39 45 1 46 67 79 104 19 66 52 13 15 90 19 26 105 87 35 40 67 49 14 1 2 101 84
split_gain=8.48176 8.25628 7.28666 7.72151 7.57661 6.80201 6.69063 6.91853 7.65843 6.16732 5.66923 5.62709 5.5457 5.51565 5.36133 6.68203 5.33877 5.29543 6.24441 5.18606 5.16153 5.15892 5.9672 8.45374 5.14085 4.88106 7.30342 5.26357 5.18184 6.39386
threshold=0.21298500150442126 0.18491499871015551 4.0009000301361093 3.4533499479293828 3.3427000045776372 0.73811998963356029 1.4140500426292422 9.8572497367858904 2.6407500505447392 0.80008500814437877 0.11120500043034555 1.9098500013351443 0.35924999415874487 3.5146499872207646 3.2868499755859379 0.43998499214649206 0.33997499942779547 2.2796499729156499 4.0325999259948739 0.2704750001430512 1.6775500178337099 1.1094500422477724 0.33224499225616461 1.5749500393867495 10747.500000000002 7.7556500434875497 4.9379999637603769 7.0000500679016122 18.743000030517582 1.7800499796867373
decision_type=2 2 2 2 2 2 2 2 2 2 2 2 2 2 2 2 2 2 2 2 2 2 2 2 2 2 2 2 2 2
left_child=-1 2 5 4 13 -2 7 11 -9 -3 12 19 16 -4 15 -14 -11 21 20 -5 -19 -15 23 -23 -7 26 28 -28 -12 -30
right_child=1 9 3 6 -6 24 -8 8 -10 10 25 -13 14 17 -16 -17 -18 18 -20 -21 -22 22 -24 -25 -26 -27 27 -29 29 -31
leaf_value=0.0025751017963383748 -0.00071423309617725604 -0.015589072611828124 0.0019202490525246894 0.0077843251491063531 0.027409371353902864 0.0011074633667609573 -0.0030189677900063615 -0.0047782649452975728 0.057861892049285504 -0.041245332543621775 -0.00019910747450566392 -0.0022636558332546487 0.026877858162183188 0.043001400242344695 0.0054700653431258781 -0.007735630436322573 -0.010964080350285815 -0.021369317693008556 0.019044828148366052 -0.031457960434459357 0.001387567738932905 0.001702426169472544 0.0007505591466881545 -0.028736028644302605 -0.027030384248265857 -0.004628587673836301 0.066202265936881305 0.012557643005150049 0.017201998574269375 -0.011682145817526775
leaf_count=11743 32348 332 5465 38 103 61317 8480 173 22 64 13149 127 58 26 508 1452 645 389 58 296 134 184 1634 181 65 3337 20 214 86 704
internal_value=0 -0.00229767 0.00111124 -0.0177389 0.00458976 0.00459248 -0.0377165 -0.135014 0.0228883 -0.0207004 -0.0184825 -0.201806 -0.0608946 0.00115042 -0.0341647 -0.0640611 -0.136975 -0.0367063 -0.120863 -0.269933 -0.155387 -0.0125606 -0.018317 -0.133917 0.0107767 -0.0118773 -0.00377587 0.171427 -0.00671707 -0.085378
internal_count=143352 131609 111040 17310 8174 93730 9136 656 195 20569 20237 461 2727 8071 2018 1510 709 2606 581 334 523 2025 1999 365 61382 17510 14173 234 13939 790
shrinkage=0.1


Tree=6
num_leaves=31
num_cat=0
split_feature=77 101 47 5 15 9 18 79 5 72 48 23 71 11 52 22 71 104 25 15 36 33 96 27 67 103 63 79 52 35
split_gain=7.46659 7.87615 7.81924 9.61113 10.0424 6.92471 6.85546 7.71651 6.78664 6.29871 6.22323 5.63733 5.54067 5.12298 5.08433 6.13213 6.4933 4.94562 4.94533 6.33952 6.11693 5.83156 5.04226 5.26327 4.93787 6.77631 5.42551 6.69952 6.0724 6.30855
threshold=0.37805999815464025 1.3345000147819521 0.98863500356674205 1.3062500357627871 1.3124499917030337 0.37566499412059789 14.500000000000002 0.99617499113082897 0.24792500585317614 2.474949955940247 2.9290499687194829 3.6127499341964726 1.0492500066757204 -1.4296000003814695 34.76049995422364 -0.58500501513481129 1.3777499794960024 1.2058500051498415 0.26721499860286718 0.90471500158309948 73.029998779296889 1.9664500355720522 -0.1161150000989437 0.98332500457763683 4.3178498744964608 49.503499984741218 0.93613499402999889 0.96904498338699352 2.2916499376297002 3.1165000200271611
decision_type=2 2 2 2 2 2 2 2 2 2 2 2 2 2 2 2 2 2 2 2 2 2 2 2 2 2 2 2 2 2
left_child=11 5 3 6 10 17 7 13 14 -4 -5 -1 -6 -3 24 16 -16 -2 21 20 -20 -17 -21 -24 26 -26 28 -28 -7 -30
right_child=1 2 9 4 12 8 -8 -9 -10 -11 -12 -13 -14 -15 15 18 -18 -19 19 22 -22 -23 23 -25 25 -27 27 -29 29 -31
leaf_value=0.0023990539262329922 -0.0057909715832931046 0.020534908131000097 -0.0051249241016289269 0.00134656688566992 0.018187282492919843 0.00089165202618903818 0.0014452989618180916 0.0038441874521588874 0.0014473702493860516 -0.054499563173605853 -0.019620439767791535 -0.011657843851129113 -0.016283341825464395 -0.0020329007607244915 -0.033901226069582138 0.023649697998342545 0.010060920394828608 -3.966292222622151e-05 -0.03327911430832875 -0.0030639246333804397 0.021121096643416781 -0.032027353599667553 -0.036042251196311846 0.013661601670362331 -0.0023692954551756628 -0.035070955770788718 0.0061943576111114264 0.00065885535726393867 -0.0054054966022486972 0.0036598103957619262
leaf_count=14553 3014 101 4124 1122 49 5937 12267 2543 42077 26 162 291 964 24624 38 76 290 2967 204 450 23 25 101 27 6393 64 2629 12987 4289 935
internal_value=0 -0.00245284 -0.0129409 -0.00883355 -0.071718 0.00339089 -0.00517993 -0.0140122 0.00595145 -0.0543426 -0.012988 0.0212348 -0.14616 -0.0194071 -0.00445214 -0.0674814 0.0496774 -0.0293791 -0.109897 -0.136066 -0.277672 0.0986825 -0.0804528 -0.255578 -0.00211183 -0.0269343 0.00387385 0.0159077 -0.0129635 -0.0378297
internal_count=143352 128508 45982 41832 2297 82526 39535 27268 76545 4150 1284 14844 1013 24725 34468 1234 328 5981 906 805 227 101 578 128 33234 6457 26777 15616 11161 5224
shrinkage=0.1


Tree=7
num_leaves=31
num_cat=0
split_feature=10 14 11 112 25 69 104 77 98 75 73 50 96 19 2 3 104 30 53 105 112 60 19 11 57 41 96 94 11 65
split_gain=7.05364 8.45219 9.2286 8.48821 7.53486 7.27403 6.95345 7.94413 5.91465 5.50682 5.46978 5.37163 5.16333 5.4012 5.24412 5.13284 8.29235 8.99353 8.36362 7.70111 5.5745 5.55734 5.09884 5.07892 4.94725 4.86383 6.96825 7.37809 7.08136 7.50542
threshold=0.68649500608444225 0.44081500172615057 -0.65711000561714161 -2.9093499183654781 0.24055999517440799 3.0000499486923222 1.3153499960899355 0.92043501138687145 0.018961499445140365 0.97447499632835399 0.49861998856067663 0.21847500652074817 -0.66445499658584584 1.8685500025749209 3.6296499967575078 0.41048000752925878 0.79802998900413524 -0.85381501913070668 15.134500026702883 0.27807499468326574 -0.38751499354839319 0.903214991092682 1.8446499705314638 19.044500350952152 0.2414050027728081 0.30873499810695654 -0.23877000063657758 -1.3906499743461607 13.755499839782717 84.354000091552749
decision_type=2 2 2 2 2 2 2 2 2 2 2 2 2 2 2 2 2 2 2 2 2 2 2 2 2 2 2 2 2 2
left_child=1 6 4 -4 -3 25 7 8 -1 -9 12 -10 24 14 -14 21 17 -17 19 20 -18 22 -7 -13 -6 -5 28 -28 -27 -30
right_child=-2 2 3 5 10 15 -8 9 11 -11 -12 23 13 -15 -16 16 18 -19 -20 -21 -22 -23 -24 -25 -26 26 27 -29 29 -31
leaf_value=0.013600678852184073 0.0013400156957032894 0.018414705656403765 0.009360618242183193 -0.0010711743860932143 -0.010472618479422333 -0.0023746846380157957 0.0012367902333352886 -0.015797661545782226 0.00091961515611399384 -0.0055830344328109335 -0.021350423351902029 -0.010193679922649378 -0.0012330973780362439 -0.0030971810475116371 0.0074586795436336383 0.00421595687941392 -0.01763519531216573 -0.014238611441911421 -0.020396132593121487 0.024862074415812542 0.017943423312820801 -0.007202569445929315 0.002653132333062557 0.017806429438559073 0.010862288673481834 0.002505780239658919 0.0018539280767819418 -0.0021182755033765494 -0.00037060384785912389 -0.01677491555288272
leaf_count=272 30833 328 898 29634 120 6425 3033 593 2214 4799 92 869 1118 1570 1831 331 111 1306 107 199 73 1583 2940 70 1153 21201 6910 14464 7986 289
internal_value=0 -0.00367198 -0.000698373 -0.00315375 0.0366371 -0.00408248 -0.0289335 -0.043141 -0.00547867 -0.0670642 0.0284142 -0.0176842 0.0322569 0.01641 0.0416353 -0.025959 -0.0709103 -0.105071 0.0432149 0.112269 -0.0351977 -0.0172258 -0.00796278 -0.0810634 0.0885114 -0.00052853 0.00540597 -0.00834102 0.0153744 -0.00943516
internal_count=143352 112519 100669 94457 6212 93559 11850 8817 3425 5392 5884 3153 5792 4519 2949 13075 2127 1637 490 383 184 10948 9365 939 1273 80484 50850 21374 29476 8275
shrinkage=0.1


Tree=8
num_leaves=31
num_cat=0
split_feature=1 71 29 62 104 94 84 77 35 33 5 89 41 70 65 16 84 4 75 84 53 62 42 99 34 94 93 48 88 34
split_gain=5.91246 6.62389 7.50725 8.90332 7.37864 8.46402 6.91794 6.48896 6.35195 6.27964 6.27332 6.08701 5.93186 5.89325 6.41022 6.17348 7.51449 6.36215 5.76582 5.65733 5.77408 5.92008 6.41591 5.63739 5.50961 5.47022 5.90208 5.34942 5.59499 6.53256
threshold=1.9109500050544741 1.0001000165939333 0.74761497974395763 -1.4898499846458433 0.62830501794815075 -0.29301500320434565 9.9043002128601092 0.96384501457214367 7.6671998500823983 2.9246499538421635 0.15171000361442569 0.37164500355720526 0.42365500330924993 0.39788000285625463 0.81493499875068676 14.83900022506714 73.326499938964858 1.4038500189781191 0.98368501663208019 1.8315500020980837 6.5475499629974374 4.9189500808715829 1.3006500005722048 1.6711500287055971 -0.60670500993728627 -1.2446500062942503 0.79225498437881481 1.3482499718666079 1.0527500510215761 0.081601500511169447
decision_type=2 2 2 2 2 2 2 2 2 2 2 2 2 2 2 2 2 2 2 2 2 2 2 2 2 2 2 2 2 2
left_child=13 -2 3 10 5 7 -4 19 -6 18 -3 -11 -8 14 15 -1 17 24 -9 -5 -21 -22 -23 -7 -17 -10 -27 -26 29 -29
right_child=1 2 6 4 8 23 12 9 25 11 -12 -13 -14 -15 -16 16 -18 -19 -20 20 21 22 -24 -25 27 26 -28 28 -30 -31
leaf_value=-0.0032261568306800807 0.0018723015183084758 -0.034285381227731705 0.00019575629670366321 -0.00098443896787398628 7.5795999313085449e-05 0.002549078089155647 0.0031850384382502827 0.030724842716715758 0.0081549262652630041 -0.019993242695582687 0.017596128746951108 0.017269808067516847 0.032223312325880563 -0.002821282072080536 0.0010305986084135424 -0.038074550596731052 -0.051605767068954617 0.022753668995574117 0.002458515774561383 -0.012007334542439498 9.0615418587397951e-05 -0.019883953135752083 -0.00115689803365044 -0.0084359964354198194 -0.00072626684402901534 -0.0015426030137520562 -0.020838773268342173 0.019549726860390772 0.022284593142465586 -0.0041986762470770682
leaf_count=9393 23813 25 41946 1147 16894 2549 7656 79 151 216 344 55 71 12461 17077 35 26 146 834 2499 1086 409 331 572 2126 268 388 171 225 359
internal_value=0 0.00413552 -0.00034555 -0.0134889 -0.0155609 -0.0376101 0.00702267 -0.0577578 -0.00338228 0.00936625 0.140811 -0.124306 0.0345186 -0.0099732 -0.00228379 -0.0195096 0.019279 0.0238246 0.0490434 -0.0722817 -0.0888402 -0.0460956 -0.115074 0.00535793 0.013625 -0.0900554 -0.129556 0.0184161 0.0907247 0.0346354
internal_count=143352 101333 77520 27847 27478 9777 49673 6656 17701 1184 369 271 7727 42019 29558 12481 3088 3062 913 5472 4325 1826 740 3121 2916 807 656 2881 755 530
shrinkage=0.1


Tree=9
num_leaves=31
num_cat=0
split_feature=64 34 33 14 10 81 16 16 39 62 63 103 6 13 10 57 25 109 70 87 94 63 63 66 34 40 25 112 110 28
split_gain=5.75796 5.21231 5.92529 7.38593 5.85548 6.94825 6.58611 12.9026 6.44522 5.76013 7.2629 7.81077 7.12961 7.15971 5.90844 5.74546 5.70091 7.10622 6.32978 5.69239 5.57517 5.54373 5.35032 6.73262 8.38536 5.39314 5.31175 5.26912 5.25893 5.23778
threshold=-0.050842501223087304 74.007499694824233 1.5153500437736513 0.92063498497009288 0.63690501451492321 0.68787002563476574 17.440500259399418 15.171499729156496 1.4376500248908999 3.4058500528335576 0.92883500456810009 11.38600015640259 0.2893850058317185 1.992449998855591 0.15327500551939013 0.41270999610424047 0.32600499689579016 0.93785500526428234 1.2104499936103823 1.0000000180025095e-35 2.0662500858306889 0.9894549846649171 0.92944499850273143 0.81654000282287609 1.0496500134468081 -1.0296499729156492 0.38486500084400183 1.3344500064849856 -0.97239500284194935 0.72548499703407299
decision_type=2 2 2 2 2 2 2 2 2 2 2 2 2 2 2 2 2 2 2 2 2 2 2 2 2 2 2 2 2 2
left_child=-1 2 4 -4 5 -2 7 21 15 16 -11 12 20 -14 28 -8 -5 18 27 -10 -12 22 23 -6 -25 -24 -3 -18 -15 -21
right_child=1 26 3 9 6 -7 8 -9 19 10 11 -13 13 14 -16 -17 17 -19 -20 29 -22 -23 25 24 -26 -27 -28 -29 -30 -31
leaf_value=0.0029101580843854747 -0.0013792825097592532 -0.0035197032826217393 0.0099967768060661485 0.00051803900645836073 -0.0052981397421881403 0.0064359256281557205 -0.0073044638665945147 0.0049519285029266244 0.04829510007596885 -0.0021123110469755055 0.0029011192911442031 -0.012638041436184265 0.013820293657541949 -0.0072010078822218248 -0.0022420186170266049 0.030472614775161916 0.0051651579557571029 0.017200139635124633 -0.0026490475185859744 0.044266835306412899 0.01551472373565028 -0.0070249742809355697 0.03239771329395643 0.0081346293766010585 -0.012259141215155599 0.0010312894154959516 -0.020351694943383337 -0.024621455153295151 0.037440022776349328 -0.00072214974954534208
leaf_count=6491 52113 1465 868 10072 3078 1163 2229 6777 24 11700 8228 397 309 42 5754 41 5819 395 1387 26 366 1081 55 910 259 16431 215 60 71 5526
internal_value=0 -0.00138022 -0.000692246 0.00860751 -0.00540551 -0.0120868 0.00436344 0.0114064 -0.0213011 0.00682947 -0.00240326 0.0120374 0.015758 -0.0101592 -0.017973 -0.0662215 0.0208178 0.0413766 0.0342754 -0.00301395 0.0343831 -0.000434256 0.00320586 -0.0284443 0.0361625 0.0113593 -0.056738 0.0486116 0.208478 -0.00511466
internal_count=143352 136861 135181 45468 89713 53276 36437 28591 7846 44600 26867 15167 14770 6176 5867 2270 17733 7661 7266 5576 8594 21814 20733 4247 1169 16486 1680 5879 113 5552
shrinkage=0.1


Tree=10
num_leaves=31
num_cat=0
split_feature=27 79 34 7 64 73 14 46 112 33 10 13 82 88 88 10 67 19 67 92 71 109 16 49 46 108 14 93 67 14
split_gain=4.98923 6.37159 5.66297 5.28176 5.69819 8.31215 7.267 6.84825 6.69441 6.23298 6.1509 6.79253 5.15036 5.1216 7.72788 4.98525 5.65491 5.1363 5.52108 8.94372 7.75238 7.88392 5.98592 5.32699 5.23937 5.00787 5.10692 5.55283 6.00183 4.97696
threshold=0.9896950125694276 0.9619249999523164 74.007499694824233 0.34118500351905828 4.4057500362396249 0.40000499784946447 0.62126499414443981 -0.35051999986171717 -0.14599499851465222 0.089001502841711058 0.6016950011253358 5.2936999797821054 0.040716499090194709 1.4863499999046328 1.1809499859809878 0.68999499082565319 40.966499328613288 1.10495001077652 2.6017500162124638 0.81018501520156871 2.5840500593185429 0.78373497724533092 20.104499816894535 0.3166900128126145 -1.8021499514579771 0.82029500603675853 48.510999679565437 0.97371500730514537 1.1876500248908999 1.0830499529838564
decision_type=2 2 2 2 2 2 2 2 2 2 2 2 2 2 2 2 2 2 2 2 2 2 2 2 2 2 2 2 2 2
left_child=2 12 3 4 6 10 9 -7 -9 -1 11 13 -2 14 -6 16 17 18 22 -20 21 -21 25 -23 -19 -5 27 -27 -29 -24
right_child=1 -3 -4 15 5 7 -8 8 -10 -11 -12 -13 -14 -15 -16 -17 -18 24 19 20 -22 23 29 -25 -26 26 -28 28 -30 -31
leaf_value=0.00094377333027322475 0.023465454680733605 -0.0027119425581489018 -0.0059267572209335782 0.0071553302291089459 -0.024372494045796025 -0.024282354801627146 0.00090364870298946195 0.0046225888809810082 0.074688499152660376 -0.018347334169603432 -0.0065796216176864739 -0.071902387611793753 0.0010267720895199368 -0.062493219505995512 0.040451069912385375 0.0015468072589430832 -0.0078995695597799138 0.0061845492558495613 -0.019483024689403397 0.025914150974839123 0.0034564739259036435 -0.051849295890245298 -0.0060901430455435604 -0.014508277423091284 -0.00023387913304713555 -0.00016265622354128581 0.015017126376782966 0.016230426079406477 -0.040205559628084309 0.038715136864167804
leaf_count=276 167 9442 1511 2187 148 28 2230 30 25 426 222 33 264 28 21 26821 895 1290 270 37 1241 52 35 144 90181 4653 264 326 20 85
internal_value=0 -0.0216918 0.00160447 0.00230144 -0.0362137 -0.13112 -0.0188961 0.159757 0.364707 -0.107628 -0.184534 -0.299141 0.0972111 -0.228805 -0.163175 0.0033406 0.000141627 0.000844389 0.0232162 -0.0275084 0.00314079 -0.164229 0.0349023 -0.244151 -0.00143361 0.0313334 0.0146203 0.00746183 0.129682 0.256469
internal_count=143352 9873 133479 131968 3467 535 2932 83 55 702 452 230 431 197 169 128501 101680 100785 9314 1744 1474 233 7570 196 91471 7450 5263 4999 346 120
shrinkage=0.1


Tree=11
num_leaves=31
num_cat=0
split_feature=12 98 74 84 11 72 42 20 80 11 5 110 5 78 54 51 25 1 73 97 66 57 98 114 54 70 0 28 13 43
split_gain=4.40386 8.80967 5.30887 6.46627 5.07227 5.8756 5.82988 5.70944 5.80138 6.01632 5.06503 4.95727 4.94991 5.20593 5.53679 5.04663 4.94177 5.76894 4.89931 5.15572 4.994 5.22076 4.86005 6.09672 7.49664 5.47839 5.15769 6.20474 5.43162 5.37457
threshold=0.94100499153137218 0.017419499345123771 0.45176000893116003 14.112500190734865 28.360500335693363 0.13828500360250476 0.73056998848915111 5.2800500392913827 0.14994499832391742 -0.65711000561714161 0.23383500427007678 0.34923000633716589 -0.16133499890565869 -1.8968500494956968 -1.1077499985694883 44.83800125122071 0.39371499419212347 1.6118499636650088 0.42765499651432043 -0.25916999578475947 7.3571999073028573 0.25288499891757971 0.10451500117778779 0.32069499790668493 -1.2180500030517576 -0.91528499126434315 1.2866500020027163 0.00096580499666742991 3.8525500297546391 0.8907650113105775
decision_type=2 2 2 2 2 2 2 2 2 2 2 2 2 2 2 2 2 2 2 2 2 2 2 2 2 2 2 2 2 2
left_child=2 4 12 -4 6 -6 7 8 9 -2 -10 -5 15 14 -14 22 17 -13 19 -8 21 -20 26 -24 25 -25 27 -1 -28 -30
right_child=1 -3 3 11 5 -7 18 -9 10 -11 -12 16 13 -15 -16 -17 -18 -19 20 -21 -22 -23 23 24 -26 -27 28 -29 29 -31
leaf_value=-0.035999182507614878 0.0095500587198029101 0.0027274267309671915 -0.0014467847553854118 0.0013817461398895183 0.025148004856635264 0.0027968034891123076 -0.05150986359171246 0.011624431222543589 0.00097693921710475997 -0.0022591871036929264 0.016201129132172181 -0.028255234185505559 -0.00095583340006002266 0.00037825937651603318 0.0063444743537527659 0.032049527984451168 0.056184140949335416 0.0128189316243083 -0.019319492737308909 -0.0040721889011218447 0.04687197610478977 0.0095069256276699605 0.0070848186229510186 -0.033458141943750283 -0.014594016419839366 0.017999506271638287 -0.004000739908215846 -0.00096638205150387018 -0.034889027582142844 -0.010504510979621838
leaf_count=51 471 15605 43725 3682 127 1591 23 446 518 5132 378 37 1569 50136 3075 44 24 451 78 5916 29 323 1151 24 342 150 1828 5809 110 507
internal_value=0 0.0106312 -0.00288966 -0.0108702 -0.00664627 0.0444908 -0.0132448 0.00679411 -0.000717017 -0.0126648 0.0739964 0.0266378 0.00301221 0.00674954 0.0387803 -0.0174281 0.118834 0.097047 -0.0350961 -0.042559 0.0679792 0.0389979 -0.0189192 0.0303563 -0.0599656 0.109019 -0.0288099 -0.0127128 -0.0673903 -0.148518
internal_count=143352 30637 112715 47919 15032 1718 13314 6945 6499 5603 896 4194 64796 54780 4644 10016 512 488 6369 5939 430 401 9972 1667 516 174 8305 5860 2445 617
shrinkage=0.1


Tree=12
num_leaves=31
num_cat=0
split_feature=62 66 104 61 41 57 74 57 78 38 85 78 63 101 105 74 60 104 51 72 45 37 42 43 105 103 57 28 43 31
split_gain=4.41815 5.29979 6.06022 7.40537 7.2951 5.32557 5.24401 5.21765 5.35733 6.90484 5.06265 7.04332 8.25736 6.00366 8.28311 7.33332 6.547 5.11573 4.99758 5.63395 5.38768 5.16177 4.90845 5.01253 4.81671 4.68772 4.85136 4.83905 4.57235 5.25078
threshold=1.884649991989136 3.6907500028610234 0.2432850003242493 0.90791499614715587 0.26997500658035284 0.40709500014781957 0.68575501441955578 0.25197499990463262 0.88713499903678905 -0.43865999579429621 11.328500270843508 -1.3447499871253965 0.93561500310897838 5.946549892425538 0.29794499278068548 1.8019500374794009 0.80259501934051525 1.5751499533653261 1.1988499760627749 0.035300999879837043 0.89509499073028576 7.6145498752594003 3.6767500638961796 0.90658497810363781 0.2820850014686585 11.38600015640259 0.26037499308586126 0.92883500456810009 0.88584500551223766 0.91847500205039989
decision_type=2 2 2 2 2 2 2 2 2 2 2 2 2 2 2 2 2 2 2 2 2 2 2 2 2 2 2 2 2 2
left_child=-1 7 3 4 6 -6 -3 8 22 -10 25 12 -12 -13 15 16 -15 -17 -18 -20 -21 -22 -2 -24 -14 -9 27 -27 -4 -30
right_child=1 2 28 -5 5 -7 -8 10 9 -11 11 13 24 14 -16 17 18 -19 19 20 21 -23 23 -25 -26 26 -28 -29 29 -31
leaf_value=0.00076335734366404155 -0.0028713714847180536 -0.055253828410059214 -0.0042779904103164628 0.036433699220005014 -0.0079103125556231665 0.040646156166558679 -0.016372833089883795 0.0005179985043655582 0.028466339677303904 0.00028134417026938702 -0.0013522787816124902 -0.0056228324571804518 0.0015062340990138743 0.023480365797877312 -0.0012335775513372335 0.028897966898014594 0.047311236673877356 -0.0079184638336300857 0.030834693810407151 -0.010671688248256796 0.034472147384421684 -0.0073578804305170558 -0.032312126357906631 -0.0073187644320273568 -0.019691637621559174 -0.0004827680066227913 -0.0065059291447653799 0.061688693683771861 0.0071274554453730314 -0.0010485661829198968
leaf_count=49591 5596 54 3869 36 1260 23 97 66110 118 330 807 1789 130 139 3143 234 21 45 47 413 59 59 112 283 611 31 1341 21 902 6081
internal_value=0 -0.00403746 -0.0233658 -0.0836217 -0.0948675 -0.0703985 -0.302773 -0.00111302 -0.0284306 0.0770507 0.00123229 -0.0234211 -0.0835082 -0.00778571 0.0130469 0.0914913 0.0392801 0.229598 -0.0060918 -0.0235023 -0.0528751 0.135571 -0.0363184 -0.144055 -0.159727 0.00397033 -0.0534383 0.246249 -0.0152036 7.53743e-05
internal_count=143352 93761 12322 1470 1434 1283 151 81439 6439 448 75000 7497 1548 5949 4160 1017 738 279 599 578 531 118 5991 395 741 67503 1393 52 10852 6983
shrinkage=0.1


Tree=13
num_leaves=31
num_cat=0
split_feature=69 62 33 43 93 3 35 25 93 77 0 11 10 54 32 35 18 81 22 62 3 24 44 14 113 71 9 7 43 53
split_gain=4.56506 5.79257 5.50485 5.43473 6.27691 6.41206 6.42661 5.79819 5.63719 5.17962 4.96118 5.16236 4.75624 4.9499 5.45474 4.3183 4.2442 4.39152 4.27185 4.20111 4.20003 4.16893 7.8136 5.39418 5.31218 6.17325 5.84338 5.39997 5.98233 5.80825
threshold=4.9372000694274911 3.4533499479293828 -3.8669999837875362 0.98844498395919811 0.96343499422073375 0.99331000447273265 1.2000499963760378 0.31098499894142156 0.78255498409271251 0.97548499703407299 1.6368499994277956 5.902250051498414 0.84201499819755565 -1.0246500372886655 0.79109999537467968 6.0007500648498544 11.500000000000002 0.013897500000894071 -1.3650500178337095 19.692500114440922 -1.2279500365257261 0.93162500858306896 0.9268150031566621 0.42355000972747808 0.052424499765038497 1.1347499489784243 0.8596550226211549 0.698194980621338 0.87599498033523571 4.1841499805450448
decision_type=2 2 2 2 2 2 2 2 2 2 2 2 2 2 2 2 2 2 2 2 2 2 2 2 2 2 2 2 2 2
left_child=-1 15 -3 4 5 9 -7 -5 -8 16 12 -12 13 20 -15 21 -4 18 -18 -11 -6 23 24 -2 26 -26 -23 28 29 -27
right_child=1 2 3 7 10 6 8 -9 -10 19 11 -13 -14 14 -16 -17 17 -19 -20 -21 -22 22 -24 -25 25 27 -28 -29 -30 -31
leaf_value=0.00020419909911197949 -0.0051705646670822062 0.029137832069626224 -0.0047554450586778669 0.0019525785930454731 0.066376287182388097 -0.057769395820796487 0.00216537994480504 -0.025016964328394314 -0.016954290652402528 -0.011230487182459848 0.0067811202358555147 0.058301436792059652 -0.035252802239523998 0.036115359976178124 -0.024990296573378146 0.038958065028719867 -0.023180808403318931 -0.00082218897586212197 0.016083544979123506 -0.047547009828928358 0.0091540606531860507 -0.020842600723961369 0.0098111735030673233 0.0028458686038466772 -0.031489879689246845 -0.029014928473043256 0.0094055424481140158 -0.0079944559667603152 0.020298335359297398 0.009717700918138561
leaf_count=126755 1007 52 3255 122 23 30 233 230 456 229 37 41 27 21 48 29 31 3708 261 37 29 400 322 5043 69 64 76 420 199 98
internal_value=0 -0.0155951 -0.0330318 -0.0349449 -0.0298827 -0.0343922 -0.124613 -0.156696 -0.104886 -0.0257671 0.134533 0.338623 0.026972 0.111654 -0.0639292 0.00442085 -0.0207422 0.00107631 0.119151 -0.16282 0.344639 0.00296988 -0.0416186 0.0151156 -0.0755501 -0.028185 -0.160131 -0.00285433 0.0868351 -0.0558408
internal_count=143352 16597 8870 8818 8466 8240 719 352 689 7521 226 78 148 121 69 7727 7255 4000 292 266 52 7698 1648 6050 1326 850 476 781 361 162
shrinkage=0.1


Tree=14
num_leaves=31
num_cat=0
split_feature=64 88 65 16 81 8 1 88 43 2 85 0 51 47 91 57 51 47 52 36 24 16 4 44 111 51 71 48 10 98
split_gain=4.19157 3.94519 5.92147 6.12355 6.68196 5.92882 7.81916 7.54655 5.99018 5.71403 5.91745 5.6621 5.47245 5.4575 6.35806 5.86449 5.36012 5.63964 5.47787 5.30155 5.16041 5.15926 5.247 5.15841 5.09822 4.83956 5.29889 4.72563 7.70384 5.14867
threshold=-0.10556500032544135 0.71038499474525463 -0.62176498770713795 17.440500259399418 0.085418000817298903 0.75343501567840587 2.1886500120162968 -0.035159500315785401 0.90175500512123119 4.9654500484466562 5.5813500881195077 1.8093499541282656 2.4496500492095952 0.98000499606132518 0.99509501457214367 0.32592499256134039 2.4040499925613408 0.83022499084472667 46.064001083374031 6.0000998973846444 2.4452500343322758 13.364000320434572 1.987049996852875 0.93247500061988842 0.9442650079727174 3.8216500282287602 1.7056500315666201 2.3203500509262089 0.57766500115394603 0.052136499434709556
decision_type=2 2 2 2 2 2 2 2 2 2 2 2 2 2 2 2 2 2 2 2 2 2 2 2 2 2 2 2 2 2
left_child=-1 2 9 12 5 6 7 -5 -8 19 -11 -10 16 14 20 25 18 -18 21 -2 -14 -4 -23 -19 27 26 -15 -7 -29 -30
right_child=1 -3 3 4 -6 24 8 -9 11 10 -12 -13 13 15 -16 -17 17 23 -20 -21 -22 22 -24 -25 -26 -27 -28 28 29 -31
leaf_value=0.0026097421085862823 -0.0082708322883387961 0.00032077287939843866 -0.00066193330142789823 0.027307855860417476 -0.016984926232012372 -0.0051151497964189944 0.0059543751666233137 -0.016478353277622797 0.018042948234538524 -0.0040779947439053407 0.029206486071485124 0.060866135194838203 -0.0049654949208315742 0.0047491152571720631 0.01344872501255818 -0.015128517914513757 0.048726420343627001 0.0024360631267930904 -0.022060305428867406 -0.029450996943729386 0.026995049402409911 0.0013250495540230896 0.010820033528282608 0.03243009823108358 -0.0019797245291598669 -0.0092378436005674299 0.024702762642213813 -0.036543140655474649 -0.016118168190815577 0.014828296755887059
leaf_count=5901 789 83170 25263 50 342 1034 214 185 90 192 74 47 5358 352 201 126 37 317 111 139 51 13127 609 70 4741 128 214 143 204 73
internal_value=0 -0.00112041 -0.00775202 -0.00618564 -0.0334682 -0.0265898 0.0695513 -0.0716214 0.164069 -0.0773959 0.051816 0.327341 -0.00195769 -0.0290136 -0.0401518 0.0471883 0.00244282 0.114274 0.00123043 -0.114433 -0.0466415 0.00186182 0.0174602 0.0786134 -0.035684 0.0832224 0.122934 -0.0874854 -0.176936 -0.079626
internal_count=143352 137451 54281 53087 7123 6781 586 235 351 1194 266 137 45964 6430 5610 820 39534 424 39110 928 5409 38999 13736 387 6195 694 566 1454 420 277
shrinkage=0.1



feature importances:
all_loss_best_percentile75_ratio=13
recent_25_loss_kurtosis=10
all_correlation_skew=10
recent_10_correlation_stddev_best_ratio=9
log10_cardinality=9
recent_25_correlation_stddev_best_ratio=9
all_loss_stddev_best_ratio=9
top_20%_correlation_skew=8
top_30%_loss_skew=8
top_10%_correlation_stddev_best_ratio=7
top_10%_correlation_percentile5_percentile25_ratio=7
top_10%_correlation_best_percentile75_ratio=7
top_10%_loss_best_percentile75_ratio=7
top_10%_correlation_best_percentile25_ratio=7
recent_25_loss_percentile5_percentile25_ratio=7
top_10%_loss_percentile5_percentile25_ratio=7
top_30%_correlation_skew=7
recent_15%_loss_best_percentile25_ratio=7
recent_10_loss_stddev_best_ratio=7
all_correlation_best_percentile50_ratio=7
all_correlation_best_percentile25_ratio=7
all_loss_skew=7
all_loss_kurtosis=7
all_correlation_kurtosis=7
all_correlation_best_percentile75_ratio=7
all_loss_stddev_median_ratio=7
top_20%_loss_kurtosis=6
top_30%_correlation_stddev_best_ratio=6
top_20%_correlation_best_percentile50_ratio=6
recent_10_loss_stddev_median_ratio=6
top_20%_loss_skew=6
recent_15%_correlation_stddev_best_ratio=5
top_10%_loss_kurtosis=5
recent_15%_loss_kurtosis=5
recent_25_correlation_best_percentile25_ratio=5
recent_25_correlation_best_percentile75_ratio=5
recent_25_loss_stddev_median_ratio=5
recent_25_loss_stddev_best_ratio=5
top_30%_correlation_percentile5_percentile25_ratio=5
recent_10_correlation_skew=5
recent_10_correlation_best_percentile25_ratio=5
top_30%_correlation_best_percentile75_ratio=5
recent_15%_correlation_best_percentile25_ratio=5
top_10%_correlation_kurtosis=4
top_20%_loss_best_percentile75_ratio=4
top_30%_loss_best_percentile75_ratio=4
recent_25_correlation_best_percentile50_ratio=4
recent_15%_correlation_best_percentile50_ratio=4
recent_15%_loss_skew=4
top_10%_correlation_skew=4
num_parameters=4
recent_15%_correlation_stddev_median_ratio=4
top_20%_loss_stddev_median_ratio=4
recent_15%_loss_stddev_best_ratio=3
top_20%_correlation_best_percentile75_ratio=3
all_correlation_percentile5_percentile25_ratio=3
top_10%_loss_best_percentile25_ratio=3
all_loss_best_percentile50_ratio=3
top_20%_correlation_percentile5_percentile25_ratio=3
all_correlation_stddev_median_ratio=3
top_10%_correlation_stddev_median_ratio=3
recent_25_loss_skew=3
all_loss_percentile5_percentile25_ratio=3
top_20%_correlation_stddev_best_ratio=3
recent_25_loss_best_percentile25_ratio=3
recent_25_correlation_kurtosis=3
recent_15%_loss_percentile5_percentile25_ratio=3
top_20%_loss_stddev_best_ratio=3
recent_15%_loss_best_percentile50_ratio=3
top_30%_correlation_best_percentile25_ratio=3
recent_10_loss_best_percentile50_ratio=3
recent_10_loss_best_percentile25_ratio=3
top_10%_loss_stddev_best_ratio=3
top_20%_correlation_best_percentile25_ratio=2
recent_10_correlation_percentile5_percentile25_ratio=2
top_20%_correlation_kurtosis=2
top_30%_correlation_kurtosis=2
top_30%_loss_kurtosis=2
top_30%_loss_stddev_best_ratio=2
top_10%_loss_skew=2
recent_10_correlation_kurtosis=2
recent_10_loss_best_percentile75_ratio=2
recent_10_loss_percentile5_percentile25_ratio=2
recent_15%_correlation_best_percentile75_ratio=2
recent_15%_correlation_kurtosis=2
recent_15%_correlation_percentile5_percentile25_ratio=2
recent_15%_correlation_skew=2
recent_15%_loss_best_percentile75_ratio=2
recent_25_correlation_stddev_median_ratio=2
recent_25_loss_best_percentile50_ratio=2
recent_25_loss_best_percentile75_ratio=2
top_10%_correlation_best_percentile50_ratio=2
all_loss_best_percentile25_ratio=2
top_10%_loss_best_percentile50_ratio=2
all_correlation_stddev_best_ratio=2
top_30%_loss_stddev_median_ratio=1
top_10%_loss_stddev_median_ratio=1
recent_10_correlation_best_percentile50_ratio=1
top_30%_loss_percentile5_percentile25_ratio=1
recent_10_correlation_stddev_median_ratio=1
top_30%_loss_best_percentile50_ratio=1
recent_10_loss_kurtosis=1
recent_10_loss_skew=1
top_20%_correlation_stddev_median_ratio=1
top_20%_loss_best_percentile25_ratio=1
recent_15%_loss_stddev_median_ratio=1
top_20%_loss_best_percentile50_ratio=1

pandas_categorical:null
