tree
version=v2
num_class=1
num_tree_per_iteration=1
label_index=0
max_feature_idx=114
objective=regression
feature_names=all_correlation_best_percentile25_ratio all_correlation_best_percentile50_ratio all_correlation_best_percentile75_ratio all_correlation_kurtosis all_correlation_percentile5_percentile25_ratio all_correlation_skew all_correlation_stddev_best_ratio all_correlation_stddev_median_ratio all_loss_best_percentile25_ratio all_loss_best_percentile50_ratio all_loss_best_percentile75_ratio all_loss_kurtosis all_loss_percentile5_percentile25_ratio all_loss_skew all_loss_stddev_best_ratio all_loss_stddev_median_ratio log10_cardinality log10_trial num_parameters recent_10_correlation_best_percentile25_ratio recent_10_correlation_best_percentile50_ratio recent_10_correlation_best_percentile75_ratio recent_10_correlation_kurtosis recent_10_correlation_percentile5_percentile25_ratio recent_10_correlation_skew recent_10_correlation_stddev_best_ratio recent_10_correlation_stddev_median_ratio recent_10_loss_best_percentile25_ratio recent_10_loss_best_percentile50_ratio recent_10_loss_best_percentile75_ratio recent_10_loss_kurtosis recent_10_loss_percentile5_percentile25_ratio recent_10_loss_skew recent_10_loss_stddev_best_ratio recent_10_loss_stddev_median_ratio recent_15%_correlation_best_percentile25_ratio recent_15%_correlation_best_percentile50_ratio recent_15%_correlation_best_percentile75_ratio recent_15%_correlation_kurtosis recent_15%_correlation_percentile5_percentile25_ratio recent_15%_correlation_skew recent_15%_correlation_stddev_best_ratio recent_15%_correlation_stddev_median_ratio recent_15%_loss_best_percentile25_ratio recent_15%_loss_best_percentile50_ratio recent_15%_loss_best_percentile75_ratio recent_15%_loss_kurtosis recent_15%_loss_percentile5_percentile25_ratio recent_15%_loss_skew recent_15%_loss_stddev_best_ratio recent_15%_loss_stddev_median_ratio recent_25_correlation_best_percentile25_ratio recent_25_correlation_best_percentile50_ratio recent_25_correlation_best_percentile75_ratio recent_25_correlation_kurtosis recent_25_correlation_percentile5_percentile25_ratio recent_25_correlation_skew recent_25_correlation_stddev_best_ratio recent_25_correlation_stddev_median_ratio recent_25_loss_best_percentile25_ratio recent_25_loss_best_percentile50_ratio recent_25_loss_best_percentile75_ratio recent_25_loss_kurtosis recent_25_loss_percentile5_percentile25_ratio recent_25_loss_skew recent_25_loss_stddev_best_ratio recent_25_loss_stddev_median_ratio top_10%_correlation_best_percentile25_ratio top_10%_correlation_best_percentile50_ratio top_10%_correlation_best_percentile75_ratio top_10%_correlation_kurtosis top_10%_correlation_percentile5_percentile25_ratio top_10%_correlation_skew top_10%_correlation_stddev_best_ratio top_10%_correlation_stddev_median_ratio top_10%_loss_best_percentile25_ratio top_10%_loss_best_percentile50_ratio top_10%_loss_best_percentile75_ratio top_10%_loss_kurtosis top_10%_loss_percentile5_percentile25_ratio top_10%_loss_skew top_10%_loss_stddev_best_ratio top_10%_loss_stddev_median_ratio top_20%_correlation_best_percentile25_ratio top_20%_correlation_best_percentile50_ratio top_20%_correlation_best_percentile75_ratio top_20%_correlation_kurtosis top_20%_correlation_percentile5_percentile25_ratio top_20%_correlation_skew top_20%_correlation_stddev_best_ratio top_20%_correlation_stddev_median_ratio top_20%_loss_best_percentile25_ratio top_20%_loss_best_percentile50_ratio top_20%_loss_best_percentile75_ratio top_20%_loss_kurtosis top_20%_loss_percentile5_percentile25_ratio top_20%_loss_skew top_20%_loss_stddev_best_ratio top_20%_loss_stddev_median_ratio top_30%_correlation_best_percentile25_ratio top_30%_correlation_best_percentile50_ratio top_30%_correlation_best_percentile75_ratio top_30%_correlation_kurtosis top_30%_correlation_percentile5_percentile25_ratio top_30%_correlation_skew top_30%_correlation_stddev_best_ratio top_30%_correlation_stddev_median_ratio top_30%_loss_best_percentile25_ratio top_30%_loss_best_percentile50_ratio top_30%_loss_best_percentile75_ratio top_30%_loss_kurtosis top_30%_loss_percentile5_percentile25_ratio top_30%_loss_skew top_30%_loss_stddev_best_ratio top_30%_loss_stddev_median_ratio
feature_infos=[0:15.006999969482422] [0:234.80000305175781] [0:4882.39990234375] [-1.9805999994277954:10.654999732971191] [0:12.206000328063965] [-2.6215999126434326:3.3966999053955078] [0:0.45357000827789307] [0:85.734001159667969] [-11839:1584.199951171875] [-779.91998291015625:808.3699951171875] [-507.22000122070312:5197.10009765625] [-1.9981000423431396:209.69999694824219] [-7946.7001953125:1168.9000244140625] [-8.7989997863769531:13.902000427246094] [-488510:4586200] [-155060:615890] [3.7781999111175537:23.594999313354492] [1:2.6435000896453857] [5:34] [0:802.9000244140625] [0:559] [0:1258.9000244140625] [-1.9955999851226807:18.329000473022461] [0:587.8800048828125] [-2.2653999328613281:4.391200065612793] [0:0.48989999294281006] [0:198.35000610351562] [-1219.5:522.80999755859375] [-1235.800048828125:6594.60009765625] [-1117.5:8850.099609375] [-2:5.1111001968383789] [-935.07000732421875:423.33999633789062] [-2.6647000312805176:2.6666998863220215] [-297430:1188300] [-212310:1079600] [0:3575.699951171875] [0:10875] [0:26023] [-1.9921000003814697:19.042999267578125] [0:2033.4000244140625] [-2.9841001033782959:4.5872998237609863] [0:0.49930998682975769] [0:2715.5] [-709.03997802734375:502.79998779296875] [-3297.89990234375:18467] [-19963:8850.099609375] [-2:60.916000366210938] [-448.57998657226562:390.1099853515625] [-6.5598998069763184:7.9286999702453613] [-317810:4634900] [-2685700:920740] [0:3278.300048828125] [0:6019.10009765625] [0:9635.900390625] [-1.9896999597549438:20.330999374389648] [0:2503.199951171875] [-2.3831000328063965:4.6901998519897461] [0:0.48857000470161438] [0:1847.800048828125] [-1337.0999755859375:243.28999328613281] [-3297.89990234375:1716.199951171875] [-3973.300048828125:2211.89990234375] [-1.9981000423431396:20.041999816894531] [-1199:202.85000610351562] [-4.6810002326965332:4.6949000358581543] [-350350:5375700] [-3075900:1514600] [0:3617.800048828125] [0:3004.5] [0:2050.60009765625] [-2:22.038000106811523] [0:1885.800048828125] [-3.75:4.902900218963623] [0:0.5] [0:861.3800048828125] [-298.98001098632812:265.42999267578125] [-725.83001708984375:605.80999755859375] [-297.85000610351562:6594.60009765625] [-2:20.041999816894531] [-210.33999633789062:200.82000732421875] [-4.6949000358581543:4.4772000312805176] [-4756.89990234375:13260] [-250.80999755859375:12848] [0:11477] [0:24078] [0:20548] [-2:21.040000915527344] [0:5149] [-3.8805999755859375:4.8000001907348633] [0:0.5] [0:5943.7001953125] [-10733:179.94999694824219] [-197.66999816894531:780.010009765625] [-1242.300048828125:309.73001098632812] [-2:40.016998291015625] [-5728.2998046875:123.62000274658203] [-6.4818000793457031:6.08489990234375] [-6293.39990234375:12913] [-414.29000854492188:8168.7998046875] [0:26229] [0:21533] [0:37704] [-2:16.608999252319336] [0:18253] [-2.8459999561309814:4.248499870300293] [0:0.5] [0:5373.2001953125] [-1534.800048828125:415.8599853515625] [-911.79998779296875:855.30999755859375] [-860.95001220703125:27170] [-2:62.985000610351562] [-1393.0999755859375:342.82000732421875] [-8.0602998733520508:5.768700122833252] [-8886.900390625:104960] [-354.72000122070312:36623]
tree_sizes=2504 2567 2569 2547 2546 2537 2577 2558 2531 2568 2553 2538 2544 2565 2540 2570 2577 2526 2559 2536 2540 2510 2511 2517 2521 2537 2511

Tree=0
num_leaves=31
num_cat=0
split_feature=71 70 93 46 46 78 78 81 107 78 18 78 78 78 78 46 52 56 78 13 12 55 83 44 27 10 98 12 60 13
split_gain=188255 79495.9 20782.2 13553.4 8607.16 8668.88 8527.41 8169.61 9894.1 7108.5 6942.66 6246.19 5055.47 4706.83 5909.68 4335.55 4262.19 3442.8 3888.2 3422.39 3253.55 3250.72 3227.19 3140.34 3083.09 3074.29 2986.17 2975.69 2916.11 2971.32
threshold=1.0001000165939333 0.25002999603748327 0.89332500100135814 0.25030000507831579 0.24915499985218051 -1.4999499917030332 -1.9999499917030332 1.0000000180025095e-35 0.99999499320983898 -0.9953399896621703 24.500000000000004 -1.5000500082969663 -1.9999499917030332 -1.4999499917030332 -1.5000500082969663 9.5239000320434588 1.4606500267982485 0.17239999771118167 -1.4999499917030332 3.4599499702453618 0.53653001785278331 1.4066500067710879 5.3652999401092538 0.93766498565673839 0.8836050033569337 0.65035498142242443 0.03098199982196093 0.96704500913620006 0.81837499141693126 2.3870500326156621
decision_type=2 2 2 2 2 2 2 2 2 2 2 2 2 2 2 2 2 2 2 2 2 2 2 2 2 2 2 2 2 2
left_child=1 3 4 7 5 11 -3 8 25 -9 19 12 -2 14 27 22 -10 18 -8 -6 24 -22 26 -20 -13 -1 -15 -4 29 -28
right_child=2 6 13 -5 10 -7 17 9 16 -11 -12 20 -14 15 -16 -17 -18 -19 23 -21 21 -23 -24 -25 -26 -27 28 -29 -30 -31
leaf_value=15.89191530279864 15.805862941006463 15.739057194733759 15.451497969633065 15.472683544180759 15.395840716253097 15.396049708109258 15.748680569788526 15.792763256800786 16.387059862935974 15.261834425578151 15.215059184934146 15.865098045464368 15.389213701228204 15.455539616595249 15.639253980420932 15.521259302995615 15.495398090979977 15.465318514166698 15.586301530664244 15.326784785540806 15.707439653182668 15.487368555564736 15.543552228948517 15.217022044965919 16.966370200364363 16.008910995579704 15.640567611136101 15.698840422064764 15.361868567761771 15.393108650999286
leaf_count=5896 329 1540 5071 1011 20295 13139 1000 8381 58 260 3122 206 2536 24546 3610 9590 708 10164 773 11103 1569 1173 3101 328 29 3628 841 538 7660 1147
internal_value=0 2.06523 -0.635878 3.34223 -1.08179 -0.540878 0.220555 3.53274 4.13473 2.81587 -1.37921 0.472619 -0.581413 -0.210657 0.442537 -0.339095 0.677123 -0.05794 1.10737 -1.2378 1.487 1.18095 -0.493297 -0.189115 5.05799 4.41282 -0.581882 -0.199782 -1.05324 0.0259263
internal_count=143352 33747 109605 19942 53501 18981 13805 18931 10290 8641 34520 5842 2865 56104 9219 46885 766 12265 2101 31398 2977 2742 37295 1101 235 9524 34194 5609 9648 1988
shrinkage=1


Tree=1
num_leaves=31
num_cat=0
split_feature=17 17 108 17 17 16 81 17 17 17 96 88 114 51 17 44 96 32 60 104 106 67 51 16 23 80 101 17 96 16
split_gain=268217 22451.7 18496.7 15438.6 14480.9 7022.31 6776.67 4502.85 4426.14 4740.94 7381.24 3927.36 3737.13 3727.62 3541.88 3242.72 3176.9 3144.31 3003.16 2804.17 2754.63 2729.78 2635.8 2541.54 2886.51 2539.88 2486.91 2457.11 2453.56 2439.69
threshold=1.5396000146865847 1.3890500068664553 0.88080501556396495 1.9771000146865847 1.738600015640259 17.725999832153324 1.0000000180025095e-35 1.738600015640259 1.6505500078201296 1.9771000146865847 -0.062128499150276177 1.4863499999046328 0.031179499812424186 1.4443500041961672 1.8116500377655032 0.759669989347458 -1.7227500081062315 -0.78631499409675587 0.94939500093460094 1.1485499739646914 1.3571500182151797 2.0341500043869023 1.4679500460624697 11.153999805450441 1.0001000165939333 -1.0000000180025095e-35 128.70000457763675 2.2367000579833989 0.47837001085281378 7.643399953842164
decision_type=2 2 2 2 2 2 2 2 2 2 2 2 2 2 2 2 2 2 2 2 2 2 2 2 2 2 2 2 2 2
left_child=1 6 5 4 -4 8 17 -7 -2 14 19 12 27 -3 15 20 -15 -1 -18 -11 22 -22 -10 24 -14 -19 -13 -5 -17 -16
right_child=2 13 3 11 -6 7 -8 -9 9 10 -12 26 23 16 29 28 18 25 -20 -21 21 -23 -24 -25 -26 -27 -28 -29 -30 -31
leaf_value=0.13893068144139226 0.0084533999651653004 0.21118135861503165 0.01058724720171204 0.091940714849493205 -0.13047535853023018 0.0064891295154373366 0.27653267738518683 -0.25338572802521103 -0.21965424187312071 -0.13172334619467788 0.051631206551244369 0.065557294628358603 -0.43536861951534567 -0.52308564601199969 -0.045823295013461676 -0.12743084061845508 0.091386278520710934 1.2986628778278828 1.1692189017167458 -0.046585821371292822 0.34457361356665694 -0.05992978886022407 0.022690988439157823 -0.066812911962428251 0.043875760440788572 0.40622369275167136 1.0093826134290014 -0.0068783779779850451 -0.46219824235160634 -0.19963153506388887
leaf_count=451 3414 4951 11002 4689 21496 770 9003 4972 704 12266 3623 9471 130 84 1152 4191 4508 32 26 5651 384 295 1238 10255 3780 9284 28 5430 231 9841
internal_value=0 2.75564 -0.678985 -0.335121 -0.827195 -1.14668 3.39117 -2.18537 -1.00795 -1.10219 -0.785476 0.138236 -0.0750097 1.50903 -1.48043 -0.926791 0.862776 3.96805 0.975671 -1.04871 -0.0454337 1.68832 -0.651623 -0.406575 0.279418 4.09289 0.683394 0.38913 -1.44919 -1.83513
internal_count=143352 28339 115013 66281 32498 48732 18770 5742 42990 39576 21540 33783 24284 9569 18036 7043 4618 9767 4534 17917 2621 679 1942 14165 3910 9316 9499 10119 4422 10993
shrinkage=0.1


Tree=2
num_leaves=31
num_cat=0
split_feature=94 73 108 67 60 67 61 16 113 1 11 66 83 61 11 27 73 3 104 33 84 16 2 10 93 13 82 63 74 14
split_gain=128552 56926.5 14097.8 9719.08 9630.76 8137.87 5254.35 4555.72 4219.24 4004.79 3616.78 3353.54 3298.51 3140.79 3109.12 3103.27 3075.33 3104.89 2884.42 2860.46 2643.48 2575.35 2501.15 2493.24 2487.12 2469.44 2875.65 2433.73 2691.31 2403.64
threshold=-1.9999499917030332 0.41907499730587011 0.88080501556396495 1.1547500491142275 0.80105501413345348 1.0001000165939333 0.48270499706268316 17.922500610351566 0.036213999614119537 2.2394499778747563 0.9855799973011018 1.1228500008583071 1.3405500054359438 0.31272000074386602 22.847499847412113 0.9116249978542329 0.32646499574184423 -0.92334499955177296 1.7357500195503237 31.745500564575199 6.4587500095367441 10.897999763488771 1.9912499785423281 0.76361501216888439 0.95889499783515941 1.8586500287055971 0.036978499963879592 0.97299498319625866 1.2956500053405764 0.19976500421762469
decision_type=2 2 2 2 2 2 2 2 2 2 2 2 2 2 2 2 2 2 2 2 2 2 2 2 2 2 2 2 2 2
left_child=-1 2 3 -2 9 11 16 14 -6 10 -4 -3 -12 -7 27 23 17 -5 22 20 -13 -16 -17 -10 -24 -20 -27 -8 -29 -9
right_child=1 5 4 6 8 13 7 29 15 -11 12 19 -14 -15 21 18 -18 -19 25 -21 -22 -23 24 -25 -26 26 -28 28 -30 -31
leaf_value=0.35831443214127684 0.011968879409608939 0.21092054950282144 0.30670517392793739 0.0057151263251485236 -0.0026738474421738861 0.27312694261264475 -0.10179621937452764 0.38465110410864539 0.012522139600128221 0.015603914144174409 0.27281663758245761 0.43310123223167807 0.039757320925973776 0.043916980907894101 -0.052334816747097196 0.073497418238709478 0.0065055015624891259 -0.15186821022997679 0.28394596356064528 -0.013583504384692342 0.049212439091239672 -0.22829878979204543 -0.089073135057861769 0.46436570281281125 0.13141797731949253 -0.015002868465540567 1.1889505892992021 0.13428519824336721 -0.22839263119359515 -0.22800822895043515
leaf_count=9359 8749 4666 1102 1901 30075 720 21971 65 3966 4495 806 1819 2463 3523 1101 1049 5727 3653 335 187 199 3401 23433 126 523 2462 20 865 268 4323
internal_value=0 -0.250272 -0.446297 -0.841592 -0.156059 1.91703 -1.03594 -1.24285 -0.295488 0.818792 1.50035 2.58946 0.972201 0.828119 -1.0924 -0.548751 -0.449121 -0.979312 -0.66834 3.60573 3.95245 -1.85265 -0.776413 0.264352 -0.842594 0.290961 -0.0530139 -0.94426 0.484973 -2.18933
internal_count=143352 133993 122879 52024 70855 11114 43275 31994 61989 8866 4371 6871 3269 4243 27606 31914 11281 5554 27822 2205 2018 4502 25005 4092 23956 2817 2482 23104 1133 4388
shrinkage=0.1


Tree=3
num_leaves=31
num_cat=0
split_feature=67 72 93 113 61 46 80 16 46 16 61 25 107 77 15 16 0 2 58 9 16 12 19 80 97 21 59 98 2 97
split_gain=100163 48167.7 11566.4 7852.98 6220.94 6075.41 4338.99 4115.11 4007.41 3631.33 4003.83 3629.11 3331.02 3120.7 2918.76 2873.08 3223.43 2767.42 2649.24 2610.39 2598.73 2537.46 2956.74 2658.88 2520.17 2517.29 2515.14 2835.78 2673.08 2750.48
threshold=1.0001000165939333 1.3375499844551089 0.89407500624656688 2.7503499984741215 0.49496500194072729 0.25030000507831579 -0.68389499187469471 17.891499519348148 3.5286999940872197 13.559000015258791 0.73484498262405407 0.36759500205516821 0.71426498889923107 0.9270949959754945 2014.3499755859377 13.694499969482424 1.2437500357627871 2.0455499887466435 1.2845500111579897 0.15483000129461291 13.953999996185305 0.93898499011993419 1.1775500178337099 -2.040599942207336 0.03174600005149842 5.688850164413453 0.71949002146720897 0.095481500029563918 2.4694499969482426 0.052793499082326896
decision_type=2 2 2 2 2 2 2 2 2 2 2 2 2 2 2 2 2 2 2 2 2 2 2 2 2 2 2 2 2 2
left_child=1 3 4 5 8 6 25 18 12 10 -4 15 -2 -8 26 16 -3 19 24 -15 -17 -11 -23 -24 -6 -1 28 -28 -13 -30
right_child=2 11 9 -5 7 -7 13 -9 -10 21 -12 14 -14 17 -16 20 -18 -19 -20 -21 -22 22 23 -25 -26 -27 27 -29 29 -31
leaf_value=0.06727369193465281 -0.06003577165813815 0.1485600195333589 0.070589007388479882 -0.030602094452110092 0.37491875429486121 -0.056031385500160805 0.31236489113929072 -0.17778240759045974 -0.11203241756126597 -0.064220641885837412 -0.012891475011062159 0.99887672875608724 0.055961107653358891 1.3091875199348697 0.91516753329045109 -0.28326826476179306 -0.010688017800889016 0.20121907671076858 -0.12404948728724385 0.37055951683267729 -0.049862242726508021 0.26840261665674359 0.55154516161924394 -0.016758476712275528 -0.068365360398157188 -0.61443790308634449 0.098002162041285035 -0.41084792980780965 0.87644785749462428 0.066634164739455756
leaf_count=195 4105 1601 8036 939 129 569 11663 5729 3644 16905 20154 56 6237 31 46 554 6168 5558 12023 670 3433 390 83 10139 22136 75 1713 117 53 201
internal_value=0 1.5095 -0.462881 2.51612 -0.792659 2.65737 2.75802 -0.993311 -0.21855 -0.14319 0.109059 0.087148 0.0991903 2.81796 1.2703 -0.132857 0.221291 2.24834 -0.862231 4.12068 -0.822944 -0.40161 -0.0183367 -0.12144 -0.65797 -1.22091 1.10089 0.654691 3.73491 2.35611
internal_count=143352 33642 109710 19700 54003 18761 18192 40017 13986 55707 28190 13942 10342 17922 2186 11756 7769 6259 34288 701 3987 27517 10612 10222 22265 270 2140 1830 310 254
shrinkage=0.1


Tree=4
num_leaves=31
num_cat=0
split_feature=17 17 17 107 17 112 104 17 16 108 13 75 31 51 17 22 16 0 19 99 8 10 20 48 80 10 58 54 109 59
split_gain=157489 12743.2 19891 12943.6 9514.46 6776.4 3974.08 3945.04 3918.36 3444.98 3290.2 2981.7 2944.96 2929.73 2858.3 2803.55 2724.51 2712.45 2813.08 2676.93 2628.17 2605.13 3119.5 2659.25 2593.65 2507.99 2507.38 2501.88 2499.75 2428.75
threshold=1.5396000146865847 1.9771000146865847 1.8116500377655032 0.89626500010490429 1.3890500068664553 -0.37262499332427973 0.83221501111984264 1.6505500078201296 12.427499771118166 0.77930498123168956 -2.0595999956130977 0.96611499786376964 1.0000000180025095e-35 1.6455499529838564 2.2367000579833989 0.05327699892222882 18.605999946594242 1.1339499950408938 1.0355499982833865 1.3096500039100649 -0.42400999367237086 0.65035498142242443 1.6953499913215639 -0.48220001161098475 -0.72165998816490162 0.69553500413894664 2.0218499898910527 3.8744000196456914 0.00054203998297452937 0.84382498264312755
decision_type=2 2 2 2 2 2 2 2 2 2 2 2 2 2 2 2 2 2 2 2 2 2 2 2 2 2 2 2 2 2
left_child=4 2 7 5 10 17 14 12 -4 -7 -1 21 -2 -6 -5 -11 -8 18 -3 -15 -13 23 -23 -12 27 -21 -27 -19 -16 -18
right_child=1 3 8 6 13 9 16 -9 -10 15 11 20 -14 19 28 -17 29 24 -20 25 -22 22 -24 -25 -26 26 -28 -29 -30 -31
leaf_value=-0.49306442636554526 0.79285308253765108 1.1398780604203542 -0.10144366379734777 0.014970404876032831 0.16886726348664449 0.086087473648769647 0.04942608336086176 -0.05234586716924116 -0.17645535364221177 0.025009692336766365 0.10101765839465876 0.88887552065508713 0.023308255665513269 0.28376543908858692 0.52955498141302193 -0.18699890067036026 0.66514206352559002 -0.11641791666940944 0.032150899793487044 -0.03008055402824571 0.20125519982775178 0.63739014489977963 0.32636363405754415 0.27706506770450023 -0.19892048773351362 0.16172578761845957 1.1051591979463895 0.18937056309787939 -0.065987423885876875 -0.085706306598476861
leaf_count=59 50 24 12084 9774 6408 2469 20604 18794 16435 1253 989 56 9184 428 71 1242 44 5226 512 2241 7496 357 3334 6479 5265 462 30 282 9639 2061
internal_value=0 -0.520286 -0.85875 -0.192932 2.11157 -0.950569 0.099274 -0.260483 -1.44672 0.0234377 2.52528 2.54879 0.274752 1.30005 -0.232054 -0.805273 0.383549 -1.3781 0.817506 0.512221 2.06354 2.87719 3.56447 2.53751 -1.48734 0.148048 2.19252 -1.00762 -0.616328 -0.700116
internal_count=143352 115013 56547 58466 28339 16273 42193 28028 28519 4964 18770 18711 9234 9569 19484 2495 22709 11309 536 3161 7552 11159 3691 7468 10773 2733 492 5508 9710 2105
shrinkage=0.1


Tree=5
num_leaves=31
num_cat=0
split_feature=17 17 17 82 82 112 1 17 16 61 32 104 49 44 111 41 94 99 34 71 31 39 32 15 110 104 89 73 90 55
split_gain=127566 10322 16111.7 10913.8 8227.68 6503.62 3448.14 3195.48 3173.87 2950.24 2920.35 2506.41 2412.93 2398.71 3670.64 3253.96 2793.16 2411.44 2574.61 2390.91 2385.42 2375.71 2357.63 2708.28 2354.56 2351.32 3210.13 3139.85 2409.77 2680.69
threshold=1.5396000146865847 1.9771000146865847 1.8116500377655032 0.028239000588655475 1.0000000180025095e-35 -0.24658500403165814 2.0430500507354741 1.6505500078201296 12.427499771118166 0.22537500411272052 -0.78631499409675587 1.1485499739646914 62.008501052856452 0.42260500788688665 0.53773999214172374 0.26286500692367559 -1.6286500096321104 3.6319500207901005 5.2274498939514169 1.077549993991852 1.0000000180025095e-35 1.2292500138282778 0.5930050015449525 2.6485000848770146 2.18684995174408 0.77120500802993786 0.35708500444889074 0.4242949932813645 6.18400001525879 1.3408499956130984
decision_type=2 2 2 2 2 2 2 2 2 2 2 2 2 2 2 2 2 2 2 2 2 2 2 2 2 2 2 2 2 2
left_child=4 2 7 25 10 11 9 20 24 12 -1 -5 22 14 17 -16 -15 -7 -19 -8 -2 -13 -6 -24 -4 26 28 -27 -3 -30
right_child=1 3 8 5 6 13 19 -9 -10 -11 -12 21 -14 16 15 -17 -18 18 -20 -21 -22 -23 23 -25 -26 27 -28 -29 29 -31
leaf_value=0.026687700413242282 0.7135677781105042 -0.051870606159250814 -0.10216195610768233 -0.12438485381608591 0.11224039825008197 -0.27354673238177052 0.14668240382533093 -0.047111282012864186 -0.15880982367547952 0.17328525762970598 0.27508461538589069 0.11193825937807561 -0.33258685898780826 1.1222469887950204 0.97571421072289766 0.24692955557047652 -0.0067980426625100848 -0.20025532218542966 1.3477377153578258 0.043152673623771842 0.02097742953076099 -0.071350044291966286 0.62312493949082859 0.2587248894456663 0.088076231272324279 0.037433804135596466 0.06766015612118996 0.52492564470696268 0.60726151622344404 0.056153309770992824
leaf_count=498 50 10062 11394 12478 255 190 6117 18794 16435 7538 9545 840 50 22 74 356 5450 22 21 3511 9184 4472 456 369 690 20010 3725 133 107 504
internal_value=0 -0.468257 -0.772875 -0.173638 1.90041 -0.692769 1.5012 -0.234435 -1.30204 1.95873 2.62767 -0.998945 3.46554 0.195066 1.99144 3.72348 -0.0225875 -1.20502 5.55741 1.08929 0.247276 -0.423662 3.77996 4.60139 -0.912993 0.18594 -0.122663 0.406526 -0.401615 1.52665
internal_count=143352 115013 56547 58466 28339 23925 18296 28028 28519 8668 10043 17790 1130 6135 663 430 5472 233 43 9628 9234 5312 1080 825 12084 34541 14398 20143 10673 611
shrinkage=0.1


Tree=6
num_leaves=31
num_cat=0
split_feature=17 97 17 17 81 56 18 104 95 96 61 6 56 23 26 73 28 66 73 69 74 27 46 57 33 63 79 2 29 73
split_gain=103329 8906 6922.25 10243.3 6688.93 4048.97 3957.01 3414.41 3393.78 3201.02 3145.26 3019.65 2684.04 2566.58 2464.97 2375.48 2356.64 2649.91 2556.78 2432.23 2342.8 2335.3 2304.88 2278.12 2234.6 2216.81 2203.27 2202.02 2197.16 2191.61
threshold=1.5396000146865847 0.051929499953985221 1.9771000146865847 1.738600015640259 1.0000000180025095e-35 0.28565999865531927 24.500000000000004 1.8547499775886538 0.97157502174377453 -1.7227500081062315 0.25077499449253088 0.19274000078439715 -0.56283998489379872 1.8493500351905825 0.78038001060485851 0.25881500542163854 0.81188499927520763 0.22407499700784686 0.32010500133037573 227.40500640869143 1.5384500026702883 0.96841502189636242 4.0334000587463388 0.24536500126123431 485.13499450683599 0.95927500724792492 0.99032500386238109 20.927000045776371 0.92545500397682201 0.29635499417781835
decision_type=2 2 2 2 2 2 2 2 2 2 2 2 2 2 2 2 2 2 2 2 2 2 2 2 2 2 2 2 2 2
left_child=4 2 3 12 -1 10 11 8 15 -7 28 14 -2 21 -3 -4 17 -13 -19 -20 -12 23 -5 -14 -11 -18 -9 -17 -6 -10
right_child=1 6 7 22 5 9 -8 26 29 24 20 16 13 -15 -16 27 25 18 19 -21 -22 -23 -24 -25 -26 -27 -28 -29 -30 -31
leaf_value=0.23631366657776104 0.31606931369751695 -0.0040530658226746782 -0.17584802776549152 -0.069970875284922671 0.32879618089928714 -0.52708610224373209 -0.18631225291994802 0.1521938352353871 -0.027944709343376992 0.096155604443849532 0.16055225681322613 -0.17801032834898003 -0.17642949596555974 -0.047025888449453074 0.64738572688329787 -0.028741227717458656 -0.11186498157759335 -0.077360844303005882 -0.0012043080110746458 1.0515549730170857 -0.30398357446898117 -0.032982863604193419 -0.13719986945562387 0.11158130141489449 -0.33329628151727886 -0.02517286861736134 0.0071190787130520254 0.64968849942088136 -0.61672875499725344 0.046591554900848216
leaf_count=10102 308 130 1149 15708 1450 85 3188 2500 5535 8113 8331 1408 293 3986 105 14548 16348 7684 8868 22 110 2121 7551 4382 123 3599 1801 48 25 13731
internal_value=0 -0.421432 -0.212936 -0.540888 1.71037 1.34878 -0.792829 0.0736134 -0.0296813 0.83441 1.78041 -0.703423 0.249958 0.166809 2.87015 -0.374082 -0.725564 -0.463032 -0.351144 0.0140095 1.54499 0.540463 -0.917967 0.935306 0.89742 -0.962233 0.914453 -0.265102 3.1277 0.251778
internal_count=143352 115013 73661 34349 28339 18237 41352 39312 35011 8321 9916 38164 11090 10782 235 15745 37929 17982 16574 8890 8441 6796 23259 4675 8236 19947 4301 14596 1475 19266
shrinkage=0.1


Tree=7
num_leaves=31
num_cat=0
split_feature=17 98 17 17 17 10 59 16 11 28 6 32 68 16 12 17 112 83 68 0 92 53 96 98 38 41 101 30 3 71
split_gain=83696.2 7142.97 5726.86 5310.35 7550.33 3654.72 3264.13 3247 3109.13 3103.9 2733.13 2711.24 2695.86 2929.82 2677.88 2630.94 2972.76 3090.11 2738.53 2608.37 2619.63 2485.8 2328.55 2320.73 2245.45 3398.08 2437.33 2342.22 2203.74 2680
threshold=1.5396000146865847 0.046436499804258353 1.3890500068664553 1.9771000146865847 1.8116500377655032 0.45430499315261846 0.95159500837326061 18.748999595642093 3.5832000970840459 0.87542498111724865 0.20121500641107562 -1.2041500210762022 2.0837000608444218 12.048500061035158 0.97122499346733104 2.2899000644683842 -0.87408500909805287 4.6447000503540048 1.2704499959945681 1.7511499524116518 0.97079500555992138 26.894999504089359 -1.7227500081062315 -0.32554499804973597 0.8724849820137025 0.32638500630855566 53.333499908447273 -1.2434499859809873 -1.3907499909400938 1.7701500058174136
decision_type=2 2 2 2 2 2 2 2 2 2 2 2 2 2 2 2 2 2 2 2 2 2 2 2 2 2 2 2 2 2
left_child=2 3 11 4 9 10 8 15 -7 -2 -3 -1 28 -14 -11 18 -17 -18 -5 -9 -21 22 -4 -16 25 26 27 -13 29 -10
right_child=1 5 21 7 -6 6 -8 19 12 14 -12 24 13 -15 23 16 17 -19 -20 20 -22 -23 -24 -25 -26 -27 -28 -29 -30 -31
leaf_value=-0.13402357077461549 0.07057880686149913 0.27487401898822855 -0.30425744891589418 0.070337443775478861 -0.09416558715789658 -0.03168451683698955 0.06237933830912773 -0.1453808113378382 0.32190777320400937 -0.039597523677012469 -0.049224802811431975 0.11268248788097449 -0.083499977730226341 -0.23269395245848676 -0.52568394209568703 -0.18964631665494175 -0.029097789840385965 0.11322516067913335 0.0011671552890655989 0.013636496272757224 0.89313059040478304 -0.23094775824783703 0.10522773773108576 0.19118447823359644 0.07200402534490212 0.16895838588998335 1.365462521314621 0.28748741872306299 -0.11286030018199066 -0.10913987684863174
leaf_count=261 4576 263 141 11316 17273 3430 1088 2366 269 10897 24428 912 1903 4269 48 969 10036 1799 11582 1046 35 234 9194 763 1471 11301 20 4805 6346 311
internal_value=0 -0.379289 1.53933 -0.189186 -0.481094 -0.705985 -1.05395 0.0610254 -1.16439 0.00744002 -0.457726 1.8603 -1.38634 -1.86693 -0.265505 0.150511 -0.212512 -0.0746374 0.353505 -0.865819 0.421123 0.909731 0.990427 1.48756 1.90543 2.00778 2.63457 2.59602 -0.958072 0.907771
internal_count=143352 115013 28339 72706 33557 42307 17616 39149 16528 16284 24691 18770 13098 6172 11708 35702 12804 11835 22898 3447 1081 9569 9335 811 18509 17038 5737 5717 6926 580
shrinkage=0.1


Tree=8
num_leaves=31
num_cat=0
split_feature=94 73 97 41 72 18 66 27 113 59 59 60 105 64 56 59 105 94 58 68 88 16 35 79 32 88 1 5 19 0
split_gain=37341.4 18250.8 5775.76 5228.3 4473.64 4167.51 2723.72 2649.43 3371.94 4310.03 3098.93 2779.74 3045.09 2829.8 2625.51 2605.32 2585.78 2572.2 4458.38 2564.09 2452.36 2645.64 2420.44 2384.83 2341.67 2507.06 2328.93 2311.43 2307.97 2325.46
threshold=-1.9999499917030332 0.41907499730587011 0.021826500073075298 0.35639500617980963 -1.2462000250816343 24.500000000000004 1.1228500008583071 0.98113501071929943 0.064646497368812575 0.91329500079154979 0.97133499383926403 0.68926501274108898 0.2660949975252152 3.05774998664856 0.10047499835491182 0.55822500586509716 0.44287998974323278 -1.2869499921798704 0.46815499663352972 7.4114999771118173 0.89583998918533336 7.0870499610900888 32.603500366210945 0.91446501016616832 2.6482499837875371 2.2516499757766728 2.5768500566482548 0.0056357998400926599 1.837150037288666 1.0731499791145327
decision_type=2 2 2 2 2 2 2 2 2 2 2 2 2 2 2 2 2 2 2 2 2 2 2 2 2 2 2 2 2 2
left_child=-1 2 -2 4 27 20 19 8 9 11 14 13 -13 -5 -10 -8 24 18 26 23 -6 -22 -7 -3 -16 -26 -11 -4 29 -14
right_child=1 6 3 7 5 22 15 -9 10 17 -12 12 28 -15 16 -17 -18 -19 -20 -21 21 -23 -24 -25 25 -27 -28 -29 -30 -31
leaf_value=0.19311675169674947 0.020404893561795073 -0.22374713974593427 0.49209723941945804 0.75812046298228986 -0.059371511769306919 -0.12280213720900482 0.38372557049101974 -0.10857288742012394 0.070352391530918143 0.53757299288927796 0.6397803135321174 0.43607214242031145 0.76433224219542284 -0.2097472695203928 -0.03427616273147828 0.1436422177569964 0.98580036560694373 -0.02062237635986287 0.077754965682088603 -0.34632107294164599 0.15157425499001137 -0.026473584697520161 0.50448297391976082 0.091506086159336864 -0.24379762354909884 0.53882388680480253 1.67475091478099 0.08476180217705423 0.0062442074500457679 0.15485173454502699
leaf_count=9359 23155 249 207 134 36171 7827 517 1742 2321 83 71 296 65 39 6992 3595 24 4482 567 144 856 33318 62 6609 851 43 23 426 1427 1697
internal_value=0 -0.134886 -0.245879 -0.350349 -0.468098 -0.489521 1.09228 0.0948998 0.202494 0.656594 -0.185973 1.48677 1.29255 5.39931 -0.231663 1.73828 -0.506071 0.0674984 1.89041 0.712911 -0.412229 -0.220138 -1.17872 0.800599 -0.537613 -2.06155 7.84319 2.17966 1.00776 1.77335
internal_count=143352 133993 122879 99724 78867 78234 11114 20857 19115 8813 10302 3658 3485 173 10231 4112 7910 5155 673 7002 70345 34174 7889 6858 7886 894 106 633 3189 1762
shrinkage=0.1


Tree=9
num_leaves=31
num_cat=0
split_feature=17 17 17 112 81 95 112 56 17 39 98 67 62 96 61 1 25 111 88 8 54 30 63 14 63 13 25 1 40 23
split_gain=58240.8 6183.67 10056.9 6738.4 3490.85 3430.88 3319.53 3058.48 2494.76 2676.29 2477.34 2442.53 2418.18 2527.97 2413.02 2407.42 2497.18 2366.18 2335.26 3710.07 2400.09 2574.75 2321.42 2407.78 2258.91 4198.64 2347.38 2232.19 2259.61 3088.79
threshold=1.5396000146865847 1.9771000146865847 1.738600015640259 -0.87408500909805287 1.0000000180025095e-35 0.96522498130798351 -0.29689000546932215 0.28565999865531927 2.2032500505447392 1.2103499770164492 0.11970999836921693 1.1500499844551089 7.4433498382568368 -1.1687499880790708 0.25077499449253088 1.6601499915122988 0.28558500111103063 0.93524497747421276 -0.66190001368522633 0.83976501226425182 1.9255500435829165 -0.71482500433921803 0.82644999027252208 12.780000209808351 0.84266501665115368 5.2276501655578622 0.43420998752117163 2.5966500043869023 1.2656499743461611 2.6640499830245976
decision_type=2 2 2 2 2 2 2 2 2 2 2 2 2 2 2 2 2 2 2 2 2 2 2 2 2 2 2 2 2 2
left_child=4 2 11 8 -1 6 10 14 9 -3 22 15 -4 -14 -6 16 -2 -11 19 -7 -20 -22 23 -5 25 -8 -26 28 29 -13
right_child=1 3 12 5 7 18 24 -9 -10 17 -12 27 13 -15 -16 -17 -18 -19 20 -21 21 -23 -24 -25 26 -27 -28 -29 -30 -31
leaf_value=0.17556529936394147 -0.25003687483422898 0.16649273090222319 -0.064716482942606804 0.088619798940571051 0.25780930265683238 1.4935263485820205 0.092229687649703768 0.057581624400083069 -0.15152635648905077 -0.13645978987005009 -0.24081516779595238 0.040386184802689025 -0.00054312583070259557 -0.13137696445031583 0.11917979900597531 -0.10531711299153135 0.18229587374087902 0.019899124004714473 0.01283872315116601 0.17791278484778911 0.22915679462812133 0.051545086794111343 -0.054616835189549143 0.78453170950129891 -0.0038078670886864418 0.76672252245247374 0.61406448608444586 -0.033529416091175955 0.13832404384448638 -0.22137668615207079
leaf_count=10102 170 543 23038 316 1475 27 1197 8321 3824 2285 696 7407 1665 13068 8441 3117 624 1679 23595 104 1048 3690 11806 59 7435 100 62 4741 2237 480
internal_value=0 -0.316396 -0.55217 -0.0883602 1.28408 0.0500299 -0.249777 1.02287 -0.921175 -0.417117 -0.57321 0.0459739 -0.849508 -1.16591 1.39801 -0.65719 0.897309 -0.702321 0.278287 4.4907 0.25881 0.908311 -0.468365 1.9811 0.223825 1.44234 0.0130192 0.230977 0.496158 0.244554
internal_count=143352 115013 56547 58466 28339 50135 21671 18237 8331 4507 12877 18776 37771 14733 9916 3911 794 3964 28464 131 28333 4738 12181 375 8794 1297 7497 14865 10124 7887
shrinkage=0.1


Tree=10
num_leaves=31
num_cat=0
split_feature=71 46 83 14 93 13 16 32 103 7 81 64 66 104 54 16 52 62 66 34 112 16 75 103 34 83 103 79 27 58
split_gain=24380 9873.09 4470.46 4141.55 4071.09 3463.68 3283.57 2988.54 3053.64 2799.23 2936.21 2769.3 2738.72 2651.96 2708.12 2483.5 2330.25 2257.49 2602.74 2249.46 2891.74 2565.12 2176.37 2090.61 2013.64 1993.24 3328.39 2156.27 2644.91 2001.81
threshold=1.0232500433921816 0.24915499985218051 2.5175999402999882 7261.6999511718759 0.89407500624656688 2.217849969863892 20.798999786376957 2.6285499334335332 2.0445500612258916 0.34913499653339392 0.00954579981043935 -1.5946499705314634 0.75784000754356395 0.88664501905441295 -1.5304500460624693 5.2067999839782724 1.0040500164031985 14.401999950408937 0.78255999088287365 0.13171499967575076 0.41978500783443456 16.69899940490723 0.93972498178482067 3.5619499683380131 0.071256499737501158 4.7434501647949228 1.2951499819755556 0.9680050015449525 0.93683499097824108 0.79794502258300792
decision_type=2 2 2 2 2 2 2 2 2 2 2 2 2 2 2 2 2 2 2 2 2 2 2 2 2 2 2 2 2 2
left_child=1 2 3 11 5 12 7 25 -9 10 24 -1 13 14 -2 -13 23 -17 -19 20 -6 -21 -23 -14 -4 -7 29 -28 -29 -27
right_child=4 -3 9 -5 19 6 -8 8 -10 -11 -12 15 16 -15 -16 17 -18 18 -20 21 -22 22 -24 -25 -26 26 27 28 -30 -31
leaf_value=-0.27687230695442983 -0.30880645367137172 -0.013040738662027769 0.28331158055613437 -0.24245648499172515 -0.035029035477116111 -0.05021225776957651 -0.28002490719690964 -0.15240992696347413 -0.01070580190371522 -0.013368015258049244 0.085390007355633901 -0.12213148400984347 -0.17882992944088857 -0.13215685372350239 0.0079967975170085349 0.14470218163178061 0.049471325412535551 0.28278810686335482 -0.13162488333544506 0.030227975775808415 0.099659947823526551 0.59858353520339391 -0.044748895095146332 0.13570918394085754 1.5515521053344974 0.061656624461923326 -0.049020855903675942 0.28795034964307303 -0.028745439173850359 1.0398732230067254
leaf_count=166 285 9483 21 303 23694 25360 667 5367 2122 3471 85 374 871 2588 5069 19450 8210 203 598 23262 1709 53 6717 279 31 35 1772 534 521 52
internal_value=0 0.736958 1.06994 1.24588 -0.230774 -0.426923 -0.601896 -0.560895 -1.12258 0.0413122 4.47488 1.29937 -0.0585103 -0.490426 -0.0886703 1.33211 0.307972 1.37927 -0.265989 -0.0406511 -0.259678 0.144616 -0.397125 -1.0252 10.3938 -0.41212 0.371158 0.183672 1.31554 6.46338
internal_count=143352 34185 24702 21094 109167 53732 36430 35763 7489 3608 137 20791 17302 7942 5354 20625 9360 20251 801 55435 25403 30032 6770 1150 52 28274 2914 2827 1055 87
shrinkage=0.1


Tree=11
num_leaves=31
num_cat=0
split_feature=94 78 97 41 11 49 66 2 23 2 12 31 41 70 55 33 0 12 29 24 50 46 73 78 50 73 12 103 28 23
split_gain=20452 15353.8 4672.1 3650.91 3503.61 2637.36 3461.8 2520.62 2315.62 2262.09 2243.8 2132.07 3347.84 2277.93 2430.27 2437.15 2275.64 2241.84 2478.35 2373.79 2189.57 2066.4 2053.3 2031.11 2006.57 1976.07 2017.31 2718.18 2855.62 2127.1
threshold=-1.9999499917030332 -1.9999499917030332 0.021826500073075298 0.35509499907493597 8.6926498413085955 3.0295499563217168 0.31960000097751623 2.1660499572753911 21.629500389099125 8.8294000625610369 0.13641999661922458 0.94888499379158031 0.42038500308990484 1.9854999780654909 3.1491500139236455 1.2932500243186953 1.5801500082015993 0.88764500617980968 0.88025498390197765 1.9705500006675722 2.4198499917984013 2.7005000114440922 0.37127500772476202 0.074875000864267363 0.58516499400138866 0.34171500802040106 0.9268150031566621 2.481549978256226 0.91278499364852916 1.3091500401496889
decision_type=2 2 2 2 2 2 2 2 2 2 2 2 2 2 2 2 2 2 2 2 2 2 2 2 2 2 2 2 2 2
left_child=-1 10 -3 4 7 6 -5 22 11 25 -2 17 13 14 -13 -16 -17 18 19 23 -14 -7 -4 -8 -21 -9 29 -28 -29 -27
right_child=1 2 3 5 -6 21 8 9 -10 -11 -12 12 20 -15 15 16 -18 -19 -20 24 -22 -23 -24 -25 -26 26 27 28 -30 -31
leaf_value=0.14291979692705828 0.59818052709102632 0.020892892356120046 0.14596268111634503 -0.047812987156544313 -0.061738324781182331 0.013206781458502716 0.050944700799196885 -0.051297983436117502 -0.45867649553851647 0.039339542825830617 0.10965836266659892 -0.044080105634989118 0.20689907064104818 0.14273249814318398 -0.00054613841207403889 0.27305215735768162 1.3678244415451499 0.16990013346513425 1.1054369693452661 1.1835223279893399 1.0863717767596246 -0.11690135745856865 -0.062983034544054475 -0.22335484950029749 0.19710669003683945 0.070952970180260144 0.03548775907158485 0.57102140464138185 -0.0019397786899701061 -0.044026421490358715
leaf_count=9359 95 23601 1578 4713 35812 2246 3179 22996 88 4808 9103 4905 502 885 95 43 34 2555 22 32 30 2674 670 295 58 1989 2206 209 149 8421
internal_value=0 -0.0998251 -0.191725 -0.285168 -0.386315 0.0715245 0.253976 -0.193988 0.525171 -0.250818 1.14704 0.560774 0.161311 -0.0531688 -0.311242 3.38345 7.56458 0.9832 0.473196 0.40788 2.56493 -0.575065 0.836879 0.276521 5.47832 -0.336928 -0.024881 0.769659 3.32554 -0.220577
internal_count=143352 133993 124795 101194 78838 22356 17436 43026 12723 40778 9198 12635 6494 5962 5077 172 77 6141 3586 3564 532 4920 2248 3474 90 35970 12974 2564 358 10410
shrinkage=0.1


Tree=12
num_leaves=31
num_cat=0
split_feature=17 17 17 77 56 51 110 31 79 103 17 88 89 62 40 63 88 78 35 4 105 46 110 11 20 38 33 80 80 110
split_gain=34410.4 5455.18 8280.59 4650.71 2774.02 2784.87 2734.69 2603.09 2757.17 2607.05 2439.69 2677.51 2461.18 4533.8 2899.99 2634.88 2635.99 2195.12 2397.97 2589.32 2306.15 2279.46 2168.06 2151.61 2130.43 3018.93 2311.82 2107.59 2085.06 2154.68
threshold=1.5396000146865847 1.9771000146865847 1.8116500377655032 0.90158498287200939 0.40679998695850378 1.0338500142097475 -1.2019500136375425 1.0000000180025095e-35 1.0133499503135683 1.7752500176429751 2.2899000644683842 1.4863499999046328 0.35592499375343328 -1.2565500140190122 1.1506499648094179 0.046734500676393516 0.76884502172470104 0.124464999884367 2.6074999570846562 2.5743999481201176 0.40727500617504125 0.4738799929618836 2.9665499925613408 7.2126500606536874 1.3640499711036684 -0.87863999605178822 485.13499450683599 0.69829499721527111 -0.76212501525878895 -0.49287000298500055
decision_type=2 2 2 2 2 2 2 2 2 2 2 2 2 2 2 2 2 2 2 2 2 2 2 2 2 2 2 2 2 2
left_child=4 2 7 6 5 -1 17 8 -2 -10 12 28 15 14 -14 -5 -17 18 19 20 -3 -19 24 -11 -6 26 -26 -13 -12 -30
right_child=1 3 -4 10 22 -7 -8 -9 9 23 11 27 13 -15 -16 16 -18 21 -20 -21 -22 -23 -24 -25 25 -27 -28 -29 29 -31
leaf_value=0.031055481988512053 1.1653274989790388 -0.055678314123796813 -0.084401316323624256 0.63986970904995422 -0.06467385883220543 0.14153514496381311 -0.057123700541810568 -0.010166058835243436 -0.37670028151250357 0.93231882319158432 0.02467467920768875 0.041598327986745821 0.31527165587652817 0.086505242523822967 1.9581723985217867 -0.039339454672572882 0.038246090647973949 1.2975737024707579 0.26766400590920486 -1.0570779132843018 0.94195014933745069 0.27684187567320423 -0.41312461992104849 -0.24010924152705981 0.045234371101056818 0.14885820702433955 -0.35749366291454193 0.67629595140241228 -0.051471401802794539 -0.20255026473505067
leaf_count=2711 36 671 28519 68 1151 14405 16173 27869 51 49 2952 4067 22 5139 21 6094 15561 26 332 25 24 138 96 23 6011 3819 146 53 5979 1121
internal_value=0 -0.243199 -0.46465 -0.0290164 0.987016 1.24036 -0.462497 -0.0786416 3.95605 1.7032 0.154488 -0.181303 0.331363 0.950614 11.1762 0.183641 0.164125 0.98376 0.453271 -0.571949 -0.212278 4.38665 0.600641 5.57793 0.641466 0.790095 0.356845 0.497631 -0.459577 -0.753248
internal_count=143352 115013 56547 58466 28339 17116 17389 28028 159 123 41077 14172 26905 5182 43 21723 21655 1216 1052 720 695 164 11223 72 11127 9976 6157 4120 10052 7100
shrinkage=0.1


Tree=13
num_leaves=31
num_cat=0
split_feature=17 17 112 81 17 99 18 77 86 99 87 27 12 42 65 75 33 4 96 62 0 63 113 89 86 16 12 65 4 7
split_gain=28062.6 7378.03 4778.41 3365.66 2939.23 2665.72 2762.71 3130.31 2660.04 2554.35 2309.55 2935.4 2300.96 2220.93 2214.98 2702 3042.44 2190.68 2129.24 2122.23 2475.82 2095.96 2064.02 2048.57 2712.14 2397.37 1950.42 1948.66 1899.02 1993.89
threshold=1.6505500078201296 1.9771000146865847 -0.87408500909805287 1.0000000180025095e-35 1.8116500377655032 2.5858500003814702 19.500000000000004 0.89100497961044323 9.3439497947692889 1.7534499764442446 1.5935500264167788 0.93313500285148632 0.90669500827789318 1.1610500216484072 0.1015949994325638 0.98475497961044323 0.067015498876571669 1.1076499819755556 -1.0502499938011167 1.3279500007629397 2.6458500623703007 0.76730000972747814 0.015547499991953375 0.35652500391006475 -0.78018999099731434 5.0447499752044687 0.56351500749588024 1.4052500128746035 1.987049996852875 1.4789499640464785
decision_type=2 2 2 2 2 2 2 2 2 2 2 2 2 2 2 2 2 2 2 2 2 2 2 2 2 2 2 2 2 2
left_child=3 4 18 22 10 6 23 -8 21 17 -2 13 19 14 15 16 -12 -5 -3 -6 -21 -7 -1 24 -4 -26 27 -11 -25 -30
right_child=1 2 5 9 12 8 7 -9 -10 26 11 -13 -14 -15 -16 -17 -18 -19 -20 20 -22 -23 -24 28 25 -27 -28 -29 29 -31
leaf_value=0.24617305343746018 -0.063614748554220724 -0.035526535946492459 -0.058224028096252572 0.19026031708074567 -0.034109460926813093 0.23482986525095481 -0.17370886129837274 -0.024873201667870937 0.41297006586209478 -0.59178865022129479 1.8159483261730363 -0.044352729624102229 -0.046776030217541398 0.15681665525451502 -0.003158310098572373 0.044868978020850193 0.34356280598375533 0.071197119135657169 -0.14141734618120619 -0.13364685363840711 0.11465593511350364 0.032161067783112375 0.10647927481092059 0.048256880934770006 0.67368132012779824 0.017961977393235528 0.019418546183302344 0.28463669045074352 0.53176764729799653 -0.066739271084467575
leaf_count=1194 8497 5403 6545 1792 3380 529 1753 7288 193 27 23 5367 13873 1658 3124 89 36 11227 2928 10849 417 14421 9265 6256 56 12845 13648 420 165 84
internal_value=0 -0.263694 -0.0261147 0.742376 -0.557278 0.0904234 -0.061267 -0.537316 0.440945 0.556491 -0.250246 0.0681973 -0.759612 0.625282 0.1475 3.9276 9.17544 0.875856 -0.727428 -1.03606 -1.24456 0.393324 1.22427 0.104583 -0.0579186 0.208083 0.261507 2.31698 0.590362 3.29862
internal_count=143352 105779 58466 37573 47313 50135 34992 9041 15143 27114 18794 10297 28519 4930 3272 148 59 13019 8331 14646 11266 14950 10459 25951 19446 12901 14095 447 6505 249
shrinkage=0.1


Tree=14
num_leaves=31
num_cat=0
split_feature=94 73 16 93 54 44 93 77 77 33 6 19 98 91 27 104 62 49 66 65 68 37 4 24 11 101 1 40 43 92
split_gain=11611.3 6373.02 3004.94 2605.66 2892.09 3165.72 4144.18 3894.54 2822.1 2554.71 2499.87 2419.39 2382.76 2369.69 2332.7 2680.3 2407.51 2367.9 2279.67 2268.85 2428.05 2404.73 2172.83 2745.45 2479.72 3091.29 2468.02 2689.8 2105.83 2090.99
threshold=-1.9999499917030332 0.41064500808715826 18.670499801635746 0.87549501657485973 2.4111499786376958 0.21361000090837481 0.45739500224590307 0.95080500841140758 0.95741498470306408 485.13499450683599 0.17410499602556231 2.8038500547409062 0.071316499263048186 0.94621500372886669 0.90379500389099132 0.55100500583648693 7.3334498405456552 2.9227499961853032 1.2968500256538393 1.7151499986648562 7.4114999771118173 73.985000610351577 1.1831499934196474 0.60507500171661388 -1.0400999784469602 7.8116002082824716 1.4266499876976015 0.97835001349449169 -1.0000000180025095e-35 0.89105498790740978
decision_type=2 2 2 2 2 2 2 2 2 2 2 2 2 2 2 2 2 2 2 2 2 2 2 2 2 2 2 2 2 2
left_child=-1 2 3 4 10 6 -6 -7 -9 19 13 18 -10 -2 17 29 28 -5 -4 20 -3 -21 23 24 25 -12 27 -25 -17 -16
right_child=1 9 11 14 5 7 -8 8 12 -11 22 -13 -14 -15 15 16 -18 -19 -20 21 -22 -23 -24 26 -26 -27 -28 -29 -30 -31
leaf_value=0.1076871785788913 0.61646930405906608 0.041655914961530011 0.0045317074182012682 0.084851040886137583 0.17849705523964188 0.0057765344879742511 1.0510067323308725 1.5292966436456752 1.1403063297271729 -0.37927370349114597 0.24839880294524708 -0.14156898307067298 -0.15536532878875733 -0.50719592104787414 0.39720579146592133 1.058702479600911 -0.015463726047230914 -0.063089727794938641 -0.11468848307817853 0.12445455434761706 -0.26646943902663528 -0.85896645593643195 -0.049276032708233421 -0.34876551083611246 0.071651743955743599 1.6859385240645637 -0.0030584462415347569 0.017779456531440002 0.032116789524107382 -0.03812746557676655
leaf_count=9359 102 8176 4827 5725 335 3358 65 27 22 132 52 3027 40 23 111 20 19235 1334 2402 4603 264 25 32578 477 2834 21 3636 345 21814 18383
internal_value=0 -0.0752162 -0.14731 -0.0992667 -0.288374 0.53983 3.2028 0.230812 6.7599 0.584513 -0.367891 -0.66511 3.04389 4.09715 0.0253862 -0.0390314 0.10332 0.568934 -0.350819 0.628727 0.320179 1.19142 -0.381864 0.108669 0.864749 6.61938 -0.38436 -1.94924 0.330571 -0.355146
internal_count=143352 133993 120793 110537 43915 3847 400 3447 89 13200 40068 10256 62 125 66622 59563 41069 7059 7229 13068 8440 4628 39943 7365 2907 73 4458 822 21834 18494
shrinkage=0.1


Tree=15
num_leaves=31
num_cat=0
split_feature=17 17 17 112 30 23 111 30 96 112 87 25 94 78 98 30 54 102 89 82 78 17 44 22 30 55 83 55 78 100
split_gain=19979.9 3801.65 5164.61 3850.59 2474.86 2324.88 2725.81 2373.82 2294.28 2275.42 2117.14 3476.67 2616.07 2340.02 2124.12 2066.86 2044.22 2029.83 2550.46 2132.19 2114.85 2582.18 2302.12 2033.98 2238.47 1967.38 1943.8 2086.4 1934.89 1917.5
threshold=1.5396000146865847 1.9771000146865847 1.738600015640259 -0.92260000109672535 -1.3027500510215757 1.6730499863624575 -1.0000000180025095e-35 5.0905499458312997 -1.0502499938011167 0.16471999883651736 2.9754500389099126 0.33587500452995306 0.45064499974250799 -0.82180997729301442 0.10451500117778779 4.5804500579833993 1.7890000343322756 0.2344549968838692 0.35592499375343328 0.093609999865293517 1.0167500376701357 2.1449999809265141 0.73021999001503002 -0.60675001144409169 -1.7371000051498411 2.0000499486923222 4.9799001216888437 1.3175500035285952 3.1287000179290776 3.085649967193604
decision_type=2 2 2 2 2 2 2 2 2 2 2 2 2 2 2 2 2 2 2 2 2 2 2 2 2 2 2 2 2 2
left_child=4 2 -2 8 -1 6 -6 -8 -3 16 15 -12 14 -14 -13 -4 17 18 20 -20 21 -5 -22 29 -25 -26 -15 -28 -17 -23
right_child=1 3 10 9 5 -7 7 -9 -10 -11 11 12 13 26 -16 28 -18 -19 19 -21 22 23 -24 24 25 -27 27 -29 -30 -31
leaf_value=-0.012823434010446591 0.0058455823222500758 -0.030624817146953059 -0.05381088195276601 -7.3079344549912347e-05 0.89254081398248675 0.042366037892966668 0.11001915048510669 -0.14642406389228294 -0.15082706109419619 0.058982345294440255 -0.059636195284592644 0.09558566982392519 1.1528017122404917 -0.019497751658377444 -0.26006678084823048 -0.11540625280580977 0.049983147306273616 0.027724035498510959 0.0426776563570734 -0.26498495150580365 0.33363164961338043 -0.084333492793759526 0.014195904411843825 0.490720363855362 -0.08249842738913879 -0.19802305724391289 1.1924969802300136 0.2917326110270288 0.7838449108103912 0.040403626670256293
leaf_count=2870 18776 5104 24030 6103 44 8480 16576 369 2305 7762 3773 1573 35 115 188 7907 6925 10525 6028 234 263 2993 1587 60 4215 2267 36 90 24 2095
internal_value=0 -0.185316 -0.370183 -0.00651724 0.752101 0.851303 1.06476 1.04435 -0.680207 0.0912435 -0.58326 -0.0279725 1.02482 3.88738 0.576171 -0.684203 0.0018572 -0.0929592 -0.243718 0.311808 -0.421357 -0.5275 0.596076 -0.80393 -1.17274 -1.22902 2.77774 5.49094 -1.12685 -0.329726
internal_count=143352 115013 56547 58466 28339 25469 16989 16945 7409 51057 37771 5810 2037 276 1761 31961 43295 36370 25845 6262 19583 17733 1850 11630 6542 6482 241 126 7931 5088
shrinkage=0.1


Tree=16
num_leaves=31
num_cat=0
split_feature=17 17 32 112 56 7 46 32 10 32 80 81 38 64 59 28 12 22 18 87 97 59 99 25 56 79 95 39 94 80
split_gain=16441.8 5020.3 3219.16 3118.98 2569.78 2392.24 2323.99 2198.95 2500.92 2243.46 2347.56 2143.97 2763.98 2568.88 2450.25 2484.67 2113.18 2226.99 2112.37 2099.62 2122.78 2056.42 2047.92 2313.59 2696.45 3067.73 2259.56 2118.51 2042.34 2333.45
threshold=1.6505500078201296 1.9771000146865847 -1.2041500210762022 -0.92260000109672535 0.27838000655174261 1.3621500134468081 4.0334000587463388 2.6573499441146855 0.23457499593496325 0.62228500843048107 -1.0000000180025095e-35 14.355000019073488 1.7937499880790713 -0.16702000051736829 0.42977999150753027 0.70642998814582836 0.90309500694274913 5.6923000812530526 11.500000000000002 1.5880500078201296 -0.89954999089241017 0.58090999722480785 2.5858500003814702 0.34483499825000768 1.5108500123023989 0.98153501749038707 0.94669499993324291 2.6957499980926518 -1.3906499743461607 0.86582499742507946
decision_type=2 2 2 2 2 2 2 2 2 2 2 2 2 2 2 2 2 2 2 2 2 2 2 2 2 2 2 2 2 2
left_child=2 6 21 -3 7 22 16 8 9 10 -4 12 14 -14 -7 -16 -2 28 -8 20 -6 -1 23 26 -25 27 -5 -26 -18 -30
right_child=1 3 4 5 19 11 18 -9 -10 -11 -12 -13 13 -15 15 -17 17 -19 -20 -21 -22 -23 -24 24 25 -27 -28 -29 29 -31
leaf_value=-0.35389357067163912 -0.055997580678079778 -0.061218639759004372 0.33242287053747499 -0.084894967932545501 0.90133004014690732 -0.44341557888790623 0.0013643324804796962 -0.079662391590269555 0.078132310410667732 0.23878424995145556 -0.04060173523094919 -0.69185160286724567 1.4104300841041235 0.31627260111272337 0.48543001059200858 0.059599523555580305 -0.12777851464612164 -0.31110779719755932 -0.10440999019613302 -0.0053841367180988108 0.059142659814252256 0.072563366240329955 0.034934770328681322 0.014445393443837565 0.20285384060130288 0.38830007011958856 -0.010375048887701289 -0.23900129457053387 0.0038513225477711274 0.61362684738068352
leaf_count=310 17841 7409 223 5206 30 86 2366 739 13178 2027 693 32 23 320 154 1243 1223 238 9346 7599 12596 178 14917 9574 253 430 18629 190 16236 63
internal_value=0 -0.201842 0.568244 -0.00586552 0.601821 0.0821191 -0.444015 0.890134 0.967456 1.80091 0.50211 1.19598 1.33818 3.89642 0.746492 1.06541 -0.316896 -0.0727073 -0.83042 0.361477 0.611437 -1.98342 0.0400543 -0.0945274 0.297866 1.98031 -0.266516 0.133449 -0.0314374 0.0620827
internal_count=143352 105779 37573 58466 37085 51057 47313 16860 16121 2943 916 1858 1826 343 1483 1397 35601 17760 11712 20225 12626 488 49199 34282 10447 873 23835 443 17522 16299
shrinkage=0.1


Tree=17
num_leaves=31
num_cat=0
split_feature=94 78 18 85 18 96 16 10 54 18 77 95 53 95 81 84 16 71 78 56 13 78 3 87 108 87 4 6 40 104
split_gain=6778.74 5180.14 2669.51 2342.17 2605.78 3919.8 3072.44 2531.73 2441.72 2371.44 2434.82 2853.42 3065.25 2407.09 2335.19 2295.71 2258.07 2214.45 2212.99 2198.94 2193.83 2977.26 2152.9 2121.56 2106.41 2102.44 2129.35 2090.21 2087 2071.35
threshold=-1.9999499917030332 -1.9999499917030332 24.500000000000004 2.5003499984741215 14.500000000000002 -1.7227500081062315 9.2860002517700213 0.77598500251770031 7.2354500293731698 17.500000000000004 0.96715497970581066 0.9833350181579591 5.1785500049591073 0.97609502077102672 0.014410499949008228 6.8455500602722177 9.4109001159667987 38.239999771118171 2.4532500505447392 0.30771999061107641 1.1627500057220461 2.0225000381469731 -1.4168500304222105 1.8914499878883364 0.91055500507354747 5.1994500160217294 1.554949998855591 0.22830500453710559 1.1035500168800356 2.1587499380111699
decision_type=2 2 2 2 2 2 2 2 2 2 2 2 2 2 2 2 2 2 2 2 2 2 2 2 2 2 2 2 2 2
left_child=-1 -2 3 4 25 27 18 16 15 -9 11 12 -11 -14 23 -5 -8 19 -7 -18 21 -21 28 -13 29 -3 -27 -6 -12 -4
right_child=1 2 24 8 5 6 7 9 -10 10 22 14 13 -15 -16 -17 17 -19 -20 20 -22 -23 -24 -25 -26 26 -28 -29 -30 -31
leaf_value=0.08228085346465018 0.06667678311794116 0.02408690720090146 -0.10433695349511496 -0.03346867909519588 -0.35437655014126274 -0.14906758017063776 0.47533508696054155 -0.091381038418487229 0.92328488583917978 0.085244114608226534 1.406100784695667 0.65429354248375737 0.94106742649265895 -0.094705034196376811 0.051409636373105264 0.087557450304174486 0.033058504113543552 0.18544145246481986 0.74646752732140687 -0.15080383697879143 -0.019358634734242385 0.94851362657546989 0.029051646766409062 1.8860938129601656 -0.0046436091908388733 0.09649315441994856 0.4283924274377327 0.19673131473607286 0.0093593299388885498 0.18408952918924881
leaf_count=9359 9198 20160 6443 34909 73 1903 95 437 27 319 23 29 89 30 23 1641 8022 558 28 1692 39958 25 757 27 4484 1336 226 1202 20 259
internal_value=0 -0.0574707 -0.110851 -0.0649573 0.0339825 -0.0812782 -0.122171 -0.0762661 -0.273327 1.10476 1.77455 3.46592 2.46819 6.79948 8.99765 -0.280349 -0.117408 -0.126616 -1.36082 -0.148859 -0.241147 -1.34797 0.681495 12.482 -0.576958 0.327467 1.44514 1.65178 7.56454 -0.931907
internal_count=143352 133993 124795 113609 77032 55310 54035 52104 36577 1754 1317 517 438 119 79 36550 50350 50255 1931 49697 41675 1717 800 56 11186 21722 1562 1275 43 6702
shrinkage=0.1


Tree=18
num_leaves=31
num_cat=0
split_feature=17 17 32 30 9 14 77 17 78 110 20 24 51 106 84 49 103 110 6 110 0 17 47 18 92 87 64 16 62 21
split_gain=11736.4 4023.08 2602.59 2457.24 3101.22 2851.48 2342.74 2235.72 2366.34 2634.92 2424.15 2219.73 2219.56 2217.3 2050.93 2954.34 2031.81 1997.23 2105.36 1944.76 2576.06 2146.65 1952.95 1922.32 1975.44 1900.81 1891.19 2155.89 2189.16 2209.29
threshold=1.6505500078201296 1.9771000146865847 -1.2041500210762022 -1.3027500510215757 0.22732499986886981 392.94000244140631 0.89979499578475963 2.3266000747680669 -0.25948500633239741 -0.44823999702930445 52.198001861572273 -0.70426499843597401 3.2847999334335332 0.60373499989509594 19.865500450134281 1.1105499863624575 1.691350042819977 -1.2019500136375425 0.17410499602556231 -1.3616500496864317 2.4238499402999882 1.8116500377655032 0.073958501219749465 23.500000000000004 0.83902499079704296 4.0004000663757333 1.2124499678611758 21.295499801635746 12.492499828338625 5.5594000816345224
decision_type=2 2 2 2 2 2 2 2 2 2 2 2 2 2 2 2 2 2 2 2 2 2 2 2 2 2 2 2 2 2
left_child=2 19 -1 12 5 11 17 -8 9 14 -10 -5 -4 -7 -9 -16 -6 23 -19 20 -2 26 -23 24 -3 -11 -21 28 29 -28
right_child=1 6 3 4 16 13 7 8 10 25 -12 -13 -14 -15 15 -17 -18 18 -20 21 -22 22 -24 -25 -26 -27 27 -29 -30 -31
leaf_value=-0.18142249399154892 -0.1240794698437334 0.24811422959137769 -0.013894557760423407 -0.50307643527076362 0.071468828204401827 0.21757424636980738 0.024247978980490952 -0.059595254679584687 0.06110433467418197 -0.28441107662787418 -0.66422658879706198 0.23180542673915139 -0.48708743967261969 -0.34268439972603865 -0.2046241304136458 0.46215124185408024 0.019013478894430325 0.67523089959854043 -0.042298338664495255 -0.071703813031456426 0.19862189035524022 -0.351027680167528 -0.04770434404191394 -0.3449905236008699 -0.022875837708198572 0.1852156906340694 0.071280925073464771 -0.40429482667790195 -0.04194191954046067 -0.048443066054312783
leaf_count=488 3928 622 3519 42 19210 118 33942 4109 2347 773 47 1923 102 176 105 181 11995 41 15636 3338 264 214 26192 92 474 97 6932 123 4340 1982
internal_value=0 -0.170531 0.480096 0.510287 0.594961 1.7264 0.00490433 0.132358 -0.355665 -0.730478 0.468643 2.16098 -0.272239 -1.17819 -0.415729 2.17356 0.513053 -0.309486 -0.404218 -0.387322 -1.03757 -0.324109 -0.501625 0.940613 1.30916 -2.3205 -0.0436723 0.124355 0.163028 0.446607
internal_count=143352 105779 37573 37085 33464 2259 58466 41601 7659 5265 2394 1965 3621 294 4395 286 31205 16865 15677 47313 4192 43121 26406 1188 1096 870 16715 13377 13254 8914
shrinkage=0.1


Tree=19
num_leaves=31
num_cat=0
split_feature=94 78 12 16 11 6 75 100 28 99 59 70 5 5 75 111 54 106 5 51 0 15 72 40 55 70 53 85 34 80
split_gain=4775.73 3531.65 2408.19 2593.09 2054.71 2283.79 2098.96 1921.9 2970.93 3227.47 2699.1 2165.94 1902.32 2195.87 2141.02 2122.09 1897.89 2548.68 1885.09 1881.35 1953.15 1935.7 1894.75 1880.46 2402.35 1876.89 1864.62 2173.71 2342.77 2852.65
threshold=-1.9999499917030332 -1.9999499917030332 0.92778497934341442 19.39949989318848 10.27650022506714 0.17410499602556231 0.98303499817848217 1.2768500447273257 0.91117501258850109 1.8750500082969668 0.96312499046325695 3.6334000825881962 -0.67086499929428089 -0.95299500226974476 0.81745499372482311 0.99381500482559215 0.94442498683929454 0.71558499336242687 0.93829500675201427 1.6894499659538271 2.1559499502182011 792.25500488281261 1.8551500439643862 -0.71559000015258778 1.5758499503135683 3.5051499605178837 9.2581496238708514 9.4238500595092791 0.078859500586986556 -0.6551150083541869
decision_type=2 2 2 2 2 2 2 2 2 2 2 2 2 2 2 2 2 2 2 2 2 2 2 2 2 2 2 2 2 2
left_child=-1 23 3 4 12 6 -6 8 9 10 19 25 13 15 -15 16 -3 -18 -11 20 -7 -21 -23 24 -2 -9 27 28 -4 -30
right_child=1 2 26 -5 5 7 -8 11 -10 18 -12 -13 -14 14 -16 -17 17 -19 -20 21 -22 22 -24 -25 -26 -27 -28 -29 29 -31
leaf_value=0.069062848988522815 0.50975963037980854 -0.14644357948011513 -0.024594934559437894 -0.098303566451798774 0.69179313022643329 0.3576559242444397 -0.22767154955201679 -0.051236273244190882 -0.08095586862253025 0.023091208170007912 1.0948284565703943 -0.24567551161972057 -0.0062218156546283154 -0.48638667336532049 0.2455198984457852 0.87171195149421699 -0.22725822180509569 1.3691990971565247 -0.21002470800252904 0.002241500608859357 -0.44927317574620251 0.033586702139481256 1.3171790195548017 0.04806462400517611 -0.36880041643192896 0.58828983216182051 0.055138417204681822 -0.070908412778300969 0.077195592022366546 -0.0031644300965995029
leaf_count=9359 172 472 12089 3931 80 479 36 19258 2977 4343 32 581 49155 42 826 24 20 20 377 599 32 23 23 8988 38 46 7627 3795 7921 9987
internal_value=0 -0.0482383 -0.0923137 -0.190223 -0.150994 -0.363758 4.06442 -0.381612 0.00504829 0.415523 1.88876 -0.55438 -0.0294356 1.1183 2.10105 -0.473162 -0.903956 5.7097 0.0447157 1.63798 3.07124 0.502485 6.75383 0.54976 3.50782 -0.497123 0.104778 0.00397654 0.0941877 0.323801
internal_count=143352 133993 124795 83376 79445 28886 116 28770 8885 5908 1188 19885 50559 1404 868 536 512 40 4720 1156 511 645 46 9198 210 19304 41419 33792 29997 17908
shrinkage=0.1


Tree=20
num_leaves=31
num_cat=0
split_feature=71 40 41 40 49 65 99 2 0 73 99 10 78 30 62 65 48 103 6 37 1 31 113 8 55 10 25 16 6 19
split_gain=3885.69 3506.13 2270.66 2738.51 2702.22 2925.84 2501.55 2473.88 2879.69 3052.52 2837.68 2414.97 2270.81 2280.48 2260.16 3186.29 2094.88 2066.77 2065.62 2046.82 2027.34 2253.8 1975.45 1985.66 1950.61 2036.55 1956.64 1926.65 2963.47 1903.31
threshold=1.1261499524116518 1.3446499705314638 0.36103500425815588 1.9002500176429751 2.5265499353408818 0.35752500593662268 6.0284500122070321 9.2317500114440936 1.8387500047683718 0.27318499982357031 1.0884500145912173 0.73846501111984264 1.0167500376701357 -1.7371000051498411 8.4668498039245623 -41.295499801635735 2.7935000658035283 1.5420500040054324 0.17410499602556231 26.758000373840336 1.5684500336647036 1.3370000123977663 0.055795500054955489 0.8636550009250642 1.8124499917030337 0.011854999698698522 0.33263500034809118 14.575500011444094 0.31113499402999883 1.3997499942779543
decision_type=2 2 2 2 2 2 2 2 2 2 2 2 2 2 2 2 2 2 2 2 2 2 2 2 2 2 2 2 2 2
left_child=1 19 3 7 5 -4 18 8 9 -2 -11 12 -10 -14 15 -3 -16 -12 29 20 21 -1 -18 -24 -9 26 -26 -13 -29 -7
right_child=2 14 4 -5 -6 6 -8 24 11 10 17 27 13 -15 16 -17 22 -19 -20 -21 -22 -23 23 -25 25 -27 -28 28 -30 -31
leaf_value=0.10980121323504324 -0.088209989027467101 0.935216564987157 -0.020865847999895392 0.044309485416177824 -0.046151660422734005 0.015066660018194289 0.30418459064506764 -0.011654275996438647 -0.097992835313211291 0.18554060757787902 -0.035698048827239738 -0.080080268913284292 1.0899667172204881 0.036875971155269381 -0.16182355561795922 0.0047602805860230309 -0.098784309117253347 0.0044106314095367673 0.058556194686810184 -0.12413986426190565 0.038292777863233755 1.0439692938557037 0.09812990660621479 1.1103309796750547 0.62663584764449654 0.078286928150652219 -0.12547351502357645 0.11782846900520892 1.2451797323922316 1.295058706861276
leaf_count=3870 5616 37 5032 6671 4632 21 446 3495 10855 727 23111 641 21 989 1845 6941 918 28929 9437 699 24127 26 626 20 131 2572 47 820 24 26
internal_value=0 0.268793 -0.100843 -0.171851 0.205919 0.412547 0.72734 -0.224459 -0.277014 -0.181204 -0.106607 -0.696015 -0.846483 0.587719 -0.229102 0.0969391 -0.896487 -0.134017 0.618497 0.448851 0.491012 1.16035 -0.0450643 1.29467 0.379206 1.00926 4.28045 0.50621 1.49886 7.23147
internal_count=143352 39109 104243 84649 19594 14962 9930 77978 71733 58383 52767 13350 11865 1010 10387 6978 3409 52040 9484 28722 28023 3896 1564 646 6245 2750 178 1485 844 47
shrinkage=0.1


Tree=21
num_leaves=31
num_cat=0
split_feature=17 17 112 111 28 32 104 34 61 59 22 11 56 70 80 16 21 60 43 16 72 10 30 91 1 72 72 51 46 45
split_gain=7443.9 3256.48 2533.3 3188.8 2415.33 2252.78 2175.42 2506.84 2130.76 2962.85 2111.68 2472.53 2056.86 2182.07 1875.26 2002.86 2339.9 2072.19 2329.74 2164.88 1913.39 1868.69 2447.36 2298.21 1917.59 1860.11 1958.86 1886.06 1859.38 1858.63
threshold=1.6505500078201296 1.9771000146865847 -0.30194000899791712 0.93869501352310192 0.95606499910354625 -2.1375499963760372 -0.72134500741958607 0.055839499458670623 -0.11429999768733977 2.4199999570846562 -1.5311500430107114 1.7773500084877016 2.0241500139236455 7.0910499095916757 0.35242499411106115 11.725999832153322 20.896499633789066 0.86809498071670543 1.0866499543190005 12.966500282287599 0.60113999247550975 0.68649500608444225 -1.3186500072479246 0.89774501323699962 1.9814500212669375 0.41906999051570898 3.3284000158309941 3.6885999441146855 4.0334000587463388 0.92658501863479625
decision_type=2 2 2 2 2 2 2 2 2 2 2 2 2 2 2 2 2 2 2 2 2 2 2 2 2 2 2 2 2 2
left_child=5 28 3 -3 12 -1 7 -7 9 -8 11 -9 13 -5 -4 16 20 -17 19 -19 -16 22 -10 24 -23 27 -27 -14 -2 -12
right_child=1 2 14 4 -6 6 8 10 21 -11 29 -13 25 -15 15 17 -18 18 -20 -21 -22 23 -24 -25 -26 26 -28 -29 -30 -31
leaf_value=-0.37259677216074527 -0.021715253891676767 -0.056527132565501653 0.018832169006634199 0.020822025972296355 -0.06200425538290727 -0.65957681699232618 0.40090016872745082 0.33239647283948759 -0.068490426571594459 -0.29782549467434488 0.14619471557696515 1.7124379456043244 -0.17198723097331825 -0.29364922702661717 -0.37174720238698161 0.43479136335285934 0.75444666263647386 0.57002434429465509 -0.81533896235319292 0.02932648303681868 0.053798713567322444 1.4227389389818366 0.030986813594701536 0.071033652225795441 0.28761709325987361 0.097092272584796357 0.8492875163753828 0.97070058716031227 -0.06764852679207016 0.77625749111175546
leaf_count=133 35601 12331 24757 14759 3936 33 318 37 2740 75 736 20 20 224 133 333 40 98 26 303 514 22 25394 7969 46 904 36 52 11712 50
internal_value=0 -0.135812 0.0220271 -0.165572 0.0817162 0.382349 0.396943 1.95426 0.359633 2.67556 2.28896 8.16622 0.254403 0.161206 0.252996 1.35952 0.122096 2.47809 1.01989 1.61467 -0.336783 0.33447 0.212986 0.759734 6.54862 1.63421 1.259 6.53287 -0.330857 1.86275
internal_count=143352 105779 58466 32262 19931 37573 37440 876 36564 393 843 57 15995 14983 26204 1447 687 760 427 401 647 36171 28134 8037 68 1012 940 72 47313 786
shrinkage=0.1


Tree=22
num_leaves=31
num_cat=0
split_feature=17 17 5 6 64 28 105 70 113 113 9 33 36 20 33 48 110 30 96 92 65 108 6 17 78 110 81 113 80 28
split_gain=6029.56 2637.75 1988.88 2159.77 2256.32 1956.82 1878.17 2144.84 2503.62 2118.6 1858.41 2271.75 2123.98 1856.45 1855.65 2080.86 1812.9 1794.02 1669.36 2598.1 2837.59 2447.04 2531.1 2003.46 2348.06 2074.24 1993.44 2519.81 1929.59 2099.83
threshold=1.6505500078201296 1.9771000146865847 0.26197500526905065 0.35832500457763677 4.5036499500274667 0.87644499540328991 0.24928500503301623 -1.6596500277519224 0.35261999070644384 0.2525749951601029 0.88218000531196605 1.6139499545097353 1.551349997520447 2.7111500501632695 1.3179499506950381 1.3482499718666079 -0.79335001111030568 -1.2434499859809873 0.10208500176668169 0.84125500917434703 2.4419499635696416 0.83868500590324413 0.19274000078439715 2.3266000747680669 -0.27414500713348383 -0.36117500066757197 0.067024499177932753 0.23958999663591388 1.0206499695777895 0.97599500417709362
decision_type=2 2 2 2 2 2 2 2 2 2 2 2 2 2 2 2 2 2 2 2 2 2 2 2 2 2 2 2 2 2
left_child=2 -2 3 4 6 17 7 -1 9 14 11 -7 -13 -12 -9 -16 -17 -6 21 26 28 22 -3 -23 25 -25 27 -20 29 -21
right_child=1 18 -4 -5 5 10 -8 8 -10 -11 13 12 -14 -15 15 16 -18 -19 19 20 -22 23 -24 24 -26 -27 -28 -29 -30 -31
leaf_value=-0.30583004380265871 -0.029777141028982365 0.54613562816218153 0.010881996984609054 -0.052476796901022853 1.0019575436909995 -0.41396558004538575 0.066979045032857176 0.20747254930450387 -0.23335242059495714 1.2498880818486215 -0.3111518471501768 0.792765198693131 -0.24506756112891803 0.71654079281366789 0.91002112431658644 0.57240364230596108 -0.5470006559206092 0.039936246066760744 0.22052391432798829 0.11805462490487205 -0.073617364705499094 0.019668826514820149 -0.044336498939919984 -0.050711473036531597 0.039169850498102676 -0.23007570528826499 0.12423140096890506 0.93947106395394386 0.66198878251016147 -0.055790047739712148
leaf_count=72 47313 73 18365 1650 21 339 15914 541 90 24 32 33 49 39 90 39 23 252 130 2529 1833 31771 13105 4073 2570 766 524 78 56 958
internal_value=0 -0.12223 0.344114 0.569082 0.671876 -1.00769 0.748388 2.17137 2.63795 3.26199 -2.19905 -2.99718 1.72597 2.53355 2.9421 6.02925 1.57141 1.13938 0.0198244 0.514552 0.273891 -0.0378897 -0.410656 0.0874883 -0.380779 -0.791043 2.28202 4.90129 0.796457 0.702935
internal_count=143352 105779 37573 19208 17558 765 16793 879 807 717 492 421 82 71 693 152 62 273 58466 6108 5376 52358 13178 39180 7409 4839 732 208 3543 3487
shrinkage=0.1


Tree=23
num_leaves=31
num_cat=0
split_feature=17 16 7 13 28 87 37 88 16 35 34 49 53 4 57 71 49 85 30 105 35 84 70 56 13 4 12 96 64 5
split_gain=4980.81 2021.94 2002.35 2615.44 2691.49 2137.85 2368.94 2175.06 1986.21 2153.57 2385.57 2569.44 2121.76 1955 1907.85 2170.69 1871.89 2492.96 1870.73 2238.82 1935.85 1919.74 1863.06 1970.66 2008.26 1858.65 1830.43 1842.05 2266.58 1828.01
threshold=1.5396000146865847 20.798999786376957 1.3621500134468081 1.5418500304222109 0.72068500518798839 2.1896499395370488 4.7042000293731698 1.2557500004768374 7.643399953842164 1.0667499899864199 1.2933500409126284 0.71128001809120189 323.47000122070318 2.2418500185012822 0.28421500325202947 1.5854499936103823 2.4903500080108647 25.72500038146973 3.7533500194549565 0.33175499737262731 1.0000000180025095e-35 5.0525500774383554 -1.4091500043869016 -0.061209000647068017 3.5171500444412236 1.038350045681 0.94355499744415294 0.53085002303123485 1.3666500449180605 0.3985349982976914
decision_type=2 2 2 2 2 2 2 2 2 2 2 2 2 2 2 2 2 2 2 2 2 2 2 2 2 2 2 2 2 2
left_child=-1 2 5 14 -5 8 -7 13 9 10 11 -2 -11 -8 -4 -16 22 -18 20 -20 -6 -21 -9 24 -24 -10 -27 -28 -29 -13
right_child=1 -3 3 4 18 6 7 16 25 12 -12 29 -14 -15 15 -17 17 -19 19 21 -22 -23 23 -25 -26 26 27 28 -30 -31
leaf_value=0.037551676391625051 0.18498556570632868 -0.11152881376422269 0.071345504499683896 0.30338249425231312 0.68193664659814146 0.00029257267638591934 -0.043773602958031371 -0.14166800334173091 -0.20075741239382083 0.012463189668851826 -0.072587512961643591 0.99096425155347045 0.88492746864046379 0.88609373103017397 -0.28495523142194984 0.080842053166992001 -0.026357769654368597 0.62757844718007916 0.31166490791991019 0.14935904079812853 -0.013347552690035736 -0.31644873800186013 0.28721418984234337 0.17204897895401938 1.0038772794707069 -0.030974063554576655 0.0050205509217689966 0.91065322332408116 0.13692906279221317 0.05034186663451018
leaf_count=28339 216 1901 608 567 41 27861 1334 170 593 6197 170 88 28 23 505 239 976 62 536 277 1719 130 120 1813 58 55379 13115 46 214 27
internal_value=0 -0.0925267 -0.0753378 0.569269 1.05296 -0.1028 0.112242 0.780735 -0.194436 0.324403 2.31898 3.88281 0.163875 -0.280131 -0.600614 -1.67448 1.23075 0.12702 0.637445 1.77398 0.0284941 0.00575229 1.76091 2.03222 5.20734 -0.244758 -0.229554 0.102458 2.73819 7.70122
internal_count=143352 115013 113112 4622 3270 108490 32417 4556 76073 6726 501 331 6225 1357 1352 744 3199 1038 2703 943 1760 407 2161 1991 178 69347 68754 13375 260 115
shrinkage=0.1


Tree=24
num_leaves=31
num_cat=0
split_feature=89 104 2 5 72 7 75 97 30 94 9 5 54 64 7 99 84 100 96 1 26 105 24 99 72 56 27 25 75 88
split_gain=2610.89 2081.25 1786.63 1783.39 3686.53 3465.68 2513.87 1969.21 2524.58 1979.82 1972.74 2019.78 2149.98 1924.01 2302.65 2192.46 1987.53 2590.83 1879.92 1852.39 2020.36 1843.4 1843.26 1842.05 1820.49 2161.75 2159.36 1880.73 2893.76 1951.42
threshold=0.39391499757766729 -0.83469998836517323 20.927000045776371 0.090890500694513335 -0.58326998353004444 0.3085049986839295 0.91415500640869152 0.06140399910509587 0.20800999552011493 -1.0773499608039854 0.60845500230789196 0.081037998199462905 -0.85479497909545887 2.4921499490737919 0.78698498010635387 1.2549499869346621 2.7947499752044682 2.0921499729156499 -1.4472499489784239 4.3556501865386972 1.9781499505043032 0.34440499544143682 2.9098000526428227 1.6247499585151675 0.51563000679016124 0.44776000082492834 0.98802500963211071 0.32646499574184423 0.95960497856140148 2.0583499670028691
decision_type=2 2 2 2 2 2 2 2 2 2 2 2 2 2 2 2 2 2 2 2 2 2 2 2 2 2 2 2 2 2
left_child=1 -1 3 4 -3 6 21 -6 9 22 13 -12 -13 14 -10 16 17 -15 24 -20 -21 -5 -9 -17 -7 26 27 -26 29 -29
right_child=-2 2 -4 5 7 18 -8 8 10 -11 11 12 -14 15 -16 23 -18 -19 19 20 -22 -23 -24 -25 25 -27 -28 28 -30 -31
leaf_value=0.1446013699666818 0.041612365240007373 0.18542345016096493 0.1435228767764056 1.6565605008083844 0.017926672021625855 -0.035136727919171981 0.21062373471203016 0.089654811063914097 -0.11195442739182299 -0.029863083479225769 -0.16521781163963958 0.9193893702493775 -0.18129074301038473 0.33795255005359648 0.940740138008481 -0.17199087161711291 -0.14684082766994835 1.4219956292555882 -0.024241283417296349 0.063483963940919264 -0.081073964001935617 0.34386286228895191 0.92168573648841301 0.05917059931290141 0.12017830448689498 0.041866609423921737 -0.30652337258352952 0.29902427320758379 1.4017290411324339 1.3178735473752023
leaf_count=931 13643 1166 800 23 31521 1913 222 1923 1974 2821 2170 36 35 145 21 464 65 26 72865 4718 1216 20 27 1341 357 2479 68 313 29 20
internal_value=0 -0.0437686 -0.0545389 -0.0638516 0.0999841 -0.148907 3.46176 0.0519337 -0.31136 0.236948 -0.728115 -1.48045 3.76801 -0.310377 -1.00873 0.372241 3.23857 5.02778 -0.160301 -0.198659 0.33861 10.46 1.01175 -0.00252626 0.423312 0.877066 2.32099 2.8304 4.43653 3.60216
internal_count=143352 129709 128778 127978 43735 84243 265 42569 11048 4771 6277 2241 71 4036 1995 2041 236 171 83978 78799 5934 43 1950 1805 5179 3266 787 719 362 333
shrinkage=0.1


Tree=25
num_leaves=31
num_cat=0
split_feature=11 66 2 10 111 58 59 25 54 55 50 41 13 89 104 39 93 33 105 59 31 96 92 107 16 61 95 96 38 51
split_gain=2679.61 3067.24 3874.4 3295.13 3206.37 2885.18 2353.84 2349.37 2644.21 2363.86 2254.05 3348.85 2320.14 2582.57 2195.85 2138.18 2116.9 2096.15 2575.63 2088.93 2904.38 2075.06 1990.74 2750.95 1925.08 1906.03 1937.35 2117.26 1890.28 2417.19
threshold=2.6842499971389775 0.82791998982429515 3.6485500335693364 0.52512499690055858 0.95150500535964977 4.2066500186920175 2.4199999570846562 0.31416499614715582 -0.67995500564575184 1.5855500102043154 1.5898500084877016 0.35509499907493597 1.9161500334739687 0.36248500645160681 0.52231499552726757 2.4603500366210942 0.83215498924255382 0.729180008172989 0.40727500617504125 0.95831501483917247 0.97420501708984386 -1.9162499422325733e-15 0.94350498914718639 0.94552499055862438 20.401999473571781 0.78907501697540294 0.94194501638412487 -0.48461499810218805 -1.3463500142097471 2.512549996376038
decision_type=2 2 2 2 2 2 2 2 2 2 2 2 2 2 2 2 2 2 2 2 2 2 2 2 2 2 2 2 2 2
left_child=1 19 6 -4 5 7 -3 8 -5 -9 11 17 13 15 22 -12 -10 24 -19 20 21 -1 23 -14 -2 26 -11 -28 29 -24
right_child=10 2 3 4 -6 -7 -8 9 16 25 12 -13 14 -15 -16 -17 -18 18 -20 -21 -22 -23 28 -25 -26 -27 27 -29 -30 -31
leaf_value=-0.026597817928300078 -0.018730277665427356 0.1278113309425396 -0.0066556277573753654 0.85410321022303703 0.044677694713810834 -0.47627622657352026 -0.56136357796192171 -0.044956359198847828 1.1597703451695649 0.20109131768345834 1.0282664300038897 0.042291691369345873 -0.080668498814206291 -0.50984900851141324 -0.016584915100782974 -0.14937253835655392 0.12353117131236671 0.014861478870093345 0.27757767146214957 0.076528203023303654 -0.11252004721124194 0.041636384023619626 0.15895318149899443 -0.29983015876762042 -0.15455964176966797 -0.18177432305104024 1.5808780133724214 0.51685394008954366 -0.033874847142455672 1.2905606320500373
leaf_count=10891 37854 5613 9003 151 1487 45 50 207 23 60 58 15652 5841 22 24528 21 138 14544 383 3013 2551 7544 336 635 1073 37 32 45 1495 20
internal_value=0 0.216425 0.542888 0.202756 1.29247 2.99647 1.21726 3.50032 5.53499 1.83413 -0.0863696 0.015761 -0.301769 4.48376 -0.31648 7.15223 2.71565 -0.102574 0.216023 -0.0133469 -0.125136 0.0132509 -0.760178 -1.02158 -0.224743 4.55094 6.27095 9.59046 0.154385 2.22527
internal_count=143352 40890 16891 11228 2225 738 5663 693 312 381 102462 69506 32956 101 32855 79 161 53854 14927 23999 20986 18435 8327 6476 38927 174 137 77 1851 356
shrinkage=0.1


Tree=26
num_leaves=31
num_cat=0
split_feature=17 17 113 16 30 38 91 9 13 16 85 89 16 61 16 96 58 59 87 57 74 110 4 106 53 13 97 89 40 106
split_gain=3300.53 2187.08 1709.07 2209.12 2204.37 2115.26 2062.59 1782.15 2174.45 3049.2 2132.25 2086.85 1982.51 1735.76 1654.81 1841.81 1802.55 2630.68 1638.91 2358.47 1650.72 1600.75 2044.12 1725.33 1620.68 1620.65 1661.09 2122.6 1990.84 1811.23
threshold=1.6505500078201296 1.9771000146865847 0.011394000146538021 5.0447499752044687 -1.5604500174522398 3.4479999542236333 0.12860500067472461 0.18157000094652179 -0.71531999111175526 16.92249965667725 5.1309499740600595 0.4952050000429154 5.5580501556396493 0.16263500601053241 18.095499992370609 -0.24435500055551526 2.1254500150680546 0.73289501667022716 1.2917500138282778 0.32844500243663793 1.0750499963760378 -1.3616500496864317 2.0822499990463261 0.92590001225471508 6.3956999778747567 3.2202500104904179 0.14423000067472461 0.31750500202178961 -0.046354500576853745 1.3845500349998476
decision_type=2 2 2 2 2 2 2 2 2 2 2 2 2 2 2 2 2 2 2 2 2 2 2 2 2 2 2 2 2 2
left_child=2 21 3 -1 -5 -6 -4 8 -8 10 11 12 -10 -14 -3 16 -16 -18 19 20 -17 22 25 -24 -25 26 -2 28 -28 -30
right_child=1 14 6 4 5 -7 7 -9 9 -11 -12 -13 13 -15 15 18 17 -19 -20 -21 -22 -23 23 24 -26 -27 27 -29 29 -31
leaf_value=-0.89924853086471568 -0.013291803283633006 0.009754994790900931 -0.19536381980649456 -0.38364547029669799 0.23215734028776233 -0.31783498352766038 -0.25172027291163157 0.019407231061826905 -0.3947577487963897 0.63790972291552017 -0.22056074281349597 -0.27025045774877071 0.21931305746318561 1.1380062645389921 -0.11224147515910277 -0.26170366734266282 1.1322439613086839 0.0046620730093436214 0.022715577886869426 1.035353422164917 0.64953738884492362 -0.019292596396994415 0.48564596659446191 0.26384906432845379 -0.56678624894560847 -0.19357292245457516 0.76693025868514497 -0.39069567506396496 -0.19116331728999281 0.54638048324145772
leaf_count=20 2082 52134 433 70 1034 75 138 34349 52 124 162 100 995 21 3481 50 21 1404 1303 40 33 43121 113 55 41 1264 29 301 269 38
internal_value=0 -0.0904333 0.254596 1.4293 1.60609 1.94962 0.215874 0.242012 1.27635 1.6364 1.19422 1.66577 2.07479 2.38302 0.0389182 -0.443822 -0.73459 0.212791 0.556536 4.04583 1.00597 -0.250276 -0.840213 2.2082 -0.909014 -1.00017 -0.565254 -1.97832 -0.25058 -0.998713
internal_count=143352 105779 37573 1199 1179 1109 36374 35941 1592 1454 1330 1168 1068 1016 58466 6332 4906 1425 1426 123 83 47313 4192 209 96 3983 2719 637 336 307
shrinkage=0.1



feature importances:
log10_trial=56
log10_cardinality=34
top_10%_loss_kurtosis=21
top_20%_loss_skew=15
recent_10_loss_kurtosis=13
recent_25_loss_best_percentile25_ratio=13
all_loss_skew=12
top_30%_correlation_skew=12
all_loss_percentile5_percentile25_ratio=12
recent_25_correlation_skew=12
all_loss_best_percentile75_ratio=11
top_10%_correlation_stddev_best_ratio=11
top_30%_loss_skew=11
recent_15%_loss_kurtosis=11
top_10%_loss_skew=11
recent_10_loss_skew=11
top_20%_loss_kurtosis=11
top_30%_correlation_best_percentile25_ratio=10
all_correlation_stddev_best_ratio=10
recent_25_loss_best_percentile75_ratio=10
top_30%_loss_kurtosis=10
recent_10_loss_best_percentile50_ratio=9
top_10%_loss_stddev_best_ratio=9
recent_10_loss_stddev_best_ratio=9
all_correlation_best_percentile25_ratio=9
recent_25_correlation_kurtosis=9
all_correlation_best_percentile50_ratio=9
top_30%_loss_stddev_best_ratio=9
all_loss_kurtosis=9
all_correlation_best_percentile75_ratio=9
num_parameters=9
recent_10_loss_best_percentile25_ratio=8
all_correlation_percentile5_percentile25_ratio=8
all_correlation_skew=8
recent_25_correlation_percentile5_percentile25_ratio=8
top_10%_correlation_skew=8
top_20%_loss_stddev_best_ratio=8
recent_25_correlation_best_percentile25_ratio=8
top_20%_correlation_stddev_best_ratio=8
recent_15%_correlation_skew=8
recent_10_correlation_stddev_best_ratio=8
recent_25_loss_stddev_median_ratio=8
top_20%_correlation_percentile5_percentile25_ratio=8
top_20%_correlation_skew=8
recent_15%_correlation_stddev_best_ratio=7
top_10%_correlation_kurtosis=7
top_10%_correlation_percentile5_percentile25_ratio=7
recent_25_loss_skew=7
top_20%_loss_stddev_median_ratio=7
recent_15%_loss_stddev_best_ratio=7
top_20%_loss_best_percentile75_ratio=7
top_30%_correlation_stddev_best_ratio=7
top_10%_loss_best_percentile25_ratio=7
top_30%_correlation_percentile5_percentile25_ratio=7
recent_25_loss_kurtosis=7
top_10%_loss_best_percentile75_ratio=7
recent_25_loss_percentile5_percentile25_ratio=6
recent_25_loss_stddev_best_ratio=6
top_20%_correlation_best_percentile25_ratio=6
recent_25_correlation_stddev_median_ratio=6
all_correlation_stddev_median_ratio=6
top_20%_loss_percentile5_percentile25_ratio=6
top_30%_loss_percentile5_percentile25_ratio=6
recent_10_loss_stddev_median_ratio=6
recent_10_correlation_percentile5_percentile25_ratio=6
recent_10_loss_percentile5_percentile25_ratio=6
top_10%_loss_percentile5_percentile25_ratio=5
top_20%_correlation_best_percentile50_ratio=5
top_20%_loss_best_percentile50_ratio=5
top_10%_correlation_best_percentile25_ratio=5
recent_25_loss_best_percentile50_ratio=5
recent_25_correlation_best_percentile75_ratio=5
all_loss_best_percentile50_ratio=5
recent_15%_loss_best_percentile50_ratio=5
recent_10_correlation_best_percentile25_ratio=5
recent_15%_correlation_kurtosis=5
top_30%_correlation_stddev_median_ratio=5
top_30%_loss_best_percentile50_ratio=5
top_30%_loss_best_percentile25_ratio=4
all_loss_stddev_best_ratio=4
recent_10_correlation_best_percentile50_ratio=4
recent_10_correlation_kurtosis=4
top_20%_correlation_best_percentile75_ratio=4
recent_10_correlation_skew=4
top_10%_loss_stddev_median_ratio=4
top_10%_correlation_best_percentile50_ratio=4
recent_15%_correlation_best_percentile25_ratio=4
recent_15%_correlation_percentile5_percentile25_ratio=4
top_30%_correlation_best_percentile75_ratio=3
top_30%_correlation_best_percentile50_ratio=3
recent_25_correlation_stddev_best_ratio=3
top_20%_loss_best_percentile25_ratio=3
top_10%_correlation_stddev_median_ratio=3
all_correlation_kurtosis=3
recent_15%_loss_stddev_median_ratio=3
recent_15%_loss_skew=3
all_loss_best_percentile25_ratio=3
all_loss_stddev_median_ratio=3
recent_10_correlation_best_percentile75_ratio=3
recent_15%_correlation_best_percentile75_ratio=3
top_20%_correlation_kurtosis=2
recent_25_correlation_best_percentile50_ratio=2
recent_15%_loss_best_percentile25_ratio=2
recent_10_correlation_stddev_median_ratio=2
recent_10_loss_best_percentile75_ratio=2
top_30%_loss_stddev_median_ratio=1
top_30%_loss_best_percentile75_ratio=1
recent_15%_correlation_best_percentile50_ratio=1
recent_15%_correlation_stddev_median_ratio=1
top_30%_correlation_kurtosis=1
recent_15%_loss_best_percentile75_ratio=1
recent_15%_loss_percentile5_percentile25_ratio=1
top_10%_correlation_best_percentile75_ratio=1
top_20%_correlation_stddev_median_ratio=1

pandas_categorical:null
