tree
version=v2
num_class=4
num_tree_per_iteration=4
label_index=0
max_feature_idx=114
objective=multiclass num_class:4
feature_names=all_correlation_best_percentile25_ratio all_correlation_best_percentile50_ratio all_correlation_best_percentile75_ratio all_correlation_kurtosis all_correlation_percentile5_percentile25_ratio all_correlation_skew all_correlation_stddev_best_ratio all_correlation_stddev_median_ratio all_loss_best_percentile25_ratio all_loss_best_percentile50_ratio all_loss_best_percentile75_ratio all_loss_kurtosis all_loss_percentile5_percentile25_ratio all_loss_skew all_loss_stddev_best_ratio all_loss_stddev_median_ratio log10_cardinality log10_trial num_parameters recent_10_correlation_best_percentile25_ratio recent_10_correlation_best_percentile50_ratio recent_10_correlation_best_percentile75_ratio recent_10_correlation_kurtosis recent_10_correlation_percentile5_percentile25_ratio recent_10_correlation_skew recent_10_correlation_stddev_best_ratio recent_10_correlation_stddev_median_ratio recent_10_loss_best_percentile25_ratio recent_10_loss_best_percentile50_ratio recent_10_loss_best_percentile75_ratio recent_10_loss_kurtosis recent_10_loss_percentile5_percentile25_ratio recent_10_loss_skew recent_10_loss_stddev_best_ratio recent_10_loss_stddev_median_ratio recent_15%_correlation_best_percentile25_ratio recent_15%_correlation_best_percentile50_ratio recent_15%_correlation_best_percentile75_ratio recent_15%_correlation_kurtosis recent_15%_correlation_percentile5_percentile25_ratio recent_15%_correlation_skew recent_15%_correlation_stddev_best_ratio recent_15%_correlation_stddev_median_ratio recent_15%_loss_best_percentile25_ratio recent_15%_loss_best_percentile50_ratio recent_15%_loss_best_percentile75_ratio recent_15%_loss_kurtosis recent_15%_loss_percentile5_percentile25_ratio recent_15%_loss_skew recent_15%_loss_stddev_best_ratio recent_15%_loss_stddev_median_ratio recent_25_correlation_best_percentile25_ratio recent_25_correlation_best_percentile50_ratio recent_25_correlation_best_percentile75_ratio recent_25_correlation_kurtosis recent_25_correlation_percentile5_percentile25_ratio recent_25_correlation_skew recent_25_correlation_stddev_best_ratio recent_25_correlation_stddev_median_ratio recent_25_loss_best_percentile25_ratio recent_25_loss_best_percentile50_ratio recent_25_loss_best_percentile75_ratio recent_25_loss_kurtosis recent_25_loss_percentile5_percentile25_ratio recent_25_loss_skew recent_25_loss_stddev_best_ratio recent_25_loss_stddev_median_ratio top_10%_correlation_best_percentile25_ratio top_10%_correlation_best_percentile50_ratio top_10%_correlation_best_percentile75_ratio top_10%_correlation_kurtosis top_10%_correlation_percentile5_percentile25_ratio top_10%_correlation_skew top_10%_correlation_stddev_best_ratio top_10%_correlation_stddev_median_ratio top_10%_loss_best_percentile25_ratio top_10%_loss_best_percentile50_ratio top_10%_loss_best_percentile75_ratio top_10%_loss_kurtosis top_10%_loss_percentile5_percentile25_ratio top_10%_loss_skew top_10%_loss_stddev_best_ratio top_10%_loss_stddev_median_ratio top_20%_correlation_best_percentile25_ratio top_20%_correlation_best_percentile50_ratio top_20%_correlation_best_percentile75_ratio top_20%_correlation_kurtosis top_20%_correlation_percentile5_percentile25_ratio top_20%_correlation_skew top_20%_correlation_stddev_best_ratio top_20%_correlation_stddev_median_ratio top_20%_loss_best_percentile25_ratio top_20%_loss_best_percentile50_ratio top_20%_loss_best_percentile75_ratio top_20%_loss_kurtosis top_20%_loss_percentile5_percentile25_ratio top_20%_loss_skew top_20%_loss_stddev_best_ratio top_20%_loss_stddev_median_ratio top_30%_correlation_best_percentile25_ratio top_30%_correlation_best_percentile50_ratio top_30%_correlation_best_percentile75_ratio top_30%_correlation_kurtosis top_30%_correlation_percentile5_percentile25_ratio top_30%_correlation_skew top_30%_correlation_stddev_best_ratio top_30%_correlation_stddev_median_ratio top_30%_loss_best_percentile25_ratio top_30%_loss_best_percentile50_ratio top_30%_loss_best_percentile75_ratio top_30%_loss_kurtosis top_30%_loss_percentile5_percentile25_ratio top_30%_loss_skew top_30%_loss_stddev_best_ratio top_30%_loss_stddev_median_ratio
feature_infos=[0:15.006999969482422] [0:234.80000305175781] [0:4882.39990234375] [-1.9805999994277954:10.654999732971191] [0:12.206000328063965] [-2.6215999126434326:3.3966999053955078] [0:0.45357000827789307] [0:85.734001159667969] [-11839:1584.199951171875] [-779.91998291015625:808.3699951171875] [-507.22000122070312:5197.10009765625] [-1.9981000423431396:209.69999694824219] [-7946.7001953125:1168.9000244140625] [-8.7989997863769531:13.902000427246094] [-488510:4586200] [-155060:615890] [3.7781999111175537:23.594999313354492] [1:2.6435000896453857] [5:34] [0:802.9000244140625] [0:559] [0:1258.9000244140625] [-1.9955999851226807:18.329000473022461] [0:587.8800048828125] [-2.2653999328613281:4.391200065612793] [0:0.48989999294281006] [0:198.35000610351562] [-1219.5:522.80999755859375] [-1235.800048828125:6594.60009765625] [-1117.5:8850.099609375] [-2:5.1111001968383789] [-935.07000732421875:423.33999633789062] [-2.6647000312805176:2.6666998863220215] [-297430:1188300] [-212310:1079600] [0:3575.699951171875] [0:10875] [0:26023] [-1.9921000003814697:19.042999267578125] [0:2033.4000244140625] [-2.9841001033782959:4.5872998237609863] [0:0.49930998682975769] [0:2715.5] [-709.03997802734375:502.79998779296875] [-3297.89990234375:18467] [-19963:8850.099609375] [-2:60.916000366210938] [-448.57998657226562:390.1099853515625] [-6.5598998069763184:7.9286999702453613] [-317810:4634900] [-2685700:920740] [0:3278.300048828125] [0:6019.10009765625] [0:9635.900390625] [-1.9896999597549438:20.330999374389648] [0:2503.199951171875] [-2.3831000328063965:4.6901998519897461] [0:0.48857000470161438] [0:1847.800048828125] [-1337.0999755859375:243.28999328613281] [-3297.89990234375:1716.199951171875] [-3973.300048828125:2211.89990234375] [-1.9981000423431396:20.041999816894531] [-1199:202.85000610351562] [-4.6810002326965332:4.6949000358581543] [-350350:5375700] [-3075900:1514600] [0:3617.800048828125] [0:3004.5] [0:2050.60009765625] [-2:22.038000106811523] [0:1885.800048828125] [-3.75:4.902900218963623] [0:0.5] [0:861.3800048828125] [-298.98001098632812:265.42999267578125] [-725.83001708984375:605.80999755859375] [-297.85000610351562:6594.60009765625] [-2:20.041999816894531] [-210.33999633789062:200.82000732421875] [-4.6949000358581543:4.4772000312805176] [-4756.89990234375:13260] [-250.80999755859375:12848] [0:11477] [0:24078] [0:20548] [-2:21.040000915527344] [0:5149] [-3.8805999755859375:4.8000001907348633] [0:0.5] [0:5943.7001953125] [-10733:179.94999694824219] [-197.66999816894531:780.010009765625] [-1242.300048828125:309.73001098632812] [-2:40.016998291015625] [-5728.2998046875:123.62000274658203] [-6.4818000793457031:6.08489990234375] [-6293.39990234375:12913] [-414.29000854492188:8168.7998046875] [0:26229] [0:21533] [0:37704] [-2:16.608999252319336] [0:18253] [-2.8459999561309814:4.248499870300293] [0:0.5] [0:5373.2001953125] [-1534.800048828125:415.8599853515625] [-911.79998779296875:855.30999755859375] [-860.95001220703125:27170] [-2:62.985000610351562] [-1393.0999755859375:342.82000732421875] [-8.0602998733520508:5.768700122833252] [-8886.900390625:104960] [-354.72000122070312:36623]
tree_sizes=2591 2624 2592 2559 2550 2629 2566 2609 2562 2639 2599 2614 2564 2614 2583 2614 2592 2628 2588 2602 2576 2626 2572 2580 2576 2642 2584 2577

Tree=0
num_leaves=31
num_cat=0
split_feature=75 78 59 75 31 93 99 48 50 81 70 75 38 75 59 93 56 44 35 38 113 43 41 6 111 6 38 78 103 43
split_gain=168.099 78.3739 39.9604 21.2464 21.1438 16.5087 15.9071 15.4148 14.9177 11.0064 9.55967 9.44205 11.7541 11.3221 9.062 11.5947 10.042 9.38767 9.02696 8.6686 8.66184 10.1177 8.41716 8.27794 8.03577 7.90699 8.44197 7.87437 7.79456 7.63171
threshold=0.061300499364733703 -1.6894499659538267 0.89044499397277843 0.98797500133514415 0.98659500479698192 0.90461498498916637 2.1858500242233281 1.238849997520447 4.4049999713897714 0.016731999814510349 0.92465001344680797 0.98584499955177318 2.8210500478744511 1.1125000119209292 0.93919497728347789 0.94020497798919689 -0.61322501301765431 0.76910001039505016 32.603500366210945 -1.4724499583244322 0.062248500064015395 0.5207049846649171 0.40577499568462377 0.32856500148773199 0.96780499815940868 0.25121499598026281 -1.4631499648094175 1.4717000126838686 1.0910499691963198 0.78218501806259166
decision_type=2 2 2 2 2 2 2 2 2 2 2 2 2 2 2 2 2 2 2 2 2 2 2 2 2 2 2 2 2 2
left_child=6 18 3 8 5 7 20 -4 10 -5 25 12 -6 -13 17 27 -17 -7 -2 -9 21 28 -12 -8 -14 26 -3 -16 -1 -10
right_child=1 2 4 9 11 14 23 19 29 -11 22 13 24 -15 15 16 -18 -19 -20 -21 -22 -23 -24 -25 -26 -27 -28 -29 -30 -31
leaf_value=0.10000000000000001 0.005090437481182983 0.028162291169451077 0.015102375102375103 0.015095879232966137 0.028760878574388728 0.030085852930197839 0.03273809523809524 0.037190900098911968 0.034403997144896503 -0.001148105625717566 0.017859735733991577 0.020640569395017794 0.080879864636209817 0.036901121304791028 0.021958691570313271 -0.021105527638190957 0.015910200097608591 0.012860909546534181 0.083760683760683768 0.023577965189305581 -0.0089807002230627483 -0.0013575490735644837 0.041358024691358027 -0.015555555555555557 0.037926972909305065 0.013899240855762596 0.0037592688394550789 0.046181491464510338 0.020224719101123598 0.019450859635617143
leaf_count=40 14393 419 6105 1634 4826 893 448 1348 1401 3484 6887 8992 197 1308 10119 199 10928 15297 39 16719 6874 3634 432 120 283 19320 3866 371 178 2598
internal_value=0 0.166604 0.180538 0.138641 0.202161 0.188634 -0.0409657 0.221965 0.153041 0.0403804 0.140905 0.255884 0.311848 0.227055 0.167324 0.189203 0.152482 0.13811 0.0530303 0.245936 -0.0550687 0.00692281 0.192467 0.225352 0.555556 0.124917 0.0614547 0.228154 0.348624 0.246895
internal_count=143352 132058 117626 40041 77585 61979 11294 24172 34923 5118 30924 15606 5306 10300 37807 21617 11127 16190 14432 18067 10726 3852 7319 568 480 23605 4285 10490 218 3999
shrinkage=0.1


Tree=1
num_leaves=31
num_cat=0
split_feature=17 53 114 34 11 11 65 13 17 72 10 15 88 50 61 70 52 36 104 11 15 81 6 33 37 89 61 54 106 59
split_gain=676.462 120.419 83.4444 56.1653 35.9085 33.1909 24.6498 24.1029 20.8048 17.1204 11.7339 11.3442 9.85809 9.73748 8.95161 8.67528 8.66707 8.5606 8.40503 8.3812 8.24775 7.43957 9.10547 7.31675 8.0043 7.09374 7.23504 7.0715 6.98756 6.82942
threshold=1.6505500078201296 1.0000000180025095e-35 0.10513500124216081 0.48124499619007116 13.755499839782717 6.4997501373291025 0.85099500417709362 2.3870500326156621 1.5396000146865847 0.71546000242233287 0.61062499880790722 3.2670500278472905 0.044771499931812293 0.45024499297142034 0.78590500354766857 -1.4320500493049619 4.2715499401092538 1.8436500430107119 0.49975499510765081 3.4390000104904179 0.56425499916076671 0.022360499948263172 0.28645500540733343 0.032296499237418182 7.0241498947143564 0.32261499762535101 0.15020499378442767 -1.0397500395774839 0.88573500514030468 0.86224499344825756
decision_type=2 2 2 2 2 2 2 2 2 2 2 2 2 2 2 2 2 2 2 2 2 2 2 2 2 2 2 2 2 2
left_child=3 5 4 9 10 6 -2 -4 11 14 19 15 17 -9 23 20 -11 -10 -7 -3 -5 -19 29 24 -1 -13 -27 -21 -29 -23
right_child=1 2 7 8 -6 18 -8 13 12 16 -12 25 -14 -15 -16 -17 -18 21 -20 27 -22 22 -24 -25 -26 26 -28 28 -30 -31
leaf_value=0.014718614718614721 -0.037022244411161039 -0.015376756066411241 -0.0034570995874458194 -0.016487455197132617 -0.032781673679289386 -0.030421299447848122 -0.024271844660194178 -0.0045569620253164559 -0.023492063492063495 -0.012929007992477669 -0.026491904394757133 -0.021754385964912283 -0.0089413447782546503 -0.02523483117542524 -0.014586894586894586 0.0063680176977166788 -0.028779599271402553 -0.0010582010582010583 -0.038070217339383809 -0.027722036417688591 0.019072485391023252 -0.01935483870967742 0.081212121212121222 -0.0040086339808819002 0.11111111111111112 0.011189913317572893 -0.011386861313868613 -0.01313939393939394 -0.024624211130235229 0.075555555555555556
leaf_count=154 6009 6525 6383 186 14260 4407 12360 790 105 5672 12970 475 3728 2626 2340 8438 1098 126 29309 4485 2681 62 110 10810 27 846 685 2750 2905 30
internal_value=0 -0.284335 -0.230069 -0.0292586 -0.260485 -0.340277 -0.284428 -0.0938191 0.0384615 -0.0881217 -0.228086 0.0699672 -0.0623248 -0.204528 -0.0541595 0.0900487 -0.154998 0.170901 -0.370704 -0.19942 0.167655 0.300813 0.49505 -0.0346344 0.290976 -0.0432037 0.0108861 -0.228797 -0.190392 0.115942
internal_count=143352 105779 53694 37573 43895 52085 18369 9799 17472 20101 29635 13311 4161 3416 13331 11305 6770 433 33716 16665 2867 328 202 10991 181 2006 1531 10140 5655 92
shrinkage=0.1


Tree=2
num_leaves=31
num_cat=0
split_feature=46 61 61 73 67 46 13 45 10 9 83 108 2 111 58 75 88 13 16 71 58 15 109 47 95 112 46 25 4 29
split_gain=287.622 108.925 82.6365 58.9659 39.7347 35.7476 29.661 25.4159 26.5534 17.0411 17.2145 16.8014 15.6714 15.5739 13.9734 13.3118 11.8734 11.6719 11.3384 11.1443 10.9427 10.8805 10.8456 13.1584 10.4854 10.4122 10.3086 9.93404 9.8598 9.67902
threshold=0.25030000507831579 0.7493950128555299 0.58037501573562633 0.38375499844551092 1.3500500321388247 4.1239500045776376 2.4998500347137456 0.81100499629974376 0.33522500097751623 0.74394500255584728 1.9231500029563906 0.65155500173568737 2.7129499912261967 0.95812499523162853 1.3598999977111819 0.99201500415802013 0.32976499199867254 2.5695500373840336 19.16250038146973 1.303149998188019 1.0000000180025095e-35 1.9570500254631045 0.88288497924804699 0.94781500101089489 0.94376498460769664 0.3181349933147431 -1.3906499743461607 0.37567499279975897 1.1938499808311465 0.93097501993179332
decision_type=2 2 2 2 2 2 2 2 2 2 2 2 2 2 2 2 2 2 2 2 2 2 2 2 2 2 2 2 2 2
left_child=1 3 6 7 20 9 -2 8 21 -4 -11 -7 28 -12 18 19 -13 -15 -6 -10 -3 -1 23 24 -18 -26 -16 -20 -9 -24
right_child=2 4 5 -5 14 11 -8 12 15 10 13 16 -14 17 26 -17 22 -19 27 -21 -22 -23 29 -25 25 -27 -28 -29 -30 -31
leaf_value=-0.00078139534883720939 0.005597416576964478 0.027410289667099009 0.01698981077147016 -0.0049010560853070852 0.018283193941663545 -0.0048000000000000004 0.019813717188823035 -0.02847399829497016 0.012182020877673052 0.01951014695591323 0.042329501915708813 0.022792452830188679 0.0032884902840059796 0.015885947046843176 0.0068965517241379309 -0.00024857071836937612 0.027065337763012183 0.031343154992676835 0.045272825499729878 0.021847102743061193 0.0068505607759927261 0.010196438125812123 0.037172312223858618 0.023425724869076514 0.040063567739372273 0.0033794162826420895 0.033235889363615927 -0.049462365591397855 -0.00023391812865497077 0.02804018593492278
leaf_count=5375 7432 771 11450 13004 8011 375 8267 782 6578 7145 2175 5300 4906 1964 435 1341 4515 3869 617 6161 6598 4361 10185 7829 4195 217 4447 31 570 4446
internal_value=0 0.0898085 0.23695 0.042868 0.186514 0.263117 0.130836 0.0825963 0.106931 0.217444 0.253371 0.295901 -0.0100138 0.305361 0.239027 0.152273 0.299416 0.261386 0.199638 0.168564 0.0900167 0.0413585 0.311488 0.283122 0.325977 0.382593 0.30889 0.407407 -0.16568 0.343973
internal_count=143352 63988 79364 43078 20910 63665 15699 30074 23816 26603 15153 37062 6258 8008 13541 14080 36687 5833 8659 12739 7369 9736 31387 16756 8927 4412 4882 648 1352 14631
shrinkage=0.1


Tree=3
num_leaves=31
num_cat=0
split_feature=48 67 59 81 112 68 78 15 96 15 78 88 111 2 36 83 62 48 39 50 96 112 6 28 100 72 83 15 7 6
split_gain=96.6965 25.3339 17.0658 13.6543 12.6176 11.3047 10.7011 9.5298 9.40869 7.8412 7.40107 6.51249 5.72264 5.66945 8.84242 8.68454 5.66514 5.60952 6.16525 8.013 6.32713 5.72171 5.7507 5.58976 6.41071 6.36127 6.04771 6.48591 7.87974 6.98094
threshold=1.5059500336647036 1.2500500082969668 0.79220500588417064 0.067024499177932753 -0.85096499323844899 1.6340499520301821 -1.454549968242645 0.85836499929428112 -0.80902498960494984 0.81883502006530773 -1.332050025463104 1.6165000200271609 0.95439499616622936 3.9649499654769902 6.7955000400543222 6.1108999252319345 9.1181497573852557 4.2644999027252206 1.568650007247925 7.2279000282287607 -0.57939499616622914 -0.89811000227928151 0.31015500426292425 0.76273500919342052 3.0424499511718754 1.2868500351905825 1.2247499823570254 2.9224499464035039 0.55444499850273143 0.2741950005292893
decision_type=2 2 2 2 2 2 2 2 2 2 2 2 2 2 2 2 2 2 2 2 2 2 2 2 2 2 2 2 2 2
left_child=1 7 9 5 8 10 11 -1 -5 -3 -2 -4 -6 14 15 -13 -9 18 -10 20 21 22 -20 24 -11 -26 -25 -28 29 -29
right_child=3 2 6 4 12 -7 -8 16 17 23 -12 13 -14 -15 -16 -17 -18 -19 19 -21 -22 -23 -24 26 25 -27 27 28 -30 -31
leaf_value=-0.00037664783427495291 -0.0080744186046511623 0.00596931659693166 -0.0070600632244467859 -0.0043810239078733255 -0.01440888499196259 -0.01809589925341323 -0.012102016154677861 -0.0074218856041480029 0.0022764227642276427 -0.0028800970137941493 -0.014681953529811729 0.052427184466019419 0.043478260869565216 -0.0041275797373358349 -0.041509433962264156 0.0030303030303030307 0.0011263073209975866 -0.048888888888888891 0.026172839506172843 0.13650793650793652 -0.0046511627906976744 0.12727272727272729 0.12 0.054166666666666669 -0.011817168338907469 -0.040000000000000008 -0.0057488653555219371 0.019354838709677413 0.0060606060606060615 0.12727272727272729
leaf_count=17877 5375 2390 7592 2663 4562 27369 26205 12279 205 2199 28434 206 46 533 53 176 2486 30 135 21 86 22 20 64 1196 260 661 31 143 33
internal_value=0 -0.0632036 -0.0898535 -0.148088 -0.083697 -0.156287 -0.104645 -0.029124 -0.00460926 -0.0161483 -0.136315 -0.0545171 -0.13831 0.0716253 0.209962 0.296684 -0.0598262 0.196532 0.238582 0.394366 0.316857 0.493409 0.382796 -0.0556646 -0.0844505 -0.168498 0.0572246 0.0215054 0.273752 0.75
internal_count=143352 74384 41742 68968 7790 61178 34765 32642 3182 6977 33809 8560 4608 968 435 382 14765 519 489 284 263 177 155 4587 3655 1456 932 868 207 64
shrinkage=0.1


Tree=4
num_leaves=31
num_cat=0
split_feature=17 94 13 97 17 59 0 87 57 79 1 29 72 16 75 87 94 8 38 10 104 13 105 38 71 40 44 16 7 4
split_gain=227.049 87.9763 32.9136 22.4917 14.85 12.7632 12.4809 11.9588 11.4074 11.3267 10.2695 9.14665 8.35029 9.08126 9.32451 9.12732 8.41728 8.28489 8.36584 8.26829 10.9832 8.2174 9.33854 8.87367 8.6054 8.21483 8.14674 8.12726 8.07817 8.48764
threshold=1.9771000146865847 -1.9175000190734861 0.25202000141143804 0.053684499114751823 2.1053999662399296 0.94354498386383068 1.2373500466346743 1.1073499917984011 0.35989500582218176 0.98250499367713939 2.1438499689102177 0.78616499900817882 2.1115499734878544 20.401999473571781 1.1125000119209292 4.2163500785827646 -1.4364500045776365 0.91224500536918651 -1.5997499823570249 0.8129200041294099 0.59975498914718639 2.9072500467300419 0.30235500633716589 -0.38598001003265375 1.303149998188019 -0.22140999883413312 0.95206499099731456 5.0447499752044687 0.78698498010635387 1.6065500378608706
decision_type=2 2 2 2 2 2 2 2 2 2 2 2 2 2 2 2 2 2 2 2 2 2 2 2 2 2 2 2 2 2
left_child=1 11 27 8 5 -4 10 -6 -3 26 19 -1 13 14 16 -16 -9 18 -8 -7 -21 22 -15 -24 -23 -20 -5 -2 -27 -30
right_child=2 3 4 9 7 6 17 12 -10 -11 -12 -13 -14 21 15 -17 -18 -19 25 20 -22 24 23 -25 -26 28 -28 -29 29 -31
leaf_value=-0.00771635211319444 0.048457014617052874 0.011560923504851781 0.022911893215017097 0.0096211627936184253 0.01091201525051232 0.0085931600630157184 0.098433619952573104 0.0025281547356581086 0.018574100812582147 0.0019214317064286512 0.054455946375253764 0.0065716659105964116 0.02876868854430388 -0.014465047659966441 0.034223967947051279 0.098626991448504314 0.020922886003570566 0.027625274716218021 -0.017812297978187008 0.01120547334977698 0.14730364333045895 0.095797759414843309 0.11744008449856924 0.018803356974946717 -0.009972349645166188 0.04684388836442846 -0.0069588965859793007 -0.0072396120750214572 0.01521699567480079 0.046586676943893568
leaf_count=8795 74 38272 11991 19773 3182 1059 65 670 7283 8563 173 1383 3534 60 442 66 30155 2081 64 37 27 21 47 49 562 1957 817 1221 536 393
internal_value=0 0.0850811 0.216615 0.104291 0.222376 0.260377 0.318879 0.204386 0.126833 0.0690019 0.176782 -0.0576811 0.212901 0.204651 0.208842 0.425969 0.205236 0.355016 0.409299 0.12012 0.686487 0.0268934 0.35754 0.67117 -0.0616181 0.396617 0.0896445 -0.0405934 0.409351 0.284846
internal_count=143352 84886 58466 74708 57171 18383 6392 38788 45555 29153 1296 10178 35606 32072 31333 508 30825 5096 3015 1123 64 739 156 96 583 2950 20590 1295 2886 929
shrinkage=0.1


Tree=5
num_leaves=31
num_cat=0
split_feature=17 21 97 34 11 11 66 17 72 104 66 13 15 17 111 62 17 61 78 110 52 14 12 73 16 61 62 47 1 25
split_gain=614.877 124.276 58.2592 50.4531 46.0665 25.5563 21.2947 18.0245 15.3716 14.0231 13.2495 11.8683 10.1222 10.1004 9.77926 9.71603 9.00552 8.49481 8.6223 8.58462 8.3922 8.28745 7.93543 7.9597 8.51074 7.85669 7.8312 7.60101 7.29685 7.28721
threshold=1.6505500078201296 1.4620999693870547 0.13079499453306201 0.48124499619007116 7.486649990081788 18.198499679565433 0.70563998818397533 1.5396000146865847 0.7233949899673463 0.49975499510765081 0.26982000470161444 3.3882499933242802 3.2670500278472905 1.8741000294685366 0.77365499734878551 3.4058500528335576 1.738600015640259 0.5680450201034547 -1.6736499667167661 -0.31717999279499048 4.2715499401092538 2.0396499633789067 0.92433500289917003 1.0000000180025095e-35 19.39949989318848 0.78590500354766857 2.2273499965667729 1.0000000180025095e-35 1.3267499804496767 0.37470500171184545
decision_type=2 2 2 2 2 2 2 2 2 2 2 2 2 2 2 2 2 2 2 2 2 2 2 2 2 2 2 2 2 2
left_child=3 4 5 8 6 10 14 12 25 -6 -3 29 22 -11 -2 16 21 18 19 -12 -10 -8 23 24 -5 -1 -9 -25 -24 -4
right_child=1 2 11 7 9 -7 15 26 20 13 17 -13 -14 -15 -16 -17 -18 -19 -20 -21 -22 -23 28 27 -26 -27 -28 -29 -30 -31
leaf_value=-0.0032631582463310675 2.5548191794247374e-05 -0.026546088025536197 3.6991263916783852e-05 0.0031656341504217866 -0.028066158514417783 -0.031083077438749697 0.016740790816090211 0.0064687688726403252 -0.012159976083877871 -0.030104149950123393 0.055159862731066482 -0.028444201980874419 -0.0040682883388124596 -0.037293493214951033 -0.033574182336757734 -0.025968188601641795 -0.020603486353573498 -0.019016758182301155 -0.011814313460119512 -0.022324085404740041 -0.027950281342746543 -0.016181415221593942 0.038881876364902562 0.09787446790055028 0.046142401512714558 -0.013693182947868169 -0.0098444661881573504 0.014251361549438266 -0.0018492171072469099 -0.023771076450195869
leaf_count=11031 240 5076 4927 3375 7569 6419 349 1058 5624 6599 104 487 2006 27772 8968 13104 7251 12300 3675 61 1089 507 123 29 127 2357 3103 5364 2287 371
internal_value=0 -0.270832 -0.187939 -0.0267998 -0.309356 -0.219544 -0.260589 0.0372444 -0.0828554 -0.34491 -0.192072 -0.0386544 0.0664197 -0.359114 -0.326901 -0.231924 -0.187173 -0.169023 -0.101625 0.265077 -0.147015 -0.0277206 0.0852911 0.107753 0.0472416 -0.0508863 -0.0569408 0.14701 0.00232016 -0.0162728
internal_count=143352 105779 33420 37573 72359 27635 30419 17472 20101 41940 21216 5785 13311 34371 9208 21211 8107 16140 3840 165 6713 856 11305 8895 3502 13388 4161 5393 2410 5298
shrinkage=0.1


Tree=6
num_leaves=31
num_cat=0
split_feature=17 98 17 17 9 48 101 29 101 107 26 11 52 45 6 28 29 0 9 7 93 104 5 86 5 22 1 27 27 51
split_gain=533.24 110.843 50.5691 46.1383 37.0628 20.8725 18.479 16.5405 13.5801 12.3287 11.8543 11.6739 10.8625 10.8416 10.1976 11.0991 10.0921 9.8037 9.47164 9.1178 9.07416 9.0057 8.92865 8.83921 9.43179 8.83708 8.55048 10.4371 11.4567 9.37409
threshold=1.6505500078201296 0.097573500126600279 1.8116500377655032 1.1504999995231631 0.73334500193595897 1.7457500100135805 1.8034000396728518 0.95765000581741344 1.8034000396728518 0.98828500509262096 0.73293000459671032 4.4108500480651864 4.8415000438690194 0.01219649985432625 0.3395449966192246 0.908044993877411 0.8755750060081483 1.2897500395774844 0.83558499813079845 0.37398999929428106 0.91138499975204479 0.5654599964618684 -0.86996999382972706 -0.57541501522064198 1.0453500151634219 0.017527000047266487 1.4016500115394595 0.94651499390602123 0.84916999936103832 1.0338500142097475
decision_type=2 2 2 2 2 2 2 2 2 2 2 2 2 2 2 2 2 2 2 2 2 2 2 2 2 2 2 2 2 2
left_child=3 2 9 21 8 -5 12 10 26 19 -8 -3 13 -6 15 16 -14 -15 -18 25 -10 -1 -17 24 -12 -2 -4 28 -28 -30
right_child=1 11 4 5 6 -7 7 -9 20 -11 23 -13 14 17 -16 22 18 -19 -20 -21 -22 -23 -24 -25 -26 -27 27 -29 29 -31
leaf_value=0.006069461800557948 0.045098204216654669 0.0021431911029037593 0.04120995036428899 -0.0053923187528978249 -0.0027935076997078457 0.012811328064682477 0.017964637637206168 0.0024803176508376027 0.01795771994318994 -0.0035424786732075847 0.026262874209476574 0.012135597504863302 0.038805819423759484 0.036271553912447095 0.06431668597654111 0.10138760448935745 0.056174683831833751 0.027005879496110836 0.1363592206578276 0.015567782971677805 0.0033942353935272635 0.017771726528435838 0.029029702059665416 0.033749826905587345 0.0052814394422501026 -0.0027944404866495089 0.016751074852057183 0.018744734139421876 0.015132640818603375 0.030495651457991498
leaf_count=7150 506 6138 677 26339 288 1776 4285 883 8264 866 6902 6250 3769 3808 304 45 167 13953 50 14688 1306 2308 5587 4312 613 127 2807 9735 1196 8253
internal_value=0 0.216731 0.235765 -0.00911462 0.253 -0.042325 0.282999 0.24085 0.211002 0.153257 0.252672 0.0720132 0.308548 0.284888 0.351521 0.342304 0.407593 0.289918 0.746497 0.16389 0.159722 0.089249 0.296075 0.279109 0.245529 0.354754 0.232607 0.227083 0.258557 0.28554
internal_count=143352 105779 93391 37573 77204 28115 44966 16995 32238 16187 16112 12388 27971 18049 9922 9618 3986 17761 217 15321 9570 9458 5632 11827 7515 633 22668 21991 12256 9449
shrinkage=0.1


Tree=7
num_leaves=31
num_cat=0
split_feature=17 17 112 66 90 86 14 17 93 29 2 112 32 46 4 108 93 66 90 46 30 25 33 50 66 54 105 22 108 70
split_gain=170.761 28.5917 25.9006 16.2614 14.5058 12.7704 9.47941 8.68501 8.30494 7.13571 6.80571 7.16589 8.08905 10.6548 6.8046 6.59541 6.57716 6.4448 6.39013 6.47056 6.25103 6.22697 6.13418 8.81326 7.76726 6.2422 7.0583 6.11347 7.36576 8.14845
threshold=1.8116500377655032 1.9771000146865847 -1.5045999884605405 0.6627049744129182 0.86172500252723705 1.8431999683380129 2.3131999969482426 2.0206999778747563 0.80366498231887828 0.86010497808456432 2.6109499931335454 -0.76067000627517689 -0.64645001292228688 -0.024692500010132786 2.5743999481201176 0.84027498960495006 0.85372501611709606 0.93881499767303478 11.948999881744387 0.7983900010585786 4.956749916076661 0.41667500138282781 0.28696499764919287 0.08392649888992311 0.5220949947834016 -1.4173499941825864 0.29425500333309179 -0.82513499259948719 0.80544501543045055 1.6818500161170962
decision_type=2 2 2 2 2 2 2 2 2 2 2 2 2 2 2 2 2 2 2 2 2 2 2 2 2 2 2 2 2 2
left_child=3 8 -3 5 7 9 20 -4 10 18 -2 -12 13 -13 15 27 -17 -9 -1 -20 22 -10 23 24 -7 26 -25 -5 29 -29
right_child=1 2 4 14 -6 6 -8 17 21 -11 11 12 -14 -15 -16 16 -18 -19 19 -21 -22 -23 -24 25 -26 -27 -28 28 -30 -31
leaf_value=0.00070564734954651695 -0.021220189947081657 -4.1787896198110302e-05 -0.021240227903380121 -0.005777646364029213 -0.02008349401826387 -0.0018816025273068544 0.04542816503631452 -0.010545994828329873 -0.011811871981044525 -0.0059352422438582134 0.0043723856362911928 0.10682297448781075 -0.010042743239054984 -0.001656526430386625 -0.030133654729020222 -0.020639202405620252 -0.0058482119202714899 -0.015764944961285113 0.01983770284793859 0.11259307348245129 0.062603408303621641 0.0085090001567776543 -0.0057403972895298597 0.015654657497143534 0.078991255993822715 0.020282704586314412 0.10974124158504234 0.0018941692448214292 0.01230926916450612 -0.018041255889220051
leaf_count=14908 574 2478 4726 4638 25013 809 203 10857 22628 5303 2260 37 2537 70 288 837 22131 15392 127 24 56 413 680 39 33 670 47 3472 1449 653
internal_value=0 -0.143355 -0.16414 -0.0276167 -0.171424 0.00593722 0.115285 -0.147706 -0.100808 -0.00769761 -0.0435449 -0.0238095 -0.0817774 0.358559 -0.0506437 -0.048469 -0.0638717 -0.136044 0.0104415 0.345367 0.0858385 -0.114476 0.0725943 0.127925 0.0129009 0.25601 0.670706 -0.0138637 0.0226654 -0.0125878
internal_count=143352 86985 58466 56367 55988 22899 2537 30975 28519 20362 5478 4904 2644 107 33468 33180 22968 26249 15059 151 2334 23041 2278 1598 842 756 86 10212 5574 4125
shrinkage=0.1


Tree=8
num_leaves=31
num_cat=0
split_feature=94 59 75 48 112 75 75 52 109 12 73 63 83 9 112 76 29 0 1 90 79 60 56 97 38 65 48 82 32 97
split_gain=137.72 50.2326 27.2337 16.5408 12.7097 11.06 11.608 10.1242 11.5853 9.83341 9.57155 9.40838 9.09178 9.05865 8.68709 12.0266 9.66545 8.58647 8.54862 8.46203 8.25832 8.22815 7.98864 7.7081 8.19376 8.47283 7.74395 7.52638 7.50982 7.43752
threshold=-1.9175000190734861 0.89044499397277843 0.97686499357223522 1.5359500050544741 -0.17876499891281125 1.1125000119209292 0.97761499881744396 1.1547999978065493 0.57958498597145092 0.91194498538970958 0.45826999843120581 0.95492500066757213 2.1769499778747563 0.71320497989654552 -1.564750015735626 0.91753500699996959 0.89750498533248912 1.1564499735832217 2.8286499977111821 4.2411499023437509 0.92019498348236095 0.90506500005722057 0.50873500108718883 0.054581999778747566 -1.783250033855438 1.1720499992370608 0.80653500556945812 2.1965999603271489 2.6115499734878544 0.09653350338339807
decision_type=2 2 2 2 2 2 2 2 2 2 2 2 2 2 2 2 2 2 2 2 2 2 2 2 2 2 2 2 2 2
left_child=-1 2 4 14 10 6 9 8 18 21 -2 -11 -10 -14 28 -16 -17 -8 20 -19 -6 -5 -18 24 25 -4 27 -26 -3 -24
right_child=1 3 23 5 7 -7 17 -9 12 11 -12 -13 13 -15 15 16 22 19 -20 -21 -22 -23 29 -25 26 -27 -28 -29 -30 -31
leaf_value=-0.0053217795809549053 0.011607954042316012 -0.0042092000956858566 0.0030394253683703257 0.021796319694771381 0.023992643717043193 0.035229242784751862 0.0065951927484307884 0.015574393380619564 -0.0019391610948469818 0.011780995562425149 -0.0032276988370249569 0.020859259007752481 0.027021258203707849 0.11119204171541919 0.028958595074658117 0.011754165406766732 0.012806227386767273 0.015635806163618961 0.10463365454384593 0.027012095711357115 0.075176004476573965 0.032290474853756551 0.021592498621974147 0.0013177103909370778 0.0010227947026102402 0.098318705386101976 0.013382701054051777 0.079924965496937325 0.076937630907983112 0.10363998271528496
leaf_count=10402 25705 903 45 10004 223 999 2470 6813 310 4764 1203 7883 692 35 1405 21353 4472 18677 69 1873 129 2397 5382 8832 2869 54 3297 32 31 29
internal_value=0 0.142369 0.101956 0.16679 0.126572 0.18563 0.182114 0.182002 0.3039 0.206098 0.10951 0.174441 0.212035 0.310732 0.139117 0.1435 0.136912 0.155933 0.528863 0.16673 0.427229 0.238294 0.178644 0.0442491 0.0875223 0.550364 0.0801335 0.0189768 -0.0151295 0.22031
internal_count=143352 132950 50308 82642 35179 49067 48068 8271 1458 25048 26908 12647 1037 727 33575 32641 31236 23020 421 20550 352 12401 9883 15129 6297 99 6198 2901 934 5411
shrinkage=0.1


Tree=9
num_leaves=31
num_cat=0
split_feature=17 53 9 34 13 13 66 64 13 53 61 14 17 13 73 111 15 61 88 109 13 105 73 98 70 35 56 40 98 59
split_gain=555.113 106.482 74.7341 45.4608 29.1494 25.8997 21.5243 19.3181 19.2845 13.1205 11.3844 10.1074 9.52136 9.50354 9.23514 9.20789 8.63558 8.24594 8.1951 8.04242 7.92781 7.74855 7.71868 7.66293 8.02235 10.8229 8.68587 7.96031 7.83519 10.0657
threshold=1.6505500078201296 1.0000000180025095e-35 0.68089500069618236 0.48124499619007116 2.2341500520706181 2.8471499681472783 0.77022001147270214 2.8717499971389775 4.7063498497009286 1.0000000180025095e-35 0.032727999612689025 2.2631499767303471 1.9771000146865847 3.6160500049591069 0.22226499766111377 0.70067501068115245 1.7943999767303469 0.79052501916885387 0.38599500060081487 0.7011849880218507 3.0913499593734746 0.28270499408245092 0.49861998856067663 0.035414500162005431 -1.3241500258445738 1.8582499623298647 1.4452499747276308 0.36632500588893896 0.29098999500274664 0.47049500048160559
decision_type=2 2 2 2 2 2 2 2 2 2 2 2 2 2 2 2 2 2 2 2 2 2 2 2 2 2 2 2 2 2
left_child=3 5 4 9 19 6 15 20 12 14 -11 22 16 18 -1 -2 -4 -12 -6 -3 23 -18 -9 -5 25 27 -27 -25 29 -26
right_child=1 2 8 7 13 -7 -8 11 -10 10 17 -13 -14 -15 -16 -17 21 -19 -20 -21 -22 -23 -24 24 28 26 -28 -29 -30 -31
leaf_value=0.0094704833744932229 0.017894737396936044 -0.0021025681550165937 -0.018625720571519188 0.0013728118343735508 -0.0060719468997584517 -0.034115115683276159 -0.022616077769933674 -0.0021872136339975783 -0.033144840981636468 0.018290585893181877 -0.0054583083798767241 -0.017995043788057691 -0.026666076704171812 -0.025453743742538504 -0.022967211640249903 -0.034993703736437037 -0.0076831685385030631 -0.015246596044501362 -0.018862476446435454 -0.011850745443833684 -0.024451046388921094 -0.033869011113064472 0.047442611725001409 0.020241098912049244 0.034521534499208861 0.029049138626300763 0.11546611568168255 -0.0038858059747617427 -0.0082909549288276083 0.0071502978803605266
leaf_count=266 91 5664 12053 4198 1987 32171 13278 2816 7019 489 14433 1320 12647 3712 2130 6545 370 2783 4439 3856 217 1947 85 802 382 852 32 657 794 5317
internal_value=0 -0.257758 -0.206082 -0.0251525 -0.1252 -0.311714 -0.26462 0.0355009 -0.253449 -0.0785795 -0.0632374 -0.0609219 -0.233352 -0.187407 -0.193236 -0.342503 -0.204129 -0.0702681 -0.148963 -0.0601603 0.0659948 -0.296863 -0.00712942 0.0711099 0.0983046 0.179754 0.321638 0.0937798 0.0687413 0.0898776
internal_count=143352 105779 53694 37573 19658 52085 19914 17472 34036 20101 17705 4221 27017 10138 2396 6636 14370 17216 6426 9520 13251 2317 2901 13034 8836 2343 884 1459 6493 5699
shrinkage=0.1


Tree=10
num_leaves=31
num_cat=0
split_feature=61 46 48 11 73 67 88 52 81 52 79 8 8 33 11 77 13 66 48 50 49 104 105 111 8 112 105 11 111 4
split_gain=211.863 72.2121 68.1473 38.2324 36.8122 34.9025 18.1301 15.7609 15.4821 16.9539 14.1914 18.091 14.0565 13.4226 13.3534 12.9771 12.4455 10.6854 12.7637 10.6141 10.5654 10.5013 9.90188 9.87377 11.2717 9.58662 9.50402 9.44222 9.29254 9.25683
threshold=0.6725749969482423 4.1239500045776376 1.6332499980926516 50.569499969482429 0.39552499353885656 1.3500500321388247 0.76151499152183544 6.6970999240875253 0.060062499716877944 4.1993498802185067 0.98681500554084789 0.55443501472473156 0.62197998166084301 0.4489199966192246 5.1024000644683847 0.96465498208999645 2.4998500347137456 0.11836499720811845 0.23956999927759173 0.11877500265836717 2.8192499876022343 0.55100500583648693 0.28985500335693365 0.9792349934577943 0.88692498207092296 0.064365498721599593 0.41995500028133398 24.610500335693363 0.95401501655578624 1.344250023365021
decision_type=2 2 2 2 2 2 2 2 2 2 2 2 2 2 2 2 2 2 2 2 2 2 2 2 2 2 2 2 2 2
left_child=2 3 4 5 7 6 -2 10 9 15 11 -1 -3 22 -8 17 29 -7 -19 -13 -15 26 -11 24 -22 -5 -14 -12 -20 -4
right_child=1 12 16 25 -6 8 14 -9 -10 13 27 19 21 20 -16 -17 -18 18 28 -21 23 -23 -24 -25 -26 -27 -28 -29 -30 -31
leaf_value=-0.0020609638789629392 0.0043649595516925561 -0.0022924566703647125 0.01609724870823219 0.039843065441110388 -0.0059273601194192562 0.026722195375802633 0.0078452648391591599 0.017908970223596502 0.0032865727628294118 0.037649941487987296 -0.0021538682795306913 -0.0021556649890785312 0.020631883065591772 0.011841850776303696 0.022209776433467564 0.0099242916703902537 0.018064823207405399 0.003387822323389464 0.023918051189347787 0.011543266820156226 0.028374900017446848 0.027688427314750699 0.024217685036610488 -0.014802138247873887 0.077254548975890347 0.0054192351076412237 0.053391653194956847 0.03346785326083742 0.013665915396539561 0.0039998262660305489
leaf_count=4401 9801 474 2972 2031 9496 3248 3301 2569 1797 1858 7582 1706 9567 3239 3499 6524 11719 1713 4408 12354 599 23069 5951 103 153 233 234 200 4792 3759
internal_value=0 0.195905 0.0686845 0.158871 0.0293098 0.149705 0.0884559 0.0580614 0.178852 0.186858 0.0461273 0.0705976 0.254319 0.235144 0.152644 0.158899 0.149054 0.186251 0.16205 0.0989366 0.160443 0.258233 0.274163 0.319555 0.38352 0.363063 0.214147 -0.0122607 0.18577 0.0934257
internal_count=143352 86594 56758 53250 38308 50986 16601 28812 34385 32588 26243 18461 33344 11903 6800 20685 18450 14161 10913 14060 4094 32870 7809 855 752 2264 9801 7782 9200 6731
shrinkage=0.1


Tree=11
num_leaves=31
num_cat=0
split_feature=48 71 48 81 66 74 76 22 9 95 42 37 87 94 54 56 6 74 58 110 50 20 87 13 57 46 65 82 25 54
split_gain=76.4758 19.4712 11.9708 11.2763 10.9653 9.45829 8.85352 9.2889 8.59982 7.55259 7.09252 8.62002 7.17686 7.35466 10.9094 7.06813 7.14953 6.98724 8.17775 6.93473 6.66127 6.65229 8.75636 6.30746 6.21036 6.19625 6.76516 6.35912 6.1371 6.15037
threshold=1.5059500336647036 1.2558500170707705 0.13432499766349795 0.067024499177932753 0.086641501635313048 0.36272999644279486 0.94604498147964489 0.69268000125885021 0.69212502241134655 0.96671497821807872 0.51403999328613292 5.1785500049591073 1.1582500338554385 2.0662500858306889 -0.55469501018524159 0.72309002280235302 0.30971500277519232 0.27466998994350439 0.91028499603271495 -0.97239500284194935 0.90407001972198497 3.9383499622344975 1.4712499976158144 4.6231498718261728 0.38858500123023992 9.8572497367858904 -3.5924000740051265 -0.082559999078512178 0.27892500162124639 6.2437999248504648
decision_type=2 2 2 2 2 2 2 2 2 2 2 2 2 2 2 2 2 2 2 2 2 2 2 2 2 2 2 2 2 2
left_child=1 20 4 5 -3 17 8 21 19 -6 11 15 13 24 -15 16 -4 25 -19 -5 23 -8 -23 -1 -12 -2 27 -27 -14 -30
right_child=3 2 10 6 9 -7 7 -9 -10 -11 12 -13 28 14 -16 -17 -18 18 -20 -21 -22 22 -24 -25 -26 26 -28 -29 29 -31
leaf_value=-0.00092118307923597033 -0.01063335623820414 -0.015333231420440189 0.0028572641880471425 -0.020087983552567246 0.0035465424272250559 -0.016102308265119526 0.017183367578168934 -0.03614833981633208 0.020613931462273111 -0.0067205818783183466 -0.0046816202706127987 0.065739735383413336 -0.019980420983351871 0.12858359467174485 -0.016396450825885228 -0.010358455657285577 -0.012639179685729064 0.086064018513031526 -0.040306579591492468 -0.0070014909267592188 -0.0070485322171570611 0.12757241942803474 0.011592776247821757 -0.010760263470242403 0.053442423944947783 -0.019393144004858157 -0.016581214139864024 0.020889763704432917 -0.011287504392446962 0.054998545379334511
leaf_count=25873 23116 1638 3014 1349 4794 28405 167 62 265 3218 1134 45 2436 29 27 5230 1090 41 21 5876 7652 40 31 1876 52 181 9155 259 16238 38
internal_value=0 -0.0553494 -0.0807189 -0.131382 -0.0306381 -0.138939 -0.0725332 0.203435 -0.0836515 -0.00572817 -0.0972621 -0.0600529 -0.114812 0.00608731 0.587304 -0.0635045 -0.0125989 -0.119879 0.432471 -0.0943504 -0.0276005 0.350576 0.770364 -0.0158421 -0.0213987 -0.120928 -0.156196 0.0434575 -0.122855 -0.11133
internal_count=143352 74384 38983 68968 9650 61178 7790 300 7490 8012 29333 9379 19954 1242 56 9334 4104 32773 62 7225 35401 238 71 27749 1186 32711 9595 440 18712 16276
shrinkage=0.1


Tree=12
num_leaves=31
num_cat=0
split_feature=17 17 59 81 17 44 4 26 29 78 78 5 101 101 91 72 51 18 102 25 61 74 35 57 11 104 79 2 59 28
split_gain=176.794 64.3832 18.2891 18.153 11.7127 9.91627 10.0849 9.64339 10.4523 9.32272 9.27904 8.91895 8.6655 8.24735 8.59334 14.6783 8.20932 8.00605 7.90902 8.44923 7.85049 7.79278 7.71125 7.46892 7.4224 7.8392 7.24371 8.1417 8.5319 8.07811
threshold=1.9771000146865847 1.1504999995231631 0.87564498186111461 0.36240999400615698 2.1053999662399296 0.91536498069763195 1.1184499859809878 0.33810499310493475 0.039338000118732459 -1.7991000413894651 -1.5380499958992002 -0.32352501153945917 16.708499908447269 2.5218499898910527 0.42148499190807348 1.6340499520301821 1.7026500105857851 5.5000000000000009 -1.5977500081062315 0.38228499889373785 0.81888499855995189 1.8703500032424929 1.1094500422477724 0.35989500582218176 0.72436499595642101 1.29654997587204 0.97658500075340282 2.0111500024795537 0.94944500923156749 0.96243500709533703
decision_type=2 2 2 2 2 2 2 2 2 2 2 2 2 2 2 2 2 2 2 2 2 2 2 2 2 2 2 2 2 2
left_child=1 -1 10 4 5 -2 12 8 -5 -6 16 -10 -7 14 15 -12 -3 -11 19 -15 -8 -14 -13 -4 25 -19 -22 -28 29 -29
right_child=3 2 23 7 9 6 20 -9 11 17 13 22 21 18 -16 -17 -18 24 -20 -21 26 -23 -24 -25 -26 -27 27 28 -30 -31
leaf_value=-0.0056242523588558094 0.019981889516395214 0.0048748671292947292 0.0098497739909858828 0.11240151154495151 -0.032298983432069404 0.0026014269748083174 0.04156658032576703 0.0010124733530363728 0.10190386468859197 -0.0012045372986831922 0.014812509783600991 0.079168690642677175 0.097017764000837836 0.017792493176003166 0.0090651388863091896 0.078633465231964947 -0.0053335603534671525 -0.0047353581120217515 0.0019979274608026751 0.098049657833198189 0.042409816795438593 -0.014249412215916996 -0.0054344243583939536 0.015414511609896195 0.018426174063810457 0.027161289029943969 -0.019736868858280812 0.0018017314762401476 0.029062837076892278 0.073810718207623568
leaf_count=9458 12167 5971 37456 37 98 580 1214 2097 30 565 381 33 50 357 13216 123 3180 706 7217 38 645 24 168 7489 36406 277 106 517 2703 43
internal_value=0 0.0717015 0.0872006 0.186665 0.192402 0.226005 0.279844 0.0475878 0.33318 0.176449 0.0565487 0.20673 0.0919395 0.0749594 0.0985683 0.304819 0.0132533 0.177709 0.0321899 0.255151 0.303164 0.609248 0.0848866 0.107804 0.180564 0.0426948 0.269082 0.239345 0.253485 0.0736291
internal_count=143352 84886 75428 58466 56101 18049 5882 2365 268 38052 30483 231 654 21332 13720 504 9151 37954 7612 395 5228 74 201 44945 37389 983 4014 3369 3263 560
shrinkage=0.1


Tree=13
num_leaves=31
num_cat=0
split_feature=17 53 9 34 11 13 65 11 62 98 38 70 10 32 53 10 104 11 32 70 23 87 15 22 78 48 63 78 96 54
split_gain=504.875 98.8074 68.6326 40.8048 28.3296 26.4963 21.5397 18.4415 14.7789 13.616 12.7583 9.93502 9.69414 8.94985 8.34741 7.85995 7.71763 7.69302 7.63245 8.69828 8.70716 9.09064 7.21771 7.06592 6.97466 6.86944 6.79532 8.61399 7.17854 7.016
threshold=1.6505500078201296 1.0000000180025095e-35 0.68089500069618236 0.48124499619007116 6.237300157546998 3.4230500459671025 0.85099500417709362 14.548500061035158 7.0415501594543466 0.10728000104427339 -0.99774497747421254 -1.558649957180023 0.4760850071907044 1.4313499927520754 1.4175999760627749 0.38749499619007116 0.52905499935150158 -1.19335001707077 2.5388499498367314 -1.5860499739646909 1.1902499794960024 2.162449955940247 2.7073500156402592 -1.4293499588966367 -1.454549968242645 3.2027499675750737 0.90586501359939586 -1.1772499680519102 -1.7817500233650205 1.3230499625205996
decision_type=2 2 2 2 2 2 2 2 2 2 2 2 2 2 2 2 2 2 2 2 2 2 2 2 2 2 2 2 2 2
left_child=3 4 5 10 6 9 -2 22 26 -3 12 18 13 17 -12 25 -6 -1 -10 20 -20 -22 -4 -17 -8 -11 27 29 -28 -5
right_child=1 2 7 8 16 -7 24 -9 11 15 14 -13 -14 -15 -16 23 -18 -19 19 -21 21 -23 -24 -25 -26 -27 28 -29 -30 -31
leaf_value=0.026329113730444151 -0.032784150935847418 -0.012876958822978631 -0.020413425470249949 0.011979874995735516 -0.026462178302655376 -0.023341755958773958 -0.0090432814134352914 -0.029675736344047167 -0.013808660075884334 -0.0033539148541469801 -0.021008083391063932 -0.0093923069457640812 -0.0060747596630586261 0.032385928830422975 -0.0090958753151983325 -0.033947844162541325 -0.033686516890759514 -0.0018499548259151496 0.065484578541222957 0.095420921234171466 -0.0011726832680325682 0.061841262007609366 -0.030617876992474737 0.022851788399249763 -0.021740900533667059 -0.028655252187923082 0.057904923711750246 0.0031981103035690728 -1.4047397947843314e-05 0.042768958699325732
leaf_count=304 5833 8754 20493 4611 4909 4356 1368 11393 256 5686 1988 3237 7000 302 8698 68 29538 1809 78 38 456 70 2150 484 10437 310 58 4183 4282 203
internal_value=0 -0.245463 -0.19542 -0.0228927 -0.298107 -0.11768 -0.243504 -0.241335 0.034459 -0.0856144 -0.0737325 -0.0512895 -0.029669 0.0598475 -0.112763 -0.0291786 -0.326493 0.0220976 0.100085 0.194813 0.147488 0.0721619 -0.213809 0.158873 -0.202652 -0.0464317 0.0606677 0.0860747 0.00756591 0.132818
internal_count=143352 105779 53694 37573 52085 19658 17638 34036 17472 15302 20101 4135 9415 2415 10686 6548 34447 2113 898 642 604 526 22643 552 11805 5996 13337 8997 4340 4814
shrinkage=0.1


Tree=14
num_leaves=31
num_cat=0
split_feature=61 46 48 11 65 73 73 66 103 68 43 8 11 108 85 62 15 64 28 8 1 8 18 73 49 14 65 64 13 88
split_gain=181.02 64.9171 52.6259 36.9448 33.1832 31.0119 22.5855 17.4143 16.0537 14.81 13.2592 14.5383 13.0181 12.6015 12.2732 11.3111 10.5344 9.56035 9.26959 10.254 9.98335 9.7135 9.16449 9.12147 9.07071 8.64249 8.62621 8.44693 8.16525 8.13779
threshold=0.6592949926853181 4.1239500045776376 1.6148499846458437 -0.171204999089241 0.32344500720500952 0.39552499353885656 0.40891499817371374 1.9137499928474428 1.2911500334739687 7.7461998462677011 0.95404499769210827 0.55443501472473156 50.569499969482429 0.62147498130798351 1.0080500245094302 19.477499961853031 1.3968500494956972 4.5956499576568612 0.9473949968814851 0.79480499029159557 4.284950017929078 0.94095000624656688 11.500000000000002 0.40000499784946447 0.13971499353647235 1.2408500313758852 1.767550051212311 4.5036499500274667 1.0821999907493594 1.8994500041007998
decision_type=2 2 2 2 2 2 2 2 2 2 2 2 2 2 2 2 2 2 2 2 2 2 2 2 2 2 2 2 2 2
left_child=2 3 5 9 8 10 7 15 28 -2 11 -1 -10 -3 16 -6 -4 18 19 20 -15 29 -16 -17 -13 -23 -27 -12 -5 -20
right_child=1 13 14 4 6 -7 -8 -9 12 -11 27 24 -14 17 22 23 -18 -19 21 -21 -22 25 -24 -25 -26 26 -28 -29 -30 -31
leaf_value=0.00060794223802824825 -0.00066528058501241847 -0.01567413740597708 0.0074024198815913133 -0.0020283716958442856 0.0097570534814409478 -0.0058206631998074633 -0.0019991801381082238 0.02068579739136215 0.021548288502552845 0.05105498776870826 -0.0020719553321667723 -0.0032699693488353297 0.036879404078592783 0.014468226511495728 0.00011815655458615154 0.019351518856008415 0.018202554200900282 0.028194865789075475 0.010846212924192354 0.025837459753606781 0.055146865857648324 0.020030345132288258 0.015262298623289856 0.084944641448423452 0.011199135780322165 0.061508070734421098 0.022751230440750878 0.040111933064946294 0.015494098071842727 0.029510624021251278
leaf_count=6253 4689 219 3021 847 17412 9091 2668 6800 14551 147 6333 1256 1550 3414 2724 2813 10106 8525 4373 14478 161 1591 1677 56 13350 299 282 127 3854 685
internal_value=0 0.178897 0.0605728 0.14477 0.157491 0.025028 0.122956 0.136693 0.206495 0.00938561 0.052105 0.0719179 0.230459 0.233448 0.132625 0.113041 0.157147 0.235855 0.220304 0.239582 0.162991 0.17209 0.0588939 0.206203 0.0997233 0.261118 0.426964 -0.0123507 0.123847 0.133789
internal_count=143352 89414 53938 55387 50551 36410 29749 27081 20802 4836 27319 20859 16101 34027 17528 20281 13127 33808 25283 18053 3575 7230 4401 2869 14606 2172 581 6460 4701 5058
shrinkage=0.1


Tree=15
num_leaves=31
num_cat=0
split_feature=17 17 112 90 33 86 97 82 3 17 17 43 93 47 77 113 34 9 33 9 58 6 38 6 48 103 84 9 86 57
split_gain=141.415 24.2628 22.6718 13.003 12.336 12.4439 10.0589 10.0588 8.72034 8.31017 8.23667 7.05161 6.69837 7.89974 7.66602 6.35371 7.36013 9.35783 6.28775 6.40328 6.38961 7.06702 9.14169 7.48323 6.67544 6.32404 7.55218 6.3185 6.59507 6.25553
threshold=1.8116500377655032 1.9771000146865847 -1.5045999884605405 0.86172500252723705 0.64583000540733349 1.1668500304222109 0.77265000343322765 0.018793500028550628 -0.020562500692903992 1.738600015640259 2.0206999778747563 0.93648499250411998 0.80366498231887828 0.93226498365402233 0.98593500256538402 0.1767849996685982 0.3023850023746491 0.513614982366562 0.064307499676942839 -1.1960000395774839 1.4557500481605532 0.27981500327587133 -0.63027000427246083 0.27309499680995947 1.4987500309944155 1.3358500003814699 34.377500534057624 0.8049449920654298 -1.7332499623298643 0.41582499444484716
decision_type=2 2 2 2 2 2 2 2 2 2 2 2 2 2 2 2 2 2 2 2 2 2 2 2 2 2 2 2 2 2
left_child=4 12 -3 10 5 8 -6 -7 9 18 -4 15 -2 14 -14 29 17 -17 19 -1 21 22 25 27 -23 -20 -27 28 -24 -9
right_child=1 2 3 -5 6 7 -8 11 -10 -11 -12 -13 13 -15 -16 16 -18 -19 20 -21 -22 24 23 -25 -26 26 -28 -29 -30 -31
leaf_value=0.036457495975459074 -0.0037103079102346012 0.00061703397230741081 -0.019548343462727318 -0.018261118086741274 -0.0055724523058592384 0.0012559050121663049 0.0080832345597961139 -0.00080966923633684978 -0.0093871084543504096 -0.0075853634229723996 -0.012031750062575593 0.025714968660304278 -0.016205503263633944 -0.0083530130781951286 0.032848676901382351 -0.0049296310541443612 0.11485992417543596 0.11496692477066946 0.01025424918856427 -0.0069452634019213496 0.012115488691107337 -0.00043077666998028421 -0.047124186519842959 0.038516452770337967 -0.023760741765030714 -0.006630598156669984 0.094686395242470356 -0.011210116171013983 0.019812812793345843 0.060942061085633749
leaf_count=95 5478 2478 4726 25013 25237 2920 1535 906 3226 3484 26249 1035 5605 17348 88 82 28 22 1185 2963 1674 8344 41 332 347 1635 20 273 937 46
internal_value=0 -0.128087 -0.147475 -0.154409 -0.0221993 0.000802664 -0.0478263 0.0747914 -0.0144476 -0.00243991 -0.131764 0.160553 -0.0886651 -0.101078 -0.154449 0.0684409 0.404172 0.204405 0.0118114 -0.0560226 0.0257468 0.01361 0.0668869 0.166602 -0.0134867 0.0113373 -0.0540816 0.108616 0.169961 0.0217905
internal_count=143352 86985 58466 55988 56367 29595 26772 5039 24556 21330 30975 2119 28519 23041 5693 1084 132 104 17846 3058 14788 13114 4423 1583 8691 2840 1655 1251 978 952
shrinkage=0.1


Tree=16
num_leaves=31
num_cat=0
split_feature=17 94 13 97 17 51 79 11 104 43 33 38 0 29 32 18 98 103 79 40 107 34 0 73 29 32 38 72 34 12
split_gain=150.929 56.4588 23.5789 15.9036 11.5243 9.28694 8.79926 8.75416 8.94153 12.0276 11.625 8.89262 8.79806 7.69555 7.65092 6.90189 6.89701 6.88297 10.5385 6.86057 6.80171 6.75628 8.2493 6.85797 6.74333 7.40012 7.20792 6.62248 7.29457 6.58497
threshold=1.9771000146865847 -1.9175000190734861 0.25202000141143804 0.053684499114751823 2.0206999778747563 1.0338500142097475 0.9933149814605714 0.72436499595642101 1.3153499960899355 0.96688500046730053 3.8852499723434453 -1.3557500243186948 1.057249963283539 0.78616499900817882 0.55059999227523815 11.500000000000002 0.079729497432708754 3.6495999097824101 0.96237498521804821 -0.11733999848365782 0.95612502098083507 0.48124499619007116 1.115150034427643 0.32487499713897711 0.64597499370574962 0.016246999613940719 0.72085002064704906 1.7881500124931338 1.1386500000953677 0.90788501501083385
decision_type=2 2 2 2 2 2 2 2 2 2 2 2 2 2 2 2 2 2 2 2 2 2 2 2 2 2 2 2 2 2
left_child=1 13 -2 -3 -4 -5 19 8 9 -6 11 -11 16 15 -10 -1 -9 -16 -19 21 -8 22 -7 -23 25 -21 29 -17 -29 -26
right_child=2 3 4 5 7 6 20 12 14 10 -12 -13 -14 -15 17 27 -18 18 -20 24 -22 23 -24 -25 26 -27 -28 28 -30 -31
leaf_value=0.0020164161926456417 -0.0044893727452310446 0.010037097204891409 0.022916635309680428 0.014604677502889957 -0.0066538835270320631 -0.042552327055848389 -0.0075277785989117654 -0.0097068534104275944 0.052249025504297934 0.11656673879782434 0.14314359340832292 0.0078560233397044193 0.017395013797202156 0.0064534394025124349 -0.0091093242440753851 -0.0095217144112406983 0.041102512963923692 0.12393371771413619 0.0041919366692080183 -0.0025728541497141853 0.0086576112897202295 0.0087732381291879668 0.010435199098491315 -0.02163669829362113 0.0078046124821123915 0.011285276048435617 -0.0037868540768455959 0.11703982024382759 -0.015836331215008329 -0.0035013840805509407
leaf_count=1936 1295 45555 9062 2502 1186 84 2589 489 171 22 23 148 45733 1383 177 6815 79 29 52 1148 927 267 882 705 7742 8119 2562 23 21 1626
internal_value=0 0.0666403 0.172411 0.0816763 0.177126 0.0521857 0.0433449 0.167293 0.0576856 -0.00561588 0.364215 0.219939 0.17151 -0.0484927 0.258992 -0.0665658 -0.0261475 0.0860164 0.469514 0.0547013 -0.0324083 -0.0373805 0.0582708 -0.13262 0.0630776 0.0957416 0.0377567 -0.0910675 0.53911 0.0585088
internal_count=143352 84886 58466 74708 57171 29153 26651 48109 1808 1379 193 170 46301 10178 429 8795 568 258 81 23135 3516 1938 966 972 21197 9267 11930 6859 44 9368
shrinkage=0.1


Tree=17
num_leaves=31
num_cat=0
split_feature=53 67 13 11 9 46 49 72 15 46 78 61 113 61 78 45 59 40 72 1 52 11 97 46 77 111 11 35 40 93
split_gain=282.591 148.158 60.6156 45.4319 35.2657 34.4687 20.0597 19.7067 19.832 14.3396 14.145 12.9705 12.8845 10.9607 10.2488 9.52392 9.3488 8.85491 8.67844 10.8335 8.55049 8.0247 11.8314 7.67823 7.67049 9.44997 7.54231 7.25375 9.85814 7.99786
threshold=1.0000000180025095e-35 1.1547500491142275 3.4409500360488896 6.237300157546998 0.6560649871826173 1.0532500147819521 1.2275499701499941 0.37915499508380895 0.70299997925758373 0.21488000452518466 -1.4702499508857725 0.74755501747131359 0.11464500054717065 0.6725749969482423 -1.7991000413894651 0.75366500020027172 0.64998501539230358 0.38331499695777899 -0.2519600093364715 2.7911499738693242 2.6780500411987309 14.06150007247925 0.033451499417424209 0.4738799929618836 0.96384501457214367 0.97469499707221996 0.34203501045703893 1.8504499793052676 0.44816999137401586 0.9365450143814088
decision_type=2 2 2 2 2 2 2 2 2 2 2 2 2 2 2 2 2 2 2 2 2 2 2 2 2 2 2 2 2 2
left_child=3 5 4 7 16 6 13 26 -9 -4 23 18 -7 15 27 -2 -3 -17 19 -6 -14 22 -5 -10 -20 -26 -1 28 -8 -29
right_child=1 2 9 21 11 12 14 8 10 -11 -12 -13 20 -15 -16 17 -18 -19 24 -21 -22 -23 -24 -25 25 -27 -28 29 -30 -31
leaf_value=0.01613983989247093 -0.0044308150523579577 0.00037847884899697772 -0.017832075617411788 -0.033305908781274783 0.038124171806582535 -0.026195071373132831 0.019759764916663529 -0.032243173445908671 0.0046965899520875296 -0.027564130509028215 -0.02121748351404118 -0.020292204433449885 -0.016456484235298909 -0.0082153365715820995 0.0030289186340110696 0.014436658975823866 -0.0089988380953780409 0.00034333151500445287 -0.0158524540350473 -0.032921457812735692 0.014299743691279119 -0.03311279488186613 -0.024315490651657785 -0.015758283458233109 0.01003581319714863 -0.012133989170002885 -0.01038409190464694 0.037193227361798246 -0.0095035517413681186 0.0016543775238099215
leaf_count=457 6117 3991 6454 7281 196 2147 794 4286 948 13100 12865 13328 588 7132 5213 1781 10435 3618 7491 86 427 18533 10348 1118 772 1688 814 630 488 226
internal_value=0 -0.116224 -0.166282 -0.269492 -0.127774 -0.0215497 -0.00229586 -0.206251 -0.219962 -0.243257 -0.191181 -0.16814 -0.187119 -0.031139 0.0695052 -4.67365e-05 -0.0636792 0.0500701 -0.123552 0.164976 -0.0342591 -0.306231 -0.280172 -0.062842 -0.131759 -0.0513432 -0.00622595 0.163652 0.0864892 0.278817
internal_count=143352 86702 57541 56650 37987 29161 25999 20488 19217 19554 14931 23561 3162 18648 7351 11516 14426 5399 10233 282 1015 36162 17629 2066 9951 2460 1271 2138 1282 856
shrinkage=0.1


Tree=18
num_leaves=31
num_cat=0
split_feature=17 8 17 17 9 48 16 85 49 101 3 64 60 82 34 79 0 64 0 27 66 95 48 7 28 55 32 44 0 66
split_gain=360.232 72.2874 35.5591 33.3884 27.2487 16.3717 15.6807 14.9997 12.5899 10.4308 9.71062 9.53932 9.26854 9.03238 8.96001 8.86556 9.43744 8.78242 8.8516 11.027 10.4764 10.4196 9.00876 8.70079 8.38805 8.43701 8.29952 8.14938 8.15297 7.93941
threshold=1.6505500078201296 0.62965500354766857 1.1504999995231631 1.8116500377655032 0.73334500193595897 1.7457500100135805 19.680999755859379 2.1691499948501591 1.1355499625205996 1.8034000396728518 1.8374999761581423 1.4288499951362612 0.92867499589920055 0.0049597499892115602 0.55760499835014354 1.0411500334739687 1.4124500155448916 4.6212501525878915 1.1339499950408938 0.9490250051021577 0.3482349961996079 0.9833350181579591 1.3482499718666079 1.3951500058174136 0.91195499897003185 1.1600499749183657 0.79109999537467968 0.77472501993179332 1.3578500151634219 3.2628999948501591
decision_type=2 2 2 2 2 2 2 2 2 2 2 2 2 2 2 2 2 2 2 2 2 2 2 2 2 2 2 2 2 2
left_child=2 11 -1 13 9 14 7 15 -8 17 12 -2 -9 -3 -4 16 -6 18 -5 20 -20 -21 -22 -24 25 -18 -15 -19 -29 -16
right_child=1 3 5 4 6 -7 8 10 -10 -11 -12 -13 -14 26 29 -17 24 27 19 21 22 -23 23 -25 -26 -27 -28 28 -30 -31
leaf_value=0.0072787751388553833 -0.00052048499324325141 -0.0057213334824806296 -0.0027635091991252197 0.03432402592291986 0.027862690071429854 0.010741624447097069 0.045547460863901747 0.020437874093869744 0.020756598959219556 0.012121434653204078 -0.0080985900877182642 0.008918440809758529 0.010351371879032149 0.017884668284615823 -0.011014095875832176 0.0024508614003991257 0.012768331462300825 0.054082490523216169 0.029790477919715813 0.0089496853078794344 0.0070697370047245606 0.022859427497674004 0.018847275247161059 0.050400515137947868 0.0190405662288958 0.028207348032738239 0.010187566295296872 0.038340515625011763 0.017115902175943689 0.00052019314213713297
leaf_count=9458 4694 709 15624 742 11008 1776 1288 10399 849 9838 366 6961 2954 5505 8760 481 1036 260 2129 6142 1743 1760 7758 228 10283 6302 10314 683 1347 1955
internal_value=0 0.171782 -0.012757 0.186203 0.199908 -0.0420863 0.225107 0.218483 0.357175 0.164786 0.175133 0.0515855 0.182104 0.120776 -0.052462 0.238753 0.242311 0.183399 0.172913 0.166495 0.197145 0.120396 0.174965 0.197454 0.219598 0.260417 0.128645 0.276334 0.242614 -0.0890298
internal_count=143352 105779 37573 94124 77596 28115 44966 42829 2137 32630 13719 11655 13353 16528 26339 29110 28629 22792 20502 19760 11858 7902 9729 7986 17621 7338 15819 2290 2030 10715
shrinkage=0.1


Tree=19
num_leaves=31
num_cat=0
split_feature=48 68 15 59 36 81 64 37 62 34 76 22 10 111 9 108 46 28 28 76 110 0 15 30 80 106 16 5 0 102
split_gain=60.1405 16.5516 12.4315 11.3838 9.61806 9.47247 8.83381 8.7839 12.5487 8.66753 7.90516 8.33656 8.03703 7.78313 8.02312 7.87326 7.32626 7.25357 8.27479 7.71671 7.16541 6.85083 6.75379 6.67226 7.08307 6.78649 6.65797 7.78947 7.72049 10.1282
threshold=1.5059500336647036 4.2857999801635751 0.4196349978446961 0.78559499979019176 29.321000099182132 0.067024499177932753 1.9704499840736391 4.3949499130249032 19.692500114440922 4.1803500652313241 0.94604498147964489 0.69268000125885021 0.662114977836609 0.9239950180053712 0.71320497989654552 0.0016147499554790559 -1.4478500485420225 0.78321498632431041 0.69472497701644909 0.88500499725341808 -0.97239500284194935 1.9033499956130984 1.7355499863624575 4.9781498908996591 0.40716499090194708 0.95166000723838817 12.366500377655031 -0.24367500096559522 1.0000500082969668 -1.2850499749183653
decision_type=2 2 2 2 2 2 2 2 2 2 2 2 2 2 2 2 2 2 2 2 2 2 2 2 2 2 2 2 2 2
left_child=1 2 23 4 9 7 -5 8 -2 13 12 -12 20 14 26 -15 -8 18 19 -6 -7 -16 -10 -1 25 -25 28 -28 29 -4
right_child=5 -3 3 6 17 10 16 -9 22 -11 11 -13 -14 15 21 -17 -18 -19 -20 -21 -22 -23 -24 24 -26 -27 27 -29 -30 -31
leaf_value=-0.00036676846972847797 -0.010001146783610856 -0.01115446729746937 0.11805267316599238 -0.0095380740648572555 0.10158296464617587 -0.018548951834706506 0.0041656433784527935 -0.015488789229813513 -0.024083477670589194 -0.014008785527332432 0.033476644176886318 -0.034585861132377764 0.091424076682331379 0.029085624682783445 0.021251343429104532 -0.0084795457778917074 -0.0055657136587980412 0.13400161744508363 -0.032670572513055683 -0.012266317491728101 -0.0051735918260279838 0.1321070521664576 -0.012334468456304598 0.086793508786174214 -0.030636997981788899 -0.017784532675222543 -0.026035307321221487 -0.00014062027444571902 0.0058189292271488757 0.016103668320556732
leaf_count=16959 38240 9866 38 16603 45 1349 2398 17474 2891 1322 238 62 22 158 43 3070 16222 20 40 25 6119 23 2573 68 30 22 347 3167 3833 85
internal_value=0 -0.0483457 -0.0388042 -0.052571 -0.00941019 -0.116217 -0.0676519 -0.123232 -0.110646 -0.0141933 -0.0619842 0.198186 -0.0726388 0.00117333 0.0300363 -0.0663602 -0.0430714 0.434622 0.268622 0.609428 -0.0756115 0.599317 -0.185449 -0.000938873 0.383597 0.612718 0.0249982 -0.0270015 0.0711741 0.476017
internal_count=143352 74384 64518 47439 12216 68968 35223 61178 43704 12086 7790 300 7490 10764 7536 3228 18620 130 110 70 7468 66 5464 17079 120 90 7470 3514 3956 123
shrinkage=0.1


Tree=20
num_leaves=31
num_cat=0
split_feature=94 78 31 13 81 76 35 40 67 24 48 24 32 6 110 109 35 35 73 105 64 85 53 28 41 31 85 64 2 56
split_gain=89.9063 38.5134 23.2737 17.7236 11.9265 11.5134 10.2392 13.4617 10.0857 9.1074 7.67776 10.5657 8.06417 7.51946 7.44491 7.36292 7.74565 7.33137 7.33104 7.26689 7.02974 7.73847 7.51474 11.0101 9.81964 8.90963 7.02668 6.95597 8.3418 6.8774
threshold=-1.9175000190734861 -1.6894499659538267 0.98659500479698192 1.589450001716614 0.028739499859511856 0.97893500328063976 1.0309000015258791 -0.063599001616239534 3.3925499916076665 2.1746499538421635 2.0403000116348271 2.9098000526428227 2.6402499675750737 0.33352500200271612 -0.38190500438213343 -0.43727999925613398 32.603500366210945 4.8035500049591073 0.33905500173568731 0.26409499347209936 1.7653500437736513 82.593502044677749 13.884500026702883 0.7564150094985963 0.3033950030803681 0.85901498794555675 8.570899963378908 3.0478500127792363 2.796550035476685 1.8892499804496767
decision_type=2 2 2 2 2 2 2 2 2 2 2 2 2 2 2 2 2 2 2 2 2 2 2 2 2 2 2 2 2 2
left_child=-1 15 3 4 -3 6 9 -8 -6 27 11 19 20 -11 18 -2 -17 -10 -13 -9 -12 22 -22 24 25 -24 -26 -5 -29 -14
right_child=1 2 -4 5 8 -7 7 10 17 13 12 14 29 -15 -16 16 -18 -19 -20 -21 21 -23 23 -25 26 -27 -28 28 -30 -31
leaf_value=-0.0045208984004278347 -0.039762691314647457 0.011275253936872193 0.017774717521533145 0.018652335070962572 0.00052672170942847404 0.0073104526845539477 0.0027746092097485457 0.0035500626538677591 0.026626064461076633 0.011401944479533025 0.0054224286865043429 0.050348741859479032 0.0097639690160869295 -0.039409166976611822 0.11256493833597969 0.0034381428907467645 0.074766544420175177 -0.012081312996076985 -0.055640620022974353 0.011752665198107717 0.016249760005804321 -0.004705618456685887 -0.018212229067413314 0.020880660607207543 0.083015661695122867 0.054980036125641986 0.012508567081299047 -0.00030587669491340542 0.037651220947686193 0.024976741289988773
leaf_count=10402 102 6941 16541 2363 7764 10664 3506 3028 658 1187 1428 97 9741 79 39 13907 38 154 20 30284 19274 410 81 2152 196 88 44 168 1185 811
internal_value=0 0.113323 0.122545 0.11353 0.0634772 0.122338 0.129178 0.124285 0.0232441 0.198898 0.129257 0.112019 0.145955 0.0825617 0.524255 0.0332455 0.0364183 0.192649 0.324201 0.110066 0.162227 0.169169 0.17323 0.254188 0.493841 0.199903 0.701107 0.238669 0.329607 0.109381
internal_count=143352 132950 118903 102362 15517 86845 76181 71199 8576 4982 67693 33468 34225 1266 156 14047 13945 812 117 33312 23673 22245 21835 2561 409 169 240 3716 1353 10552
shrinkage=0.1


Tree=21
num_leaves=31
num_cat=0
split_feature=17 21 10 11 34 65 13 64 104 11 72 56 17 14 64 61 110 71 85 105 57 85 16 16 110 47 15 70 10 15
split_gain=421.264 96.9863 50.7511 36.6723 33.965 18.2637 14.6458 13.8486 12.7681 11.6568 11.2514 9.80996 9.10167 7.69877 7.60744 7.55431 8.21625 7.42191 8.02729 7.33073 7.45476 7.79556 7.20932 6.66648 8.54996 7.36988 6.58709 7.01336 6.27649 6.00754
threshold=1.6505500078201296 1.4620999693870547 0.52020502090454113 7.486649990081788 0.48124499619007116 0.85099500417709362 2.8317500352859502 3.0422500371932988 0.49975499510765081 21.339500427246097 0.7233949899673463 -1.0622500181198118 1.8741000294685366 2.2631499767303471 2.269649982452393 0.27656000852584844 -1.2019500136375425 1.5798500180244448 36.288999557495124 0.33128499984741216 0.41582499444484716 3.6062500476837163 11.11199998855591 13.870500087738039 -0.9215949773788451 0.87355500459671032 1.699449956417084 -0.99012997746467579 0.4949799925088883 1.9064999818801882
decision_type=2 2 2 2 2 2 2 2 2 2 2 2 2 2 2 2 2 2 2 2 2 2 2 2 2 2 2 2 2 2
left_child=4 3 6 5 10 -2 19 29 -5 17 28 -9 -10 -13 -7 16 -12 18 -4 -3 21 -21 -22 -8 25 -25 27 -16 -1 -6
right_child=1 2 9 8 7 14 23 11 12 -11 15 13 -14 -15 26 -17 -18 -19 -20 20 22 -23 -24 24 -26 -27 -28 -29 -30 -31
leaf_value=0.0019957987531766959 -0.027585911931217667 -0.0011358858449268727 -0.013421000715472571 -0.02281406890575835 0.0075740131435610555 -0.014208425843266724 -0.019572825293231871 0.080577895804422608 -0.024874720800005169 -0.028133879825652592 0.037688667465014737 -0.0018027483772094944 -0.031990560376385431 -0.019146539853179038 -0.0047698437857522724 -0.013619927857676682 -0.0080567344828796298 -0.022726623732667071 -0.032265577663965719 -0.020270406623121063 -0.011829126674077104 -0.0035079539389795385 0.12517856107323386 -0.029830514154142642 -0.013471110627191335 0.04505211755252983 -0.024507068981702178 -0.019613948381906221 -0.0059593471367527136 -5.2325884147997272e-05
leaf_count=3699 9603 7173 7825 7569 10489 7374 3135 34 6599 4579 166 2219 27772 1022 1121 6243 304 6165 713 1520 21 1563 22 49 495 160 7170 5151 9689 3708
internal_value=0 -0.222698 -0.14787 -0.258456 -0.0180407 -0.213646 -0.0725875 0.0341581 -0.291824 -0.205389 -0.0647846 -0.0626259 -0.306086 -0.0719846 -0.185603 -0.120722 0.0814736 -0.182288 -0.149899 -0.0404333 -0.107902 -0.117479 0.583714 -0.162315 -0.0133328 0.273796 -0.209829 -0.169506 -0.0373951 0.0559159
internal_count=143352 105779 33420 72359 37573 30419 14138 17472 41940 19282 20101 3275 34371 3241 20816 6713 470 14703 8538 10299 3126 3083 43 3839 704 209 13442 6272 13388 14197
shrinkage=0.1


Tree=22
num_leaves=31
num_cat=0
split_feature=17 98 78 9 17 44 18 5 5 11 83 77 9 89 70 111 78 53 27 94 24 6 11 3 39 36 108 100 74 103
split_gain=315.682 63.5251 35.9688 21.3903 14.4842 12.5608 11.1163 9.94543 9.47835 9.42004 8.99526 10.0609 8.81945 8.84382 8.90945 9.2636 9.49583 8.75637 10.2574 10.441 8.7521 8.31243 9.00481 8.63089 8.74778 8.48711 8.21486 8.13035 10.4102 8.59746
threshold=1.738600015640259 0.10214500129222871 -1.4999499917030332 0.73334500193595897 1.5396000146865847 0.92113500833511364 14.500000000000002 0.39351500570774084 0.40828000009059912 19.367500305175785 1.8635500073432925 1.1693499684333803 0.85792499780654918 0.2646349966526032 4.477450132369996 0.95544499158859264 -1.1594499945640562 1.7897999882698061 0.94952499866485607 2.4650499820709233 0.18436999619007113 0.25717499852180487 3.3723999261856084 -0.7069450020790099 1.428649961948395 1.8230000138282778 0.93850499391555797 2.8191499710083012 1.4407500028610232 1.1429499983787539
decision_type=2 2 2 2 2 2 2 2 2 2 2 2 2 2 2 2 2 2 2 2 2 2 2 2 2 2 2 2 2 2
left_child=2 3 4 17 -1 9 -4 -3 10 20 -7 12 13 -12 15 -15 -17 18 -2 26 -5 23 -23 24 -14 -25 -20 28 29 -22
right_child=1 7 6 5 -6 8 -8 -9 -10 -11 11 -13 21 14 -16 16 -18 -19 19 -21 27 22 -24 25 -26 -27 -28 -29 -30 -31
leaf_value=-0.0060707778844695031 0.020510878551024472 0.010083505164241707 0.00059320490752360787 0.011843699169101111 0.0039109769017645511 0.015140921127299277 0.0077522419166276228 8.5738884652058244e-05 0.012560019918124299 0.026884350113604863 0.038860431822762803 -0.013515836760972524 0.019112323430842362 0.042498660538996036 -0.0092353885089381683 0.0023327010751030652 0.021675406012056923 0.012343816213802759 0.011910021579132986 -0.015939102017329437 0.037319951786677907 0.0012176632873142201 0.031598792763810016 0.06584788597072927 0.099989198869674528 0.0091368667633066961 0.023835986741005063 0.024832873745102221 0.0046183597473329402 0.018694274982170765
leaf_count=18599 11212 4824 9188 2547 4762 6031 14566 5558 7117 8016 554 182 45 395 283 826 2645 15955 7069 297 681 281 1833 115 127 151 1824 9803 1209 6657
internal_value=0 0.16692 0.0061387 0.180789 -0.0397079 0.202014 0.0499449 0.0475935 0.172222 0.223155 0.196781 0.233347 0.24244 0.202014 0.177055 0.196799 0.170785 0.151483 0.173099 0.133816 0.205481 0.316896 0.276034 0.514191 0.789102 0.336725 0.143538 0.217434 0.181852 0.204176
internal_count=143352 96237 47115 85855 23361 49498 23754 10382 20585 28913 13468 7437 7255 4703 4149 3866 3471 36357 20402 9190 20897 2552 2114 438 172 266 8893 18350 8547 7338
shrinkage=0.1


Tree=23
num_leaves=31
num_cat=0
split_feature=17 17 92 33 3 84 17 88 66 113 53 10 4 102 107 93 107 6 30 30 27 35 33 16 50 46 31 71 61 31
split_gain=115.932 26.9445 15.2029 10.7978 10.587 10.5606 8.20575 8.12367 7.43704 8.5493 7.29491 8.54346 8.2539 7.16334 8.06154 8.25433 7.01585 6.73879 7.46713 6.50228 6.78069 7.12843 8.91468 8.68969 7.08226 6.45893 6.33275 6.27015 7.04377 11.7479
threshold=1.738600015640259 1.9771000146865847 0.36392499506473547 0.62026500701904308 -0.89577499032020558 2.8160499334335332 2.2899000644683842 2.3350499868392949 0.2298649996519089 0.52281001210212719 2.0000499486923222 0.5343649983406068 1.7118499875068667 -0.67362999916076649 0.91028499603271495 0.86901497840881359 0.51249000430107128 0.23279500007629397 -1.3681499958038328 5.086750030517579 0.74493500590324413 3.1165000200271611 2.4293500185012822 7.2348999977111825 0.30818499624729162 -1.6794499754905698 0.98075500130653392 38.239999771118171 0.73849499225616466 0.97608500719070446
decision_type=2 2 2 2 2 2 2 2 2 2 2 2 2 2 2 2 2 2 2 2 2 2 2 2 2 2 2 2 2 2
left_child=3 27 4 10 -3 6 -4 8 9 -6 11 12 13 -1 15 -15 19 -12 -19 20 21 22 23 -5 -25 -20 -11 -2 29 -29
right_child=1 2 5 16 7 -7 -8 -9 -10 26 17 -13 -14 14 -16 -17 -18 18 25 -21 -22 -23 -24 24 -26 -27 -28 28 -30 -31
leaf_value=0.0027258476422992836 -0.0076191639361590964 -0.016868187310692628 -0.013719474061672935 -0.013578955118574857 0.097597587736818314 -0.016393981472622929 -0.008107637923591423 0.097104252240609853 -0.0016636998636447365 0.030615407497145648 -0.01263245795350371 0.0010636495181940385 -0.018936031375939813 0.032557046066004978 0.013975245086888272 0.10702655952828805 -0.0041872192021373328 -0.010319169439016866 0.014615063296957049 0.080521713548530979 -0.028110139440030005 -0.030819399735676392 0.0077602651628590688 0.024660047137873811 0.10105806820032369 0.00087680070615056267 -0.010950699194132022 0.021036465105954669 -0.018010858647295271 0.15005267343566606
leaf_count=708 37574 737 20725 45 38 24110 11225 27 1168 285 1089 3300 191 516 1045 43 21542 1512 975 33 134 99 757 55 78 14993 151 98 75 24
internal_value=0 -0.109034 -0.131676 -0.00903869 -0.00336039 -0.137355 -0.117474 0.0690638 0.0544158 0.227414 0.0148367 0.0655197 0.13748 0.164461 0.224846 0.382642 -0.0349756 -0.00101621 0.00675961 0.0867449 0.0665502 0.111296 0.155298 0.48357 0.69331 0.0171886 0.162577 -0.0746434 0.220154 0.465345
internal_count=143352 96237 58466 47115 2406 56060 31950 1669 1642 474 24372 5803 2503 2312 1604 559 22743 18569 17480 1201 1168 1034 935 178 133 15968 436 37771 197 122
shrinkage=0.1


Tree=24
num_leaves=31
num_cat=0
split_feature=94 78 59 75 50 27 93 96 48 78 38 96 68 57 109 35 4 24 47 96 25 92 97 10 23 61 38 106 89 12
split_gain=77.8799 33.8575 19.3278 13.0415 11.4423 9.89571 11.1487 10.9187 8.7041 8.12909 7.79194 7.69625 7.49539 6.89801 6.73323 6.71396 6.41765 8.04551 6.83604 6.39954 9.24704 6.2509 6.23869 6.2067 7.03207 6.5517 7.69283 7.65458 10.726 6.18715
threshold=-1.9175000190734861 -1.6894499659538267 0.89044499397277843 0.98797500133514415 4.4049999713897714 0.97984498739242565 0.90461498498916637 -2.1113499402999873 1.238849997520447 1.4717000126838686 -1.4724499583244322 1.0554500222206118 11.872500419616701 0.41976499557495123 -0.43727999925613398 32.603500366210945 1.1017499566078188 -0.084386501461267457 0.98706501722335827 0.065946500748395934 0.27043500542640692 0.87885499000549328 0.041539499536156661 0.60883498191833507 3.3427499532699589 0.70352500677108776 -1.511150002479553 0.98892998695373546 0.28110499680042272 0.86060500144958507
decision_type=2 2 2 2 2 2 2 2 2 2 2 2 2 2 2 2 2 2 2 2 2 2 2 2 2 2 2 2 2 2
left_child=-1 14 3 4 11 6 7 -4 -9 16 23 -3 13 -12 -2 -16 17 18 -8 -19 -21 -15 -22 25 -25 27 -27 28 -10 -6
right_child=1 2 5 -5 29 -7 9 8 10 -11 12 -13 -14 21 15 -17 -18 19 -20 20 22 -23 -24 24 -26 26 -28 -29 -30 -31
leaf_value=-0.0042527357005211295 -0.038572992735262664 0.0083283106979517834 -0.0093829232263567836 0.00079677943410512973 0.020619186805963918 0.015965715163996985 0.017907113435743357 0.009617933821652408 0.082144911715851116 0.024726377696014292 0.014164303886655514 0.033793481306681868 0.025626592613379837 -0.01343221229560829 0.0031268208513293653 0.068434653047486332 0.010281142897402458 0.002910468230650587 0.094388458913878023 0.052676682239214262 -0.031784124732567191 0.055715618000368686 0.044940501350714618 0.051382020538314636 -0.018855894922526831 0.0015684135188997598 0.05616570504568566 0.068254308392514715 0.0022681190804280812 0.0061268044890633788
leaf_count=10402 102 31620 484 4937 3270 19050 313 5772 54 915 14021 308 1721 40 13907 38 31513 2057 33 42 362 174 29 368 39 436 75 128 183 959
internal_value=0 0.105186 0.113784 0.085713 0.0961132 0.128401 0.11818 0.144853 0.149732 0.100274 0.167421 0.0857163 0.157864 0.145943 0.0301937 0.033191 0.0963144 0.0236851 0.251804 -0.00789765 -0.184213 0.427404 -0.260652 0.285467 0.446262 0.210847 0.095787 0.372007 0.204525 0.173475
internal_count=143352 132950 118903 41094 36157 77809 58759 23495 23011 35264 17239 31928 15956 14235 14047 13945 34349 2836 346 2490 433 214 391 1283 407 876 511 365 237 4229
shrinkage=0.1


Tree=25
num_leaves=31
num_cat=0
split_feature=53 67 13 11 9 46 65 65 46 46 13 53 114 59 49 72 16 15 16 8 56 55 108 114 11 97 11 50 39 31
split_gain=239.234 118.163 51.8588 40.4595 29.6246 27.8232 23.385 19.6283 16.1819 13.0934 11.9486 11.0455 10.9759 9.53725 8.75623 8.71854 8.63023 8.4059 11.1017 8.88494 8.02052 7.84787 9.91977 8.1863 7.88594 7.56699 10.818 7.3432 7.26091 7.11224
threshold=1.0000000180025095e-35 1.1547500491142275 3.4409500360488896 6.237300157546998 0.69385498762130748 1.0532500147819521 0.67959001660346996 0.91500499844551098 -0.50001999735832203 0.21488000452518466 0.64515000581741344 4.5325498580932626 0.094030000269413008 0.64998501539230358 0.015994499437510971 0.39077499508857733 10.608500003814699 3.2670500278472905 17.152500152587894 0.81014502048492443 0.44776000082492834 1.0001500248908999 0.92897498607635509 0.41289000213146215 6.4136500358581552 0.031510500237345702 14.06150007247925 0.35786999762058264 6.9600999355316171 0.43679998815059667
decision_type=2 2 2 2 2 2 2 2 2 2 2 2 2 2 2 2 2 2 2 2 2 2 2 2 2 2 2 2 2 2
left_child=3 5 4 6 13 7 15 14 10 -4 27 -6 -7 28 -2 -1 -12 21 -19 -20 -14 24 23 -23 -9 -5 -27 -8 -3 -18
right_child=1 2 9 25 11 12 8 17 -10 -11 16 -13 20 -15 -16 -17 29 18 19 -21 -22 22 -24 -25 -26 26 -28 -29 -30 -31
leaf_value=-0.005047772539262925 0.016398625926156356 0.00016335486271765425 -0.015802616046903067 -0.031305925633359759 -0.0098293133365780078 -0.024122235790475378 -0.019515448551109427 -0.00080935476016372849 -0.017419766222008162 -0.025247594010099662 -0.026622415588578474 -0.018251679941513114 -0.016729626686265774 -0.0083594949411027533 -0.0062747867821916258 -0.02894785327156741 0.091671984998095049 -0.0099363785191942597 0.061984540422108686 0.00058172912124747919 0.012533508981329945 0.01157931713418414 -0.00088418445702558653 -0.0054812380117665906 -0.034725795838077701 -0.022273797401610656 -0.030010779292200321 0.06838348523937797 0.071236103064806655 -0.0016195690048781441
leaf_count=468 483 3959 6454 14168 6523 2118 35 998 11390 13100 442 14339 564 13127 10865 6090 23 1914 107 152 480 7188 3232 829 231 10982 11012 98 39 1942
internal_value=0 -0.102692 -0.148244 -0.245861 -0.112458 -0.0182787 -0.185426 -0.00114917 -0.146398 -0.220848 -0.0250064 -0.155955 -0.169084 -0.0615165 -0.0530414 -0.271355 -0.0529258 0.0379581 -0.0561608 0.261227 -0.0305924 0.0541509 0.0675833 0.0981494 -0.0700021 -0.281435 -0.261236 0.45397 0.00863273 -0.00500301
internal_count=143352 86702 57541 56650 37987 29161 20488 25999 13930 19554 2540 20862 3162 17125 11348 6558 2407 14651 2173 259 1044 12478 11249 8017 1229 36162 21994 133 3998 1965
shrinkage=0.1


Tree=26
num_leaves=31
num_cat=0
split_feature=17 61 17 17 9 16 13 46 85 82 59 0 20 14 75 59 66 7 27 41 22 0 82 0 6 104 104 31 96 104
split_gain=270.479 56.4112 28.465 20.9197 18.6495 13.5224 13.273 12.3092 11.7166 11.0872 10.7237 11.1317 9.9426 9.40275 9.3057 9.29538 10.1083 9.08857 8.86287 8.77381 8.44579 8.32923 8.24704 7.98753 7.8299 7.54177 7.31779 7.31101 7.30825 7.23755
threshold=1.6505500078201296 0.53964000940322887 1.1504999995231631 1.8116500377655032 0.73334500193595897 19.680999755859379 2.5592499971389775 1.1446500420570376 2.1691499948501591 0.10754499956965448 0.91797500848770153 1.2373500466346743 1.9541500210762026 0.89789998531341564 0.95251500606536876 0.95050501823425304 1.8248500227928164 0.37398999929428106 0.94855499267578136 0.3009250015020371 0.017527000047266487 1.1723499894142153 0.011177499778568746 1.1939499974250796 0.17410499602556231 0.5654599964618684 0.71069499850273143 0.95815500617027294 -1.1004499793052671 0.74350997805595409
decision_type=2 2 2 2 2 2 2 2 2 2 2 2 2 2 2 2 2 2 2 2 2 2 2 2 2 2 2 2 2 2
left_child=2 6 25 17 9 8 -2 -4 10 18 22 -12 -10 21 -13 16 -14 20 27 -9 -3 -7 -6 -20 -17 -1 -19 -5 -26 -25
right_child=1 3 7 4 5 13 -8 19 12 -11 11 14 15 -15 -16 24 -18 26 23 -21 -22 -23 -24 29 28 -27 -28 -29 -30 -31
leaf_value=0.0037809979028092864 0.0034111810083293707 0.03821129929767926 -0.0047501597564246056 0.016528716261097861 -0.012163187492929942 -0.032777173476016004 0.011767129614813188 0.028385346674945269 0.0053007186998853054 -0.00086027181428865703 0.02691871891409537 0.0047785346853140755 0.018387745424693423 0.023516255462765812 0.018541415613145203 0.10255904137758623 0.037680579017639819 0.0057546231489333487 0.021910695971439541 0.0022882714521926524 -0.007301537489949942 0.048239768504871196 0.02752775478943317 0.0045013994445174729 0.039898211760792474 0.014347039249129782 0.01314035909608631 0.029943818047955813 0.0090079741648472055 0.013323722571107081
leaf_count=7150 11432 520 26466 14407 131 32 8408 458 2151 1193 3729 1290 6356 1281 16776 23 748 5766 1627 1191 129 766 5784 3738 200 2308 8198 1079 3891 6124
internal_value=0 0.147182 -0.0123738 0.164389 0.175367 0.195699 0.0700633 -0.0387774 0.189433 0.143691 0.207677 0.191644 0.151155 0.318063 0.175569 0.169861 0.204158 0.10956 0.150122 0.0953885 0.292821 0.450085 0.266543 0.116874 0.110278 0.0637373 0.101006 0.174663 0.10513 0.0999364
internal_count=143352 105779 37573 85939 71326 43158 19840 28115 41079 28168 27710 21795 13369 2079 18066 11218 7104 14613 26975 1649 649 798 5915 11489 4114 9458 13964 15486 4091 9862
shrinkage=0.1


Tree=27
num_leaves=31
num_cat=0
split_feature=17 17 92 90 3 66 72 64 17 88 66 113 23 80 10 34 73 83 91 26 80 30 77 12 10 83 62 82 83 21
split_gain=102.144 24.6289 13.5648 12.3231 9.54374 9.26663 8.60622 6.96428 6.9403 6.9081 6.62159 7.21242 7.70396 6.62619 6.42561 7.73244 7.74607 6.70762 6.30024 6.03978 7.88085 7.57113 6.23875 6.98282 6.72696 6.00061 6.17088 5.91632 7.2518 5.91479
threshold=1.738600015640259 1.9771000146865847 0.36392499506473547 0.84388500452041637 -0.89577499032020558 0.6627049744129182 0.60113999247550975 3.0693500041961674 2.0206999778747563 2.3350499868392949 0.2298649996519089 0.52281001210212719 1.9086499810218813 -0.85063499212265004 0.43749000132083898 0.43446499109268194 0.24890499562025073 1.2711499929428103 0.99964499473571788 1.1272500157356264 0.40716499090194708 -1.1119499802589414 0.91344499588012706 0.85572001338005077 0.2824349999427796 1.1547500491142275 0.17937500029802325 0.0098341498523950594 4.0000500679016122 2.8331500291824345
decision_type=2 2 2 2 2 2 2 2 2 2 2 2 2 2 2 2 2 2 2 2 2 2 2 2 2 2 2 2 2 2
left_child=5 -2 4 8 -3 6 -1 -7 -4 10 11 -6 13 -13 15 16 -8 25 27 22 21 -21 24 -24 -18 26 -17 -16 -29 -9
right_child=1 2 3 -5 9 7 14 29 -10 -11 -12 12 -14 -15 18 17 19 -19 -20 20 -22 -23 23 -25 -26 -27 -28 28 -30 -31
leaf_value=-0.00060563365548605341 -0.0069406688624520417 -0.016095987355802376 -0.016682688734135365 -0.015698422372356323 0.088409104625256529 -0.0044920193935193862 0.091894596873624654 0.0043247234599685883 -0.0096158900225667178 0.087664614021794485 -0.0015747003649375425 -0.020498716467056234 0.05876110816364593 0.024769345549840852 -0.0066258239175984515 0.053165208826110144 -0.0050792162257325899 -0.016866813479390962 0.091513370647264239 -0.0068480272362678651 -0.018922178637405848 0.072384813374837029 -0.032965282676473841 0.014428859266457192 0.052032987611504905 0.11260268007664707 -0.055228910306942325 0.003727874445186752 0.022371098910717216 -0.0052492653716182114
leaf_count=12865 37771 737 4646 25550 38 19454 43 5473 25864 27 1168 157 87 192 1154 36 81 262 22 40 45 163 117 281 166 21 23 3635 656 2578
internal_value=0 -0.102362 -0.124135 -0.129549 -0.00291524 -0.00834969 0.0187454 -0.0279786 -0.106847 0.0654201 0.0516168 0.213659 0.153265 0.0447201 0.066152 0.170361 0.246659 -0.0412253 0.0416262 0.213929 0.430711 0.567494 0.130933 0.00390336 0.33325 0.373387 0.106256 0.0380822 0.0660566 0.0127065
internal_count=143352 96237 58466 56060 2406 47115 19610 27505 30510 1669 1642 474 436 349 6745 1278 936 342 5467 893 248 203 645 398 247 80 59 5445 4291 8051
shrinkage=0.1



feature importances:
log10_trial=42
all_loss_kurtosis=26
all_loss_skew=22
recent_15%_loss_skew=18
recent_25_loss_best_percentile75_ratio=17
all_loss_best_percentile50_ratio=17
recent_15%_loss_kurtosis=17
top_10%_loss_kurtosis=16
all_loss_stddev_median_ratio=16
recent_25_loss_best_percentile25_ratio=15
recent_25_loss_stddev_median_ratio=15
all_correlation_best_percentile25_ratio=13
all_correlation_stddev_best_ratio=13
top_30%_correlation_skew=12
recent_15%_correlation_kurtosis=12
top_10%_correlation_stddev_best_ratio=12
log10_cardinality=12
all_loss_best_percentile75_ratio=12
recent_25_loss_skew=11
top_10%_correlation_skew=11
top_10%_loss_best_percentile25_ratio=11
recent_25_correlation_best_percentile75_ratio=11
recent_10_loss_stddev_median_ratio=11
top_30%_loss_percentile5_percentile25_ratio=10
recent_10_loss_best_percentile75_ratio=9
recent_25_loss_stddev_best_ratio=9
recent_15%_loss_stddev_median_ratio=9
recent_15%_correlation_best_percentile25_ratio=9
top_30%_loss_skew=9
top_20%_loss_stddev_best_ratio=9
all_loss_best_percentile25_ratio=9
top_20%_loss_best_percentile75_ratio=9
recent_10_loss_stddev_best_ratio=8
recent_10_loss_best_percentile50_ratio=8
top_10%_loss_stddev_best_ratio=8
top_20%_correlation_best_percentile25_ratio=8
top_20%_correlation_skew=8
recent_10_loss_skew=8
top_20%_loss_kurtosis=8
top_10%_correlation_kurtosis=8
recent_25_correlation_best_percentile50_ratio=7
recent_25_loss_kurtosis=7
top_30%_loss_best_percentile50_ratio=7
all_correlation_percentile5_percentile25_ratio=7
top_30%_correlation_stddev_best_ratio=7
recent_25_correlation_skew=7
top_20%_loss_skew=7
top_20%_correlation_best_percentile75_ratio=7
top_10%_loss_percentile5_percentile25_ratio=7
recent_10_loss_best_percentile25_ratio=7
recent_10_loss_percentile5_percentile25_ratio=7
top_10%_loss_stddev_median_ratio=7
top_20%_loss_stddev_median_ratio=6
top_10%_correlation_best_percentile25_ratio=6
top_30%_loss_kurtosis=6
all_correlation_best_percentile50_ratio=6
recent_25_correlation_stddev_best_ratio=6
recent_10_correlation_stddev_best_ratio=6
recent_10_correlation_kurtosis=6
all_correlation_skew=6
recent_15%_correlation_skew=6
all_loss_stddev_best_ratio=6
top_20%_correlation_percentile5_percentile25_ratio=5
top_20%_correlation_stddev_median_ratio=5
recent_10_loss_kurtosis=5
top_30%_correlation_best_percentile75_ratio=5
top_30%_correlation_percentile5_percentile25_ratio=5
top_10%_loss_best_percentile75_ratio=5
top_10%_loss_best_percentile50_ratio=5
all_loss_percentile5_percentile25_ratio=5
top_10%_correlation_percentile5_percentile25_ratio=5
recent_15%_loss_best_percentile25_ratio=5
all_correlation_stddev_median_ratio=5
recent_15%_loss_best_percentile50_ratio=5
top_30%_loss_best_percentile75_ratio=5
recent_15%_loss_percentile5_percentile25_ratio=5
recent_15%_loss_stddev_best_ratio=5
all_correlation_kurtosis=5
recent_25_correlation_kurtosis=5
all_correlation_best_percentile75_ratio=5
top_30%_loss_stddev_best_ratio=5
top_30%_loss_best_percentile25_ratio=4
num_parameters=4
recent_10_correlation_skew=4
recent_25_correlation_stddev_median_ratio=4
top_10%_correlation_best_percentile50_ratio=4
recent_15%_correlation_best_percentile50_ratio=4
top_10%_correlation_stddev_median_ratio=4
top_20%_correlation_kurtosis=4
recent_15%_correlation_best_percentile75_ratio=3
top_30%_loss_stddev_median_ratio=3
recent_25_correlation_best_percentile25_ratio=3
recent_15%_loss_best_percentile75_ratio=3
top_30%_correlation_stddev_median_ratio=3
recent_15%_correlation_stddev_best_ratio=3
recent_15%_correlation_percentile5_percentile25_ratio=3
top_30%_correlation_kurtosis=3
top_10%_loss_skew=3
recent_10_correlation_best_percentile75_ratio=3
top_20%_loss_percentile5_percentile25_ratio=3
recent_10_correlation_percentile5_percentile25_ratio=3
top_20%_loss_best_percentile50_ratio=3
recent_10_correlation_stddev_median_ratio=3
top_20%_correlation_stddev_best_ratio=3
top_30%_correlation_best_percentile50_ratio=2
recent_10_correlation_best_percentile50_ratio=2
top_20%_loss_best_percentile25_ratio=2
recent_25_loss_percentile5_percentile25_ratio=2
recent_25_loss_best_percentile50_ratio=2
recent_25_correlation_percentile5_percentile25_ratio=2
top_20%_correlation_best_percentile50_ratio=2
top_30%_correlation_best_percentile25_ratio=1
recent_15%_correlation_stddev_median_ratio=1

pandas_categorical:null
