tree
version=v2
num_class=1
num_tree_per_iteration=1
label_index=0
max_feature_idx=114
objective=regression
feature_names=all_correlation_best_percentile25_ratio all_correlation_best_percentile50_ratio all_correlation_best_percentile75_ratio all_correlation_kurtosis all_correlation_percentile5_percentile25_ratio all_correlation_skew all_correlation_stddev_best_ratio all_correlation_stddev_median_ratio all_loss_best_percentile25_ratio all_loss_best_percentile50_ratio all_loss_best_percentile75_ratio all_loss_kurtosis all_loss_percentile5_percentile25_ratio all_loss_skew all_loss_stddev_best_ratio all_loss_stddev_median_ratio log10_cardinality log10_trial num_parameters recent_10_correlation_best_percentile25_ratio recent_10_correlation_best_percentile50_ratio recent_10_correlation_best_percentile75_ratio recent_10_correlation_kurtosis recent_10_correlation_percentile5_percentile25_ratio recent_10_correlation_skew recent_10_correlation_stddev_best_ratio recent_10_correlation_stddev_median_ratio recent_10_loss_best_percentile25_ratio recent_10_loss_best_percentile50_ratio recent_10_loss_best_percentile75_ratio recent_10_loss_kurtosis recent_10_loss_percentile5_percentile25_ratio recent_10_loss_skew recent_10_loss_stddev_best_ratio recent_10_loss_stddev_median_ratio recent_15%_correlation_best_percentile25_ratio recent_15%_correlation_best_percentile50_ratio recent_15%_correlation_best_percentile75_ratio recent_15%_correlation_kurtosis recent_15%_correlation_percentile5_percentile25_ratio recent_15%_correlation_skew recent_15%_correlation_stddev_best_ratio recent_15%_correlation_stddev_median_ratio recent_15%_loss_best_percentile25_ratio recent_15%_loss_best_percentile50_ratio recent_15%_loss_best_percentile75_ratio recent_15%_loss_kurtosis recent_15%_loss_percentile5_percentile25_ratio recent_15%_loss_skew recent_15%_loss_stddev_best_ratio recent_15%_loss_stddev_median_ratio recent_25_correlation_best_percentile25_ratio recent_25_correlation_best_percentile50_ratio recent_25_correlation_best_percentile75_ratio recent_25_correlation_kurtosis recent_25_correlation_percentile5_percentile25_ratio recent_25_correlation_skew recent_25_correlation_stddev_best_ratio recent_25_correlation_stddev_median_ratio recent_25_loss_best_percentile25_ratio recent_25_loss_best_percentile50_ratio recent_25_loss_best_percentile75_ratio recent_25_loss_kurtosis recent_25_loss_percentile5_percentile25_ratio recent_25_loss_skew recent_25_loss_stddev_best_ratio recent_25_loss_stddev_median_ratio top_10%_correlation_best_percentile25_ratio top_10%_correlation_best_percentile50_ratio top_10%_correlation_best_percentile75_ratio top_10%_correlation_kurtosis top_10%_correlation_percentile5_percentile25_ratio top_10%_correlation_skew top_10%_correlation_stddev_best_ratio top_10%_correlation_stddev_median_ratio top_10%_loss_best_percentile25_ratio top_10%_loss_best_percentile50_ratio top_10%_loss_best_percentile75_ratio top_10%_loss_kurtosis top_10%_loss_percentile5_percentile25_ratio top_10%_loss_skew top_10%_loss_stddev_best_ratio top_10%_loss_stddev_median_ratio top_20%_correlation_best_percentile25_ratio top_20%_correlation_best_percentile50_ratio top_20%_correlation_best_percentile75_ratio top_20%_correlation_kurtosis top_20%_correlation_percentile5_percentile25_ratio top_20%_correlation_skew top_20%_correlation_stddev_best_ratio top_20%_correlation_stddev_median_ratio top_20%_loss_best_percentile25_ratio top_20%_loss_best_percentile50_ratio top_20%_loss_best_percentile75_ratio top_20%_loss_kurtosis top_20%_loss_percentile5_percentile25_ratio top_20%_loss_skew top_20%_loss_stddev_best_ratio top_20%_loss_stddev_median_ratio top_30%_correlation_best_percentile25_ratio top_30%_correlation_best_percentile50_ratio top_30%_correlation_best_percentile75_ratio top_30%_correlation_kurtosis top_30%_correlation_percentile5_percentile25_ratio top_30%_correlation_skew top_30%_correlation_stddev_best_ratio top_30%_correlation_stddev_median_ratio top_30%_loss_best_percentile25_ratio top_30%_loss_best_percentile50_ratio top_30%_loss_best_percentile75_ratio top_30%_loss_kurtosis top_30%_loss_percentile5_percentile25_ratio top_30%_loss_skew top_30%_loss_stddev_best_ratio top_30%_loss_stddev_median_ratio
feature_infos=[0:18.521999359130859] [0:234.80000305175781] [0:4882.39990234375] [-1.9665000438690186:10.654999732971191] [0:16.969999313354492] [-2.6215999126434326:3.3966999053955078] [0:0.46103000640869141] [0:85.734001159667969] [-11839:1584.199951171875] [-779.91998291015625:808.3699951171875] [-312.04998779296875:5197.10009765625] [-1.9981000423431396:217.1199951171875] [-7946.7001953125:1168.9000244140625] [-8.7989997863769531:14.756999969482422] [-503260:4586200] [-80488:615890] [3.7781999111175537:23.594999313354492] [1:2.6435000896453857] [5:34] [0:802.9000244140625] [0:559] [0:1258.9000244140625] [-1.9955999851226807:18.329000473022461] [0:587.8800048828125] [-2.2653999328613281:4.391200065612793] [0:0.48989999294281006] [0:198.35000610351562] [-291.27999877929688:522.80999755859375] [-1384.4000244140625:6594.60009765625] [-2195.5:8850.099609375] [-2:5.1111001968383789] [-261.5:423.33999633789062] [-2.6654000282287598:2.6666998863220215] [-297430:1188300] [-212310:1079600] [0:3575.699951171875] [0:10875] [0:26023] [-1.9997999668121338:19.042999267578125] [0:2033.4000244140625] [-2.9841001033782959:4.5872998237609863] [0:0.49834001064300537] [0:2715.5] [-709.03997802734375:502.79998779296875] [-3297.89990234375:18467] [-19963:8850.099609375] [-2:60.962001800537109] [-448.57998657226562:390.1099853515625] [-6.8674001693725586:7.9331998825073242] [-663120:4634900] [-2685700:815240] [0:3278.300048828125] [0:6019.10009765625] [0:9635.900390625] [-1.9896999597549438:20.330999374389648] [0:2503.199951171875] [-2.3340001106262207:4.6901998519897461] [0:0.48857000470161438] [0:1847.800048828125] [-1337.0999755859375:243.69000244140625] [-3297.89990234375:1716.199951171875] [-4178.7001953125:2211.89990234375] [-1.9981000423431396:20.041999816894531] [-1199:202.85000610351562] [-4.6810002326965332:4.6949000358581543] [-640920:5375700] [-126840:1514600] [0:3617.800048828125] [0:3004.5] [0:2050.60009765625] [-2:22.038000106811523] [0:1885.800048828125] [-3.75:4.902900218963623] [0:0.5] [0:893.969970703125] [-1384.4000244140625:532.15997314453125] [-725.83001708984375:605.80999755859375] [-1250.699951171875:6594.60009765625] [-2:20.111000061035156] [-959.07000732421875:393.07000732421875] [-4.6949000358581543:4.4772000312805176] [-5627.89990234375:13260] [-250.80999755859375:13123] [0:11477] [0:24078] [0:27004] [-2:19.042999267578125] [0:5149] [-3.8805999755859375:4.5872998237609863] [0:0.5] [0:5943.7001953125] [-10733:220.57000732421875] [-217.1300048828125:780.010009765625] [-1242.300048828125:309.73001098632812] [-2:40.016998291015625] [-5728.2998046875:128.33000183105469] [-6.4818000793457031:6.08489990234375] [-6797:79037] [-414.29000854492188:8168.7998046875] [0:26229] [0:21533] [0:12786] [-2:16.608999252319336] [0:18253] [-2.8459999561309814:4.248499870300293] [0:0.5] [0:5373.2001953125] [-1534.800048828125:334.35000610351562] [-1091.300048828125:292.60000610351562] [-1762.199951171875:27170] [-2:62.985000610351562] [-1393.0999755859375:287.3699951171875] [-8.0602998733520508:6.398900032043457] [-11841:121220] [-192.72000122070312:28417]
tree_sizes=2562 2646 2642 2642 2652 2654 2663 2641 2666 2647 2661 2642 2658 2656 2638 2656 2637 2660 2634 2639 2645 2659 2661 2654 2647 2645 2666 2647 2657 2644 2642 2634 2670 2652 2661 2661 2639 2653 2641 2660 2645 2624 2619 2660 2636 2654 2651 2632 2647 2625 2643 2631 2623 2623 2615 2644 2631 2654 2642 2621 2642 2645 2637 2644 2655 2651 2658 2653 2630 2625 2652 2635 2608 2614 2666 2612 2630 2645 2640 2640 2627 2622 2631 2628 2626 2639 2628 2615 2650 2619 2614 2620 2600 2623 2630 2633 2629 2608 2614 2620 2641 2614 2629 2573 2630 2597 2643

Tree=0
num_leaves=31
num_cat=0
split_feature=85 3 82 15 18 92 10 82 41 18 15 15 44 44 48 110 18 10 69 6 60 54 64 57 6 50 82 65 34 63
split_gain=263.464 108.208 96.4659 92.1508 50.1196 35.6633 34.8943 34.0915 32.8981 28.723 28.3075 31.9931 24.0063 23.7329 23.3467 22.8188 22.6614 20.6416 20.0023 19.2047 19.062 18.6775 17.8778 17.713 17.6025 17.0745 18.0921 16.7629 16.7459 16.3478
threshold=1.0080500245094302 -0.18116000294685361 0.025578999891877178 3.7498500347137456 6.5000000000000009 0.82386499643325817 0.1347950026392937 0.018928499892354015 0.28618499636650091 17.500000000000004 95.929496765136733 10.089499950408937 0.72983500361442577 0.86968499422073375 2.0386500358581547 -1.6193000078201292 15.500000000000002 0.006960049970075489 2.8983999490737919 0.26121500134468084 0.70396500825881969 4.7497999668121347 -0.17057000100612638 0.2546249926090241 0.17418999969959262 1.8542500138282778 0.043789001181721694 0.21597499400377276 71.576000213623061 0.94352501630783092
decision_type=2 2 2 2 2 2 2 2 2 2 2 2 2 2 2 2 2 2 2 2 2 2 2 2 2 2 2 2 2 2
left_child=2 4 15 8 -2 12 14 28 -3 -8 11 18 21 25 -7 -1 17 -13 -5 -16 -14 22 -4 -11 -17 26 -9 -28 -6 -10
right_child=1 3 5 10 7 6 9 13 29 23 -12 16 20 -15 19 24 -18 -19 -20 -21 -22 -23 -24 -25 -26 -27 27 -29 -30 -31
leaf_value=0.12699214143840271 0.1180565698506848 0.11676316100158744 0.1166142465673653 0.12050368868448907 0.12075483187758908 0.12203957384986774 0.12339189893037675 0.11990081786809152 0.1221019724461487 0.12245530685524209 0.11999638896700582 0.1115292763626059 0.1302322106135404 0.12411785491883842 0.10455536332586556 0.11534049343455351 0.11735536332288532 0.095090657446492852 0.10878718150558403 0.11918393475230825 0.12640655294060235 0.11625191505078157 0.12580261926430011 0.12560013844301227 0.12303276231081912 0.12420114254273081 0.12765794634560337 0.12199549785122811 0.13833495516558048 0.11879302679184939
leaf_count=1316 2818 2847 197 209 10161 760 10784 3960 3244 1771 234 92 2030 8926 150 269 75 272 352 175 2774 203 5849 17943 57024 2464 542 3568 49 2294
internal_value=0 -0.0664766 0.0276471 -0.159641 -0.0388926 0.0638376 0.0467281 -0.0267879 -0.122093 0.0529976 -0.414781 -0.488047 0.112726 -0.00223483 -0.129498 0.00131981 -0.690245 -0.793376 -0.32982 -0.353816 0.165879 0.0718644 0.0818821 0.0756953 -0.00167067 -0.0343815 -0.0566279 -0.0101514 -0.0735854 -0.0771818
internal_count=143352 42107 101245 9619 32488 42636 31583 29670 8385 30498 1234 1000 11053 19460 1085 58609 439 364 561 325 4804 6249 6046 19714 57293 10534 8070 4110 10210 5538
shrinkage=1


Tree=1
num_leaves=31
num_cat=0
split_feature=37 54 109 6 101 18 107 15 7 2 81 96 95 16 6 54 18 77 40 54 106 96 18 71 35 16 97 101 59 13
split_gain=228.255 90.3017 78.3074 41.8664 39.6955 38.6289 38.9168 34.758 30.3673 29.5399 27.6583 27.3042 24.4353 30.6065 23.8557 23.6793 23.6408 22.2097 22.1112 21.5221 21.6823 18.767 17.0784 16.6887 16.2939 17.2121 17.0407 15.9134 15.8444 15.6648
threshold=1.0000000180025095e-35 -0.35340000689029688 0.83169502019882213 0.27457499504089361 2.1393499374389653 6.5000000000000009 0.94703501462936412 5.2945001125335702 0.42532500624656683 5.2873499393463144 0.66774499416351329 -1.2560500502586363 0.88756999373435985 5.5580501556396493 0.23288499563932422 1.3276500105857851 14.500000000000002 0.12584999948740008 1.0879500508308413 4.7497999668121347 4.0822501182556161 0.23156499862670901 14.500000000000002 1.0962499976158144 2.8866499662399296 14.341500282287599 0.028608500026166443 3.8124499320983891 1.6080999970436098 3.8156499862670903
decision_type=2 2 2 2 2 2 2 2 2 2 2 2 2 2 2 2 2 2 2 2 2 2 2 2 2 2 2 2 2 2
left_child=2 5 16 4 -3 12 10 18 -4 -9 11 -7 27 -14 -8 24 21 -11 -6 -18 -21 -1 -5 -13 -10 28 -27 -2 -26 -23
right_child=1 3 8 22 7 6 14 9 15 17 -12 23 13 -15 -16 -17 19 -19 -20 20 -22 29 -24 -25 25 26 -28 -29 -30 -31
leaf_value=0.0013831362812497679 -0.0045013903130960578 -0.0014727384349292 -0.0019698566497677707 -0.0026722058734837358 -0.0039468280507167107 0.0038368248246452201 -0.0063979878049413453 -0.0048336328211284821 0.00047288018521566888 0.0037679498924596891 -0.0040488334349660024 0.0020585728769786597 0.00207559230709355 -0.0048495302388518024 -0.0012346948523399314 -0.00084084812942281713 0.0028190142081474722 -0.020778037002571276 -0.0079665640935730406 -0.00045504007108357488 -0.016900079831292356 -0.0011722380792345186 -4.5750043952508355e-05 -0.00014606996992174616 0.00052752563967605783 0.0010763938804386091 0.0045570434473377677 -0.013411023001617461 0.013352548666298389 -0.010050189544871656
leaf_count=5182 391 2562 4794 6843 4033 2264 856 252 29552 37 1151 3966 897 1597 13609 9243 23123 321 1773 833 79 1018 3304 13994 5853 2196 2989 335 88 217
internal_value=0 -0.0482768 0.0329821 -0.104577 -0.154317 -0.0207106 -0.0112845 -0.196336 0.0103607 -0.42341 0.0158231 0.0244046 -0.125628 -0.0786273 -0.0513415 0.0176612 0.0736275 -0.608039 -0.172478 0.0880243 -0.0626519 0.0197038 -0.0605665 0.0113589 0.028043 0.0606609 0.102763 -0.287086 0.0239165 -0.0910723
internal_count=143352 58185 85167 19125 8978 39060 35840 6416 54715 610 21375 20224 3220 2494 14465 49921 30452 358 5806 24035 912 6417 10147 17960 40678 11126 5185 726 5941 1235
shrinkage=0.03


Tree=2
num_leaves=31
num_cat=0
split_feature=69 82 3 15 16 21 10 63 82 74 44 108 49 16 44 91 10 16 77 47 16 16 16 16 7 47 59 7 13 16
split_gain=216.11 102.424 95.0272 83.9954 40.4628 38.721 25.1457 40.1845 31.2161 24.8998 24.754 23.5642 22.4782 22.28 21.6423 23.1819 20.0687 19.7039 18.8778 19.5013 18.513 28.8159 20.7409 21.3874 18.2183 17.5277 18.7335 17.3698 16.9638 16.5574
threshold=1.0016999840736391 0.033554499968886382 -0.18116000294685361 2.8509500026702885 6.9779000282287607 1.0000000180025095e-35 0.096875499933958067 0.84303998947143566 0.07031749933958055 0.80019000172615062 0.90583500266075145 0.91734498739242565 0.098804999142885222 10.03749990463257 0.75286999344825756 0.69971999526023876 0.75051498413085949 8.1389999389648455 0.96341499686241161 0.85914498567581188 15.272999763488771 16.606499671936039 14.03749990463257 11.626500129699709 0.49577499926090246 0.95527499914169323 0.89580500125885021 0.42532500624656683 5.7308499813079843 13.440000057220461
decision_type=2 2 2 2 2 2 2 2 2 2 2 2 2 2 2 2 2 2 2 2 2 2 2 2 2 2 2 2 2 2
left_child=1 5 4 -4 16 11 7 14 10 -7 -8 12 -1 17 15 -3 -2 -5 19 -6 22 -22 23 -15 28 26 -14 -11 -13 -9
right_child=2 6 3 13 18 9 8 29 -10 27 -12 24 25 20 -16 -17 -18 -19 -20 -21 21 -23 -24 -25 -26 -27 -28 -29 -30 -31
leaf_value=0.0029495344545105748 -0.0046799970200372262 0.0028284248891386654 -0.0040309434416031112 -0.013642441599684602 -0.0035509325708754313 -0.00040500711897249107 0.0012985475879982796 -0.002921174686303399 0.0038517624188710593 -0.005672870328553686 0.0043437565133447754 -0.0019525614668657282 0.0013304535505619453 -0.021437355618016057 0.0099234369692773466 -0.0038842499500259435 -0.018930917214001378 0.0035499596879009373 -0.002904895673362373 -4.5346062790360614e-05 0.0075038831836233538 -0.014735104531590184 -0.028371735288084836 -0.0085513940885399292 0.00023978458929786053 0.0015442002007485466 -0.0011852365094860966 -0.0018137625800515413 0.0033648156266091233 -0.011318977781213246
leaf_count=4707 2035 1349 5648 119 1610 17649 20928 604 7660 1278 2714 6368 4465 238 247 705 93 121 3483 12647 72 193 139 226 24248 10410 6605 5876 590 325
internal_value=0 0.0185432 -0.0812992 -0.183751 -0.046461 -0.000656711 0.0642444 -0.0197608 0.0729128 -0.0336728 0.0549375 0.0136115 0.0357309 -0.435496 0.0511117 0.0174805 -0.17676 -0.16582 -0.030831 -0.0147074 -0.51006 -0.28976 -0.606875 -0.505367 -0.0049503 0.022016 -0.00568507 -0.0834386 -0.0500559 -0.195302
internal_count=143352 116728 26624 6756 19868 82196 34532 3230 31302 24803 23642 57393 26187 1108 2301 2054 2128 240 17740 14257 868 265 603 464 31206 21480 11070 7154 6958 929
shrinkage=0.03


Tree=3
num_leaves=31
num_cat=0
split_feature=85 3 93 15 82 16 45 41 111 7 64 16 67 86 56 78 85 16 44 93 9 0 32 13 112 48 9 14 6 57
split_gain=224.618 93.087 83.5829 80.4793 42.146 37.2224 31.0043 29.438 27.47 24.1983 22.9914 24.2708 22.3528 21.5913 21.3156 19.8501 18.1264 16.6008 15.8506 15.8103 15.8245 15.4689 15.4064 23.2137 18.0793 15.3656 15.0525 22.816 17.9222 15.0308
threshold=1.0080500245094302 -0.18116000294685361 0.91935500502586376 2.8509500026702885 0.055432500317692764 6.9779000282287607 0.84420502185821544 0.28618499636650091 0.96982499957084667 0.4220499992370606 1.6314499974250796 10.03749990463257 1.0001999735832217 0.8780600130558015 1.6665499806404116 -1.3509500026702879 22.401999473571781 12.633500099182131 0.86968499422073375 0.86508500576019298 0.61519500613212597 1.3347499966621401 -0.5398450195789336 1.7503499984741213 -0.35832500457763666 1.584649980068207 0.76644498109817516 2.3126000165939335 0.29431499540805822 0.28618499636650091
decision_type=2 2 2 2 2 2 2 2 2 2 2 2 2 2 2 2 2 2 2 2 2 2 2 2 2 2 2 2 2 2
left_child=2 5 4 7 6 26 13 21 12 -4 -5 -12 -7 14 -1 -11 -13 -8 -14 -19 -21 -3 23 -6 -24 -23 27 28 -2 -15
right_child=1 3 9 10 22 8 17 -9 -10 15 11 16 18 29 -16 -17 -18 19 -20 20 -22 25 24 -25 -26 -27 -28 -29 -30 -31
leaf_value=0.0003866963648407929 -0.0043328896112913304 0.0033663162759914518 -0.0025137057641012087 -0.0040510078642679295 -0.0084787540046068321 0.0031181674025376411 0.00077885832030855746 -0.0019648996903990218 -0.0021304446122327827 0.0010778209007044405 -0.0052962791456987977 -0.017265299235610227 -0.0012934347581559369 -8.413830908151479e-05 -0.0027137194642355084 -0.00049832522650945527 -0.0052576359394770943 0.0065230068328022616 0.00045677696840470917 -0.0030879191452839287 0.0029424239462174607 -0.0046681771640328896 0.0039770229077303581 0.0030645105299315877 0.0015163511445983823 -0.0095300840922496171 -0.0076943916947881975 -0.0052620127031248725 0.0040205946880090947 0.0024159249183703904
leaf_count=22819 387 157 4018 345 260 1745 4157 5371 8848 9978 285 727 9469 2997 2187 25750 134 1059 9164 415 6958 1711 8541 395 3921 889 798 1503 574 7790
internal_value=0 -0.0613805 0.0255277 -0.14779 0.0486262 -0.0357963 0.0349954 -0.108614 -0.024488 -0.0102127 -0.361356 -0.429489 -0.00428637 0.0199825 0.00385124 -0.00193814 -0.513217 0.0776802 -0.0144218 0.103177 0.0867666 -0.192613 0.0989031 -0.050585 0.10676 -0.211019 -0.137114 -0.0984552 0.0218867 0.0573774
internal_count=143352 42107 101245 9619 61499 32488 48382 8128 29226 39746 1491 1146 20378 35793 25006 35728 861 12589 18633 8432 7373 2757 13117 655 12462 2600 3262 2464 961 10787
shrinkage=0.03


Tree=4
num_leaves=31
num_cat=0
split_feature=85 54 93 5 10 17 13 92 17 108 13 7 10 17 40 10 71 79 99 53 78 1 44 69 66 10 109 0 29 37
split_gain=211.343 86.1367 78.6431 45.0644 41.7714 36.3903 35.5675 29.5026 27.3172 25.7153 28.9944 22.7681 21.7328 21.7151 21.4896 20.9115 18.7538 18.7362 18.7089 18.9765 18.677 16.3965 15.7716 14.5971 16.5672 14.5545 22.0257 15.2896 14.5156 14.4778
threshold=1.0080500245094302 -0.3394200056791305 0.91935500502586376 1.0442499518394472 0.14369500428438189 2.3266000747680669 1.4350499510765078 0.93740499019622814 1.738600015640259 0.80821502208709728 0.90486499667167675 0.4220499992370606 0.17661499977111819 1.8116500377655032 1.6917499899864199 0.45138500630855566 1.0710499882698061 0.98648500442504894 8.0051999092102069 6.5738501548767099 -1.3509500026702879 2.1657500267028813 0.90583500266075145 1.0000000180025095e-35 446.63499450683599 0.41642500460147863 0.72498500347137462 2.7211999893188481 0.1740049943327904 2.7305499315261845
decision_type=2 2 2 2 2 2 2 2 2 2 2 2 2 2 2 2 2 2 2 2 2 2 2 2 2 2 2 2 2 2
left_child=2 4 5 14 23 9 -5 16 -8 10 -1 -4 -7 -12 17 18 -6 -3 -11 -20 -13 -9 -17 24 28 26 27 -10 -2 -23
right_child=1 3 11 6 7 12 8 21 25 15 13 20 -14 -15 -16 22 -18 -19 19 -21 -22 29 -24 -25 -26 -27 -28 -29 -30 -31
leaf_value=-0.0004879783839629642 0.0017162418165053541 -0.0014454367753333798 -0.0024382939600029237 -0.0035903250525423504 0.0032029265099291506 -0.0077792644121700396 -0.0020293360660153048 -0.0028289300220350807 -0.017450389136991849 -0.00030032640432343266 0.0045201362253612766 0.0010454865438853556 -0.00048377060187830605 0.0021423467571092627 -0.0079761955914295964 0.0011955370778023941 3.0940358481065042e-05 -0.0040908638368164652 0.0028429552965145242 0.018373214261872429 -0.00048337528747551645 0.0032263608506974384 0.0027397900132874759 -0.0054649349518835887 0.020505882693875217 -0.0084670666112738133 -0.01971726059562777 -0.0041543871072946851 -0.0055899624259043964 -0.0012283593158669301
leaf_count=2320 513 6793 4018 1747 1918 401 341 5207 123 9850 5907 9978 4398 8333 657 21030 13380 3734 881 77 25750 845 8302 2124 31 708 361 212 468 2945
internal_value=0 -0.0595391 0.0247618 -0.121374 -0.0264564 0.0471674 -0.220543 -0.0124364 -0.321523 0.0542443 0.0874004 -0.00990633 -0.0364458 0.10429 -0.0904104 0.0405656 0.0142877 -0.0794596 0.00296437 0.136374 -0.00187999 -0.0578766 0.0544205 -0.135071 -0.0362315 -0.383185 -0.485874 -0.301207 -0.0589762 -0.00783855
internal_count=143352 42107 101245 14676 27431 61499 3492 24295 1745 56700 16560 39746 4799 14240 11184 40140 15298 10527 10808 958 35728 8997 29332 3136 1012 1404 696 335 981 3790
shrinkage=0.03


Tree=5
num_leaves=31
num_cat=0
split_feature=37 109 6 69 15 2 57 7 18 16 112 15 89 17 111 82 35 51 19 110 15 101 18 95 92 69 37 92 51 18
split_gain=185.474 65.4277 60.6718 51.8185 46.5317 34.2837 32.2913 25.8275 24.5194 29.7614 24.1423 23.408 22.2978 21.8827 21.4241 19.5521 18.9617 18.2032 20.9027 18.9864 18.6506 18.4538 17.8777 20.0371 17.6603 17.6588 17.5589 17.2748 18.093 17.6442
threshold=1.0000000180025095e-35 0.83169502019882213 0.27233499288558966 2.5000499486923222 3.8927500247955327 4.4141499996185312 0.2489849999547005 0.49136500060558325 6.5000000000000009 5.6952500343322763 -0.412784993648529 2.6485000848770146 0.38443499803543096 2.3266000747680669 0.80276498198509227 0.020315499976277355 3.0867500305175786 3.2538499832153325 1.5385499596595766 -0.76814499497413624 0.093593999743461623 31.953500747680668 6.5000000000000009 0.94142499566078197 0.94456499814987194 178.61499786376956 1.7350500226020815 0.36784000694751745 2.2962499856948857 12.500000000000002
decision_type=2 2 2 2 2 2 2 2 2 2 2 2 2 2 2 2 2 2 2 2 2 2 2 2 2 2 2 2 2 2
left_child=1 10 3 22 15 -6 -4 -3 9 12 -1 -11 -8 -12 -7 16 -5 18 19 -9 -20 -19 -2 -24 27 -26 -14 -10 -29 -30
right_child=2 7 6 4 5 14 8 17 24 11 13 -13 26 -15 -16 -17 -18 21 20 -21 -22 -23 23 -25 25 -27 -28 28 29 -31
leaf_value=0.0028941308072989009 -0.0064193198675992057 -0.0010628499566168314 -0.0040801168432255197 -0.0054244573887256529 -0.0034511701243033835 -0.0035630627799779174 -0.0021396848784414079 -0.0016033512075629653 -0.0026982503310326606 -0.0038982243572282366 0.0014879525543511748 -0.013026573251261086 -0.012756049438164784 -0.0031171745953686306 -0.01903169694381306 -0.0026954060591589009 -0.017416878003804457 -0.00049271599309906806 -0.0042676735789816183 0.00135614155471621 0.0014052084290127784 -0.014457731630739776 0.0011513515309593259 -0.001830446705719059 -0.0010403433012479868 -0.020529485371495994 0.0084246263460634827 0.00094984821126169509 -0.0042975019409467047 0.00049781813583784284
leaf_count=14472 610 10539 2264 2037 314 100 884 4948 1550 1478 14990 305 39 990 415 4870 126 8740 532 3221 26649 86 2629 8876 11168 42 364 17322 1252 1540
internal_value=0 0.029731 -0.0435181 -0.0881761 -0.151399 -0.375478 -0.0201686 0.00905338 -0.0128725 -0.0983397 0.0668837 -0.181991 0.0175498 0.0400885 -0.534269 -0.124986 -0.204101 0.0196653 0.0298083 -0.0145479 0.0431392 -0.0209597 -0.047148 -0.0383026 -0.00489104 -0.0371121 0.212496 0.0117817 0.0196206 -0.055084
internal_count=143352 85167 58185 19977 7862 829 38208 54715 35944 3070 30452 1783 1287 15980 515 7033 2163 44176 35350 8169 27181 8826 12115 11505 32874 11210 403 21664 20114 2792
shrinkage=0.03


Tree=6
num_leaves=31
num_cat=0
split_feature=37 3 8 15 69 18 91 18 111 52 96 69 7 56 103 112 17 43 61 27 57 27 57 81 17 57 56 24 104 43
split_gain=174.512 76.366 59.7489 52.3949 49.2207 37.0071 36.0639 28.9175 28.2533 26.7516 24.501 23.2656 22.6769 19.0767 22.407 17.3283 20.2061 17.42 17.3193 17.2608 17.1911 16.8686 16.4452 18.2506 16.1606 16.1285 16.0145 18.0745 17.6236 15.4951
threshold=1.0000000180025095e-35 0.041713001206517226 0.82000499963760387 4.0523998737335214 2.8619499206542973 6.5000000000000009 0.95621499419212352 14.500000000000002 0.75692501664161693 3.5913499593734746 -0.56448501348495472 1.6908000111579897 0.42532500624656683 0.74981999397277843 1.393549978733063 -0.412784993648529 2.3266000747680669 0.32991999387741094 0.82667499780654918 0.88020500540733349 0.24536500126123431 0.95929500460624706 0.26023499667644506 0.056146500632166869 1.3890500068664553 0.2579800039529801 1.3497499823570254 0.48651999235153204 0.31609499454498297 0.88443499803543102
decision_type=2 2 2 2 2 2 2 2 2 2 2 2 2 2 2 2 2 2 2 2 2 2 2 2 2 2 2 2 2 2
left_child=2 5 7 11 -5 9 18 10 -6 -2 -1 21 -4 -13 -15 25 -17 -18 22 -16 24 -3 23 -7 -8 -9 27 -14 -28 -27
right_child=1 3 12 4 8 6 20 15 -10 -11 -12 13 26 14 19 16 17 -19 -20 -21 -22 -23 -24 -25 -26 29 28 -29 -30 -31
leaf_value=0.0026868379725327228 -0.0024107931713448971 -0.00015835218736986597 -0.0017828935822049297 -0.0038196119771720803 -0.00030622010183806468 -0.004114525494740737 0.0019678969509985258 -0.00029447530197634919 -0.017535483521666933 -0.0088991312683686947 -0.0011003586209217193 -0.0019044988470082959 -0.00077318076838214203 -0.0088134485882736986 0.00081742226716972172 0.0019134380310706295 -0.03055916064977646 -0.0022195316279775526 0.0021685344568803627 -0.0059319055595242988 -0.0011963747434365921 -0.0049091270443426789 0.00028053885468812799 0.0011673381392090486 -0.0063609717733892441 0.0025062016515842991 -0.0063973143011399752 0.0010639358909857262 -0.00026743335260913083 0.0048145548240211434
leaf_count=2299 3048 3298 4561 783 101 1699 261 1083 564 704 4641 1861 5767 1240 558 13235 20 815 3729 877 19928 845 16722 901 1066 5790 437 29348 12395 4776
internal_value=0 -0.0422125 0.028839 -0.121132 -0.297231 -0.0255821 -0.0175068 0.0624237 -0.49729 -0.120941 0.00514062 -0.0917524 0.00795004 -0.141234 -0.195325 0.0778809 0.0542626 -0.0966108 0.00988942 -0.110248 -0.047218 -0.0375771 -0.00215236 -0.0761386 -0.157427 0.106408 0.0143596 0.0254074 -0.015873 0.11832
internal_count=143352 58185 85167 10127 1448 48058 44306 32659 665 3752 6940 8679 52508 4536 2675 25719 14070 835 23051 1435 21255 4143 19322 2600 1327 11649 47947 35115 12832 10566
shrinkage=0.03


Tree=7
num_leaves=31
num_cat=0
split_feature=69 3 18 93 18 66 57 68 41 104 44 92 44 62 10 6 64 46 86 54 29 30 52 75 29 10 17 73 24 91
split_gain=165.532 73.6517 69.8684 69.3513 36.9591 35.6522 29.8401 24.4188 33.6413 25.687 23.2591 22.7565 22.3777 21.2303 19.9246 19.4272 18.4408 18.1833 17.7635 17.163 16.6984 18.3662 16.5607 16.4391 16.3509 16.1409 15.9931 16.33 15.6257 15.5746
threshold=1.0016999840736391 -0.18116000294685361 14.500000000000002 0.92051500082016002 6.5000000000000009 3.4669500589370732 0.2537550032138825 2.3329499959945683 0.29640500247478491 1.4985499978065493 0.95310500264167797 0.82386499643325817 0.91609501838684093 9.8769998550415057 0.70673501491546642 0.25718499720096594 0.11856000125408174 2.3022500276565556 0.8780600130558015 1.6107000112533572 0.91292500495910656 -0.74627497792243946 3.5913499593734746 0.97957497835159313 0.90216499567031871 0.32550500333309179 2.4212999343872075 0.26701499521732336 -0.87911000847816456 0.91865497827529918
decision_type=2 2 2 2 2 2 2 2 2 2 2 2 2 2 2 2 2 2 2 2 2 2 2 2 2 2 2 2 2 2
left_child=2 4 7 6 14 15 10 28 9 19 17 16 18 -7 22 -3 -8 -4 26 -9 21 -19 25 -6 -18 -2 -13 -28 -1 -30
right_child=1 5 3 -5 23 13 11 8 -10 -11 -12 12 -14 -15 -16 -17 24 20 -20 -21 -22 -23 -24 -25 -26 -27 27 -29 29 -31
leaf_value=-0.0078500461363636247 -0.0055980318685561522 -0.0058500255957572508 0.00053064643888934551 -0.00019582924421556285 -9.9290655557013072e-05 -0.007707010192717325 -0.0020955776990751068 -0.0030510174151181461 -0.00092178229486894643 -0.018486930116127103 0.010564960941578013 0.00078647410713489688 0.0030326520745561332 -0.018572146369858197 -0.01513030156899582 -0.0024212885012919634 0.0033757152428654843 -0.012264583736257167 0.0022538679641153736 -0.010074664449113398 0.00675756058975387 -0.0030192498725603572 -0.0099784596561140332 -0.0019837947992517903 0.013305671881688269 0.00088521555538584545 0.011276426129043102 -0.012343902084351386 0.001590062582731874 -0.00037463800721383679
leaf_count=229 789 2828 2446 29569 11362 564 554 2007 9758 118 158 21878 7230 227 165 3137 8224 223 9692 371 134 1456 359 6578 152 615 32 149 4563 17785
internal_value=0 -0.0711524 0.0162288 0.032184 -0.0404818 -0.161348 0.0540589 -0.0212861 -0.0572257 -0.160825 -0.024589 0.0613095 0.0508783 -0.360836 -0.172047 -0.134895 0.106844 -0.0385658 0.039445 -0.138227 -0.114461 -0.141573 -0.140947 -0.0263425 0.118531 -0.0919383 0.0237667 -0.272264 -0.00177931 0.000883776
internal_count=143352 26624 116728 81897 19868 6756 52328 34831 12254 2496 4417 47911 38981 791 1928 5965 8930 4259 31751 2378 1813 1679 1763 17940 8376 1404 22059 181 22577 22348
shrinkage=0.03


Tree=8
num_leaves=31
num_cat=0
split_feature=69 82 3 18 18 66 93 47 18 112 68 38 62 56 103 105 16 59 92 12 47 21 82 29 70 90 1 14 52 112
split_gain=155.749 77.2277 69.2989 43.372 34.7749 33.5452 26.9004 23.5312 22.6282 21.3273 20.6656 26.8589 20.0404 18.9429 23.9404 18.7309 17.5502 17.3253 16.8994 16.4667 16.4338 16.0026 15.9395 23.5425 18.6165 17.2813 16.0082 15.4707 15.2743 15.2648
threshold=1.0016999840736391 0.033554499968886382 -0.18116000294685361 14.500000000000002 6.5000000000000009 3.4669500589370732 0.92051500082016002 0.95527499914169323 12.500000000000002 -0.3931449949741363 1.224900007247925 1.5774499773979189 4.3573999404907235 0.86838001012802135 1.3178499937057497 0.30084499716758734 5.0447499752044687 0.91534501314163219 0.96070498228073131 0.85432499647140514 0.92977499961853038 1.4666000008583071 0.018928499892354015 0.87237501144409191 -1.6009500026702879 0.4330700039863587 2.1139500141143803 2.4923499822616582 3.643550038337708 -0.22597499936819074
decision_type=2 2 2 2 2 2 2 2 2 2 2 2 2 2 2 2 2 2 2 2 2 2 2 2 2 2 2 2 2 2
left_child=1 3 4 10 -2 13 7 17 -3 19 16 21 29 -4 -15 -16 28 -5 -9 -10 -21 -12 26 24 -24 -26 -6 -18 -1 -7
right_child=2 8 5 6 22 12 -8 18 9 -11 11 -13 -14 14 15 -17 27 -19 -20 20 -22 -23 23 -25 25 -27 -28 -29 -30 -31
leaf_value=0.0071885812874958087 -0.005006571620455421 -9.1373459038585905e-05 -0.0022498060917762199 0.00097754996518344887 -0.0036050442455093988 0.0017320754589899531 -0.00018896585078504932 0.0018709994104630188 0.0038307064707819999 0.0008875618887990639 -0.00045056204572021825 -0.0086938293134557736 -0.014743460858097442 -0.0093646122189284531 -0.0059845157147716248 8.7970328824329242e-05 5.7970029637913836e-05 -0.0012976947384206552 0.0086787816689789105 0.00093758218397263721 0.00312158035208403 -0.0029184518663479386 0.0052123537370569436 0.0022718312887767284 -0.0069544149716808034 -0.00086398173109385808 -0.00032251021965050403 -0.0020520348239434633 -0.0066122856796827422 -0.01086601222580985
leaf_count=449 1928 5554 3009 9763 2973 159 29545 12528 6408 10115 4498 529 442 1015 1204 737 10700 4356 337 6629 5826 4986 433 2752 440 8912 2430 4419 86 190
internal_value=0 0.015742 -0.0690178 -0.000929897 -0.0392673 -0.156508 0.0145487 0.0373749 0.0554258 0.0666326 -0.0350199 -0.0704986 -0.350011 -0.130848 -0.187704 -0.122626 -0.0123262 0.00918635 0.068311 0.0864987 0.0653059 -0.0582667 -0.0255522 -0.0059842 -0.0289654 -0.038351 -0.0709575 -0.0186248 0.165671 -0.170883
internal_count=143352 116728 26624 82196 19868 6756 56529 26984 34532 28978 25667 10013 791 5965 2956 1941 15654 14119 12865 18863 12455 9484 17940 12537 9785 9352 5403 15119 535 349
shrinkage=0.03


Tree=9
num_leaves=31
num_cat=0
split_feature=69 82 3 15 18 18 93 10 63 82 16 49 10 10 68 46 6 14 68 35 49 13 98 10 30 29 64 16 30 52
split_gain=146.544 72.6636 65.2494 58.1311 40.8087 30.8557 25.3106 22.8033 36.5902 25.2091 22.3071 21.6089 21.0755 20.852 21.6802 19.9644 19.9097 19.8649 18.487 24.4238 28.7669 19.2942 17.7286 20.1556 18.266 17.5306 17.345 17.0875 16.6112 16.5125
threshold=1.0016999840736391 0.033554499968886382 -0.019945000298321244 3.7498500347137456 14.500000000000002 6.5000000000000009 0.92051500082016002 0.096875499933958067 0.84303998947143566 0.07031749933958055 10.03749990463257 0.098804999142885222 0.70673501491546642 0.55853497982025158 5.4000999927520761 15.278500080108644 0.21051499992609027 119.53499984741212 1.224900007247925 2.540449976921082 0.20478499680757525 2.2182500362396245 0.026157499291002754 0.77937999367713939 5.0885500907897958 0.92144501209259044 1.5347500443458559 5.0447499752044687 1.2475999593734743 3.5913499593734746
decision_type=2 2 2 2 2 2 2 2 2 2 2 2 2 2 2 2 2 2 2 2 2 2 2 2 2 2 2 2 2 2
left_child=1 4 5 22 16 12 11 8 15 13 -5 28 29 14 -9 -3 -1 -12 27 21 -21 -20 23 26 -24 -13 -4 -18 -6 -2
right_child=2 7 3 10 6 -7 -8 9 -10 -11 17 25 -14 -15 -16 -17 18 -19 19 20 -22 -23 24 -25 -26 -27 -28 -29 -30 -31
leaf_value=-0.0052418934324257377 -0.0023515200868067586 0.0018023695516826124 -0.0028330521837070391 -0.0013352949413759955 0.0020853067738054996 -0.00083432944354587448 -0.00018329710706899483 0.0012328669986629392 -0.0058122115277467676 0.0033562239792402204 -0.018234965833298828 0.0005007181323154374 -0.014801590226982768 0.002594922856202365 -0.0017671893759705552 -0.012689353652884452 0.0055534423780348764 -0.0078828464592789801 -0.0036420491550163679 -0.00029249523549970956 -0.0088061084511822894 -0.00034756321428050703 -0.0030371630691207146 -3.744683263445259e-05 0.0087506517425912332 0.0040962735894333902 -0.012732925433338734 -0.00037536449465996175 0.0066768609499242024 -0.0092978883915817833
leaf_count=967 1479 2212 231 145 3618 18692 29545 12800 929 7660 434 21189 171 8232 2610 89 451 271 2189 594 896 5945 3911 266 122 1295 513 14625 882 389
internal_value=0 0.0152697 -0.0669473 -0.1598 -0.000902002 -0.040553 0.0141122 0.053763 -0.0262338 0.0620178 -0.401719 0.0362536 -0.157362 0.0458643 0.0241582 0.0413949 -0.0339693 -0.475188 -0.0284586 -0.0626999 -0.180403 -0.0411389 -0.119024 -0.237505 -0.0893526 0.0235937 -0.321972 -0.00660012 0.0995084 -0.126602
internal_count=143352 116728 26624 5893 82196 20731 56529 34532 3230 31302 850 26984 2039 23642 15410 2301 25667 705 24700 9624 1490 8134 5043 1010 4033 22484 744 15076 4500 1868
shrinkage=0.03


Tree=10
num_leaves=31
num_cat=0
split_feature=37 54 109 92 108 41 54 7 112 54 16 112 2 10 22 52 32 3 62 7 2 24 46 48 101 111 83 89 3 104
split_gain=141.857 69.0526 52.0658 33.0793 35.1319 32.0977 26.6812 24.4045 21.7175 20.2801 18.8969 18.3847 18.4433 18.0274 17.7048 16.4063 16.2506 15.2394 20.549 18.0759 14.9725 16.2353 14.9698 19.5594 14.9001 14.5304 15.2088 14.5164 14.473 13.9099
threshold=1.6548500061035158 -0.35340000689029688 0.8292750120162965 0.43205000460147863 0.92795500159263622 0.30396500229835516 1.4908500313758852 0.49136500060558325 -0.40303999185562128 1.3276500105857851 8.2181997299194354 -1.0569000244140623 2.6965500116348271 0.59840500354766857 -1.1180500388145445 5.3379499912261972 -1.2032999992370603 -0.66121500730514515 1.1471999883651736 0.67416501045227062 5.0817000865936288 0.55329999327659618 9.9484496116638201 3.1672999858856206 2.0498499870300297 0.96764498949050914 6.8583998680114755 0.32399499416351324 0.86491000652313244 0.28168000280857092
decision_type=2 2 2 2 2 2 2 2 2 2 2 2 2 2 2 2 2 2 2 2 2 2 2 2 2 2 2 2 2 2
left_child=2 3 8 -2 11 6 25 13 16 14 -7 12 -5 -4 -9 -12 -1 -8 19 -19 -14 -22 29 -24 -11 -3 -27 -23 -13 -10
right_child=1 5 7 4 -6 10 17 9 22 24 15 28 20 -15 -16 -17 -18 18 -20 -21 21 27 23 -25 -26 26 -28 -29 -30 -31
leaf_value=-0.0051482981667857787 -0.0038697632571110005 -0.0018228480647372706 -0.0022676830059888279 -0.0019856104280288312 -0.0015804565734013547 -0.0042922995428680251 -0.0031420788973508798 -0.00053542452000311289 -0.0011734122782508134 -0.00051085567721642264 -0.0014296319121167432 0.00029740920497856195 0.0058558611521294579 0.00018362105002502413 0.0011606206645979791 0.0020177414204635476 0.0027393687364850204 -0.014858239891023195 -0.010300566373216852 -0.0021964859450100791 -0.0024302097190828887 0.010435774841763336 -0.030914349228143689 -0.0011007957837230881 -0.0065516266491893044 -0.0049259715136125044 0.019074825420975685 -0.00083073210152419838 -0.0035021129172307184 0.0017275282142779195
leaf_count=239 2353 4653 5439 612 11360 1595 976 6810 1703 8081 5802 20897 1387 5362 29688 1581 14331 119 1153 689 544 232 20 2029 385 2398 24 185 943 11762
internal_value=0 -0.0384367 0.0257455 -0.0141033 -0.00662726 -0.0877866 -0.126718 0.00765732 0.0592746 0.0179104 -0.044371 0.0144687 0.0884264 -0.0350256 0.0281388 -0.023047 0.0869994 -0.206841 -0.257659 -0.135376 0.128726 0.0327915 0.0332368 -0.0463934 -0.0261855 -0.0934577 -0.156271 0.181248 0.00444516 0.0453543
internal_count=143352 57503 85849 38513 36160 18990 10012 55765 30084 44964 8978 24800 2960 10801 36498 7383 14570 2937 1961 808 2348 961 15514 2049 8466 7075 2422 417 21840 13465
shrinkage=0.03


Tree=11
num_leaves=31
num_cat=0
split_feature=85 54 82 10 6 93 49 5 13 8 71 29 57 89 110 74 10 76 94 78 75 80 40 33 76 114 22 71 114 70
split_gain=147.847 67.6643 56.8025 33.6791 32.6121 28.3835 27.8938 25.0191 27.579 23.1097 18.3349 17.6933 18.5774 18.7748 16.0686 14.9894 14.7815 23.4057 18.873 19.6758 16.6948 14.5484 14.4176 19.666 15.1363 13.6136 19.3246 15.1138 13.4793 13.2312
threshold=1.0080500245094302 -0.3394200056791305 0.055432500317692764 0.14369500428438189 0.27457499504089361 0.92051500082016002 0.19575999677181247 1.0442499518394472 1.5134499669075014 0.85547500848770153 1.0232500433921816 0.92025500535964977 0.27187499403953558 0.26838499307632452 0.92997002601623546 6.5606000423431405 0.077566999942064299 0.68094497919082653 -1.5422499775886533 -0.98241502046585072 0.99999499320983898 -0.5502449870109557 1.6917499899864199 0.08227150142192842 0.97430500388145458 0.17458999902009967 -1.34674996137619 1.1043500304222109 0.34176500141620642 -1.7332499623298643
decision_type=2 2 2 2 2 2 2 2 2 2 2 2 2 2 2 2 2 2 2 2 2 2 2 2 2 2 2 2 2 2
left_child=2 3 5 -2 7 6 -1 22 -9 25 -10 12 -8 28 -11 -6 17 -4 -19 21 -18 -20 24 -24 -3 27 -27 -5 -14 -16
right_child=1 4 16 9 15 -7 11 8 10 14 -12 -13 13 -15 29 -17 20 18 19 -21 -22 -23 23 -25 -26 26 -28 -29 -30 -31
leaf_value=0.0019670250862126953 -0.0035401482523326304 -0.0017348905735733835 0.0026581234824292511 0.0033709965039646194 -0.0016501114511109412 -0.00025814796040412111 -0.0013472802503900864 -0.003922598312118491 0.0032618746454162253 -0.0014047603180969705 -0.011260335273637425 0.0034394320954009429 0.0031357675203448768 0.00026599985242933925 -0.020157259259372947 -0.011418604060697059 0.003020668064012787 0.0054066997372052249 0.016483208499848842 -0.014910405709825712 -0.0074048640738640509 -0.0045212690459341173 0.0086056125597205272 -0.01352095069207809 -0.0058978358834940094 0.005546472771731141 -0.0043807248938398397 0.00048599537053649322 -0.0057686634005411812 0.0046922093867592116
leaf_count=13854 3136 2970 1225 1994 7755 38924 5594 1242 84 11555 1142 1622 3080 24893 20 144 10984 153 32 174 140 409 43 227 1069 219 909 9059 161 539
internal_value=0 -0.0497983 0.0207107 -0.0204768 -0.104603 0.0115726 0.0275345 -0.155496 -0.23578 -0.00788784 -0.342178 0.012629 0.00772282 0.0181879 -0.0388147 -0.0609398 0.0821062 0.00279778 -0.134068 -0.212257 0.0963153 -0.0999045 -0.109512 -0.333236 -0.0945565 0.0228689 -0.081779 0.0335487 0.089781 0.126771
internal_count=143352 42107 101245 27431 14676 88128 49204 6777 2468 24295 1226 35350 33728 28134 12114 7899 13117 1993 768 615 11124 441 4309 270 4039 12181 1128 11053 3241 559
shrinkage=0.03


Tree=12
num_leaves=31
num_cat=0
split_feature=85 56 82 3 18 93 44 81 98 41 82 56 28 25 17 100 66 24 35 24 36 71 44 4 45 62 111 90 25 35
split_gain=139.109 63.6903 53.4455 37.0047 29.0087 33.7494 28.3343 26.2192 26.6261 22.2399 23.3338 21.9602 21.3326 17.2588 16.9682 17.1953 16.9094 16.4773 16.407 15.7314 15.6963 15.4819 18.7436 15.4292 15.4218 14.8507 14.6945 14.7302 14.1824 15.111
threshold=1.0080500245094302 0.83915501832962047 0.055432500317692764 0.064346499741077437 17.500000000000004 0.92108500003814708 0.91609501838684093 0.47409999370574957 0.02346149925142527 0.30244499444961553 0.37608499825000768 1.6856500506401064 0.96954500675201427 0.29693499207496649 2.3266000747680669 7.8545999526977548 1.2940500378608706 0.42636500298976904 3.7717499732971196 -0.50380501151084889 2.2711499929428105 1.0347500443458559 0.69987499713897716 2.3054499626159672 0.83925500512123119 3.6576499938964848 0.9700949788093568 0.78114500641822826 0.31675499677658087 2.3826500177383427
decision_type=2 2 2 2 2 2 2 2 2 2 2 2 2 2 2 2 2 2 2 2 2 2 2 2 2 2 2 2 2 2
left_child=2 7 4 18 11 6 14 8 -2 10 16 -1 19 -9 -6 24 -5 -7 -3 25 -12 22 -21 -8 -16 -10 27 -24 29 -13
right_child=1 3 -4 9 5 17 23 13 12 -11 20 28 -14 -15 15 -17 -18 -19 -20 21 -22 -23 26 -25 -26 -27 -28 -29 -30 -31
leaf_value=-7.7158472968464438e-05 -0.0022284211511798234 -0.0018038561599825909 0.0023892908549596414 -0.0067517597016738028 0.0012500665562722708 -0.002119656611678743 0.0035319018246761633 -0.00044252725128167669 -0.00055326422967878319 -0.0027435765914089545 -0.016309847474098207 -0.001024051506927505 0.0067434878999407359 -0.0063599226408754678 -0.0011173634385886935 -0.00556471525597463 -0.01252719929850651 0.00022344828127087026 -0.0076572119777837955 -0.0020235156057558743 -4.7862547042433484e-05 -0.00027196495660148528 0.0027485562768895817 -0.012022736563250936 0.0066109008342027662 -0.008796880071431817 -0.00072045152848388284 0.0086389937438070778 -0.00027939950192089775 -0.0064317591958154788
leaf_count=33428 5935 8166 13117 1267 22750 3191 5493 716 441 1541 60 771 419 1166 1391 654 713 17595 455 751 487 17419 1052 58 279 355 564 600 1346 1172
internal_value=0 -0.0483043 0.0200894 -0.107522 0.0112254 0.0265579 0.0476662 -0.0227616 -0.0149568 -0.186137 -0.243876 -0.0102431 0.00134278 -0.136956 0.0333544 -0.0480369 -0.294383 -0.00454192 -0.0704262 -0.00307707 -0.0610542 0.002308 0.0690808 0.112313 0.00579219 -0.140992 0.115351 0.162931 -0.0882096 -0.142864
internal_count=143352 42107 101245 12689 88128 51411 30625 29418 27536 4068 2527 36717 21601 1882 25074 2324 1980 20786 8621 21182 547 20386 2967 5551 1670 796 2216 1652 3289 1943
shrinkage=0.03


Tree=13
num_leaves=31
num_cat=0
split_feature=37 54 109 38 92 93 15 0 68 7 27 112 17 96 54 55 10 77 41 70 34 10 22 109 74 60 32 3 63 37
split_gain=121.401 59.1842 45.3358 27.4571 26.2165 29.5689 23.3537 24.4651 28.0944 22.5583 19.9959 19.5268 19.9133 18.6175 18.5427 18.0001 17.0465 16.629 21.3658 16.6269 16.5897 16.5759 16.1518 15.7789 15.695 15.2803 15.0831 14.3163 20.5152 14.1853
threshold=1.6548500061035158 -0.24183999747037885 0.8292750120162965 1.4745000004768374 0.43205000460147863 0.92864501476287853 2.778750061988831 1.7241500020027163 1.0000000180025095e-35 0.49136500060558325 0.94263499975204479 -0.40303999185562128 2.3266000747680669 -1.1921499967575071 1.3276500105857851 1.039949953556061 0.50072500109672557 0.94966500997543346 0.34592500329017645 -1.7954500317573545 3.3305000066757207 0.16857999563217166 -1.1180500388145445 0.19960000365972522 1.3159499764442446 0.88995498418807995 -1.2032999992370603 -0.66892498731613148 0.95061498880386364 18.458000183105472
decision_type=2 2 2 2 2 2 2 2 2 2 2 2 2 2 2 2 2 2 2 2 2 2 2 2 2 2 2 2 2 2
left_child=2 4 11 6 -2 13 15 20 -9 16 23 26 -13 -6 22 -3 -4 29 24 -15 -8 -14 -11 -5 -19 -25 -1 28 -21 -17
right_child=1 3 9 10 5 -7 7 8 -10 14 -12 12 21 19 -16 17 -18 18 -20 27 -22 -23 -24 25 -26 -27 -28 -29 -30 -31
leaf_value=-0.0050325852242847861 -0.0034135388738611976 0.01477104753628373 -0.0028065537057267238 0.0027640337390032145 0.0026814087351369961 -0.001438052395143233 -0.0051660573973422424 0.0017917556822607196 -0.010936970236970293 -0.00052040361366870647 -0.0089874831757092086 0.001187709078934238 -0.011687224509054525 0.004969080816862011 -0.00076106460860050538 -0.0014760862556152748 -0.0002265794007066456 -0.0029987382078041254 0.001036371891253761 -0.00020074588044945917 0.0027144798240128984 -0.001425152614788936 0.0010995489995017131 -0.0063174728669713586 -0.0074996267974649262 0.0069481243583005533 0.0025664563587308553 -0.0012121000786783102 0.0023351411800153171 0.0018364544422113198
leaf_count=239 2502 60 3334 303 2739 12484 557 194 798 6810 940 14559 173 605 8466 7330 7467 2393 840 11345 423 782 29688 856 984 86 14331 6837 3844 1383
internal_value=0 -0.0355575 0.023817 -0.0847748 -0.0146455 -0.00809274 -0.0694828 -0.170882 -0.281589 0.00693827 -0.189488 0.0551041 0.0304145 0.0115128 0.0167959 -0.0540895 -0.0340984 -0.0566253 -0.108174 0.00208856 -0.0588187 -0.109472 0.0265763 -0.106365 -0.143674 -0.170213 0.0813935 -0.00240369 0.014701 -0.0316764
internal_count=143352 57503 85849 17147 40356 37854 14962 1972 992 55765 2185 30084 15514 25370 44964 12990 10801 12930 4217 22631 980 955 36498 1245 3377 942 14570 22026 15189 8713
shrinkage=0.03


Tree=14
num_leaves=31
num_cat=0
split_feature=85 54 93 15 0 18 77 42 56 6 26 33 62 7 51 14 91 25 87 62 16 10 33 68 62 65 90 94 73 0
split_gain=125.801 57.6712 46.6105 37.0128 33.5032 31.032 26.7128 26.5064 23.0167 21.7777 19.5992 17.9655 17.9543 17.3508 17.2176 17.191 23.1892 17.0158 15.4471 15.2962 15.0383 18.8555 14.1361 14.0596 13.9842 13.7655 13.5733 13.5028 13.1528 17.2955
threshold=1.0080500245094302 -0.3394200056791305 0.91819500923156749 2.5893499851226811 1.6036500334739687 6.5000000000000009 0.8098450005054475 0.28908000886440283 1.8403999805450442 0.27457499504089361 0.46537500619888311 0.079360999166965498 1.9732499718666079 0.42532500624656683 3.9763000011444096 9.1240000724792498 0.92655497789382946 0.37893499433994299 1.379849970340729 16.824500083923343 15.272999763488771 0.019901500083506111 5.0462999343872079 9.0352501869201678 -1.5928500294685362 1.8374499678611758 1.3993499875068667 -1.558149993419647 0.35908499360084539 1.7075499892234804
decision_type=2 2 2 2 2 2 2 2 2 2 2 2 2 2 2 2 2 2 2 2 2 2 2 2 2 2 2 2 2 2
left_child=2 5 7 9 18 17 -6 14 19 10 -3 -10 -13 -4 24 16 -7 -2 -5 -9 21 26 -20 28 -1 -18 -8 -16 -11 -30
right_child=1 3 13 4 6 15 20 8 11 23 -12 12 -14 -15 27 -17 25 -19 22 -21 -22 -23 -24 -25 -26 -27 -28 -29 29 -31
leaf_value=-0.0087838058000050696 -0.0049304019724442857 0.0035861245616556356 -0.0020292841433004441 -0.0069388815992895286 -0.0028746860700412692 0.0014903232686999002 -0.0096954648027714994 0.0010104900413636913 0.0075537272622762629 -0.0016501652550023275 -0.0041358757869600794 0.0015227483569904923 -0.0069483914546778092 -2.2601924766436169e-06 0.0092985885605624281 -0.0030303942997403359 -0.0010250878675659282 0.0010757078371036832 -0.0013380460108497311 -0.00065141900123897917 -0.0056204730283249829 -0.017480062888975582 0.011280419534215561 -0.006578757658941098 0.0022987593427698256 0.0012369942273256617 0.014354121751255458 4.4333782941309405e-05 -0.00050198741661289985 0.0063135967212609749
leaf_count=103 2056 313 4245 255 351 6565 97 28168 121 5089 5388 311 816 36298 146 1840 13484 535 252 6056 204 519 117 416 19928 2951 27 5053 1180 468
internal_value=0 -0.0459357 0.0191043 -0.096532 -0.22992 -0.0188658 -0.327786 0.0366395 0.0190161 -0.0776248 -0.123731 -0.114378 -0.153692 -0.0071499 0.061417 -0.00800304 -0.000562236 -0.123008 -0.0420296 0.0238804 -0.423913 -0.498966 0.0887644 -0.0408781 0.0747257 -0.0206306 -0.148629 0.0101405 -0.0298613 0.0477835
internal_count=143352 42107 101245 14676 1822 27431 1198 60702 35472 12854 5701 1248 1127 40543 25230 24840 23000 2591 624 34224 847 643 369 7153 20031 16435 124 5199 6737 1648
shrinkage=0.03


Tree=15
num_leaves=31
num_cat=0
split_feature=85 56 82 6 10 97 17 93 10 68 6 41 22 33 45 112 82 5 41 29 69 45 46 96 83 50 10 76 17 94
split_gain=118.366 54.4652 47.2633 41.3662 35.5633 25.4245 22.6512 23.6627 18.0353 17.6755 17.5005 20.6339 16.4654 16.2681 15.6191 15.598 20.5505 18.3863 15.5856 15.0778 14.8485 14.2699 15.3904 13.8134 13.7536 13.5708 13.5502 21.9928 18.0485 17.9023
threshold=1.0080500245094302 0.83915501832962047 0.055432500317692764 0.27457499504089361 0.14369500428438189 0.02471250016242266 2.2899000644683842 0.92051500082016002 0.45138500630855566 2.178900003433228 0.25332500040531164 0.25981500744819647 -1.4195500016212461 1.188849985599518 0.83548498153686535 -0.71617001295089711 0.15319000184535983 0.37345500290393835 0.30146500468254095 0.948194980621338 1.0016999840736391 0.70811498165130626 0.095627501606941237 -1.1175499558448789 2.6023499965667729 0.52358499169349682 0.077566999942064299 0.68094497919082653 1.738600015640259 -1.5422499775886533
decision_type=2 2 2 2 2 2 2 2 2 2 2 2 2 2 2 2 2 2 2 2 2 2 2 2 2 2 2 2 2 2
left_child=2 4 6 15 -2 -6 7 8 9 -1 21 -12 -11 19 24 20 17 -17 25 -7 -3 22 -8 -21 -10 -19 27 -4 -29 -30
right_child=1 3 26 -5 5 13 10 -9 14 12 11 -13 -14 -15 -16 16 -18 18 -20 23 -22 -23 -24 -25 -26 -27 -28 28 29 -31
leaf_value=0.00053738845497806897 -0.0035481451741022751 0.0027721495135140813 0.0024533259418545936 -0.0014368627870270873 -0.0020835121349736521 -0.00052053456596455258 0.0045133290393278005 -8.435564590327035e-05 0.00024124908440982166 0.004771170579507703 -0.004369087873060189 0.0001632858066219548 -0.0035504555804976102 0.001423455155231337 0.0023436303175480601 -0.0035161369142617353 0.0033929225633090193 -0.0064560228216981718 -0.0051908813837481423 -0.0014010197074333232 -0.0039575266291918291 -0.001705496762810914 -0.0084092083081114474 0.011136595460494565 0.0019940294275523742 -0.012567069764905568 0.0026441694588321056 0.00091247936256793358 0.003110918062297921 -0.011741295189042635
leaf_count=11590 3329 363 1225 7006 5424 13517 96 33703 11146 244 1002 9244 1740 6821 10397 1199 198 541 978 134 1577 2046 610 193 6310 827 11124 357 95 316
internal_value=0 -0.0445576 0.0185312 -0.0993191 -0.0209371 -0.00851703 0.0101956 0.016864 0.0328712 0.00298292 -0.0283485 -0.00933181 -0.0842343 0.00747633 0.0474372 -0.162714 -0.200431 -0.217943 -0.269428 -0.0122181 -0.0899438 -0.0991495 -0.221735 0.199962 0.0291615 -0.338345 0.0745346 -0.00139877 -0.134069 -0.276943
internal_count=143352 42107 101245 12689 29418 26089 88128 75130 41427 13574 12998 10246 1984 20665 27853 5683 3743 3545 2346 13844 1940 2752 706 327 17456 1368 13117 1993 768 411
shrinkage=0.03


Tree=16
num_leaves=31
num_cat=0
split_feature=85 3 15 82 15 18 36 38 15 56 82 51 7 75 10 29 37 34 34 34 108 95 13 46 76 67 7 42 69 91
split_gain=111.371 52.2781 52.3009 44.7901 31.3215 28.5036 22.9607 22.1455 19.6104 27.1538 19.417 19.1954 16.9213 16.886 26.0051 16.686 16.3177 15.8027 15.4787 15.1724 15.0687 15.0558 14.8647 15.9436 14.763 14.6936 14.4163 14.3559 13.6101 13.4265
threshold=1.0080500245094302 -0.18116000294685361 5.5971999168396005 0.025578999891877178 95.929496765136733 6.5000000000000009 2.0000499486923222 -0.56182497739791859 2.0654499530792241 1.896650016307831 0.018928499892354015 4.2415499687194833 0.30786499381065374 0.84419500827789318 0.31444500386714941 0.87471500039100658 1.7350500226020815 71.576000213623061 1.0742500424385073 5.601449966430665 0.88815498352050792 0.9910150170326234 2.6438499689102177 4.6072499752044687 0.97995501756668102 1.5188500285148623 0.456375002861023 6.5290501117706308 10.253499984741213 0.94820499420166027
decision_type=2 2 2 2 2 2 2 2 2 2 2 2 2 2 2 2 2 2 2 2 2 2 2 2 2 2 2 2 2 2
left_child=3 5 7 12 -4 -2 11 22 19 13 17 26 -1 -10 25 18 -9 -7 -12 -8 -16 29 23 -3 -22 -15 -5 -20 -24 -18
right_child=1 2 4 6 -6 10 8 16 9 -11 15 -13 -14 14 20 -17 21 -19 27 -21 24 -23 28 -25 -26 -27 -28 -29 -30 -31
leaf_value=-0.0039915937767859462 -0.0036047949680279886 -0.0016145453650285215 -0.013315674810740061 -0.0001396593607165322 -0.00059320112642569415 -0.0015890731652502925 0.0012423489246215745 0.0016209688037633896 0.0037539180140686397 -0.0099082072002014947 -0.0010620375527378302 -4.8826626181533881e-05 6.6151408226589371e-05 0.00019956800048826726 0.0015154046802253055 0.0018299284755850015 -0.0043609503019272 0.01548879635577299 0.001053743036025118 -0.017258691631257532 -0.0031675361408620858 -0.00089624625004442598 0.0024996341673864256 -0.0081877389338455703 -0.028373705392534081 -0.0050929908812376327 0.0026853760152644227 -0.014935144852189457 -0.0035916195789381894 -0.0087572377700887404
leaf_count=940 2818 2635 681 1814 234 10161 15016 390 786 280 9785 3476 57669 682 2899 4020 1879 49 5604 40 423 696 1350 380 22 1534 15664 51 437 937
internal_value=0 -0.0432209 -0.107977 0.0179752 -0.335402 -0.024048 0.0426355 -0.0840689 0.0198222 -0.0255116 -0.0149195 0.0662414 3.57098e-05 -0.0120648 -0.0314597 0.00361041 -0.140025 -0.0502371 -0.0113311 0.0397732 0.0242132 -0.161575 -0.0385999 -0.0814336 -0.147123 -0.115471 0.0797391 0.0303182 0.0336685 -0.194126
internal_count=143352 42107 9619 101245 915 32488 42636 8704 21682 6626 29670 20954 58609 6346 5560 19460 3902 10210 15440 15056 3344 3512 4802 3015 445 2216 17478 5655 1787 2816
shrinkage=0.03


Tree=17
num_leaves=31
num_cat=0
split_feature=85 54 81 15 18 1 87 77 10 59 61 92 6 43 110 7 75 25 88 75 6 40 84 73 92 81 96 103 63 54
split_gain=104.789 50.6484 39.9431 32.5811 27.4148 22.6828 28.7007 26.8623 19.8318 32.8829 26.918 24.2424 18.8606 17.9646 17.3785 20.2068 16.3633 15.9746 14.9565 18.285 17.1929 14.73 14.7039 14.6784 14.9209 17.0971 16.2649 15.3264 14.7204 15.8869
threshold=1.0080500245094302 -0.3394200056791305 0.030514500103890899 2.5893499851226811 6.5000000000000009 2.6762499809265141 1.379849970340729 0.81591501832008373 0.077566999942064299 0.69415500760078441 0.0055477500427514323 0.82386499643325817 0.27381500601768499 0.87910500168800365 -1.6525500416755674 0.30786499381065374 0.99999499320983898 0.37893499433994299 0.90972498059272777 0.93808501958847057 0.28975500166416174 2.6582999229431157 4.6744499206542978 0.44748499989509588 0.94223499298095714 0.66774499416351329 -1.2119500041007993 1.7907499670982363 0.95227497816085827 -1.2556499838829038
decision_type=2 2 2 2 2 2 2 2 2 2 2 2 2 2 2 2 2 2 2 2 2 2 2 2 2 2 2 2 2 2
left_child=2 4 14 12 17 6 -5 -7 9 -4 -11 16 -3 21 -1 -16 -10 -2 20 -20 -15 22 -13 24 25 26 -6 28 -28 -30
right_child=1 3 8 5 23 7 -8 -9 11 10 -12 13 -14 18 15 -17 -18 -19 19 -21 -22 -23 -24 -25 -26 -27 27 -29 29 -31
leaf_value=0.0038503683190792798 -0.0046348372508195528 -0.0034565467902635417 0.0011679234616965462 -0.0091723849554272256 0.0029379002038490329 -0.0018462387072199051 0.0023874700653167174 -0.012469874664376044 0.0029680274922867927 0.011783670568075336 -0.0091616202866591466 0.00090434211317872825 -0.0011388200189134414 -0.00089980155550698285 -0.0042707199013227075 7.9329432567216312e-05 -0.0073679757027753758 0.0011846107786921698 0.0041834607996208348 0.001451430710518569 0.0021702427148312751 -0.011554807023360179 -0.0020953044986802769 0.0031641365672120231 -0.0014841035839468653 -0.00343373981999832 -0.00017551833069467867 -0.0024492918914519189 0.0058139201054549991 0.00089151103016174419
leaf_count=1080 2056 5597 1249 340 1994 303 448 731 8978 61 583 4095 7257 4037 976 62792 140 535 2901 9187 2767 104 2295 1121 7240 1117 8564 1917 827 2060
internal_value=0 -0.0419242 0.017436 -0.08934 -0.0165561 -0.214488 -0.0866762 -0.311892 0.0439484 -0.0557085 -0.239256 0.0494159 -0.0716008 0.0335302 0.00255543 0.000424994 0.0936442 -0.11444 0.0491267 0.0702364 0.0116234 -0.0118424 -0.00576653 -0.00634599 -0.0116307 0.00499399 0.0136796 0.00111259 0.0149666 0.0767189
internal_count=143352 42107 101245 14676 27431 1822 788 1034 36397 1893 644 34504 12854 25386 64848 63768 9118 2591 18892 12088 6804 6494 6390 24840 23719 16479 15362 13368 11451 2887
shrinkage=0.03


Tree=18
num_leaves=31
num_cat=0
split_feature=18 93 14 57 68 17 6 66 92 18 86 16 14 17 16 49 24 44 13 101 3 38 73 92 87 62 97 27 36 65
split_gain=99.7952 47.2777 41.187 33.2871 25.0682 24.4206 30.9849 26.9476 18.8912 39.3299 21.9299 21.2593 23.0514 18.604 17.6813 18.8632 17.3755 17.334 17.0055 16.9513 16.4296 16.0455 15.774 15.5888 15.4966 15.4617 15.2669 15.1245 17.1128 16.7972
threshold=14.500000000000002 0.92051500082016002 5.2193498611450204 0.2537550032138825 1.0019000172615053 1.5396000146865847 0.28201499581336981 1.6042500138282778 0.90368500351905834 10.500000000000002 1.9705500006675722 15.272999763488771 119.53499984741212 2.3266000747680669 15.171499729156496 0.027664999477565292 0.40977500379085546 0.95310500264167797 2.2182500362396245 4.9713499546051034 1.8238500356674197 4.3950998783111581 0.47927500307559973 0.93244498968124401 2.2485500574111943 1.1471999883651736 0.0067461000289767989 0.90017500519752514 4.0995500087738046 0.25006000697612768
decision_type=2 2 2 2 2 2 2 2 2 2 2 2 2 2 2 2 2 2 2 2 2 2 2 2 2 2 2 2 2 2
left_child=2 3 5 17 -4 -1 7 14 10 25 -6 12 -11 24 15 -7 22 20 27 -19 21 -2 -3 -22 -5 -10 -20 28 -17 -29
right_child=1 16 4 13 8 6 -8 -9 9 11 -12 -13 -14 -15 -16 18 -18 19 26 -21 23 -23 -24 -25 -26 -27 -28 29 -30 -31
leaf_value=0.00073761307299137122 -0.00013918434829367579 -0.0022582536323388978 -0.00099702408981219739 0.0011634231042632821 -0.0028206328220181437 0.00078148297216834096 -0.0002813633564127567 0.00023744043077953081 0.0082830565209899634 -0.016976030859612409 -0.016892666274352982 0.014671820104122161 -0.0010241199600877183 -0.00059017306507711399 0.004377913485391665 3.0685409731147836e-05 2.0522326576246017e-05 0.012171940353681455 -0.01837864508231481 -0.0075597289691750813 -0.0091403871593611855 -0.004615396988423795 0.0038445824602224531 0.013373026579618454 0.0023199979983521582 -0.0042873482013141718 -0.0023499964751820838 -0.0034981421687989493 -0.0089244454209418851 -0.0086732783079772734
leaf_count=9450 3845 5252 4204 32239 4364 1025 22014 3348 105 462 102 24 99 4010 295 778 25681 159 54 52 358 887 411 30 15410 546 5563 960 255 1370
internal_value=0 0.0208229 -0.0334322 0.0379799 -0.0918203 -0.0206109 -0.0325878 -0.0700237 -0.135015 -0.244427 -0.104734 -0.432603 -0.472033 0.0457437 -0.0953574 -0.102472 -0.0103722 -0.0372529 -0.117142 0.243639 -0.0488287 -0.0326079 -0.0605111 -0.246655 0.0512489 -0.0753288 -0.0834697 -0.173382 -0.0726641 -0.218034
internal_count=143352 88334 55018 56990 9906 45112 35662 13648 5702 1236 4466 585 561 51659 10300 10005 31344 5331 8980 211 5120 4732 5663 388 47649 651 5617 3363 1033 2330
shrinkage=0.03


Tree=19
num_leaves=31
num_cat=0
split_feature=85 54 108 15 14 98 76 7 50 78 38 85 62 29 83 15 83 3 104 31 29 30 11 1 10 75 25 52 64 34
split_gain=94.5519 47.0983 36.676 34.3796 27.7168 24.0814 19.0694 18.7289 17.5576 16.9104 16.0078 17.5762 15.7248 15.7207 16.6391 15.6499 15.3125 17.9177 15.1878 14.3308 13.9056 13.8916 18.1953 15.5473 13.8447 14.9233 14.715 14.302 14.6712 13.6987
threshold=1.0080500245094302 0.29869499802589422 0.80821502208709728 2.5368499755859379 6.7517001628875741 0.02346149925142527 0.57614499330520641 0.50003498792648327 126.88000106811525 -1.3377500176429746 1.5261000394821169 5.1358001232147226 7.9253501892089853 0.40219999849796301 2.0695500373840336 381.95999145507818 1.6028500199317934 -1.290350019931793 -0.453819990158081 0.9684550166130067 0.90924501419067394 -0.77781000733375538 14.242499828338625 1.7213500142097475 0.5033249855041505 0.97733500599861156 0.38358500599861151 2.1505500078201298 1.0447999835014345 1.2247499823570254
decision_type=2 2 2 2 2 2 2 2 2 2 2 2 2 2 2 2 2 2 2 2 2 2 2 2 2 2 2 2 2 2
left_child=2 4 13 10 5 -2 -5 24 16 18 11 -3 15 14 21 -6 -8 -18 -9 -12 29 -1 -23 -24 27 -26 -27 28 -4 -7
right_child=1 3 7 6 12 20 8 9 -10 -11 19 -13 -14 -15 -16 -17 17 -19 -20 -21 -22 22 23 -25 25 26 -28 -29 -30 -31
leaf_value=0.0016328301794732672 -0.0019898677909992667 -0.0037567948425809542 -0.0047896234602746316 0.0022045074551537329 -0.0025655055705681414 -0.00065621694498198551 -0.01400896768796114 -0.0088295927772620558 0.004959430893262228 0.00017801770976000566 -0.003222194480026377 -0.00040778130223780029 -0.0069237445537500457 0.0023878565551191775 0.0022906985594391147 0.0090751932726966019 0.015561720152055064 -0.0080428781784395911 0.0013475065134609394 -0.0096958535065680349 0.002295209829104057 -0.0013767358671014124 -0.025089165839552879 -0.0061905358353043132 0.0012954063498094434 -0.0015221591807966942 0.0031430449570680774 -0.0036141718964982817 0.0001437403836620153 0.0010429429275398494
leaf_count=1264 6590 2331 649 147 2767 15126 506 133 72 49475 969 3571 783 11576 2655 108 31 436 17110 451 2269 1950 50 181 4575 5266 688 2366 3307 5950
internal_value=0 -0.0398238 0.0165624 -0.106257 -0.0229867 -0.0129456 -0.263749 0.00780907 -0.311188 0.0153327 -0.0806174 -0.0576826 -0.105157 0.0579466 0.0168641 -0.0709407 -0.346448 -0.215866 0.0423003 -0.175942 0.0021238 -0.0289858 -0.0773281 -0.342705 -0.021979 0.000231769 -0.0327694 -0.05897 -0.0221867 -0.00588414
internal_count=143352 42107 101245 8514 33593 29935 1192 83569 1045 66718 7322 5902 3658 17676 6100 2875 973 467 17243 1420 23345 3445 2181 231 16851 10529 5954 6322 3956 21076
shrinkage=0.03


Tree=20
num_leaves=31
num_cat=0
split_feature=18 93 14 68 16 68 56 15 16 18 110 36 56 3 61 40 92 18 86 16 14 1 30 24 82 4 16 98 73 49
split_gain=90.4362 43.6298 37.3144 22.3643 21.4708 25.8498 24.8759 25.1893 40.5717 24.5421 21.8799 20.0057 24.8103 22.7827 20.5743 17.7246 17.6856 36.5428 20.713 19.8923 21.3847 16.7496 16.4434 16.2212 16.1373 15.5366 15.238 15.2196 14.7945 14.754
threshold=14.500000000000002 0.92051500082016002 5.2193498611450204 1.0019000172615053 15.272999763488771 1.0019000172615053 1.2734499573707583 0.76441499590873729 11.365000247955324 10.500000000000002 -0.47587999701499933 1.0000000180025095e-35 1.8403999805450442 1.0000000180025095e-35 0.83677500486373912 1.4239500164985659 0.90368500351905834 10.500000000000002 1.9705500006675722 15.272999763488771 119.53499984741212 3.8401499986648564 -0.63355499505996693 0.40977500379085546 0.054566498845815666 1.4688499569892886 5.0447499752044687 0.02346149925142527 0.47927500307559973 295.93998718261724
decision_type=2 2 2 2 2 2 2 2 2 2 2 2 2 2 2 2 2 2 2 2 2 2 2 2 2 2 2 2 2 2
left_child=2 11 4 -4 5 24 7 8 -7 -10 25 22 21 14 -14 -8 18 29 -5 20 -19 -13 -2 28 26 -11 -1 -9 -3 -18
right_child=1 23 3 16 -6 6 15 27 9 10 -12 12 13 -15 -16 -17 17 19 -20 -21 -22 -23 -24 -25 -26 -27 -28 -29 -30 -31
leaf_value=0.0060414344004422263 0.00035587245276631405 -0.0021866419782715948 -0.00096194701594478672 -0.002654695304311892 0.0039881704691632656 -0.00044088822748844265 -0.0021877212409123188 -0.001937564187471304 -0.013422531247436999 -0.0068236007168291082 -0.00098505715988481861 0.0010280376592314692 -0.0030224227933534258 -0.0089658904930398058 0.007803850392303845 -0.0069502640799961515 -0.0036744302278624184 -0.01631907291722472 -0.016330700402750687 0.014282682389020919 -0.0009546822196606434 -0.0011864070907993678 0.0022482925061444946 1.6131483116159774e-05 0.0031906110283575562 -0.0010255028374284228 -0.00019052971401406198 0.0003944636587077992 0.0037236866806327862 0.011092102799345464
leaf_count=362 5464 5252 4204 4364 904 5797 2199 3231 250 1869 1576 29777 725 438 202 1034 583 462 102 24 99 3428 16956 25681 1539 535 14391 11425 411 68
internal_value=0 0.0198225 -0.0318259 -0.0874013 -0.0196223 -0.022742 -0.041215 -0.0304115 -0.0690332 -0.143499 -0.124409 0.0363043 0.0212158 -0.110914 -0.02211 -0.123697 -0.1282 -0.234063 -0.0989015 -0.41545 -0.45359 0.0266475 0.0595696 -0.010145 0.0089112 -0.184442 -0.00125379 -0.00398818 -0.0585897 -0.0710666
internal_count=143352 88334 55018 9906 45112 44208 27916 24683 10027 4230 3980 56990 34570 1365 927 3233 5702 1236 4466 585 561 33205 22420 31344 16292 2404 14753 14656 5663 651
shrinkage=0.03


Tree=21
num_leaves=31
num_cat=0
split_feature=18 93 14 57 17 57 68 16 61 17 15 49 11 16 15 45 49 35 16 18 95 57 104 11 22 35 72 18 46 40
split_gain=85.0914 41.0513 35.1091 30.2315 22.0807 27.3911 21.0426 18.5055 20.9729 17.3805 17.1606 17.0987 18.3807 17.0594 36.1617 16.966 16.8275 16.088 19.3402 25.3007 16.8513 15.8414 18.1478 17.775 16.5768 15.3755 15.3571 16.2667 17.1655 15.2867
threshold=14.500000000000002 0.92051500082016002 5.2193498611450204 0.2537550032138825 1.5396000146865847 0.27596500515937811 1.0019000172615053 15.272999763488771 0.6624400019645692 2.3266000747680669 1.1082499623298647 1.0889499783515932 9.1418499946594256 14.03749990463257 9.1460003852844256 0.87157499790191661 0.095056001096963896 2.3424500226974492 11.365000247955324 10.500000000000002 0.85061499476432811 0.29006500542163854 0.29030500352382665 -0.75450497865676869 -1.4483500123023985 2.9336500167846684 1.6703500151634219 10.500000000000002 24.748499870300297 2.0310499668121342
decision_type=2 2 2 2 2 2 2 2 2 2 2 2 2 2 2 2 2 2 2 2 2 2 2 2 2 2 2 2 2 2
left_child=2 3 4 15 -1 11 -4 10 -9 25 16 12 -6 -8 -15 29 -7 18 20 -20 -18 22 -3 -24 -23 -5 27 -12 -29 -2
right_child=1 21 6 9 5 7 13 8 -10 -11 26 -13 -14 14 -16 -17 17 -19 19 -21 -22 24 23 -25 -26 -27 -28 28 -30 -31
leaf_value=0.00071833375215766919 -0.00081083617488841148 -0.0039458392506577901 -0.00093308862472408496 0.0011171525269657223 -0.0052800778151902324 0.00019674584615023729 -0.0033167693884946846 0.015323049445113125 0.0012419643102643582 -0.0006184373928368685 -0.00064130386099291029 -0.00058536771917429753 -0.001366292131839081 -0.0034954034863644606 -0.02439415176890113 0.0032947764371562263 -0.0066694442902145712 -0.0044796089720839944 -0.01451706919730944 -0.0026007524117701497 0.00015943636278653345 -0.0027311282646172159 0.0047050061169295358 -0.0010195068883271418 0.00042253555647955377 0.0023430493543148373 -0.0023386511884577171 0.0013930723747833376 0.011231293917247436 -0.0049135719434418865
leaf_count=9450 3582 1853 4204 35176 2682 4755 5361 137 312 4010 5065 2443 1808 231 110 690 348 1867 169 3136 4968 1626 520 7976 19369 12473 1843 5965 164 1059
internal_value=0 0.0192278 -0.0308711 0.0352152 -0.0190336 -0.0304223 -0.0847793 -0.0168078 0.184614 0.042614 -0.0200057 -0.0868382 -0.12347 -0.124354 -0.341231 -0.0364815 -0.0427871 -0.0651591 -0.0469328 -0.107003 -0.0095867 -0.00984064 -0.0418611 -0.0223046 0.00594312 0.0479351 0.00663054 0.0205569 0.0552108 -0.0582338
internal_count=143352 88334 55018 56990 45112 35662 9906 28729 449 51659 28280 6933 4490 5702 341 5331 15243 10488 8621 3305 5316 31344 10349 8496 20995 47649 13037 11194 6129 4641
shrinkage=0.03


Tree=22
num_leaves=31
num_cat=0
split_feature=18 93 68 54 57 18 17 5 45 89 66 19 87 21 46 96 70 24 7 17 96 92 99 107 6 96 44 113 62 3
split_gain=80.0625 38.6252 31.0373 37.8559 28.4448 26.0487 18.4894 17.9075 19.3611 16.6745 18.9381 17.4756 16.6226 16.0249 15.8745 15.7917 15.4203 18.7274 15.3665 14.8113 15.2874 14.7672 14.6369 14.7314 14.5269 14.3663 14.1907 14.7352 13.6358 15.7838
threshold=14.500000000000002 0.92051500082016002 1.0019000172615053 0.52436000108718883 0.2537550032138825 6.5000000000000009 1.5396000146865847 0.23341999948024753 0.84296500682830822 0.29606500267982488 11.450500011444094 1.9874500036239626 2.2485500574111943 40.27149963378907 2.1943999528884892 -0.66563999652862538 -1.6009500026702879 0.40977500379085546 0.67416501045227062 2.3266000747680669 -0.85214498639106739 0.96441501379013073 3.0433000326156621 0.94703501462936412 0.25015500187873846 -1.5572499632835386 0.92405498027801525 0.20148500055074695 0.73516997694969188 -0.11450500041246413
decision_type=2 2 2 2 2 2 2 2 2 2 2 2 2 2 2 2 2 2 2 2 2 2 2 2 2 2 2 2 2 2
left_child=2 4 -1 5 7 13 -5 8 15 10 11 -7 19 -4 -9 25 -3 -18 21 -6 -21 22 -11 -24 -8 -2 27 -14 -20 -30
right_child=1 16 3 6 12 9 24 14 -10 18 -12 -13 26 -15 -16 -17 17 -19 28 20 -22 -23 23 -25 -26 -27 -28 -29 29 -31
leaf_value=2.1316226023419996e-05 0.012274465404632614 0.0023084741194791237 -0.0031183267090681413 0.0058915308034368629 0.0010416198207738757 -0.002851360185894795 -0.0073292114786136335 -0.00060827572189086905 0.0064362150817565454 -0.00024855124140750029 -0.017408769003426035 0.0010699603234329404 0.0013775720806723907 -0.01386887965294031 -0.0046937427751516519 0.0020378472448492344 -0.0021184767872136365 -0.00011206859660338441 0.0031080453999901793 0.0026735881182188611 -0.0026430326640514085 -0.0033324175592065772 -0.0020396434340551987 -0.013700386465837558 -0.0032983789221289789 -0.0062616530016032105 0.0044592038530243353 0.0044261449991313921 0.00089004181622360102 -0.0029163479300382787
leaf_count=20638 41 1934 3113 174 32239 4332 988 2059 493 9884 72 1339 13330 130 1465 815 5056 24354 1739 649 1947 1954 302 144 4337 458 1896 1598 4628 1244
internal_value=0 0.018651 -0.029945 -0.0483472 0.0341587 -0.0338679 -0.124394 -0.0353871 0.0455509 -0.0231867 -0.0706532 -0.0641828 0.0413356 -0.118309 -0.0768896 -0.0178523 -0.00954542 -0.0152333 -0.00948477 0.0288694 -0.0437959 -0.0313607 -0.0162811 -0.193485 -0.134875 -0.157955 0.0671475 0.0567971 0.0258226 0.00278824
internal_count=143352 88334 55018 34380 56990 28881 5499 5331 1807 25638 5743 5671 51659 3243 3524 1314 31344 29410 19895 34835 2596 12284 10330 446 5325 499 16824 14928 7611 5872
shrinkage=0.03


Tree=23
num_leaves=31
num_cat=0
split_feature=85 3 108 38 95 16 73 95 10 10 30 7 17 0 24 68 50 13 113 63 87 109 51 84 10 16 95 29 64 12
split_gain=77.3424 41.4497 32.376 23.6438 24.0883 22.0667 21.4809 19.7811 29.3189 18.0398 17.2866 16.8782 16.9328 16.7406 16.5462 16.5451 20.2623 15.2651 16.3636 14.1287 14.041 13.9382 13.9288 13.8766 16.0651 13.3152 12.875 13.3703 14.0493 18.1608
threshold=1.0080500245094302 -0.18116000294685361 0.80821502208709728 -0.33094000816345209 0.9910150170326234 7.7332000732421884 0.32534499466419226 0.93938499689102184 0.51343500614166271 0.14369500428438189 2.0900999307632451 0.50003498792648327 2.2899000644683842 1.5135499835014345 0.4018199890851975 5.6670000553131112 1.0717499852180483 3.9241499900817876 0.015558499842882158 0.94352501630783092 1.8256500363349917 0.095655497163534178 2.6682499647140507 3.3064999580383305 0.45459499955177313 17.963500022888187 0.92935499548912059 0.84519499540328991 0.76475498080253612 0.86060500144958507
decision_type=2 2 2 2 2 2 2 2 2 2 2 2 2 2 2 2 2 2 2 2 2 2 2 2 2 2 2 2 2 2
left_child=2 5 6 9 7 -2 -1 -5 -9 10 -3 20 14 -14 -13 16 -7 -18 -19 -11 23 -12 -17 -4 -25 -10 -15 28 29 -28
right_child=1 3 11 4 -6 15 -8 8 25 19 21 12 13 26 -16 22 17 18 -20 -21 -22 -23 -24 24 -26 -27 27 -29 -30 -31
leaf_value=0.00062617206283453004 -0.0023921157399915869 -0.0022987162424875519 -0.00050410223864060628 -0.0030910204139692862 0.00052989291378038763 -0.00054993642152940372 0.0027209860945831741 -0.012938899351212922 -0.0032516066712769717 0.0007467380322695148 -0.0020607924146147875 -0.0005420890504871849 0.0006257945491371104 0.0049635646855219814 0.00083641574325584659 -0.0014355229301297146 0.002005981072588362 -0.01975433920110975 -0.00078004523077867041 -0.0026510448215344802 0.00026866575902193245 -0.01308539217710495 -0.0073036059770499708 -0.0068769570226890186 -0.0018890956022040212 -0.012070627487165498 -0.021769065767526623 -0.00079925737117190619 -0.0045728571098987703 0.0089076418869874687
leaf_count=9325 5044 970 5358 1336 653 15845 8351 656 854 2578 156 9369 4283 234 47910 3450 6129 42 1571 1923 7968 305 407 734 2791 188 20 2664 2106 132
internal_value=0 -0.0360177 0.0149795 -0.0936785 -0.156565 -0.0189456 0.0538621 -0.194064 -0.265686 -0.0545918 -0.152394 0.00675528 0.0138975 -0.0253469 0.0203646 -0.0077726 0.00215625 0.0440865 -0.0424702 -0.0234975 -0.0215228 -0.311824 -0.0684912 -0.0488616 -0.0975901 -0.161425 -0.06373 -0.0746257 -0.131237 0.162374
internal_count=143352 42107 101245 9619 3687 32488 17676 3034 1698 5932 1431 83569 66718 9439 57279 27444 23587 7742 1613 4501 16851 461 3857 8883 3525 1042 5156 4922 2258 152
shrinkage=0.03


Tree=24
num_leaves=31
num_cat=0
split_feature=18 68 54 14 93 57 111 82 49 50 10 34 71 12 45 15 49 12 35 85 3 61 21 95 109 87 36 9 88 3
split_gain=72.812 36.5484 43.3301 33.9307 30.3525 26.5843 22.143 18.4004 20.8581 16.1089 17.1802 17.2362 16.1277 17.6337 15.9922 15.5109 18.2671 15.1437 14.7647 14.5515 14.7633 14.0844 14.4625 17.0266 13.8611 13.773 13.7564 13.7289 13.5627 13.6696
threshold=15.500000000000002 1.0019000172615053 2.07070004940033 6.2373998165130624 0.91992500424385082 0.2537550032138825 0.96218499541282665 0.054566498845815666 30.346499443054203 2.8849500417709355 0.45806500315666204 0.032315500080585487 1.1043500304222109 0.85041499137878429 0.84050500392913829 9.1460003852844256 124.40999984741212 0.97116500139236461 1.3679500222206118 4.9971501827239999 0.10947500169277193 0.9710650146007539 2.0556000471115117 0.99503499269485485 1.4087499976158144 2.2485500574111943 22.889499664306644 0.47498500347137457 0.18875499814748767 1.0039499998092654
decision_type=2 2 2 2 2 2 2 2 2 2 2 2 2 2 2 2 2 2 2 2 2 2 2 2 2 2 2 2 2 2
left_child=1 7 3 6 5 14 9 24 17 10 -3 -12 13 -13 18 -4 -17 -9 27 20 -11 22 -6 -24 -1 -7 -14 -2 -5 -30
right_child=4 2 15 28 21 25 -8 8 -10 19 11 12 26 -15 -16 16 -18 -19 -20 -21 -22 -23 23 -25 -26 -27 -28 -29 29 -31
leaf_value=-0.00033356473833122684 -0.0044703565939114643 -0.0018564449061576646 -0.0047352324118410567 -0.0058467171383262077 0.00033733541480702491 0.00089059570121145814 -0.0016339599381690066 0.003074276844232247 -0.0054120941963921856 -0.00097125694189053864 0.0091017918604792952 0.01150808099853365 -0.00031664888784392614 0.0017770166977156771 0.0021185164243953782 -0.018250274307749888 0.0021861069821394402 -0.021358692989401195 -0.0028860435046175578 0.0067791533062761559 0.013507891812494822 -0.003721294672778029 -0.001950418034850708 0.0019449689880824495 0.0039341435259429075 0.0019836521098771051 0.0094311309792101377 0.0051024539096950119 -0.0016403137941266731 -0.0071123971574523909
leaf_count=21027 195 4519 1777 1464 20910 30889 13946 3103 298 670 198 209 10102 846 1082 162 52 23 3073 569 70 976 5622 1231 708 15622 132 437 2963 477
internal_value=0 -0.0253391 -0.0448486 -0.0369418 0.0200451 0.034621 -0.0248099 0.00424889 0.0723854 -0.000924639 -0.00964732 0.0109017 0.0057716 0.123493 -0.0363382 -0.188471 -0.442814 0.0964836 -0.0675732 0.105733 0.0132797 -0.00597248 -0.00182174 -0.0416897 -0.00648492 0.0419243 -0.00636401 0.0716273 -0.114277 -0.0799696
internal_count=143352 63315 38156 36165 80037 51298 31261 25159 3424 17315 16006 11487 11289 1055 4787 1991 214 3126 3705 1309 740 28739 27763 6853 21735 46511 10234 632 4904 3440
shrinkage=0.03


Tree=25
num_leaves=31
num_cat=0
split_feature=85 54 82 15 0 10 42 54 91 97 10 38 65 45 83 28 46 50 50 10 91 16 59 10 6 26 58 46 66 68
split_gain=69.0237 39.3871 34.1168 23.7462 24.9136 20.5278 18.3358 24.4879 17.7021 17.6183 22.0502 16.8365 17.0941 16.2397 15.7491 15.2081 15.0481 15.0506 14.8417 14.611 14.5564 14.8281 14.0752 13.4325 13.2123 14.1603 13.3884 15.5 14.3258 14.0706
threshold=1.0080500245094302 -0.3394200056791305 0.07031749933958055 2.5893499851226811 1.6036500334739687 0.14369500428438189 0.28908000886440283 2.523749947547913 0.92655497789382946 0.033143499866127975 0.096875499933958067 1.5261000394821169 8.7213997840881365 0.011807499919086696 1.2508500218391421 0.83736500144004833 7.8701999187469491 0.10136500000953676 21.052500724792484 0.55445498228073131 0.85008502006530773 15.272999763488771 0.92361497879028331 0.22010000050067904 0.27457499504089361 0.46537500619888311 0.60109502077102672 -1.3620499968528745 2.4367500543594365 8.9461998939514178
decision_type=2 2 2 2 2 2 2 2 2 2 2 2 2 2 2 2 2 2 2 2 2 2 2 2 2 2 2 2 2 2
left_child=2 5 6 11 -5 -2 9 -8 19 -1 15 24 -13 -6 18 -11 17 -16 -4 -7 -15 -22 -18 -19 25 -3 27 -26 29 -28
right_child=1 3 14 4 13 8 7 -9 -10 10 -12 12 -14 20 16 -17 22 23 -20 -21 21 -23 -24 -25 26 -27 28 -29 -30 -31
leaf_value=3.2539982600539896e-05 -0.0026338865969785042 0.003775410042429457 -0.00033489955594412271 -0.00061967585186581485 -0.00086576798108297499 6.0653953937298786e-05 3.0453102568282374e-05 -0.0032643351512855255 -0.00057091072731510505 -0.001188913895038225 0.0014878509706108488 -0.0055966224254995183 0.0059567032375931741 -0.0024885284754648878 -0.0025811121892929077 -0.012084210155564441 -0.0015183113995444011 0.0020733733634787335 -0.016599798978499648 0.0028378820638311117 -0.013882633316926499 -0.0040037211616983995 0.01126003222806113 0.0048915173313690361 0.009564749288232359 -0.0030200892901693591 8.2007478343014886e-05 -0.0047998373456543588 0.0068335057661104729 -0.0068086883611977091
leaf_count=16714 3136 294 1067 624 231 4099 52418 2112 17277 354 20743 1479 125 199 375 171 1015 2792 53 2919 590 178 84 3347 73 4502 4917 915 267 282
internal_value=0 -0.0340257 0.014151 -0.0758392 -0.18268 -0.0116548 0.00851101 -0.00323858 -0.00182648 0.0253796 0.0444725 -0.0606949 -0.156542 -0.267074 0.0738978 -0.157922 0.0901861 0.108448 -0.0368193 0.0405263 -0.323979 -0.386433 -0.0180541 0.120328 -0.0470292 -0.0867839 -0.0174873 -0.124616 0.00187661 -0.00972507
internal_count=143352 42107 101245 14676 1822 27431 92512 54530 24295 37982 21268 12854 1604 1198 8733 525 7613 6514 1120 7018 967 768 1099 6139 11250 4796 6454 988 5466 5199
shrinkage=0.03


Tree=26
num_leaves=31
num_cat=0
split_feature=37 3 63 38 7 82 57 13 17 89 33 87 38 54 16 16 14 60 62 85 22 11 110 101 14 34 106 10 62 91
split_gain=65.9886 38.4875 31.0908 29.7311 24.2942 21.1425 17.82 17.2149 16.4014 22.5919 16.0868 14.9706 14.9589 14.8288 14.7378 21.2942 20.8845 21.2398 16.8443 14.6894 14.6867 14.4918 14.2896 14.2669 14.1286 14.1238 13.3811 13.2359 23.7973 22.3928
threshold=1.6548500061035158 -0.58672499656677235 0.89210498332977306 -0.30353499948978419 0.49361500144004827 0.37608499825000768 0.2489849999547005 5.7308499813079843 1.9286500215530398 0.39623500406742101 11.410500049591066 1.7106500267982485 2.8227499723434453 1.3276500105857851 7.8273499011993417 5.5580501556396493 6.7517001628875741 0.93830502033233654 3.4317499399185185 4.1788501739501962 -1.1512500047683714 13.307499885559084 1.8284500241279604 33.041500091552741 1.5639500021934511 0.11143499985337259 1.4873500466346743 0.34667499363422399 8.1757998466491717 0.9279649853706361
decision_type=2 2 2 2 2 2 2 2 2 2 2 2 2 2 2 2 2 2 2 2 2 2 2 2 2 2 2 2 2 2
left_child=2 6 8 27 7 12 -2 11 9 10 -1 -4 -5 20 15 22 17 21 -18 -12 -6 -17 -8 -15 -16 -23 -26 28 -3 -29
right_child=1 3 4 5 13 -7 14 -9 -10 -11 19 -13 -14 23 24 16 18 -19 -20 -21 -22 25 -24 -25 26 -27 -28 29 -30 -31
leaf_value=0.0029434727681501047 -0.002613014333569811 -0.0015885827797864455 -0.0024277750304408196 -0.0038723035950875054 -0.00055715863114837139 0.00098091728660154934 0.0038619788285569564 0.0029309776358923336 -2.3058051504841118e-05 -0.00016362254600022177 -0.00027131797324054808 -0.00027733567870937741 -0.0093709556080472291 -0.00037431938075424234 -0.00032548400525556802 -0.0017257222136840039 -0.0028518487705686056 -0.0065498812157678372 -0.012651240975417272 -0.017824393625060716 0.00098749663735225217 -0.0035669260472059247 -0.0067725077212454025 -0.010410605430343122 0.0015129501504246507 0.0054718880343594045 -0.00096357610809658209 0.0019298580613006644 -0.0078897317534674539 -0.0013559362688892692
leaf_count=11219 2618 3649 5481 4354 6559 749 862 942 4553 3334 923 6220 496 10788 17780 2272 337 633 297 45 35656 214 131 129 9577 570 2470 2501 633 7360
internal_value=0 -0.0262153 0.0175594 -0.0619953 0.00704623 -0.123673 -0.00750899 -0.0323517 0.0520072 0.0674887 0.0874437 -0.0428216 -0.147821 0.0164211 -0.00157978 -0.0500873 -0.0804206 -0.0516062 -0.248081 -0.0362439 0.0249167 -0.0170723 0.081968 -0.0164304 0.00706562 0.100155 0.0335062 -0.0375782 -0.0840023 -0.0174192
internal_count=143352 57503 85849 19742 65775 5599 37761 12643 20074 15521 12187 11701 4850 53132 35143 5316 4323 3689 634 968 42215 3056 993 10917 29827 784 12047 14143 4282 9861
shrinkage=0.03


Tree=27
num_leaves=31
num_cat=0
split_feature=37 3 109 40 1 17 9 17 11 26 113 15 69 78 31 13 13 62 48 109 37 80 82 66 17 13 103 107 92 29
split_gain=62.0887 36.2129 28.5796 23.113 16.2882 16.1545 15.4477 17.7638 15.7115 17.1476 15.4041 15.093 23.5516 14.961 16.0316 15.2605 14.8723 21.3132 15.8366 14.722 14.6528 14.6441 14.3537 18.0464 14.2836 14.0928 13.8991 13.8118 16.3025 14.0982
threshold=1.6548500061035158 -0.58672499656677235 0.8292750120162965 0.46414500474929815 2.065349936485291 1.5396000146865847 0.71802499890327465 1.738600015640259 0.19951000064611438 2.0965499877929692 -0.071476999670267091 2.778750061988831 2.0534999370574956 -1.0708499550819395 0.91629499197006237 0.96193000674247753 2.2182500362396245 4.4694499969482431 1.6295500397682192 0.72498500347137462 4.7033500671386728 -1.4607500433921812 0.057246500626206405 0.10365500301122667 2.2899000644683842 7.9786498546600351 3.4961500167846684 0.94833499193191539 0.43205000460147863 0.86615499854087841
decision_type=2 2 2 2 2 2 2 2 2 2 2 2 2 2 2 2 2 2 2 2 2 2 2 2 2 2 2 2 2 2
left_child=2 27 6 16 25 -5 7 8 -1 26 20 -12 -13 -9 15 -15 17 -3 -19 -14 -7 -16 23 -23 -6 -4 -10 28 -2 -30
right_child=1 3 4 5 24 10 -8 13 9 -11 11 12 19 14 21 -17 -18 18 -20 -21 -22 22 -24 -25 -26 -27 -28 -29 29 -31
leaf_value=9.1624411627216893e-05 -0.00258055642257864 -0.001151365426398142 -0.00061413599924086076 0.0011993255711053802 0.00075274468056854571 -0.015289538263089278 0.0035118646414693958 -0.00076668466657507498 0.0029172264912341794 -1.1729029260604316e-05 -0.0028066842633022318 -0.0021868987545991935 -0.0052378193859057365 -0.012451128716488459 0.0059983850978010357 -4.232712086705513e-05 0.00035921892820467882 -0.0023707336088850139 -0.011246769760214423 -0.013472237945665461 0.01157190783880651 0.0076577097662818535 0.0044696681400222425 0.00037618527972238199 -0.0010913347060136503 0.0066960533820092675 0.0070701044676934974 -0.00093109443899642378 9.0922490193509381e-05 0.0020476191948688807
leaf_count=2682 1703 4348 21466 811 29728 22 2505 5829 4945 1566 7209 720 361 91 734 4502 5013 370 354 426 108 327 1207 4846 4331 240 850 14852 17095 4111
internal_value=0 -0.0254288 0.0170326 -0.0601355 0.00363133 -0.0951018 0.0418739 0.0350445 0.0685806 0.0924553 -0.107486 -0.112582 -0.203596 0.0158382 0.0364487 -0.00960599 -0.0266531 -0.0648309 -0.223689 -0.323169 0.234204 0.066183 0.0507939 0.0278824 0.0172749 -0.0177769 0.117545 -0.00728372 0.00811529 0.0156749
internal_count=143352 57503 85849 19742 55765 9657 30084 27579 10043 7361 8846 8716 1507 17536 11707 4593 10085 5072 724 787 130 7114 6380 5173 34059 21706 5795 37761 22909 21206
shrinkage=0.03


Tree=28
num_leaves=31
num_cat=0
split_feature=85 3 15 82 15 16 41 17 6 43 79 41 20 16 73 112 74 19 17 10 57 87 73 0 7 105 16 111 83 61
split_gain=59.3969 33.1112 35.3371 30.7402 25.5087 19.3211 18.6048 16.1982 17.8762 17.7563 17.7114 17.554 15.6822 15.5474 19.8195 18.9988 17.6385 16.2852 15.4119 15.0832 15.0176 15.5975 14.7338 24.4634 14.7177 15.7693 14.9509 14.5979 14.5696 14.0665
threshold=1.0080500245094302 -0.18116000294685361 5.5971999168396005 0.07031749933958055 95.929496765136733 7.7332000732421884 0.29947499930858618 2.2899000644683842 0.25332500040531164 0.85584500432014476 0.96582502126693737 0.25981500744819647 195.50000000000003 9.5007500648498553 0.32167500257492071 -0.65354502201080311 1.2494500279426577 2.0285500288009648 2.0206999778747563 0.81275999546051036 0.23998499661684039 2.1385500431060795 0.30557499825954443 1.7898499965667727 0.50003498792648327 0.42973999679088598 5.5580501556396493 0.98620498180389415 1.2508500218391421 0.86814498901367199
decision_type=2 2 2 2 2 2 2 2 2 2 2 2 2 2 2 2 2 2 2 2 2 2 2 2 2 2 2 2 2 2
left_child=3 5 6 7 -4 -2 19 12 9 -9 -11 -10 24 14 -7 17 20 -15 22 -3 21 -17 -8 -24 26 -26 -1 -16 -5 -27
right_child=1 2 4 28 -6 13 18 8 11 10 -12 -13 -14 15 27 16 -18 -19 -20 -21 -22 -23 23 -25 25 29 -28 -29 -30 -31
leaf_value=0.0043656282898762245 -0.0021956777424015353 -0.003697109566883705 -0.011037362871367468 -0.0010995079317861901 0.00044402347758221318 -0.0018992652049830633 -0.0028018539717162404 -0.010380213196040131 -0.0038807297065897393 0.0025092393924126921 -0.0034367532971157303 0.00023753148394669812 0.0075878990381298694 -3.0256523226803924e-05 0.0037769148302246661 -0.005909942392556166 -0.0024735920499653619 0.0031139270779810585 -0.0032886584463539411 0.0082788457911576793 -7.0783667923986291e-05 0.013894204557138053 -0.0028221471528784839 0.0037067705669793661 0.00065906759672500789 -0.0015638294426960826 -0.00064580108414163766 -0.0051880549715662546 0.0025652053071026667 -0.015442969898748046
leaf_count=556 5044 3905 681 1120 234 982 897 256 1032 582 2001 9567 272 5875 2296 616 5202 1983 1380 97 10276 38 746 1679 61483 1961 14734 176 7613 68
internal_value=0 -0.0315638 -0.0830993 0.0131271 -0.270038 -0.0163053 -0.0634476 0.00777351 -0.0243249 -0.0947975 -0.0699002 -0.00544847 0.0132284 -0.00585041 0.0568772 -0.0148817 -0.0345226 0.0254397 -0.0207945 -0.113561 -0.0117106 -0.158641 0.0161056 0.0566096 0.012401 0.0191064 -0.0154522 0.104621 0.0698403 -0.0676325
internal_count=143352 42107 9619 101245 915 32488 8704 92512 13438 2839 2583 10599 79074 27444 3454 23990 16132 7858 4702 4002 10930 654 3322 2425 78802 63512 15290 2472 8733 2029
shrinkage=0.03


Tree=29
num_leaves=31
num_cat=0
split_feature=69 3 91 47 17 1 16 54 46 75 0 105 16 16 10 10 10 16 9 54 105 17 24 27 57 86 55 100 4 66
split_gain=56.7532 29.6236 29.3864 24.5566 24.4039 22.155 20.4365 20.2501 20.1812 19.7385 19.0495 18.0712 18.0544 17.5681 16.8589 16.0869 15.8322 21.1988 17.4979 15.475 15.0315 14.534 19.9452 16.5768 14.5207 14.3035 17.1532 14.2526 14.1198 13.6888
threshold=1.0016999840736391 -0.18116000294685361 0.91945499181747448 0.9560849964618684 2.2899000644683842 1.8895500302314761 5.5580501556396493 4.4102499485015878 2.492749929428101 0.40349499881267553 1.5135499835014345 0.42973999679088598 6.9779000282287607 5.8846499919891366 0.75051498413085949 0.67422500252723705 0.55445498228073131 17.482999801635746 0.78885501623153698 -0.035445000976324074 0.38259500265121466 1.5396000146865847 -0.12357499822974204 0.9542050063610078 0.27187499403953558 -1.5616499781608579 1.230449974536896 7.7239999771118173 1.2377499938011172 0.48901499807834631
decision_type=2 2 2 2 2 2 2 2 2 2 2 2 2 2 2 2 2 2 2 2 2 2 2 2 2 2 2 2 2 2
left_child=2 12 3 7 5 6 -4 -1 19 -5 -6 24 14 15 20 29 18 -18 -10 -3 -2 25 23 -23 -7 26 -15 -9 -28 -8
right_child=1 8 4 9 10 11 13 27 16 -11 -12 -13 -14 21 -16 -17 17 -19 -20 -21 -22 22 -24 -25 -26 -27 28 -29 -30 -31
leaf_value=0.00091890560493913256 -0.0037257963516792434 0.00027564855588758642 0.004200600729371156 -0.0037329130184038405 -0.00022388930712179787 -0.00043264664579833231 -0.0011713332600063748 -0.0022846462646099112 -0.0062498124615173083 0.0038463965230056563 -0.002658960837464047 -0.0026560513987888253 -0.00035311371859125248 -0.00036671920041339448 -0.015768274046600826 0.0072749274969100951 -0.00025814514520580126 -0.010556101767953286 -0.021596967619976825 -0.0034313911097150472 0.0038161175224083392 -0.001312443354855413 -0.00095179956853923471 -0.010725013138594438 0.00085335047266562008 0.0012087154302217839 -0.023390351191163061 -0.013581503672259194 -0.0058206114706947053 -0.016260426121712464
leaf_count=22934 1760 1973 769 336 6873 9623 81 647 1491 3883 4991 1556 17740 826 93 51 914 224 70 2084 275 322 13628 353 44191 5099 50 119 233 163
internal_value=0 -0.0416624 0.0095026 0.0378012 0.000606349 0.00711553 -0.0200681 0.0252881 -0.0988649 0.108093 -0.0416095 0.0177077 -0.022211 -0.0259851 -0.109248 -0.268283 -0.165873 -0.076172 -0.231268 -0.0542861 -0.0902206 -0.0225002 -0.0400374 -0.207829 0.0207796 0.0179049 -0.0850204 -0.134655 -0.297494 -0.375045
internal_count=143352 26624 116728 27919 88809 76945 21575 23700 6756 4219 11864 55370 19868 20806 2128 295 2699 1138 1561 4057 2035 20511 14303 675 53814 6208 1109 766 283 244
shrinkage=0.03


Tree=30
num_leaves=31
num_cat=0
split_feature=18 16 14 16 5 18 60 35 108 44 6 38 11 57 44 5 109 11 0 24 64 74 74 16 57 6 89 110 33 65
split_gain=58.893 35.072 32.8774 32.103 23.1941 22.2878 23.5875 22.4727 22.1362 21.896 20.8263 21.7429 19.2979 18.3126 17.7935 16.3794 36.5347 18.8079 14.1943 14.0498 15.498 13.9336 14.4256 13.6773 15.0939 13.5361 13.1235 16.3258 12.9443 12.8542
threshold=17.500000000000004 17.963500022888187 5.5965499877929696 18.181000709533695 0.29116499423980718 13.500000000000002 0.75863498449325573 2.2436499595642094 0.91678500175476085 0.91609501838684093 0.28019499778747564 1.5261000394821169 12.306499958038332 0.25098499655723577 0.76927500963211071 1.1872499585151675 0.73612499237060558 1.0000000180025095e-35 2.5001499652862553 0.42636500298976904 1.8547499775886538 0.80019000172615062 0.82130500674247753 20.288999557495121 0.31394499540328985 0.17418999969959262 0.29333500564098364 -1.1949500441551206 0.93879500031471264 1.7474499940872195
decision_type=2 2 2 2 2 2 2 2 2 2 2 2 2 2 2 2 2 2 2 2 2 2 2 2 2 2 2 2 2 2
left_child=1 2 5 4 28 10 -7 -8 9 13 11 25 -5 -2 -6 -4 -17 -18 -11 20 -10 29 -23 24 -14 -1 -24 -28 -3 -9
right_child=8 3 15 12 14 6 7 21 19 18 -12 -13 23 -15 -16 16 17 -19 -20 -21 -22 22 26 -25 -26 -27 27 -29 -30 -31
leaf_value=-0.006726699927204041 -0.001544234322939706 -0.010056022726572477 -0.0013514435983375183 -0.00028079358397868344 -0.002850254741223419 0.0020104029317956308 0.0006837629641396251 -0.0014706360129907695 -1.1004809597512013e-05 0.0030304910516526784 -0.00010292499575948538 -0.0059240326704652242 -0.01459502574463078 0.0010241057729997406 -0.022912132736727677 -0.001611318919671211 0.0051873372033947995 -0.012107989373851378 -0.0060270605161786076 0.00025643836262554071 -0.0040569035871387766 -0.026529150744900108 -0.0073865265037775752 0.0087378605206807451 0.0011528014888366063 -0.0010660757915448803 -0.010070906612693954 -0.00079414481453824088 0.0097445814637467255 0.0021048409981113867
leaf_count=392 2715 78 11676 869 51 6860 13428 3299 1903 5817 24228 956 229 31340 181 1417 63 556 160 19362 1543 24 504 36 72 12625 193 1480 48 1247
internal_value=0 -0.0179068 -0.0149692 -0.166193 -0.429152 -0.00561326 0.0163584 -0.000865511 0.0229426 0.0371094 -0.0211627 -0.0519083 -0.0881345 0.0273116 -0.616733 -0.0594806 -0.142248 -0.344924 0.0929342 -0.00192269 -0.060754 -0.0479493 -0.11326 -0.291266 -0.360937 -0.0412181 -0.104759 -0.0621442 -0.0837645 -0.0163286
internal_count=143352 80512 78948 1564 358 65236 27035 20175 62840 40032 38201 13973 1206 34055 232 13712 2036 619 5977 22808 3446 6747 2201 337 301 13017 2177 1673 126 4546
shrinkage=0.03


Tree=31
num_leaves=31
num_cat=0
split_feature=18 54 93 44 36 25 38 16 18 16 91 16 18 16 10 16 67 18 16 9 3 12 57 72 110 36 2 38 92 24
split_gain=55.4124 37.6532 21.1635 19.9792 18.9285 18.8166 19.6635 17.907 22.0739 30.2367 25.4233 23.9583 33.9767 29.8101 33.5702 28.4709 23.3227 19.8923 41.1137 19.2046 19.44 18.1592 17.1438 16.531 16.2713 15.2569 19.0022 14.6368 21.3578 14.5243
threshold=17.500000000000004 0.55266499519348156 0.91819500923156749 0.91609501838684093 1.8100499510765078 0.32896499335765844 -1.166449964046478 17.922500610351566 12.500000000000002 15.272999763488771 0.9203149974346162 10.626500129699709 10.500000000000002 11.416499614715578 0.34667499363422399 10.808000087738039 1.1180500388145449 6.5000000000000009 5.5580501556396493 0.77470499277114879 -1.1529499888420103 0.96182501316070568 0.25098499655723577 1.4964500069618227 1.8284500241279604 4.5469000339508066 1.4835000038146975 4.3950998783111581 0.23261500149965289 0.40977500379085546
decision_type=2 2 2 2 2 2 2 2 2 2 2 2 2 2 2 2 2 2 2 2 2 2 2 2 2 2 2 2 2 2
left_child=1 7 3 22 -3 6 -6 8 9 11 -10 17 13 14 -13 19 -15 18 21 -16 -21 24 -2 -20 -1 26 -19 -8 -29 -4
right_child=2 4 29 -5 5 -7 27 -9 10 -11 -12 12 -14 16 15 -17 -18 25 23 20 -22 -23 -24 -25 -26 -27 -28 28 -30 -31
leaf_value=0.0015234380293264449 -0.0014906034112267986 -0.00040859306210423913 -0.0017897744086356115 0.0027059849289365889 0.00094983405361954987 -0.00076938918777724621 -0.0039105420553410507 -0.0037395822078713612 0.0018371320605000869 0.014862988576559082 -9.0186285093554253e-05 -0.015141904410998244 -0.0012178509354325926 -9.435021008054415e-05 -0.017603778009387581 0.0020860148022717644 -0.015954697954821163 -0.0064661209960468116 -0.0037703607029767406 -0.014964546132832766 0.01046563295467246 0.011386972727791574 0.0010083865710971071 -0.014343106713678154 -0.007179021311745251 -0.0016207465929560583 0.00074705618273124069 0.0040493970701382274 -0.015993147301136622 0.00027300644645511388
leaf_count=1652 2685 4900 3640 5868 741 3038 5322 1276 8307 112 23831 182 7396 108 132 683 367 336 2699 48 62 149 30957 140 219 3433 15117 63 199 19690
internal_value=0 -0.0173696 0.0222543 0.0363563 -0.063977 -0.0903308 -0.1214 -0.00733529 -0.00503131 -0.0232666 0.0135995 -0.025042 -0.0690465 -0.20206 -0.112141 -0.0348966 -0.411619 -0.00840381 -0.0654666 -0.329632 -0.0210391 0.0435837 0.0269647 -0.143058 0.0168273 0.00627733 0.0196739 -0.141711 -0.372459 -0.00162778
internal_count=143352 80512 62840 39510 14263 9363 6325 66249 64973 32835 32138 32723 8978 1582 1107 925 475 23745 4859 242 110 2020 33642 2839 1871 18886 15453 5584 262 23330
shrinkage=0.03


Tree=32
num_leaves=31
num_cat=0
split_feature=37 6 63 57 38 10 113 26 10 33 6 108 10 73 16 17 82 38 48 26 106 68 33 94 26 95 16 65 110 105
split_gain=49.2317 29.6115 26.8223 23.8036 22.4873 17.2029 18.5155 18.344 17.2089 19.6864 16.7109 15.0322 16.5122 17.4819 16.6782 14.9302 18.3355 14.6552 16.0135 14.3974 14.1607 13.7862 13.5553 14.8357 13.0442 15.6793 14.391 18.0081 14.1292 12.9863
threshold=1.6548500061035158 0.27233499288558966 0.89210498332977306 0.2489849999547005 -0.28927499055862421 0.34667499363422399 -0.1869850009679794 63.194999694824226 0.096875499933958067 -2.0556999444961543 0.28756499290466314 0.92735499143600475 0.49279500544071203 0.43754500150680548 7.3255999088287362 1.9286500215530398 0.0012243500095792117 -1.3057499527931211 1.7611500024795534 0.50939500331878673 2.2546499967575078 1.0019000172615053 10.085499763488771 -0.45671500265598292 0.93672999739646923 0.89432501792907726 7.3255999088287362 0.7991749942302705 -0.54215499758720387 0.3331149965524674
decision_type=2 2 2 2 2 2 2 2 2 2 2 2 2 2 2 2 2 2 2 2 2 2 2 2 2 2 2 2 2 2
left_child=2 4 15 17 11 6 -4 -7 9 -8 -11 12 13 14 -2 16 -1 18 -3 -6 -13 -10 23 -18 -5 26 -26 -28 -27 -24
right_child=1 3 5 24 19 7 8 -9 21 10 -12 20 -14 -15 -16 -17 22 -19 -20 -21 -22 -23 29 -25 25 28 27 -29 -30 -31
leaf_value=-0.00030361326856148256 -0.0073085763152815741 -0.0022967453513272284 0.0022868410794283536 -0.00049805386972585084 0.0023211364236249928 0.00033544803937571598 0.00039967012309200434 0.0090351373732906505 6.5164571491683405e-05 -0.0077456063907920276 -0.0020484834877696968 -0.0031221565420862778 0.00069814206522383969 0.0063324856783809327 -0.0014755030720463775 -9.5710393230377802e-05 0.0021606452095025092 -0.0043287607770719346 0.010634120244529267 -0.0037506629697240629 0.0027576966421145824 -0.0036569144879531924 -0.0039818834148098586 0.0050096847997061072 -0.0069281827165986326 0.00028871462195458541 -0.0067525451542828291 0.0018260196979162082 0.0023145462040516946 0.0026103686749496878
leaf_count=2877 495 252 1360 20257 379 55372 821 219 5043 1026 845 3735 5616 232 4056 4553 9579 1825 131 4839 409 1089 569 1986 421 8994 299 836 4727 510
internal_value=0 -0.0226435 0.015167 -0.00622334 -0.0540047 0.00540207 -0.0323824 0.012324 -0.049122 -0.115773 -0.17242 -0.0337983 -0.0135028 -0.0566816 -0.0703317 0.0471628 0.0619336 -0.10697 0.0708694 -0.110322 -0.0847278 -0.0198617 0.0783287 0.0883299 3.68272e-05 0.0220993 -0.0730339 -0.0144628 0.0328877 -0.0288663
internal_count=143352 57503 85849 37742 19761 65775 10184 55591 8824 2692 1871 14543 10399 4783 4551 20074 15521 2208 383 5218 4144 6132 12644 11565 35534 15277 1556 1135 13721 1079
shrinkage=0.03


Tree=33
num_leaves=31
num_cat=0
split_feature=18 68 56 95 57 104 18 15 5 15 79 44 6 15 82 3 9 82 10 30 0 95 32 22 13 15 49 6 45 105
split_gain=50.9772 26.8978 31.0927 24.0245 19.899 19.0492 17.5469 17.1432 19.9043 31.9288 16.4938 16.668 15.9574 15.7372 16.9076 18.0013 14.9812 14.6894 18.9479 17.8823 14.2516 13.8371 13.0641 14.1427 12.9052 15.2927 19.5582 14.898 12.8857 13.9347
threshold=15.500000000000002 1.0019000172615053 1.3729500174522402 0.97325497865676891 0.2537550032138825 1.6171500086784365 6.5000000000000009 0.76441499590873729 1.2724500298500063 3.4847500324249272 0.97512501478195202 0.91104501485824596 0.27271500229835516 1.718050003051758 0.035325499251484878 -0.21320000290870664 0.63474500179290783 0.054566498845815666 0.077566999942064299 -0.59826499223709095 3.3425000905990605 0.99683499336242687 1.2531500458717348 -1.458049952983856 3.6171499490737919 1.1680499911308291 3.9473999738693242 0.2399450019001961 0.97969999909400951 0.45224499702453619
decision_type=2 2 2 2 2 2 2 2 2 2 2 2 2 2 2 2 2 2 2 2 2 2 2 2 2 2 2 2 2 2
left_child=1 17 5 4 -2 6 24 10 -9 16 11 -8 21 -4 15 -15 -10 -1 19 -19 -6 -12 -5 -24 25 27 -27 -3 29 -25
right_child=3 2 13 22 20 -7 7 8 9 -11 12 -13 -14 14 -16 -17 -18 18 -20 -21 -22 -23 23 28 -26 26 -28 -29 -30 -31
leaf_value=-0.00016229255565585474 -0.001005041124289512 -0.0095398119726451108 -0.0023512390039332658 -0.00079115096263073588 0.0011599434469662998 -0.0053821791117335061 -0.00087695956844777081 0.00028002125046403589 0.005101180799109371 -0.012071253341953119 -0.0051825876102106674 0.0039346190419615058 -0.0013141717988574845 -0.0051272864252164523 -0.0026707755420531608 -0.014886667042827376 -0.0040450771124737476 0.0053035660209350809 0.0031830357354879378 -0.0048164283676226053 -0.00751794391426078 0.0016904076531824499 -0.0028357101968924203 0.00091132029068536626 0.0004057097091659236 -0.009759689733608445 -0.0010740227181875463 -0.00048188042378624325 -0.0031220086004761513 -0.0083684155588247336
leaf_count=21735 4340 192 2851 14629 43143 811 2823 17775 266 310 2029 841 5330 374 600 312 409 215 2625 584 171 303 1125 15701 804 670 358 1098 781 147
internal_value=0 -0.0212021 -0.0379388 0.0167724 0.0310544 -0.0279841 -0.0242861 -0.0168813 0.00166625 -0.136704 -0.0476027 0.00758149 -0.073992 -0.119798 -0.211631 -0.318865 -0.0146925 0.00418076 0.0650598 -0.0697759 0.0375228 -0.142986 -0.00424475 0.0139875 -0.0956444 -0.133509 -0.224497 -0.0610013 0.0213286 0.0275082
internal_count=143352 63315 38156 80037 47654 34019 33208 30086 18760 985 11326 3664 7662 4137 1286 686 675 25159 3424 799 43314 2332 32383 17754 3122 2318 1028 1290 16629 15848
shrinkage=0.03


Tree=34
num_leaves=31
num_cat=0
split_feature=69 6 82 15 17 0 15 12 7 4 16 17 86 7 56 89 34 21 56 16 89 113 60 29 39 15 32 25 45 5
split_gain=44.5684 31.7797 31.4829 23.358 19.5749 20.2247 18.4154 17.3498 17.2932 16.5014 16.0152 17.1436 18.0553 17.5178 15.242 16.1462 14.549 16.4931 15.8895 13.9943 17.205 16.9437 14.6294 13.88 13.7726 13.6039 13.5769 13.7265 13.4446 13.0639
threshold=1.0016999840736391 0.27457499504089361 0.054566498845815666 3.6129499673843388 2.2899000644683842 1.5365499854087832 95.929496765136733 0.97116500139236461 0.50003498792648327 1.375750005245209 5.5580501556396493 1.5396000146865847 -1.575949966907501 0.2684949934482575 0.23683999478816989 0.27600499987602239 1.2699499726295473 1.0000000180025095e-35 1.6473500132560732 14.622000217437746 0.30124500393867498 0.037979500368237502 0.8570849895477296 0.0035166000016033654 3.990650057792664 11.137000083923342 2.6593500375747685 0.29036499559879309 0.84050500392913829 0.27187499403953558
decision_type=2 2 2 2 2 2 2 2 2 2 2 2 2 2 2 2 2 2 2 2 2 2 2 2 2 2 2 2 2 2
left_child=2 3 4 14 8 -6 9 -4 10 -5 -1 12 -12 -13 15 -2 17 18 -10 20 22 29 -3 -16 26 -18 -25 -28 -7 -22
right_child=1 19 7 6 5 28 -8 -9 16 -11 11 13 -14 -15 23 -17 25 -19 -20 -21 21 -23 -24 24 -26 -27 27 -29 -30 -31
leaf_value=0.0040293783203522726 -0.0051668887722500882 -0.0038538437860325984 0.0015712594414606274 -0.0013960451625995506 -3.3639017772518945e-05 -0.0033839321505761692 0.002668840273495622 -0.013505339415177056 0.00080596989141730295 -0.010896633661245264 -0.0035208240833568879 -0.0085318558790213276 0.0014674302756786345 -0.0011822085200546186 0.0078023924265761624 0.0012566434813700215 0.0013881131021694934 -0.00065212965647611077 -0.0011927718691299818 0.0012350677122667439 -0.0039916192004892555 0.00080771745092386011 -0.00019618272531463383 -0.0030956225588171598 -0.020020650387907932 -0.00084994399281125284 0.016135555317655936 0.00020496247328539606 -0.0003778666838787604 0.00040958547253596816
